{"sizes":[145,8,8,1],"layers":[{"0":{},"1":{},"2":{},"3":{},"4":{},"5":{},"6":{},"7":{},"8":{},"9":{},"10":{},"11":{},"12":{},"13":{},"14":{},"15":{},"16":{},"17":{},"18":{},"19":{},"20":{},"21":{},"22":{},"23":{},"24":{},"25":{},"26":{},"27":{},"28":{},"29":{},"30":{},"31":{},"32":{},"33":{},"34":{},"35":{},"36":{},"37":{},"38":{},"39":{},"40":{},"41":{},"42":{},"43":{},"44":{},"45":{},"46":{},"47":{},"48":{},"49":{},"50":{},"51":{},"52":{},"53":{},"54":{},"55":{},"56":{},"57":{},"58":{},"59":{},"60":{},"61":{},"62":{},"63":{},"64":{},"65":{},"66":{},"67":{},"68":{},"69":{},"70":{},"71":{},"72":{},"73":{},"74":{},"75":{},"76":{},"77":{},"78":{},"79":{},"80":{},"81":{},"82":{},"83":{},"84":{},"85":{},"86":{},"87":{},"88":{},"89":{},"90":{},"91":{},"92":{},"93":{},"94":{},"95":{},"96":{},"97":{},"98":{},"99":{},"100":{},"101":{},"102":{},"103":{},"104":{},"105":{},"106":{},"107":{},"108":{},"109":{},"110":{},"111":{},"112":{},"113":{},"114":{},"115":{},"116":{},"117":{},"118":{},"119":{},"120":{},"121":{},"122":{},"123":{},"124":{},"125":{},"126":{},"127":{},"128":{},"129":{},"130":{},"131":{},"132":{},"133":{},"134":{},"135":{},"136":{},"137":{},"138":{},"139":{},"140":{},"141":{},"142":{},"143":{},"144":{}},{"0":{"bias":0.3133200407028198,"weights":{"0":-1.0066723823547363,"1":-1.5710090398788452,"2":-0.658376157283783,"3":0.8546468615531921,"4":1.1980961561203003,"5":-0.583739697933197,"6":1.904764175415039,"7":1.306846022605896,"8":-3.5098631381988525,"9":0.15857021510601044,"10":-0.5089339017868042,"11":-0.17640791833400726,"12":-0.36911025643348694,"13":-0.029422366991639137,"14":-0.08153107762336731,"15":0.10698425769805908,"16":-0.6800039410591125,"17":0.4326705038547516,"18":0.4582255780696869,"19":-0.0996653363108635,"20":-0.9686601161956787,"21":-1.6114522218704224,"22":-0.635836660861969,"23":0.11717341840267181,"24":0.5511109828948975,"25":0.45990145206451416,"26":-0.2119532823562622,"27":-1.0868849754333496,"28":0.3964053690433502,"29":1.4295519590377808,"30":1.042375922203064,"31":0.6717431545257568,"32":0.7271080613136292,"33":-0.9058653116226196,"34":-0.3210909366607666,"35":-0.32660871744155884,"36":-1.1463181972503662,"37":1.6979782581329346,"38":-0.6208794116973877,"39":-0.20267295837402344,"40":0.07626909762620926,"41":1.623108148574829,"42":-1.205129861831665,"43":-0.8546940684318542,"44":0.0621279776096344,"45":-0.8918014168739319,"46":0.5581739544868469,"47":-1.0253822803497314,"48":-0.4054487347602844,"49":1.1142181158065796,"50":0.6206212043762207,"51":0.188594251871109,"52":-0.09870925545692444,"53":-0.19026586413383484,"54":-0.1330018937587738,"55":-0.38618022203445435,"56":-1.7921935319900513,"57":-0.24304556846618652,"58":1.40693199634552,"59":0.8112351298332214,"60":1.1056431531906128,"61":0.4314097762107849,"62":0.974271833896637,"63":-0.36002519726753235,"64":-0.00393071910366416,"65":-1.2505487203598022,"66":0.16125698387622833,"67":-0.2332359105348587,"68":-0.4161052107810974,"69":-0.19961215555667877,"70":1.451825499534607,"71":-2.041735887527466,"72":-0.35106247663497925,"73":-0.0949750766158104,"74":0.5228301286697388,"75":0.6700112223625183,"76":-0.16426269710063934,"77":0.6502891182899475,"78":0.7000053524971008,"79":-0.38797643780708313,"80":-0.5360164046287537,"81":0.8146189451217651,"82":0.2733857035636902,"83":-1.6090233325958252,"84":-0.01535404846072197,"85":-1.3935718536376953,"86":0.3337838053703308,"87":-0.7100641131401062,"88":-0.14613628387451172,"89":0.022528821602463722,"90":1.4214614629745483,"91":-0.6597714424133301,"92":-0.6250495910644531,"93":-0.16081459820270538,"94":3.4962351322174072,"95":-0.9202436208724976,"96":0.5527305603027344,"97":0.024131475016474724,"98":0.38995301723480225,"99":0.28963416814804077,"100":0.6438054442405701,"101":0.5921381115913391,"102":0.2072407454252243,"103":-0.195926234126091,"104":0.5156219005584717,"105":1.6095889806747437,"106":0.14430227875709534,"107":-1.1474404335021973,"108":0.7290714383125305,"109":1.434454083442688,"110":-0.2834351658821106,"111":-0.18292206525802612,"112":0.4608829617500305,"113":-0.3127506971359253,"114":-0.9640533328056335,"115":-0.012094751000404358,"116":0.014621229842305183,"117":-1.2637377977371216,"118":-0.43805602192878723,"119":-1.669674277305603,"120":0.7200836539268494,"121":-0.400139182806015,"122":1.3699942827224731,"123":0.31090742349624634,"124":0.5022223591804504,"125":1.8401936292648315,"126":0.37652742862701416,"127":1.5681885480880737,"128":-0.8023472428321838,"129":0.6128995418548584,"130":-0.06038634851574898,"131":0.25488537549972534,"132":-0.32857435941696167,"133":0.2979908287525177,"134":-0.6591557860374451,"135":0.4355751574039459,"136":-2.0278987884521484,"137":0.5810028910636902,"138":3.066847801208496,"139":0.2838163673877716,"140":-1.1988407373428345,"141":-2.0878398418426514,"142":-0.5149126052856445,"143":-1.2216975688934326,"144":0.049579259008169174}},"1":{"bias":0.38929301500320435,"weights":{"0":-1.5288190841674805,"1":-1.2842975854873657,"2":3.845928192138672,"3":0.4615470767021179,"4":-1.1424198150634766,"5":-0.06794534623622894,"6":0.2960878908634186,"7":0.3188382387161255,"8":0.4596816301345825,"9":-0.951001763343811,"10":-1.4543967247009277,"11":0.03878418728709221,"12":-2.2407009601593018,"13":0.7558175325393677,"14":0.6858471035957336,"15":0.7574156522750854,"16":0.1865789145231247,"17":1.0022958517074585,"18":0.82685387134552,"19":0.05822053551673889,"20":-1.3192824125289917,"21":0.3889421820640564,"22":0.7991685271263123,"23":0.07272286713123322,"24":-0.025427957996726036,"25":-0.043079156428575516,"26":-0.042669475078582764,"27":0.5190600156784058,"28":0.6570678949356079,"29":-2.1134159564971924,"30":1.3004556894302368,"31":-0.5850427150726318,"32":-0.45654863119125366,"33":3.7130985260009766,"34":-0.27527764439582825,"35":1.5154224634170532,"36":-0.7201935648918152,"37":1.5905287265777588,"38":1.1366889476776123,"39":0.5759623050689697,"40":-0.24388711154460907,"41":0.21105074882507324,"42":-0.8903324007987976,"43":-0.9720296859741211,"44":0.20634058117866516,"45":0.4840870499610901,"46":0.15583838522434235,"47":-0.9350365996360779,"48":-0.045913368463516235,"49":-1.3639755249023438,"50":-0.2881503105163574,"51":-1.7503609657287598,"52":0.19025886058807373,"53":0.31880030035972595,"54":0.6491184830665588,"55":0.009850847534835339,"56":1.128973126411438,"57":-0.5352016687393188,"58":-1.8856910467147827,"59":-1.0396682024002075,"60":1.7015866041183472,"61":0.3330971300601959,"62":1.5113171339035034,"63":-0.43237555027008057,"64":-1.0883394479751587,"65":-0.7985286116600037,"66":1.125333547592163,"67":0.8363262414932251,"68":0.9531574845314026,"69":0.0993431881070137,"70":-0.9838569164276123,"71":0.9309205412864685,"72":-1.4126437902450562,"73":0.18916192650794983,"74":0.4608049988746643,"75":-0.9786185622215271,"76":0.8656834959983826,"77":-0.12550683319568634,"78":-0.7234277725219727,"79":0.7282135486602783,"80":-0.6877390146255493,"81":-0.5209013223648071,"82":-1.3931399583816528,"83":-0.5029585361480713,"84":-0.26505473256111145,"85":1.1113721132278442,"86":-0.014680072665214539,"87":-0.16941632330417633,"88":-0.3566705286502838,"89":-0.5403699278831482,"90":1.1930146217346191,"91":1.308667540550232,"92":0.05188070237636566,"93":0.30749765038490295,"94":-0.00857552420347929,"95":-1.5807268619537354,"96":0.6349300742149353,"97":0.018104078248143196,"98":-0.625878095626831,"99":1.3710923194885254,"100":1.8353374004364014,"101":-0.04874499514698982,"102":-1.914099097251892,"103":0.20222215354442596,"104":-1.229849934577942,"105":0.321248859167099,"106":0.7627487182617188,"107":-0.10264873504638672,"108":1.9186338186264038,"109":0.7411430478096008,"110":0.6474269032478333,"111":-0.6984182000160217,"112":-2.0642940998077393,"113":-0.24140094220638275,"114":0.621675968170166,"115":0.03868236392736435,"116":0.6558288931846619,"117":0.09021143615245819,"118":-0.4829454720020294,"119":-0.25517982244491577,"120":-0.6291487812995911,"121":-0.5660260915756226,"122":1.3407708406448364,"123":-0.0233613234013319,"124":0.15539702773094177,"125":0.42683708667755127,"126":-0.3180322051048279,"127":0.2743929922580719,"128":-0.01790524087846279,"129":0.01360170915722847,"130":0.5162907242774963,"131":-0.13573040068149567,"132":0.41465914249420166,"133":-0.31691285967826843,"134":0.4150524139404297,"135":-0.5222766399383545,"136":0.05164438113570213,"137":2.0993213653564453,"138":2.3427746295928955,"139":-0.5239831209182739,"140":-1.127549171447754,"141":0.04738325998187065,"142":-0.2391972541809082,"143":0.44708824157714844,"144":0.32916244864463806}},"2":{"bias":1.7319321632385254,"weights":{"0":2.690988540649414,"1":0.37402334809303284,"2":-2.28790283203125,"3":-0.3233966529369354,"4":-1.3133394718170166,"5":0.25470227003097534,"6":1.4737259149551392,"7":-0.8268546462059021,"8":-2.078151226043701,"9":-0.6864970326423645,"10":-0.4165720045566559,"11":0.018811048939824104,"12":1.3889365196228027,"13":-0.6725513935089111,"14":0.4328838884830475,"15":0.10414722561836243,"16":0.29432186484336853,"17":0.8183865547180176,"18":0.17498721182346344,"19":-0.26142430305480957,"20":-0.3360636234283447,"21":-0.9015150666236877,"22":0.3217962086200714,"23":0.14587347209453583,"24":-0.6869410276412964,"25":0.22248131036758423,"26":-1.3292676210403442,"27":-0.016475340351462364,"28":0.07884900271892548,"29":1.8112212419509888,"30":-0.38861384987831116,"31":0.1998157501220703,"32":0.9791485071182251,"33":0.22269532084465027,"34":0.5921778678894043,"35":-0.5780766606330872,"36":0.4833170473575592,"37":0.06329631060361862,"38":0.14263147115707397,"39":-0.35171255469322205,"40":-0.7113321423530579,"41":-0.338925838470459,"42":0.8488087058067322,"43":1.227640986442566,"44":-0.0010455029550939798,"45":-1.3894628286361694,"46":-0.049343276768922806,"47":-0.8387877941131592,"48":-0.1173301488161087,"49":0.861944854259491,"50":0.648017942905426,"51":0.2592407464981079,"52":1.014121651649475,"53":1.0329705476760864,"54":0.91344153881073,"55":-0.8399576544761658,"56":-0.34469476342201233,"57":0.6364014148712158,"58":0.070726677775383,"59":1.0511051416397095,"60":-1.5602725744247437,"61":-0.12012477964162827,"62":0.0049537490122020245,"63":-0.34145206212997437,"64":0.3145277798175812,"65":0.8723251819610596,"66":0.7592897415161133,"67":-0.759875476360321,"68":0.143239825963974,"69":0.052364740520715714,"70":0.9199631810188293,"71":0.4360532760620117,"72":-0.6713181138038635,"73":0.12256086617708206,"74":0.10509463399648666,"75":0.027089295908808708,"76":-0.9301810264587402,"77":0.2625351846218109,"78":-1.5869158506393433,"79":-0.04382505640387535,"80":-1.0973232984542847,"81":1.2425960302352905,"82":0.2227698117494583,"83":-0.9670330882072449,"84":-0.8263830542564392,"85":-0.2630068361759186,"86":0.7408612370491028,"87":0.21456165611743927,"88":0.0622628889977932,"89":0.671299397945404,"90":-0.6496902704238892,"91":-0.8264034986495972,"92":0.37572285532951355,"93":-1.2268965244293213,"94":0.854267418384552,"95":-0.6333218812942505,"96":-0.2893926501274109,"97":0.6449093818664551,"98":-0.9536699056625366,"99":-1.0220390558242798,"100":1.0750333070755005,"101":-0.1632416993379593,"102":-0.8863548636436462,"103":0.2378498911857605,"104":-0.11304668337106705,"105":1.3756024837493896,"106":0.46414950489997864,"107":-0.015063688158988953,"108":-1.061328411102295,"109":-0.33704808354377747,"110":1.2915400266647339,"111":2.180959939956665,"112":1.7198846340179443,"113":-0.26523852348327637,"114":0.13851235806941986,"115":0.304757297039032,"116":-0.06960362195968628,"117":0.17147880792617798,"118":-3.553661584854126,"119":0.07970502227544785,"120":0.6968945860862732,"121":-0.16029903292655945,"122":-0.5556550025939941,"123":0.07509027421474457,"124":0.1565406173467636,"125":-0.6265149116516113,"126":-2.155573844909668,"127":-2.0655806064605713,"128":-0.3301876187324524,"129":0.9256030917167664,"130":0.5223197340965271,"131":-0.24743272364139557,"132":1.4535253047943115,"133":0.2792102098464966,"134":-1.0627532005310059,"135":-0.8849034905433655,"136":-0.30859318375587463,"137":-0.13523951172828674,"138":0.29420530796051025,"139":-0.03074813447892666,"140":-0.3910447061061859,"141":1.104638695716858,"142":-0.02233448624610901,"143":-0.9005475044250488,"144":-0.45016101002693176}},"3":{"bias":0.34113872051239014,"weights":{"0":2.9297940731048584,"1":0.9516937732696533,"2":-0.15254493057727814,"3":-0.07127312570810318,"4":-1.227402925491333,"5":0.2868404984474182,"6":0.7278566956520081,"7":0.0885956734418869,"8":0.4331037700176239,"9":-0.02857848070561886,"10":0.9187331199645996,"11":-0.857129693031311,"12":-1.0855250358581543,"13":-0.1863831728696823,"14":0.7396220564842224,"15":0.4351857900619507,"16":0.18218348920345306,"17":-0.9954315423965454,"18":-1.0031405687332153,"19":0.8688756227493286,"20":0.8892623782157898,"21":1.7495445013046265,"22":0.13210450112819672,"23":-0.14498558640480042,"24":-1.2273612022399902,"25":-1.1332348585128784,"26":-0.6654006242752075,"27":1.9161545038223267,"28":0.11476417630910873,"29":-1.4526185989379883,"30":-0.11287397146224976,"31":-0.15335752069950104,"32":0.2738492786884308,"33":-0.36459264159202576,"34":0.48078033328056335,"35":1.0737987756729126,"36":0.0809437483549118,"37":-1.2675142288208008,"38":-0.8301929831504822,"39":-0.17323650419712067,"40":-0.9277844429016113,"41":0.08193091303110123,"42":1.1317447423934937,"43":-0.04762681946158409,"44":-0.3255796432495117,"45":0.9911555051803589,"46":-0.673609733581543,"47":-0.1985209435224533,"48":0.6856468319892883,"49":0.04119202867150307,"50":1.6404019594192505,"51":-1.2224338054656982,"52":0.5669315457344055,"53":-0.563423752784729,"54":-1.3569271564483643,"55":-0.7237077951431274,"56":0.1473609060049057,"57":-0.8055538535118103,"58":0.36834216117858887,"59":-0.2691851556301117,"60":-0.10031509399414062,"61":-0.12103015929460526,"62":1.1446353197097778,"63":0.34353405237197876,"64":-0.46019479632377625,"65":0.5479859113693237,"66":-0.4177742302417755,"67":0.3682287037372589,"68":-0.5204418897628784,"69":0.11007051914930344,"70":1.9498505592346191,"71":0.7491454482078552,"72":0.7933001518249512,"73":0.24662908911705017,"74":-0.24122203886508942,"75":0.149726003408432,"76":-0.031222499907016754,"77":0.05725027620792389,"78":-1.6526118516921997,"79":0.06296102702617645,"80":0.19335182011127472,"81":-0.3620906174182892,"82":-0.9768280386924744,"83":-0.28644299507141113,"84":-0.7652327418327332,"85":1.8503453731536865,"86":0.06317970901727676,"87":-1.582636833190918,"88":0.3205568492412567,"89":-1.2457343339920044,"90":0.6184369921684265,"91":-0.5401199460029602,"92":0.5214462280273438,"93":-0.8820241093635559,"94":1.4151681661605835,"95":-0.13459216058254242,"96":0.3583500385284424,"97":-0.5360701680183411,"98":-0.34325700998306274,"99":-1.2153180837631226,"100":-0.5013895034790039,"101":-0.3467324674129486,"102":-0.23573407530784607,"103":-0.19198426604270935,"104":0.5452642440795898,"105":1.3548688888549805,"106":0.4866076409816742,"107":1.8543527126312256,"108":1.3528831005096436,"109":1.6781032085418701,"110":-0.15960052609443665,"111":0.24944718182086945,"112":0.8900367021560669,"113":-0.720892071723938,"114":1.8847503662109375,"115":-0.2757644057273865,"116":0.6564260721206665,"117":-0.4468642771244049,"118":-1.4959989786148071,"119":-1.2784253358840942,"120":-0.2281566858291626,"121":0.7210104465484619,"122":-1.3706904649734497,"123":0.15679532289505005,"124":-0.7600024938583374,"125":1.1366145610809326,"126":-1.3354744911193848,"127":0.19167540967464447,"128":-2.4532251358032227,"129":0.11724918335676193,"130":-0.5160348415374756,"131":0.7556111216545105,"132":-0.5731326341629028,"133":0.2960982322692871,"134":1.2739096879959106,"135":0.8007743954658508,"136":0.47360798716545105,"137":-0.5122984647750854,"138":2.505640745162964,"139":0.0594400130212307,"140":0.09063820540904999,"141":0.382545530796051,"142":-0.6042765378952026,"143":0.5061438679695129,"144":-0.35373592376708984}},"4":{"bias":-0.6271645426750183,"weights":{"0":-0.07239234447479248,"1":-0.37031397223472595,"2":0.01769053377211094,"3":0.419944167137146,"4":-0.42793983221054077,"5":0.08767116814851761,"6":-3.796877861022949,"7":0.49390101432800293,"8":0.23363342881202698,"9":0.19131068885326385,"10":-0.009942158125340939,"11":-0.3382192552089691,"12":-2.615917205810547,"13":1.277757167816162,"14":0.6798146367073059,"15":-0.67793869972229,"16":-0.2957416772842407,"17":1.5401440858840942,"18":-1.0778477191925049,"19":0.40683671832084656,"20":0.011141692288219929,"21":1.3488438129425049,"22":1.1895748376846313,"23":-0.9375779032707214,"24":-1.388386845588684,"25":-0.20920974016189575,"26":-0.41365399956703186,"27":0.2512965202331543,"28":0.13690856099128723,"29":-0.11348674446344376,"30":0.799204409122467,"31":-0.8212869167327881,"32":-0.1529473513364792,"33":-0.1803763061761856,"34":0.2280513495206833,"35":0.7889642715454102,"36":-1.0720469951629639,"37":1.3143259286880493,"38":-1.8272608518600464,"39":-0.1951073855161667,"40":0.7081828713417053,"41":0.4264495074748993,"42":1.1592974662780762,"43":-0.2862440347671509,"44":0.18760435283184052,"45":0.37236154079437256,"46":0.5287235379219055,"47":0.9836809635162354,"48":0.5099038481712341,"49":-0.7049878239631653,"50":-0.1695808470249176,"51":-3.137965679168701,"52":-0.04361441358923912,"53":-0.11131788790225983,"54":-0.9636419415473938,"55":-0.17320317029953003,"56":0.1823369860649109,"57":-0.6635489463806152,"58":1.9648925065994263,"59":-0.7759411334991455,"60":-1.3176347017288208,"61":-0.6518946290016174,"62":1.4090203046798706,"63":-0.2539660334587097,"64":-0.3711014986038208,"65":-0.05556873232126236,"66":-1.6541627645492554,"67":-0.04946199059486389,"68":0.4911001920700073,"69":0.3057704269886017,"70":1.1115775108337402,"71":-1.5388641357421875,"72":0.3677747845649719,"73":0.6761358976364136,"74":-0.009699101559817791,"75":-0.06200702115893364,"76":-0.38576844334602356,"77":-0.06220920756459236,"78":2.0229625701904297,"79":-3.0457959175109863,"80":-1.8603219985961914,"81":-1.4791747331619263,"82":-1.2834601402282715,"83":0.6462220549583435,"84":-0.025272222235798836,"85":-0.09858570247888565,"86":-0.3959505558013916,"87":-1.1079074144363403,"88":0.3168373703956604,"89":-1.3001726865768433,"90":0.3740028142929077,"91":-0.9769690632820129,"92":0.054940227419137955,"93":1.3867957592010498,"94":1.0046812295913696,"95":-0.5767006278038025,"96":-0.7931346297264099,"97":-1.0881880521774292,"98":-0.5172101855278015,"99":0.8801955580711365,"100":-0.9696900248527527,"101":-1.078487515449524,"102":1.0800665616989136,"103":0.45525702834129333,"104":-0.574910044670105,"105":1.4312617778778076,"106":-0.30413493514060974,"107":-2.14441180229187,"108":2.1003706455230713,"109":-0.06317843496799469,"110":-0.45120522379875183,"111":0.13731737434864044,"112":0.15168923139572144,"113":-0.03164362162351608,"114":0.16728192567825317,"115":0.7516086101531982,"116":-0.37592798471450806,"117":0.06248015537858009,"118":-0.663936197757721,"119":-0.7813820838928223,"120":-1.456120491027832,"121":-0.5100194811820984,"122":0.7824917435646057,"123":1.8045341968536377,"124":-0.747741162776947,"125":-0.31151309609413147,"126":1.2372173070907593,"127":0.10909508913755417,"128":0.13021522760391235,"129":-0.3070113956928253,"130":-0.7542023658752441,"131":-0.08702711760997772,"132":0.941834568977356,"133":-0.10231440514326096,"134":-1.9846138954162598,"135":0.515343964099884,"136":-0.19107410311698914,"137":1.278670310974121,"138":0.029709871858358383,"139":1.0797260999679565,"140":1.7097773551940918,"141":-0.33979174494743347,"142":0.2827169895172119,"143":1.60511314868927,"144":0.7937800288200378}},"5":{"bias":-0.25922635197639465,"weights":{"0":-0.09929836541414261,"1":-0.7689836621284485,"2":0.10752063989639282,"3":-0.35331958532333374,"4":-1.3738325834274292,"5":0.2079627364873886,"6":0.07628554850816727,"7":0.6389376521110535,"8":1.5605334043502808,"9":-0.2535912096500397,"10":-1.17446768283844,"11":0.9842077493667603,"12":0.16996130347251892,"13":0.27853405475616455,"14":-1.8579055070877075,"15":0.16131211817264557,"16":1.181272029876709,"17":0.02671797201037407,"18":0.7164604067802429,"19":1.7142735719680786,"20":0.6003078818321228,"21":-0.015502115711569786,"22":1.6188520193099976,"23":-1.4898126125335693,"24":-0.9818385243415833,"25":1.2513467073440552,"26":0.07309544831514359,"27":1.2559298276901245,"28":-0.26084089279174805,"29":0.5583403706550598,"30":0.4909191131591797,"31":0.26059722900390625,"32":1.5597002506256104,"33":-0.195714071393013,"34":0.09935673326253891,"35":-0.7409260869026184,"36":0.8609507083892822,"37":0.06968457996845245,"38":-0.16865870356559753,"39":0.6341081857681274,"40":-0.22665521502494812,"41":-2.349154472351074,"42":0.9482414722442627,"43":-0.6188911199569702,"44":-0.7736858129501343,"45":-0.21371078491210938,"46":0.31074199080467224,"47":-1.186294436454773,"48":0.8447501063346863,"49":-0.45166894793510437,"50":1.2434455156326294,"51":-0.1560649424791336,"52":-0.9051863551139832,"53":-1.5131279230117798,"54":-0.7256147861480713,"55":0.049767643213272095,"56":1.7064459323883057,"57":0.8621251583099365,"58":-0.14198090136051178,"59":0.23957690596580505,"60":-0.6710311770439148,"61":0.20498451590538025,"62":3.5533666610717773,"63":0.034498006105422974,"64":1.395102620124817,"65":1.3447049856185913,"66":0.21948842704296112,"67":0.450766921043396,"68":-0.6130053400993347,"69":0.7200982570648193,"70":-3.140331983566284,"71":1.2729562520980835,"72":-0.31789183616638184,"73":-0.43579941987991333,"74":0.07727612555027008,"75":0.6912183165550232,"76":-1.8520519733428955,"77":1.2809792757034302,"78":-0.16282516717910767,"79":-0.20894157886505127,"80":-1.2330564260482788,"81":0.10849523544311523,"82":-0.12527377903461456,"83":-0.9739161133766174,"84":-0.002850497607141733,"85":-0.8197507262229919,"86":-1.3410685062408447,"87":1.9082924127578735,"88":0.6889513731002808,"89":0.5079226493835449,"90":0.8950226902961731,"91":-1.003002643585205,"92":0.19901303946971893,"93":-1.8747706413269043,"94":-0.11961538344621658,"95":-0.6600837707519531,"96":-1.5132113695144653,"97":-1.064628005027771,"98":-1.842371940612793,"99":3.777653455734253,"100":1.251438021659851,"101":0.5014165043830872,"102":-0.9935078620910645,"103":0.088776595890522,"104":0.6676456928253174,"105":0.1060904860496521,"106":1.0080081224441528,"107":-0.578278124332428,"108":0.534580409526825,"109":-1.773254632949829,"110":0.2877735495567322,"111":0.12672863900661469,"112":-0.8208423256874084,"113":0.049965258687734604,"114":-0.5446551442146301,"115":0.1855737864971161,"116":0.24130095541477203,"117":-0.10397268831729889,"118":1.2834481000900269,"119":0.6998237371444702,"120":-1.4181392192840576,"121":0.33367490768432617,"122":-0.11499214917421341,"123":-0.68321293592453,"124":-1.1659797430038452,"125":-0.4325084090232849,"126":-1.2192435264587402,"127":0.18094651401042938,"128":1.266704797744751,"129":1.7208809852600098,"130":0.09219717234373093,"131":0.770767867565155,"132":-0.3694141209125519,"133":0.761174201965332,"134":0.2761225700378418,"135":0.304129034280777,"136":-0.07914305478334427,"137":1.3357864618301392,"138":1.006848692893982,"139":-0.09080798923969269,"140":-0.4128233790397644,"141":-0.17288820445537567,"142":-0.033526889979839325,"143":1.051935076713562,"144":-0.7497325539588928}},"6":{"bias":0.024091267958283424,"weights":{"0":0.7944188714027405,"1":0.4760080873966217,"2":1.597937822341919,"3":-0.0695609301328659,"4":1.2020827531814575,"5":0.6172450184822083,"6":-0.8839964270591736,"7":0.4250360429286957,"8":-2.295315742492676,"9":0.14773127436637878,"10":-0.326815664768219,"11":-0.8569095134735107,"12":3.304976224899292,"13":-0.31970158219337463,"14":-0.7334237694740295,"15":-0.3376174569129944,"16":0.2695441246032715,"17":1.1980434656143188,"18":-1.524828553199768,"19":1.0625680685043335,"20":-0.555732250213623,"21":-1.409631609916687,"22":-0.683593213558197,"23":-0.30596187710762024,"24":-0.39988306164741516,"25":-0.47318148612976074,"26":-0.584551990032196,"27":1.691137671470642,"28":-0.3447535037994385,"29":2.0946271419525146,"30":-0.1415299028158188,"31":-0.6989511847496033,"32":0.9336435794830322,"33":-2.5190279483795166,"34":0.8158388137817383,"35":0.5709565877914429,"36":0.6777950525283813,"37":0.3283149302005768,"38":-0.6289627552032471,"39":-2.030393600463867,"40":-0.6776251792907715,"41":0.026502247899770737,"42":-0.5836647152900696,"43":-2.218517303466797,"44":0.25936955213546753,"45":-0.5606936812400818,"46":0.8732352256774902,"47":0.6028227210044861,"48":0.4443871080875397,"49":1.5428959131240845,"50":0.35483187437057495,"51":2.183377265930176,"52":-0.39587920904159546,"53":-0.7466968894004822,"54":-0.6507750153541565,"55":-0.9530690312385559,"56":-0.9329296946525574,"57":0.7611539959907532,"58":0.8305065035820007,"59":0.7754074931144714,"60":-3.690477132797241,"61":1.0987712144851685,"62":1.9896427392959595,"63":0.18927216529846191,"64":0.007457607891410589,"65":1.4804003238677979,"66":0.528743326663971,"67":0.9544634819030762,"68":-0.007023013196885586,"69":-0.8625161051750183,"70":0.680719256401062,"71":-1.4303538799285889,"72":-1.094321370124817,"73":0.9159148931503296,"74":0.015854177996516228,"75":0.8977948427200317,"76":-1.4737111330032349,"77":1.1697784662246704,"78":0.11691959202289581,"79":1.4399266242980957,"80":0.4791339039802551,"81":-0.01596069522202015,"82":-0.6815260648727417,"83":-1.5863304138183594,"84":-0.9412442445755005,"85":0.584190845489502,"86":0.48188695311546326,"87":0.9671748876571655,"88":0.5296709537506104,"89":-0.04661454260349274,"90":0.85142982006073,"91":0.7645915150642395,"92":0.6995378136634827,"93":-0.7015973925590515,"94":-0.3706887662410736,"95":2.0104310512542725,"96":-0.9078086018562317,"97":-1.735127329826355,"98":-0.43372273445129395,"99":-1.0848326683044434,"100":-0.4645402133464813,"101":0.3475436866283417,"102":-0.6893194317817688,"103":0.4059860408306122,"104":0.23172996938228607,"105":0.026568418368697166,"106":-0.16476017236709595,"107":4.734091758728027,"108":0.08651119470596313,"109":-0.08624348044395447,"110":-1.3810551166534424,"111":-2.426699638366699,"112":-0.5655404329299927,"113":-0.8375928401947021,"114":0.19584785401821136,"115":-0.7802989482879639,"116":0.08687716722488403,"117":0.7395401000976562,"118":-0.2237001210451126,"119":-0.5253178477287292,"120":-0.7241527438163757,"121":0.3215456008911133,"122":-1.7478185892105103,"123":-0.4576289653778076,"124":-1.863041639328003,"125":0.46644869446754456,"126":0.007228320464491844,"127":0.42130059003829956,"128":-2.0541253089904785,"129":-0.18065336346626282,"130":-0.9111707806587219,"131":0.47120192646980286,"132":0.14465110003948212,"133":0.19540879130363464,"134":1.4694162607192993,"135":0.13301686942577362,"136":-0.8752179741859436,"137":0.3683910369873047,"138":2.2552671432495117,"139":-0.6203528046607971,"140":-0.7158522605895996,"141":0.5829901695251465,"142":-0.24136202037334442,"143":-0.948849081993103,"144":-0.9572546482086182}},"7":{"bias":1.2464215755462646,"weights":{"0":1.1880279779434204,"1":0.5452994704246521,"2":0.11777050048112869,"3":0.44190075993537903,"4":-0.2836757004261017,"5":0.08180171251296997,"6":1.142699956893921,"7":-0.7005635499954224,"8":-0.08369868248701096,"9":-0.17851103842258453,"10":-1.3893320560455322,"11":-1.3081789016723633,"12":1.779442548751831,"13":0.3793008327484131,"14":1.9209506511688232,"15":-0.6205999851226807,"16":0.03568749502301216,"17":-0.21002547442913055,"18":0.4638805389404297,"19":-0.07153483480215073,"20":-2.2723917961120605,"21":-1.1723967790603638,"22":1.2374212741851807,"23":1.0104066133499146,"24":0.7547636032104492,"25":-0.2472359985113144,"26":-0.4609326422214508,"27":1.2918294668197632,"28":-0.7015617489814758,"29":-0.9702050685882568,"30":-0.8855910301208496,"31":0.35877329111099243,"32":-0.71473228931427,"33":0.4185834527015686,"34":-0.006857922300696373,"35":0.083930104970932,"36":-3.4690051078796387,"37":-1.17849600315094,"38":0.5087254047393799,"39":0.07246080785989761,"40":-0.05244918167591095,"41":0.4817774295806885,"42":0.3162217438220978,"43":-0.48171019554138184,"44":-0.165096253156662,"45":1.03096342086792,"46":-0.14680223166942596,"47":0.4959208071231842,"48":-0.5147776007652283,"49":0.9067323803901672,"50":-3.021134853363037,"51":0.39156147837638855,"52":0.1969393789768219,"53":-0.9961991906166077,"54":-1.2968049049377441,"55":-0.20335614681243896,"56":-0.5051417350769043,"57":0.5613969564437866,"58":-0.46153029799461365,"59":-0.3947807550430298,"60":-0.9571489691734314,"61":0.09646324813365936,"62":2.279660701751709,"63":0.33783718943595886,"64":-0.313679963350296,"65":0.8332962393760681,"66":-0.7507341504096985,"67":0.1149078905582428,"68":0.17612510919570923,"69":-1.4569207429885864,"70":1.8338112831115723,"71":-0.03034166432917118,"72":-1.3776376247406006,"73":-0.15149247646331787,"74":-0.13162662088871002,"75":-0.3611868917942047,"76":0.1789618730545044,"77":0.004194239154458046,"78":-0.40704697370529175,"79":0.3233896791934967,"80":-1.4555915594100952,"81":0.6281515955924988,"82":-0.23123642802238464,"83":-0.44306913018226624,"84":-0.42256245017051697,"85":1.4914615154266357,"86":1.6183655261993408,"87":0.8247732520103455,"88":-0.7149372100830078,"89":1.287101149559021,"90":-0.3276495933532715,"91":0.4843631982803345,"92":0.04852580279111862,"93":0.9736717939376831,"94":-1.8201398849487305,"95":-0.9611430168151855,"96":-0.15480561554431915,"97":0.7686840891838074,"98":-1.6988816261291504,"99":-2.0344836711883545,"100":1.5267934799194336,"101":-0.5064476132392883,"102":-0.2943549156188965,"103":0.07899174839258194,"104":0.32388389110565186,"105":0.7668911218643188,"106":0.13614684343338013,"107":1.2418240308761597,"108":0.5787453651428223,"109":-1.5733381509780884,"110":0.8729255199432373,"111":0.853852391242981,"112":0.4876803755760193,"113":-0.43535155057907104,"114":0.4660211503505707,"115":0.24307718873023987,"116":-1.817569375038147,"117":2.7137389183044434,"118":-0.47087132930755615,"119":0.1425534337759018,"120":-0.6316752433776855,"121":0.3142215311527252,"122":-1.1666630506515503,"123":-1.5413202047348022,"124":-0.4374748170375824,"125":0.07445327192544937,"126":-0.09643259644508362,"127":-2.359922170639038,"128":-0.5646530985832214,"129":0.4847007989883423,"130":0.9584607481956482,"131":0.4450729191303253,"132":0.38270944356918335,"133":-0.2671678364276886,"134":-0.20446191728115082,"135":0.4960164427757263,"136":-0.029408011585474014,"137":1.6856014728546143,"138":-0.0863056480884552,"139":1.3292096853256226,"140":0.6471559405326843,"141":-0.7917494773864746,"142":-0.2958672046661377,"143":-0.8371882438659668,"144":0.752821683883667}}},{"0":{"bias":-0.11577571928501129,"weights":{"0":0.33369502425193787,"1":0.2867205739021301,"2":-0.7583836913108826,"3":-1.1933817863464355,"4":-0.32602059841156006,"5":-0.8404579758644104,"6":-0.03076994977891445,"7":-0.8121817111968994}},"1":{"bias":6.383666515350342,"weights":{"0":-6.569482326507568,"1":8.718754768371582,"2":9.02641773223877,"3":-6.7629475593566895,"4":7.621976375579834,"5":-6.269567012786865,"6":10.092171669006348,"7":-7.249234676361084}},"2":{"bias":-0.7187449336051941,"weights":{"0":0.7568374276161194,"1":0.12174279242753983,"2":-0.795655369758606,"3":-2.199960231781006,"4":-1.8765162229537964,"5":-1.3570504188537598,"6":-2.436145305633545,"7":-0.45066434144973755}},"3":{"bias":-0.6448925137519836,"weights":{"0":-0.6018599271774292,"1":-0.5566242933273315,"2":0.09126410633325577,"3":-0.4803944528102875,"4":-0.0615464523434639,"5":-0.24335061013698578,"6":-0.47589540481567383,"7":-0.28159958124160767}},"4":{"bias":-0.5499107241630554,"weights":{"0":-0.6645343899726868,"1":-0.19320259988307953,"2":0.07985472679138184,"3":-0.9493241310119629,"4":-0.4286225438117981,"5":-1.0895628929138184,"6":-1.1655564308166504,"7":-0.34966394305229187}},"5":{"bias":-0.5408587455749512,"weights":{"0":-0.5203741192817688,"1":0.12530948221683502,"2":0.8709536194801331,"3":-0.8445895910263062,"4":0.10652613639831543,"5":-0.5575762987136841,"6":0.22125019133090973,"7":0.027997981756925583}},"6":{"bias":-1.6349908113479614,"weights":{"0":0.5267462730407715,"1":-1.9340980052947998,"2":-0.9577192068099976,"3":-0.14241471886634827,"4":-0.9316071271896362,"5":-0.4243425726890564,"6":-0.30389225482940674,"7":0.6670849323272705}},"7":{"bias":-0.3910885751247406,"weights":{"0":-0.18698370456695557,"1":-0.015471633523702621,"2":-1.0816878080368042,"3":-0.04466859623789787,"4":-0.5023083090782166,"5":-0.1629554033279419,"6":0.2847370505332947,"7":-0.02689576894044876}}},{"0":{"bias":5.9005537033081055,"weights":{"0":1.05060613155365,"1":-7.163298606872559,"2":-1.6210685968399048,"3":-0.010178101249039173,"4":-0.2934371829032898,"5":-0.5193721652030945,"6":0.7721781730651855,"7":0.8541147708892822}}}],"outputLookup":false,"inputLookup":false,"activation":"sigmoid","trainOpts":{"iterations":20000,"errorThresh":0.003,"log":true,"logPeriod":10,"learningRate":0.05,"momentum":0.1,"callbackPeriod":10,"beta1":0.9,"beta2":0.999,"epsilon":1e-8}}