{"sizes":[145,8,8,1],"layers":[{"0":{},"1":{},"2":{},"3":{},"4":{},"5":{},"6":{},"7":{},"8":{},"9":{},"10":{},"11":{},"12":{},"13":{},"14":{},"15":{},"16":{},"17":{},"18":{},"19":{},"20":{},"21":{},"22":{},"23":{},"24":{},"25":{},"26":{},"27":{},"28":{},"29":{},"30":{},"31":{},"32":{},"33":{},"34":{},"35":{},"36":{},"37":{},"38":{},"39":{},"40":{},"41":{},"42":{},"43":{},"44":{},"45":{},"46":{},"47":{},"48":{},"49":{},"50":{},"51":{},"52":{},"53":{},"54":{},"55":{},"56":{},"57":{},"58":{},"59":{},"60":{},"61":{},"62":{},"63":{},"64":{},"65":{},"66":{},"67":{},"68":{},"69":{},"70":{},"71":{},"72":{},"73":{},"74":{},"75":{},"76":{},"77":{},"78":{},"79":{},"80":{},"81":{},"82":{},"83":{},"84":{},"85":{},"86":{},"87":{},"88":{},"89":{},"90":{},"91":{},"92":{},"93":{},"94":{},"95":{},"96":{},"97":{},"98":{},"99":{},"100":{},"101":{},"102":{},"103":{},"104":{},"105":{},"106":{},"107":{},"108":{},"109":{},"110":{},"111":{},"112":{},"113":{},"114":{},"115":{},"116":{},"117":{},"118":{},"119":{},"120":{},"121":{},"122":{},"123":{},"124":{},"125":{},"126":{},"127":{},"128":{},"129":{},"130":{},"131":{},"132":{},"133":{},"134":{},"135":{},"136":{},"137":{},"138":{},"139":{},"140":{},"141":{},"142":{},"143":{},"144":{}},{"0":{"bias":-0.535312294960022,"weights":{"0":-0.7595126032829285,"1":-0.2179032415151596,"2":0.38319849967956543,"3":-0.005506706424057484,"4":0.29798221588134766,"5":0.015263998880982399,"6":-0.2926633954048157,"7":-0.1660446971654892,"8":-0.05693555250763893,"9":0.9775336980819702,"10":-0.05196458473801613,"11":-0.3068648874759674,"12":0.42481526732444763,"13":-0.029873324558138847,"14":-0.2909255027770996,"15":0.1271163374185562,"16":0.551861047744751,"17":-0.12411616742610931,"18":0.04565402492880821,"19":0.4653235077857971,"20":-0.6838874816894531,"21":-1.3733735084533691,"22":1.8016881942749023,"23":-0.1243569552898407,"24":0.32991957664489746,"25":0.48873379826545715,"26":-0.14354892075061798,"27":-0.5331398844718933,"28":0.3192068338394165,"29":-0.8618476986885071,"30":1.253325343132019,"31":0.20345115661621094,"32":0.06505012512207031,"33":0.02221304178237915,"34":0.053999919444322586,"35":-0.3244780898094177,"36":-0.5704054236412048,"37":0.6032438278198242,"38":0.012256838381290436,"39":0.009559220634400845,"40":-0.46248024702072144,"41":0.001279687276110053,"42":0.17288464307785034,"43":0.2780187129974365,"44":-0.07936035096645355,"45":-0.043498240411281586,"46":-0.3260786831378937,"47":-1.1254713535308838,"48":0.5239761471748352,"49":-1.0042650699615479,"50":0.17655888199806213,"51":0.22930000722408295,"52":-0.006181754637509584,"53":0.06841611862182617,"54":0.3686542809009552,"55":0.03162738308310509,"56":0.4929191768169403,"57":0.0327083058655262,"58":-0.3260613679885864,"59":0.49622395634651184,"60":-0.24597816169261932,"61":-1.2252618074417114,"62":0.13889145851135254,"63":0.17138731479644775,"64":-0.0993366688489914,"65":0.4861515760421753,"66":0.26044541597366333,"67":-0.20905499160289764,"68":-0.02350812964141369,"69":-0.05822078138589859,"70":1.0259838104248047,"71":-0.5601730346679688,"72":-0.12839563190937042,"73":-0.045247286558151245,"74":-0.2533811330795288,"75":-0.4080309569835663,"76":-0.40060457587242126,"77":0.6503989696502686,"78":1.0436797142028809,"79":-0.21922899782657623,"80":-0.17764295637607574,"81":0.17342209815979004,"82":0.12226521223783493,"83":-0.2837417721748352,"84":0.08574581891298294,"85":0.2604878842830658,"86":-0.9889699220657349,"87":0.4915246069431305,"88":0.35269802808761597,"89":-0.10821974277496338,"90":-0.5254194736480713,"91":0.3366681635379791,"92":0.206040620803833,"93":-0.5702530145645142,"94":-0.014512396417558193,"95":-0.1833161860704422,"96":-0.35448622703552246,"97":-0.42273685336112976,"98":0.4058542549610138,"99":1.6074473857879639,"100":0.03265342488884926,"101":-0.25078868865966797,"102":0.05165334790945053,"103":0.06615197658538818,"104":-0.5580838322639465,"105":-0.24357587099075317,"106":0.368823379278183,"107":-0.8439986109733582,"108":-0.5715994834899902,"109":-0.45220041275024414,"110":-0.18127119541168213,"111":-0.16512736678123474,"112":-0.11499662697315216,"113":-0.18883690237998962,"114":-0.7097558975219727,"115":0.1882205307483673,"116":-0.18657104671001434,"117":-0.152474507689476,"118":-0.059401579201221466,"119":-0.05166034400463104,"120":0.12529441714286804,"121":-0.06438632309436798,"122":-0.1126646175980568,"123":0.1814841777086258,"124":0.5060369968414307,"125":0.10627645254135132,"126":-0.15413612127304077,"127":0.1376655399799347,"128":-1.2404582500457764,"129":-0.13768745958805084,"130":-0.8424624800682068,"131":-0.06012747436761856,"132":0.6741800904273987,"133":-0.4382254183292389,"134":-0.30908507108688354,"135":0.4083448350429535,"136":0.521361231803894,"137":-0.6632393598556519,"138":0.5856402516365051,"139":-0.1745571494102478,"140":-0.267468124628067,"141":-0.7209853529930115,"142":-0.17055484652519226,"143":0.48595279455184937,"144":-0.02526216022670269}},"1":{"bias":-0.4057862460613251,"weights":{"0":0.39647603034973145,"1":0.1489102840423584,"2":1.1409274339675903,"3":-0.2933334708213806,"4":-1.0115931034088135,"5":-0.05687936395406723,"6":0.9897761940956116,"7":-0.648305356502533,"8":1.373125433921814,"9":-0.6947811841964722,"10":0.5653960704803467,"11":0.12742014229297638,"12":-0.35729947686195374,"13":0.22713004052639008,"14":0.2809847295284271,"15":0.3610089123249054,"16":-0.05842128023505211,"17":0.6437896490097046,"18":-0.9757792353630066,"19":-0.9736191034317017,"20":-1.0262126922607422,"21":-0.5276301503181458,"22":-0.8880132436752319,"23":-0.061745937913656235,"24":-0.4592321813106537,"25":-0.8383091688156128,"26":-0.6799587607383728,"27":1.0490700006484985,"28":-0.2077288031578064,"29":-0.39623165130615234,"30":1.0194593667984009,"31":0.3388659358024597,"32":1.5144133567810059,"33":0.23273496329784393,"34":-0.17235775291919708,"35":0.9802526831626892,"36":-0.9427121877670288,"37":-0.5538610816001892,"38":-0.06940479576587677,"39":0.9918131232261658,"40":-0.053525421768426895,"41":-1.2647165060043335,"42":0.505203366279602,"43":-0.1652328073978424,"44":0.4914710521697998,"45":-0.21664685010910034,"46":0.5352010130882263,"47":-0.4873741567134857,"48":-0.5560967326164246,"49":0.5049535632133484,"50":0.4307050108909607,"51":-1.5943785905838013,"52":0.5050349831581116,"53":0.4745871424674988,"54":-1.1789875030517578,"55":-0.42088764905929565,"56":-1.0578917264938354,"57":0.7227725386619568,"58":-0.3179858922958374,"59":0.7880845665931702,"60":-0.47690466046333313,"61":1.9313257932662964,"62":-0.2574327290058136,"63":-0.08193894475698471,"64":0.8439156413078308,"65":0.8470388054847717,"66":-0.4200229346752167,"67":-0.6345817446708679,"68":-0.20585650205612183,"69":-0.33958619832992554,"70":-0.10313761979341507,"71":1.084104299545288,"72":0.5774526596069336,"73":0.2503032684326172,"74":-0.32328665256500244,"75":0.5825297236442566,"76":0.9302206635475159,"77":-0.14003886282444,"78":0.08246644586324692,"79":-1.6389456987380981,"80":-0.6712202429771423,"81":0.7142435908317566,"82":0.89713454246521,"83":-0.7617551684379578,"84":-0.28906452655792236,"85":-0.575533926486969,"86":-1.2083691358566284,"87":-0.8767048120498657,"88":0.6898403167724609,"89":-0.6077889204025269,"90":0.537094235420227,"91":-0.5395537614822388,"92":0.038588348776102066,"93":-0.22511626780033112,"94":-0.25047391653060913,"95":0.6339209079742432,"96":0.7871385216712952,"97":0.47959908843040466,"98":0.15958553552627563,"99":0.8822580575942993,"100":-0.5670063495635986,"101":-0.02917107380926609,"102":0.44323092699050903,"103":0.20099373161792755,"104":0.15137994289398193,"105":-0.9376078248023987,"106":-0.45075273513793945,"107":-0.5553337931632996,"108":-0.5939502716064453,"109":1.3289120197296143,"110":-0.4851357042789459,"111":0.028102509677410126,"112":0.3722706735134125,"113":-0.17845572531223297,"114":-0.10160011053085327,"115":0.10196958482265472,"116":1.2295862436294556,"117":-0.496951162815094,"118":-0.21972432732582092,"119":0.07568804174661636,"120":-0.4386007487773895,"121":0.016478151082992554,"122":0.3269524872303009,"123":-1.5205868482589722,"124":0.04673193022608757,"125":-1.1009845733642578,"126":-0.8218160271644592,"127":-0.8894966840744019,"128":0.4054105281829834,"129":-0.299583375453949,"130":-0.01952718384563923,"131":0.10184434056282043,"132":-0.10527051985263824,"133":0.2254924774169922,"134":-0.6303810477256775,"135":-0.5605241060256958,"136":0.7984371185302734,"137":0.7351670861244202,"138":-1.1444132328033447,"139":-0.30721166729927063,"140":-0.33871889114379883,"141":0.16927583515644073,"142":0.12745094299316406,"143":0.8717654347419739,"144":-0.6778583526611328}},"2":{"bias":0.8505553007125854,"weights":{"0":0.0117102712392807,"1":-0.6914682388305664,"2":-0.7575013041496277,"3":0.6896155476570129,"4":0.3661019504070282,"5":-0.2313445657491684,"6":-0.1297888308763504,"7":0.1022522896528244,"8":-0.29316481947898865,"9":-0.544840395450592,"10":-0.4265419542789459,"11":0.17364464700222015,"12":-1.2391111850738525,"13":0.16413001716136932,"14":0.10150206834077835,"15":0.3321927785873413,"16":-0.8433290719985962,"17":-0.35018816590309143,"18":0.25948193669319153,"19":0.5063402652740479,"20":-0.47928351163864136,"21":0.22308430075645447,"22":-0.7103796601295471,"23":0.1585366278886795,"24":0.10248889029026031,"25":1.0154558420181274,"26":-0.23836541175842285,"27":-0.5333903431892395,"28":-0.08945107460021973,"29":0.05290556699037552,"30":-1.7272127866744995,"31":0.9398601055145264,"32":-1.2883760929107666,"33":0.039358045905828476,"34":-0.11721990257501602,"35":0.0694371908903122,"36":-0.6468272805213928,"37":-0.9085677862167358,"38":0.2583148181438446,"39":0.4720761477947235,"40":-0.5912413001060486,"41":0.5423979759216309,"42":0.16204583644866943,"43":0.7647081613540649,"44":0.29373443126678467,"45":0.155583918094635,"46":-0.6244574785232544,"47":-0.39981257915496826,"48":0.7664690613746643,"49":-0.7345637679100037,"50":-1.6233692169189453,"51":-0.2203444093465805,"52":0.6395491361618042,"53":0.43935051560401917,"54":-0.17136532068252563,"55":-0.018869346007704735,"56":0.9978770017623901,"57":0.0701286569237709,"58":-0.6905747652053833,"59":0.004817157052457333,"60":-0.7535406947135925,"61":-1.0093220472335815,"62":0.014007293619215488,"63":-0.3017443120479584,"64":0.05937032774090767,"65":0.2147788107395172,"66":0.128543421626091,"67":0.04656742140650749,"68":0.3585882782936096,"69":1.0028802156448364,"70":-0.17908120155334473,"71":0.2231559008359909,"72":0.45738089084625244,"73":-0.1219947338104248,"74":0.34488627314567566,"75":-0.5466328859329224,"76":0.3804037570953369,"77":-0.30303311347961426,"78":1.7513303756713867,"79":0.6596167087554932,"80":-0.5742148756980896,"81":-0.5334591865539551,"82":-1.2916383743286133,"83":-0.11331155151128769,"84":-0.3824147582054138,"85":1.3959461450576782,"86":0.7617125511169434,"87":-1.1641826629638672,"88":0.2605288624763489,"89":-1.0652211904525757,"90":-1.4558231830596924,"91":-0.2104330211877823,"92":-0.20807692408561707,"93":-0.8137047290802002,"94":-1.1207706928253174,"95":-0.34474119544029236,"96":-0.42140811681747437,"97":-0.04404686018824577,"98":0.807494044303894,"99":-0.2142396867275238,"100":-0.2980458736419678,"101":-0.19920335710048676,"102":0.6897579431533813,"103":-0.31150949001312256,"104":-0.7494832873344421,"105":-0.80647212266922,"106":-0.799738883972168,"107":-0.12847106158733368,"108":0.2623646557331085,"109":-0.7518436312675476,"110":-0.29640528559684753,"111":-0.8169841170310974,"112":0.22873252630233765,"113":0.022612525150179863,"114":-0.18984363973140717,"115":-0.7452218532562256,"116":0.27933233976364136,"117":1.2807739973068237,"118":-0.1230555921792984,"119":0.6815696954727173,"120":0.4335438907146454,"121":0.04926028847694397,"122":0.19210195541381836,"123":0.08531464636325836,"124":0.34729495644569397,"125":-0.8993502259254456,"126":-0.7790536284446716,"127":0.09275761991739273,"128":1.2314019203186035,"129":0.6222851872444153,"130":-0.44009169936180115,"131":0.1864510476589203,"132":0.29614970088005066,"133":-0.7474769949913025,"134":0.6660950183868408,"135":-0.31348490715026855,"136":0.7798053622245789,"137":-2.3027737140655518,"138":-1.2144596576690674,"139":0.43581968545913696,"140":-0.11497408896684647,"141":-0.8808960318565369,"142":-0.11873578280210495,"143":-0.10521266609430313,"144":-0.3882823884487152}},"3":{"bias":0.2804831564426422,"weights":{"0":0.3733215630054474,"1":0.47227397561073303,"2":0.11259976774454117,"3":-0.19080974161624908,"4":-0.24418188631534576,"5":0.06551648676395416,"6":-0.012972892262041569,"7":-0.6988648176193237,"8":-0.9669281244277954,"9":-0.81532883644104,"10":-0.6158043146133423,"11":0.08085712045431137,"12":-0.859688937664032,"13":0.20076984167099,"14":0.2977992296218872,"15":-0.26942136883735657,"16":-0.20261433720588684,"17":-0.6628962159156799,"18":-0.3625124394893646,"19":0.24061736464500427,"20":-0.08548241853713989,"21":-0.45815014839172363,"22":-0.9361581802368164,"23":0.4697117805480957,"24":-0.22994273900985718,"25":-1.04902184009552,"26":0.25239142775535583,"27":1.5255074501037598,"28":0.6895721554756165,"29":0.26790833473205566,"30":-0.2600899040699005,"31":-0.09478004276752472,"32":1.001147747039795,"33":0.20428812503814697,"34":-0.22519199550151825,"35":-0.37846362590789795,"36":0.48916658759117126,"37":-0.5337128639221191,"38":0.07936776429414749,"39":-0.6179181933403015,"40":-0.4314354360103607,"41":-0.9113786816596985,"42":0.17347413301467896,"43":-0.4331485629081726,"44":-0.18479539453983307,"45":0.3275719881057739,"46":-0.3762214481830597,"47":-0.1543186604976654,"48":0.2875756025314331,"49":-1.0065524578094482,"50":-0.34086090326309204,"51":0.5132915377616882,"52":0.015829719603061676,"53":-0.1465774029493332,"54":-0.2526957094669342,"55":0.057741858065128326,"56":0.0140840420499444,"57":0.26322075724601746,"58":-0.4765881299972534,"59":0.9239391088485718,"60":-0.7180364727973938,"61":0.11459318548440933,"62":0.22988037765026093,"63":-0.07476842403411865,"64":-0.17759734392166138,"65":-0.6990295052528381,"66":-0.8062043190002441,"67":-0.3497348129749298,"68":-0.6603654026985168,"69":1.5053023099899292,"70":1.008314609527588,"71":0.0878492221236229,"72":-0.29248616099357605,"73":0.03416154161095619,"74":-0.20640429854393005,"75":-0.275351345539093,"76":0.15353362262248993,"77":0.435564786195755,"78":1.0213955640792847,"79":0.17279917001724243,"80":-0.6380337476730347,"81":0.22300533950328827,"82":0.15971891582012177,"83":0.06339309364557266,"84":0.03685706481337547,"85":1.4522080421447754,"86":-0.3861180245876312,"87":-0.6165609955787659,"88":-0.1822832226753235,"89":-0.20323516428470612,"90":-0.5702248215675354,"91":0.14085832238197327,"92":-0.03489799052476883,"93":0.6095046401023865,"94":-0.06650080531835556,"95":-0.37835946679115295,"96":0.015855351462960243,"97":0.3710823059082031,"98":1.4405181407928467,"99":0.02131745032966137,"100":-0.4854944050312042,"101":0.14189638197422028,"102":-0.03813568875193596,"103":0.15580984950065613,"104":0.12978725135326385,"105":0.22883036732673645,"106":0.6558881402015686,"107":-1.404033899307251,"108":2.0829005241394043,"109":-0.08064662665128708,"110":0.45182523131370544,"111":0.486809641122818,"112":-0.5242277979850769,"113":0.07487060874700546,"114":-1.687731146812439,"115":0.07246037572622299,"116":-0.09984797984361649,"117":-1.2830613851547241,"118":1.161729335784912,"119":0.633391261100769,"120":1.0395427942276,"121":-0.2522245943546295,"122":-0.46096569299697876,"123":1.16994309425354,"124":-1.3382394313812256,"125":1.0053880214691162,"126":-0.09742547571659088,"127":-0.2052280604839325,"128":0.05798935145139694,"129":0.30032750964164734,"130":-0.0615176223218441,"131":-0.2263723611831665,"132":-0.1493939906358719,"133":-0.21816959977149963,"134":0.7106522917747498,"135":0.7598362565040588,"136":1.0473095178604126,"137":-0.8893010020256042,"138":0.5874955058097839,"139":0.22918540239334106,"140":-0.034273404628038406,"141":0.25734469294548035,"142":-0.010960262268781662,"143":-0.6263027191162109,"144":0.3855578899383545}},"4":{"bias":-0.047959305346012115,"weights":{"0":1.1107828617095947,"1":-0.5479808449745178,"2":-0.5947321653366089,"3":0.04342483729124069,"4":-0.1231226697564125,"5":0.1395050287246704,"6":0.3936537206172943,"7":0.4877658486366272,"8":0.0648055374622345,"9":-0.4072084128856659,"10":-0.9335839748382568,"11":-0.02170994132757187,"12":0.9562956094741821,"13":0.18683302402496338,"14":0.5171828269958496,"15":0.2524389624595642,"16":0.7110740542411804,"17":-0.08680970221757889,"18":0.22431352734565735,"19":-0.09830748289823532,"20":0.6563114523887634,"21":-0.033034272491931915,"22":-0.3646778464317322,"23":-0.7395824193954468,"24":-0.6864585876464844,"25":0.11820463091135025,"26":0.462274968624115,"27":0.5563166737556458,"28":1.0354645252227783,"29":0.6576579213142395,"30":-0.23961298167705536,"31":-0.7897883653640747,"32":-0.8220539093017578,"33":0.01690598390996456,"34":0.17309662699699402,"35":0.04450718313455582,"36":0.9481061100959778,"37":-0.9219738245010376,"38":-0.08180323988199234,"39":0.2577396035194397,"40":-0.060463860630989075,"41":-1.156018614768982,"42":0.32869797945022583,"43":0.029974639415740967,"44":-0.049877721816301346,"45":-0.2738373875617981,"46":-0.13932621479034424,"47":-0.7027557492256165,"48":-0.14551584422588348,"49":-1.5139222145080566,"50":0.13460952043533325,"51":0.1472623199224472,"52":0.04921458289027214,"53":0.4708147644996643,"54":0.45407551527023315,"55":0.4289005696773529,"56":-0.7946539521217346,"57":0.5203471779823303,"58":0.8474758863449097,"59":0.020693741738796234,"60":-0.35063427686691284,"61":-0.14578816294670105,"62":0.4807266592979431,"63":0.2733960747718811,"64":0.4162096381187439,"65":-0.10115543007850647,"66":0.3084039092063904,"67":0.5006940960884094,"68":0.30922043323516846,"69":-0.33560818433761597,"70":-0.5166135430335999,"71":0.0991273745894432,"72":-0.1171233206987381,"73":0.15748578310012817,"74":0.35376861691474915,"75":-0.21363776922225952,"76":-0.10132069140672684,"77":0.36225226521492004,"78":-0.3509489893913269,"79":1.2023664712905884,"80":0.5756261944770813,"81":0.5308322310447693,"82":1.0710200071334839,"83":0.2702130973339081,"84":0.7350276112556458,"85":-0.8372405171394348,"86":0.030990473926067352,"87":0.4757407307624817,"88":0.34471094608306885,"89":0.19129163026809692,"90":-0.3896341025829315,"91":-0.20527851581573486,"92":0.450865238904953,"93":-0.47142887115478516,"94":0.8307802677154541,"95":1.4572759866714478,"96":0.445717990398407,"97":-0.44418707489967346,"98":0.4474397301673889,"99":-0.6176085472106934,"100":0.5473443269729614,"101":-0.2963242828845978,"102":0.17456114292144775,"103":0.324367880821228,"104":-0.4467180371284485,"105":-1.2992244958877563,"106":0.17022822797298431,"107":0.18555986881256104,"108":1.1866060495376587,"109":0.7908832430839539,"110":-0.1305452138185501,"111":0.11907384544610977,"112":0.45768874883651733,"113":0.6176806688308716,"114":-0.22085832059383392,"115":-0.006000699941068888,"116":0.5164284110069275,"117":-1.0900819301605225,"118":-0.3427465260028839,"119":0.4399303197860718,"120":0.468168705701828,"121":0.2889845669269562,"122":-0.10793852061033249,"123":0.4231186509132385,"124":0.8636951446533203,"125":0.43862682580947876,"126":0.479358971118927,"127":-0.3059002757072449,"128":-0.30418315529823303,"129":0.8759827017784119,"130":0.46628549695014954,"131":0.013757259584963322,"132":0.00930593628436327,"133":0.007996132597327232,"134":-0.22364965081214905,"135":-0.1434871107339859,"136":-0.006090295501053333,"137":0.08212856948375702,"138":0.5384668707847595,"139":-0.24869444966316223,"140":-0.15945889055728912,"141":0.1260552555322647,"142":0.6112481951713562,"143":-1.32987642288208,"144":-0.42363083362579346}},"5":{"bias":-1.7221156358718872,"weights":{"0":0.0009003393934108317,"1":-0.6320134401321411,"2":0.13149920105934143,"3":-0.19738724827766418,"4":-0.4295457601547241,"5":-0.0670548751950264,"6":-0.36683353781700134,"7":-0.7500788569450378,"8":-0.7112920880317688,"9":0.5012384057044983,"10":1.3705027103424072,"11":-0.05376945436000824,"12":0.5129209756851196,"13":-0.36697912216186523,"14":-0.14514382183551788,"15":0.04357484355568886,"16":-0.39129114151000977,"17":0.023075835779309273,"18":-0.25837740302085876,"19":-0.3193775713443756,"20":1.7749361991882324,"21":-0.19640348851680756,"22":-0.16095373034477234,"23":-0.9530984163284302,"24":0.21900621056556702,"25":0.8914202451705933,"26":0.20452935993671417,"27":-0.21460510790348053,"28":0.6011257171630859,"29":-0.16942614316940308,"30":-0.9796217679977417,"31":0.6275697946548462,"32":0.5441054105758667,"33":0.22932972013950348,"34":-0.12183781713247299,"35":0.18023578822612762,"36":0.4501620829105377,"37":0.7188829779624939,"38":0.06272141635417938,"39":0.43014493584632874,"40":-1.2523715496063232,"41":-0.5927952527999878,"42":-0.41690874099731445,"43":-0.02160804532468319,"44":-0.4371975362300873,"45":-0.26339200139045715,"46":0.12493926286697388,"47":-0.01354385819286108,"48":0.17201247811317444,"49":0.6001743078231812,"50":0.05727747827768326,"51":-0.7602159976959229,"52":-0.4173242747783661,"53":0.5176176428794861,"54":-0.622769296169281,"55":0.49060648679733276,"56":-0.39950767159461975,"57":0.6543346047401428,"58":0.19954857230186462,"59":0.6921238303184509,"60":0.1882065087556839,"61":0.35846033692359924,"62":0.4953801929950714,"63":-0.03808226436376572,"64":-0.2990170419216156,"65":1.2429169416427612,"66":-0.29814907908439636,"67":0.031787365674972534,"68":-0.1592784821987152,"69":0.02485443837940693,"70":0.19487535953521729,"71":0.6291700601577759,"72":0.3052321970462799,"73":0.05315743386745453,"74":-0.4220649003982544,"75":0.138334259390831,"76":-0.8359234929084778,"77":0.651089608669281,"78":0.5786203742027283,"79":1.498034119606018,"80":-0.22025492787361145,"81":-0.6308917999267578,"82":0.3821066617965698,"83":0.08910052478313446,"84":0.2916635572910309,"85":0.2253294587135315,"86":-0.14849594235420227,"87":-0.18360581994056702,"88":-0.6294304728507996,"89":-0.09019911289215088,"90":-1.0156203508377075,"91":-1.1368417739868164,"92":-0.359074205160141,"93":0.2760506868362427,"94":-0.059978559613227844,"95":0.4396105110645294,"96":0.09776892513036728,"97":0.6309480667114258,"98":-0.030046511441469193,"99":0.3333122134208679,"100":-0.5500085353851318,"101":0.7957891225814819,"102":-0.175381138920784,"103":-0.1411096155643463,"104":0.11069484800100327,"105":-0.3266363739967346,"106":0.17552800476551056,"107":-1.1041178703308105,"108":0.10018563270568848,"109":-0.06133892387151718,"110":-1.3271749019622803,"111":0.5014936327934265,"112":1.52693510055542,"113":0.22580857574939728,"114":-0.2157580852508545,"115":-0.21042637526988983,"116":-0.09716344624757767,"117":0.670488715171814,"118":0.7278306484222412,"119":-0.08189772069454193,"120":-0.9525527358055115,"121":-0.17079535126686096,"122":-0.12651327252388,"123":-0.9427307844161987,"124":-0.2569763660430908,"125":-0.8038323521614075,"126":0.7688009738922119,"127":1.8034286499023438,"128":-1.8811906576156616,"129":0.4534200429916382,"130":0.07512529194355011,"131":0.4269085228443146,"132":-0.7348943948745728,"133":-0.0031754400115460157,"134":0.2001325488090515,"135":0.2775227129459381,"136":-0.5489315390586853,"137":-0.8749222159385681,"138":-1.236791729927063,"139":-0.8873875737190247,"140":0.7709099054336548,"141":1.7621049880981445,"142":0.07174945622682571,"143":0.31773367524147034,"144":-0.13850757479667664}},"6":{"bias":-0.25008463859558105,"weights":{"0":0.4204899072647095,"1":1.1653742790222168,"2":-1.3045247793197632,"3":-0.6266918182373047,"4":-0.8113590478897095,"5":0.37629032135009766,"6":0.056801486760377884,"7":0.17996501922607422,"8":0.35257333517074585,"9":-0.8449380397796631,"10":-0.192610964179039,"11":0.23177778720855713,"12":-0.36558547616004944,"13":-0.10563112050294876,"14":0.1987503468990326,"15":-0.5297796130180359,"16":0.22147276997566223,"17":-0.012880498543381691,"18":0.3364376127719879,"19":0.6748740077018738,"20":0.19343805313110352,"21":0.7734014391899109,"22":-1.111486554145813,"23":-0.1480472832918167,"24":-0.07316062599420547,"25":-0.42596861720085144,"26":-0.6857496500015259,"27":0.70909583568573,"28":0.32400989532470703,"29":0.16762855648994446,"30":-0.43544650077819824,"31":-0.7386489510536194,"32":0.8019758462905884,"33":-0.09310562908649445,"34":0.21866196393966675,"35":0.11574383080005646,"36":0.4810841679573059,"37":-0.4833449721336365,"38":0.5213502049446106,"39":-0.07088348269462585,"40":-0.1868048757314682,"41":0.30398672819137573,"42":0.4066113829612732,"43":-0.7098724246025085,"44":0.1026281788945198,"45":0.22161850333213806,"46":-0.20205296576023102,"47":0.3749421536922455,"48":0.7921654582023621,"49":0.5198701024055481,"50":1.337866187095642,"51":1.0911046266555786,"52":0.3932364284992218,"53":0.5707094073295593,"54":-0.5974207520484924,"55":-0.8659940958023071,"56":0.06798575818538666,"57":-1.3819289207458496,"58":0.8361164927482605,"59":-0.04702726751565933,"60":-0.48439928889274597,"61":0.576862096786499,"62":0.030465347692370415,"63":0.19194269180297852,"64":0.5944281816482544,"65":0.37798207998275757,"66":0.19019640982151031,"67":-0.3414190411567688,"68":0.40779098868370056,"69":-0.6186400651931763,"70":1.1554404497146606,"71":0.7652551531791687,"72":0.6047160625457764,"73":0.11450211703777313,"74":-0.3363094627857208,"75":-0.2231358140707016,"76":-0.17846080660820007,"77":0.5640907883644104,"78":-0.9838516712188721,"79":0.3304601013660431,"80":-0.7550919055938721,"81":0.027337847277522087,"82":0.03343212231993675,"83":0.207996666431427,"84":-0.7179916501045227,"85":0.15100795030593872,"86":0.31091001629829407,"87":0.9298279881477356,"88":-0.5892313122749329,"89":-0.8302919864654541,"90":-0.026408202946186066,"91":0.8350752592086792,"92":0.3342759907245636,"93":-0.3958072066307068,"94":0.1450396627187729,"95":0.1594822257757187,"96":0.11638835817575455,"97":0.8468786478042603,"98":-1.3689290285110474,"99":-0.35364964604377747,"100":-0.3204176127910614,"101":0.013540152460336685,"102":0.29399770498275757,"103":0.023641200736165047,"104":-0.042521920055150986,"105":1.7125821113586426,"106":0.7183637022972107,"107":-0.643195390701294,"108":0.49144333600997925,"109":-0.9651769995689392,"110":-0.13734829425811768,"111":0.12651880085468292,"112":0.14786677062511444,"113":-0.7999617457389832,"114":0.46196067333221436,"115":0.6108442544937134,"116":-1.2566859722137451,"117":0.28426694869995117,"118":0.04638722538948059,"119":-0.7889056205749512,"120":1.0600758790969849,"121":0.38333049416542053,"122":-0.1889033019542694,"123":-0.035512931644916534,"124":0.7791609764099121,"125":0.17684286832809448,"126":0.16155600547790527,"127":-0.9448081254959106,"128":-1.2800896167755127,"129":-0.21471381187438965,"130":-0.7381963729858398,"131":0.4219500720500946,"132":-0.2922607958316803,"133":0.04097172990441322,"134":0.592693567276001,"135":0.5691432952880859,"136":-0.012203333899378777,"137":0.17557920515537262,"138":-0.27209702134132385,"139":-0.2773304581642151,"140":0.4166939854621887,"141":0.8934029340744019,"142":-0.47015297412872314,"143":0.09494581818580627,"144":1.2436474561691284}},"7":{"bias":0.46798956394195557,"weights":{"0":-0.89434814453125,"1":-0.74300616979599,"2":0.01680242456495762,"3":0.08314375579357147,"4":-0.4207320213317871,"5":0.6478317975997925,"6":-0.1633255034685135,"7":0.5598666667938232,"8":-0.9069757461547852,"9":0.0033381262328475714,"10":-0.31218403577804565,"11":0.12462054938077927,"12":0.06323473155498505,"13":-0.021583983674645424,"14":-0.19801025092601776,"15":-0.24404455721378326,"16":0.9134576320648193,"17":-0.221250519156456,"18":-0.298437237739563,"19":0.36075320839881897,"20":-0.15160688757896423,"21":0.14029628038406372,"22":0.41253021359443665,"23":0.6726693511009216,"24":0.5232145190238953,"25":-0.17450593411922455,"26":-0.13207724690437317,"27":-0.44357889890670776,"28":0.0595967061817646,"29":0.7441824674606323,"30":0.34456121921539307,"31":0.6399840712547302,"32":-0.7210111618041992,"33":-0.42943063378334045,"34":0.4876604676246643,"35":-0.07693088799715042,"36":-0.6300299763679504,"37":0.2235332727432251,"38":-0.5096385478973389,"39":-0.26758748292922974,"40":-0.18493306636810303,"41":-0.1410704106092453,"42":-0.316342830657959,"43":0.2734074592590332,"44":-0.1911911964416504,"45":0.5040529370307922,"46":-0.31342121958732605,"47":-0.6625515818595886,"48":0.003375184489414096,"49":-0.9812902808189392,"50":0.633033037185669,"51":-0.03884342312812805,"52":-0.1881156712770462,"53":-0.33388710021972656,"54":0.40877729654312134,"55":-0.2784646451473236,"56":-0.6118535995483398,"57":-0.6948836445808411,"58":0.5843920707702637,"59":0.34672972559928894,"60":0.8234547972679138,"61":0.21348197758197784,"62":0.0019772215746343136,"63":0.5460799336433411,"64":-0.5922877788543701,"65":0.0019858754239976406,"66":0.09817225486040115,"67":-0.5510242581367493,"68":-0.171456977725029,"69":-0.9464983344078064,"70":0.7792146801948547,"71":0.3614574670791626,"72":-0.02317707985639572,"73":-0.24192088842391968,"74":0.3496788442134857,"75":-0.22125305235385895,"76":0.5781584978103638,"77":0.3612735867500305,"78":0.027470482513308525,"79":0.9634897112846375,"80":-1.0125266313552856,"81":0.7470961809158325,"82":0.13646084070205688,"83":-1.1824560165405273,"84":-0.3914502263069153,"85":-1.2983490228652954,"86":-0.21493348479270935,"87":-1.063273549079895,"88":1.1487351655960083,"89":-0.6509718298912048,"90":-0.6682761907577515,"91":-1.1043286323547363,"92":0.6805970668792725,"93":0.8353641033172607,"94":-0.5204646587371826,"95":0.1632820963859558,"96":0.47680410742759705,"97":0.6012580990791321,"98":-0.8237516283988953,"99":0.47650495171546936,"100":-0.4794398248195648,"101":-0.17767032980918884,"102":-0.2306138128042221,"103":0.05537651106715202,"104":0.34347110986709595,"105":-0.48674139380455017,"106":0.6880018711090088,"107":-0.17696018517017365,"108":-0.608733594417572,"109":1.5114067792892456,"110":0.0662645474076271,"111":0.10921494662761688,"112":0.30863651633262634,"113":-0.33511224389076233,"114":0.39730823040008545,"115":0.23580437898635864,"116":0.1891370713710785,"117":0.08420313149690628,"118":0.24461272358894348,"119":-0.4160686433315277,"120":-0.4306270480155945,"121":0.4794180989265442,"122":-0.05730372667312622,"123":-0.6966121196746826,"124":-0.5091486573219299,"125":0.18548840284347534,"126":-0.6326676607131958,"127":-1.6770133972167969,"128":0.4576200544834137,"129":0.7398883104324341,"130":-0.1955629289150238,"131":-0.45865437388420105,"132":0.3419641852378845,"133":0.026482876390218735,"134":0.3475814759731293,"135":0.7833362817764282,"136":0.7786625623703003,"137":-1.434699535369873,"138":1.0870378017425537,"139":0.4402496814727783,"140":-0.12761221826076508,"141":-0.9990079402923584,"142":-0.2615630328655243,"143":-0.19206589460372925,"144":-0.27184680104255676}}},{"0":{"bias":-0.3784317970275879,"weights":{"0":0.4724211096763611,"1":-0.03312775865197182,"2":0.6434488892555237,"3":-0.35174643993377686,"4":0.5522868633270264,"5":-0.6495320200920105,"6":0.1328309029340744,"7":-0.719786524772644}},"1":{"bias":1.6835193634033203,"weights":{"0":4.110665321350098,"1":3.905416488647461,"2":4.740054130554199,"3":-4.186464786529541,"4":4.353052616119385,"5":-5.555943965911865,"6":4.9253644943237305,"7":-4.288301944732666}},"2":{"bias":0.20348620414733887,"weights":{"0":0.6915794610977173,"1":0.04966752231121063,"2":1.3061760663986206,"3":-0.4897988438606262,"4":0.9748576283454895,"5":-0.8697182536125183,"6":0.7559335827827454,"7":-0.03669460117816925}},"3":{"bias":0.017161186784505844,"weights":{"0":0.09866120666265488,"1":0.15106193721294403,"2":-0.011535819619894028,"3":-0.20396125316619873,"4":0.3172152042388916,"5":0.07627851516008377,"6":0.0395219512283802,"7":-0.781903088092804}},"4":{"bias":0.3283005356788635,"weights":{"0":0.26561054587364197,"1":0.43714240193367004,"2":0.11113671213388443,"3":0.032262932509183884,"4":0.29741838574409485,"5":0.1659385710954666,"6":0.4499587416648865,"7":-0.14840711653232574}},"5":{"bias":-0.3527762293815613,"weights":{"0":0.6428986191749573,"1":0.12047246843576431,"2":0.6209900379180908,"3":-0.39891043305397034,"4":0.38702496886253357,"5":-0.7937747836112976,"6":0.3942587375640869,"7":-0.5724029541015625}},"6":{"bias":-0.2567802369594574,"weights":{"0":0.11770979315042496,"1":0.08617639541625977,"2":0.19008153676986694,"3":-0.41000500321388245,"4":0.28367820382118225,"5":-0.3167308568954468,"6":0.14248916506767273,"7":-0.3757617473602295}},"7":{"bias":-0.30070123076438904,"weights":{"0":0.11565599590539932,"1":0.32471978664398193,"2":0.1570686548948288,"3":-0.48410576581954956,"4":0.3290333151817322,"5":-0.44699153304100037,"6":0.3728348910808563,"7":-0.4482596218585968}}},{"0":{"bias":2.6868505477905273,"weights":{"0":0.6381564736366272,"1":-7.2418975830078125,"2":-0.010828415863215923,"3":1.2811342477798462,"4":1.5516406297683716,"5":0.7011095285415649,"6":0.7565274238586426,"7":0.8900190591812134}}}],"outputLookup":false,"inputLookup":false,"activation":"sigmoid","trainOpts":{"iterations":20000,"errorThresh":0.003,"log":true,"logPeriod":10,"learningRate":0.05,"momentum":0.1,"callbackPeriod":10,"beta1":0.9,"beta2":0.999,"epsilon":1e-8}}