{"sizes":[145,8,8,1],"layers":[{"0":{},"1":{},"2":{},"3":{},"4":{},"5":{},"6":{},"7":{},"8":{},"9":{},"10":{},"11":{},"12":{},"13":{},"14":{},"15":{},"16":{},"17":{},"18":{},"19":{},"20":{},"21":{},"22":{},"23":{},"24":{},"25":{},"26":{},"27":{},"28":{},"29":{},"30":{},"31":{},"32":{},"33":{},"34":{},"35":{},"36":{},"37":{},"38":{},"39":{},"40":{},"41":{},"42":{},"43":{},"44":{},"45":{},"46":{},"47":{},"48":{},"49":{},"50":{},"51":{},"52":{},"53":{},"54":{},"55":{},"56":{},"57":{},"58":{},"59":{},"60":{},"61":{},"62":{},"63":{},"64":{},"65":{},"66":{},"67":{},"68":{},"69":{},"70":{},"71":{},"72":{},"73":{},"74":{},"75":{},"76":{},"77":{},"78":{},"79":{},"80":{},"81":{},"82":{},"83":{},"84":{},"85":{},"86":{},"87":{},"88":{},"89":{},"90":{},"91":{},"92":{},"93":{},"94":{},"95":{},"96":{},"97":{},"98":{},"99":{},"100":{},"101":{},"102":{},"103":{},"104":{},"105":{},"106":{},"107":{},"108":{},"109":{},"110":{},"111":{},"112":{},"113":{},"114":{},"115":{},"116":{},"117":{},"118":{},"119":{},"120":{},"121":{},"122":{},"123":{},"124":{},"125":{},"126":{},"127":{},"128":{},"129":{},"130":{},"131":{},"132":{},"133":{},"134":{},"135":{},"136":{},"137":{},"138":{},"139":{},"140":{},"141":{},"142":{},"143":{},"144":{}},{"0":{"bias":-0.12334028631448746,"weights":{"0":0.6745685338973999,"1":-0.3398381471633911,"2":-0.05843178927898407,"3":0.43865129351615906,"4":0.5388864874839783,"5":0.9644747376441956,"6":0.3542575240135193,"7":-0.41787201166152954,"8":-0.9029137492179871,"9":0.440378874540329,"10":0.669364869594574,"11":0.3645845055580139,"12":0.36130625009536743,"13":0.15202759206295013,"14":0.6226064562797546,"15":-0.3306296169757843,"16":-0.4757354259490967,"17":-0.08311991393566132,"18":0.30189990997314453,"19":0.6638246178627014,"20":0.0646044909954071,"21":-0.02395671047270298,"22":0.24164918065071106,"23":0.3392784893512726,"24":0.8388879895210266,"25":0.4240346848964691,"26":0.07175985723733902,"27":0.05275847017765045,"28":-0.6198601722717285,"29":-0.476601243019104,"30":-0.4623585641384125,"31":0.10845738649368286,"32":1.2340786457061768,"33":0.7268394827842712,"34":0.9009503126144409,"35":-0.042455870658159256,"36":-0.8969365954399109,"37":-0.020486757159233093,"38":0.16253796219825745,"39":-1.3282716274261475,"40":-0.08393756300210953,"41":-1.6749588251113892,"42":0.00488152913749218,"43":0.10273117572069168,"44":-0.16758635640144348,"45":0.08136151731014252,"46":-0.028433576226234436,"47":0.24482324719429016,"48":0.42812392115592957,"49":-0.6298702955245972,"50":-0.3324446678161621,"51":0.9140809774398804,"52":-0.035099152475595474,"53":-0.12480689585208893,"54":0.3179168701171875,"55":-0.01205469761043787,"56":0.39681077003479004,"57":-0.18246164917945862,"58":-0.09843146055936813,"59":-0.15007761120796204,"60":0.5224688649177551,"61":-0.16440221667289734,"62":-0.11810026317834854,"63":0.7130324840545654,"64":-0.3386266231536865,"65":0.19631053507328033,"66":0.35782188177108765,"67":-0.30189916491508484,"68":0.34709301590919495,"69":-0.20163936913013458,"70":1.042481780052185,"71":-0.04481104761362076,"72":-1.1408113241195679,"73":-0.2191430777311325,"74":-0.09541479498147964,"75":-0.019167812541127205,"76":-0.3021983504295349,"77":0.15642569959163666,"78":0.2846924960613251,"79":1.3186938762664795,"80":-0.6914794445037842,"81":-0.30078592896461487,"82":-0.3410165309906006,"83":0.2885807752609253,"84":-0.16907747089862823,"85":-0.8614636063575745,"86":-0.0781617984175682,"87":-0.3939184844493866,"88":-0.5151273608207703,"89":0.4641222357749939,"90":-0.001335433917120099,"91":-0.4784775674343109,"92":0.7351505160331726,"93":0.2887799143791199,"94":-0.2326616644859314,"95":-0.8356353640556335,"96":-0.5390491485595703,"97":-0.8928783535957336,"98":-0.840063214302063,"99":-0.20414957404136658,"100":-0.1791769564151764,"101":0.7014239430427551,"102":0.027648037299513817,"103":0.1327037811279297,"104":-0.16048011183738708,"105":-0.36207273602485657,"106":0.5763096809387207,"107":-1.0884660482406616,"108":0.5344818830490112,"109":-0.3141801655292511,"110":0.10197791457176208,"111":0.6024476885795593,"112":0.4641340374946594,"113":-0.1809263378381729,"114":-0.12511764466762543,"115":-0.19740450382232666,"116":0.8126286864280701,"117":0.12395523488521576,"118":0.24510620534420013,"119":-0.6540422439575195,"120":0.6880277395248413,"121":0.978074312210083,"122":0.28535887598991394,"123":-1.0209206342697144,"124":-0.37394049763679504,"125":0.739459216594696,"126":0.045875005424022675,"127":-1.729801893234253,"128":-0.06967239081859589,"129":1.0286072492599487,"130":0.09832536429166794,"131":-0.19814249873161316,"132":0.014556354843080044,"133":-0.0736578106880188,"134":0.3375833332538605,"135":0.3095962703227997,"136":-0.44407808780670166,"137":-1.0800312757492065,"138":0.7283337116241455,"139":-0.3215322494506836,"140":0.1170165166258812,"141":0.6271834969520569,"142":-0.21525134146213531,"143":-0.8476883172988892,"144":-0.27819687128067017}},"1":{"bias":-0.4898260533809662,"weights":{"0":1.282902717590332,"1":0.10182023048400879,"2":-0.9141836762428284,"3":0.1778988093137741,"4":-0.3663189113140106,"5":0.6693239212036133,"6":0.294963538646698,"7":0.6987254023551941,"8":0.45472604036331177,"9":-0.6463848352432251,"10":-0.7515250444412231,"11":-0.41167017817497253,"12":0.5367234349250793,"13":0.005426513962447643,"14":0.1825605183839798,"15":0.011814337223768234,"16":0.09569494426250458,"17":0.12589383125305176,"18":-0.47804728150367737,"19":0.20431913435459137,"20":0.39564090967178345,"21":0.25704047083854675,"22":-0.8661852478981018,"23":0.1699691116809845,"24":0.3567602336406708,"25":-0.285905122756958,"26":-0.4818090498447418,"27":-0.021823985502123833,"28":0.2456325888633728,"29":-0.5804969072341919,"30":0.03458750993013382,"31":-0.7871830463409424,"32":2.0341744422912598,"33":-0.1519179791212082,"34":0.3329622745513916,"35":0.21024993062019348,"36":0.7049546837806702,"37":-0.49767717719078064,"38":0.07449082285165787,"39":-0.13520103693008423,"40":-0.3540923297405243,"41":-1.5935879945755005,"42":0.1849793642759323,"43":-0.6347150802612305,"44":-0.07597297430038452,"45":-0.3872475326061249,"46":0.17627167701721191,"47":0.04129946976900101,"48":0.5958077907562256,"49":1.265727162361145,"50":0.556652843952179,"51":0.8875299096107483,"52":0.5433260798454285,"53":1.264312505722046,"54":-0.07034695148468018,"55":-0.4353024363517761,"56":-0.8930160999298096,"57":-0.27335691452026367,"58":-0.005605306942015886,"59":0.3776206076145172,"60":0.000048431062168674543,"61":-0.32566002011299133,"62":-0.03729543089866638,"63":0.7039119005203247,"64":0.8769052624702454,"65":0.38612475991249084,"66":0.5505068898200989,"67":-0.17954203486442566,"68":-0.8486058115959167,"69":-0.6576136350631714,"70":1.0134308338165283,"71":0.6723963022232056,"72":0.3105243742465973,"73":0.29497361183166504,"74":-0.23780733346939087,"75":0.17385263741016388,"76":-0.1500982642173767,"77":0.8032557368278503,"78":-1.180194616317749,"79":0.3264741897583008,"80":-0.2973812222480774,"81":0.2701292932033539,"82":0.5070911049842834,"83":-0.0911203995347023,"84":-0.5577128529548645,"85":-0.07177285850048065,"86":0.1121697649359703,"87":0.7178924083709717,"88":-0.5691588521003723,"89":-1.2641836404800415,"90":-0.19689558446407318,"91":0.26205629110336304,"92":0.6983083486557007,"93":-0.05112207680940628,"94":0.2722063660621643,"95":0.035575129091739655,"96":-0.018392520025372505,"97":-0.7364684343338013,"98":-1.4596874713897705,"99":-1.0335179567337036,"100":-0.5135985016822815,"101":-0.09329654276371002,"102":0.14854739606380463,"103":0.05469147115945816,"104":0.35679420828819275,"105":0.7159700393676758,"106":0.6409331560134888,"107":-0.21731768548488617,"108":0.37460288405418396,"109":0.18483923375606537,"110":-0.8119543194770813,"111":0.03572136163711548,"112":0.960336446762085,"113":-0.548783540725708,"114":0.8069278597831726,"115":0.34963250160217285,"116":-0.46578651666641235,"117":-0.24333812296390533,"118":-0.0825357735157013,"119":-0.9686435461044312,"120":1.0625548362731934,"121":0.559494137763977,"122":-0.041320908814668655,"123":0.4048597812652588,"124":0.8259940147399902,"125":-0.07810748368501663,"126":0.1934710294008255,"127":-1.3857522010803223,"128":-0.4188981056213379,"129":0.7706313729286194,"130":-0.29948699474334717,"131":0.4850992262363434,"132":-0.5103893876075745,"133":0.26470082998275757,"134":0.21119436621665955,"135":0.2662769854068756,"136":0.43944838643074036,"137":-0.6560214161872864,"138":-0.9454243183135986,"139":-0.3609309196472168,"140":0.024614544585347176,"141":0.9322370886802673,"142":-0.4456475079059601,"143":-0.5685318112373352,"144":0.2048795372247696}},"2":{"bias":-0.059548269957304,"weights":{"0":-1.6226624250411987,"1":-0.022143615409731865,"2":-0.3325095474720001,"3":0.5279332995414734,"4":-0.32856452465057373,"5":0.0018091064412146807,"6":0.015848655253648758,"7":0.35800424218177795,"8":-0.404076486825943,"9":-0.37271732091903687,"10":0.065652996301651,"11":-0.8209860920906067,"12":-0.14691846072673798,"13":0.1714826226234436,"14":-0.15056061744689941,"15":-0.06251374632120132,"16":0.3875422477722168,"17":0.08041232824325562,"18":0.11603622138500214,"19":0.22411207854747772,"20":0.5916074514389038,"21":0.5556575655937195,"22":0.04159574210643768,"23":0.19344112277030945,"24":-0.040179040282964706,"25":-0.8083114624023438,"26":-0.031047645956277847,"27":-1.3297092914581299,"28":0.27350443601608276,"29":0.9752999544143677,"30":1.0029613971710205,"31":0.33153101801872253,"32":0.13748705387115479,"33":0.19815419614315033,"34":-0.1429056078195572,"35":0.023995855823159218,"36":0.6992865800857544,"37":0.34311312437057495,"38":-0.5549622774124146,"39":-0.7233516573905945,"40":0.2819703221321106,"41":-1.1742500066757202,"42":-0.09057970345020294,"43":0.6780751943588257,"44":-0.3258366882801056,"45":0.27251964807510376,"46":0.14390875399112701,"47":-0.06981369107961655,"48":0.1984320729970932,"49":0.021888243034482002,"50":0.9522228837013245,"51":-0.45698094367980957,"52":-0.4829632639884949,"53":-0.4049384593963623,"54":0.26880988478660583,"55":-0.13664084672927856,"56":0.4934543967247009,"57":-0.4837839603424072,"58":-0.7935360074043274,"59":-0.005047359969466925,"60":0.46770986914634705,"61":-0.35987579822540283,"62":-0.8013039231300354,"63":-0.1350235491991043,"64":-0.26531893014907837,"65":-1.1052333116531372,"66":0.24203073978424072,"67":-0.5735571384429932,"68":-0.40130504965782166,"69":-1.8026843070983887,"70":0.8718741536140442,"71":-0.135531947016716,"72":-0.6262322068214417,"73":0.009245241992175579,"74":-0.09449312090873718,"75":0.04634746536612511,"76":0.3830057382583618,"77":0.24119099974632263,"78":0.590487539768219,"79":-0.31924644112586975,"80":-0.5137937664985657,"81":-0.006051305215805769,"82":-0.14203837513923645,"83":-0.43196356296539307,"84":0.012596412561833858,"85":0.7829634547233582,"86":-0.7451822757720947,"87":-0.6833280920982361,"88":0.10007523000240326,"89":0.16406866908073425,"90":-0.20189328491687775,"91":-0.6920632719993591,"92":0.16811615228652954,"93":0.3229042887687683,"94":0.0915270447731018,"95":0.05278949812054634,"96":-0.190982386469841,"97":-0.42996567487716675,"98":-0.06662535667419434,"99":-1.4309159517288208,"100":0.3159191608428955,"101":0.07954207807779312,"102":0.04254448786377907,"103":0.1222463995218277,"104":0.13770605623722076,"105":-0.8779486417770386,"106":0.7243065237998962,"107":0.12362070381641388,"108":-0.7855972647666931,"109":0.5998968482017517,"110":0.2098056972026825,"111":0.2723364531993866,"112":-0.3611951172351837,"113":0.07990042865276337,"114":0.7810376286506653,"115":-0.2746144235134125,"116":-0.10231243073940277,"117":-0.23566934466362,"118":-0.12987086176872253,"119":-0.019606944173574448,"120":-0.2307143211364746,"121":0.13900478184223175,"122":0.015378419309854507,"123":-0.11066486686468124,"124":-1.0594587326049805,"125":0.0509752593934536,"126":-0.3087116479873657,"127":-0.35365888476371765,"128":1.6574045419692993,"129":0.13258366286754608,"130":0.3114337623119354,"131":-0.42933619022369385,"132":0.08801308274269104,"133":0.2436048984527588,"134":0.6686329245567322,"135":0.7477172017097473,"136":0.580163836479187,"137":-0.46235954761505127,"138":0.6835803389549255,"139":0.24771611392498016,"140":0.2407909631729126,"141":-0.5735565423965454,"142":-0.06945760548114777,"143":-1.2391802072525024,"144":-0.3031562864780426}},"3":{"bias":-0.760749101638794,"weights":{"0":0.9279249310493469,"1":-0.4707869291305542,"2":-0.22930878400802612,"3":0.34500807523727417,"4":-0.1821296066045761,"5":-0.05189092457294464,"6":-0.04888242855668068,"7":-0.5043702125549316,"8":-1.0711359977722168,"9":0.3853731155395508,"10":-0.7375351190567017,"11":0.3348497450351715,"12":-0.14418168365955353,"13":-0.324849009513855,"14":-1.279934048652649,"15":-0.15977104008197784,"16":-0.7022770643234253,"17":-0.3080245852470398,"18":0.4835963249206543,"19":-0.07373514771461487,"20":0.6324464082717896,"21":0.6138535141944885,"22":1.126755714416504,"23":0.23879577219486237,"24":1.0630979537963867,"25":0.11288447678089142,"26":0.048419758677482605,"27":-0.7973765134811401,"28":-0.2573314309120178,"29":0.21620087325572968,"30":-1.508856177330017,"31":0.14883649349212646,"32":1.003184199333191,"33":-0.19992785155773163,"34":0.12883195281028748,"35":-0.07500958442687988,"36":0.20415794849395752,"37":1.9187461137771606,"38":0.5834363698959351,"39":0.554855465888977,"40":-0.9140222668647766,"41":1.6426479816436768,"42":-0.29810070991516113,"43":0.8351951837539673,"44":-0.3615504503250122,"45":-0.4991475045681,"46":-0.3863505721092224,"47":-0.006394470110535622,"48":0.26406681537628174,"49":0.04735908284783363,"50":1.042999505996704,"51":0.6033773422241211,"52":0.011599394492805004,"53":0.8702489733695984,"54":0.14323490858078003,"55":0.13080807030200958,"56":-0.6335363984107971,"57":0.24743445217609406,"58":0.3249209523200989,"59":-0.05136812478303909,"60":1.076163649559021,"61":-0.5259438753128052,"62":0.3141002953052521,"63":0.13264112174510956,"64":-0.7816168665885925,"65":0.18502801656723022,"66":-0.15605023503303528,"67":-0.08185321092605591,"68":0.3507654070854187,"69":0.45305657386779785,"70":-0.03692023828625679,"71":0.0625714510679245,"72":1.2292927503585815,"73":0.02660452574491501,"74":-0.04082835465669632,"75":-0.4870690703392029,"76":-0.30813467502593994,"77":0.3414557874202728,"78":0.21579621732234955,"79":-0.30444639921188354,"80":-0.8467593789100647,"81":-0.2512865662574768,"82":-0.221046581864357,"83":-0.11241411417722702,"84":0.0015057445270940661,"85":-0.29047492146492004,"86":-0.2335669845342636,"87":-0.5264522433280945,"88":-0.20237448811531067,"89":-1.5912330150604248,"90":-0.7876107096672058,"91":-0.19077305495738983,"92":0.22758601605892181,"93":0.002499770140275359,"94":-0.22721625864505768,"95":-0.7678027749061584,"96":-0.07534249871969223,"97":-0.9345629215240479,"98":0.42339593172073364,"99":0.8935169577598572,"100":-0.3010441064834595,"101":0.282915860414505,"102":0.06552913039922714,"103":-0.06841738522052765,"104":-0.45063745975494385,"105":0.8534507155418396,"106":0.1946679651737213,"107":0.6246128678321838,"108":-2.278625249862671,"109":0.5976497530937195,"110":-0.39970913529396057,"111":0.25088730454444885,"112":0.5105103254318237,"113":0.12242192029953003,"114":-0.24384833872318268,"115":-0.26060429215431213,"116":-0.23393867909908295,"117":0.13903142511844635,"118":0.9182233810424805,"119":-0.6713804006576538,"120":-0.14201083779335022,"121":-0.05554484948515892,"122":-0.266563355922699,"123":0.9193747639656067,"124":-1.0560507774353027,"125":-0.4009299874305725,"126":0.32777026295661926,"127":0.9180079698562622,"128":-0.9310025572776794,"129":-0.7455978393554688,"130":-0.3947744369506836,"131":0.15080317854881287,"132":-0.9066873788833618,"133":-0.5981791019439697,"134":0.6443105936050415,"135":0.08110829442739487,"136":-0.8863986134529114,"137":0.2304428219795227,"138":-1.5163027048110962,"139":-0.4227587878704071,"140":0.45750755071640015,"141":0.8967737555503845,"142":-0.056942377239465714,"143":-1.0075362920761108,"144":0.08437306433916092}},"4":{"bias":-0.4807201623916626,"weights":{"0":0.5139477849006653,"1":0.7625652551651001,"2":0.7488406896591187,"3":-0.9234527349472046,"4":0.468616783618927,"5":0.1664620190858841,"6":-0.35166284441947937,"7":0.11658217757940292,"8":0.5302906036376953,"9":0.3617793619632721,"10":0.3985772430896759,"11":0.44765833020210266,"12":-0.4190104305744171,"13":0.4292856752872467,"14":-0.4585014581680298,"15":0.37698599696159363,"16":0.5356661081314087,"17":-0.20959791541099548,"18":-0.1038237065076828,"19":1.1444610357284546,"20":-1.054751992225647,"21":0.20470455288887024,"22":0.6484508514404297,"23":-0.39308786392211914,"24":-0.5773168206214905,"25":-0.47408539056777954,"26":-0.2548747658729553,"27":0.5881609320640564,"28":-0.006580984685570002,"29":-0.36471542716026306,"30":-0.04850038141012192,"31":0.40475451946258545,"32":1.122762680053711,"33":-0.22295071184635162,"34":0.3545684516429901,"35":-0.4700913429260254,"36":-0.3282608687877655,"37":0.18686185777187347,"38":0.3539392948150635,"39":0.31501489877700806,"40":-1.1386775970458984,"41":-0.08701212704181671,"42":0.4266255795955658,"43":-0.09836994856595993,"44":-0.09020920097827911,"45":0.6093782782554626,"46":-0.13733726739883423,"47":-1.1049264669418335,"48":1.1665349006652832,"49":-1.4781825542449951,"50":-0.4647316634654999,"51":0.5143287181854248,"52":-0.23042595386505127,"53":-0.3663981258869171,"54":-0.1441979855298996,"55":-0.29355451464653015,"56":0.2874505817890167,"57":0.052323613315820694,"58":0.09794890135526657,"59":0.04637633636593819,"60":0.3395880162715912,"61":0.011287963949143887,"62":-0.6255218386650085,"63":0.21327614784240723,"64":-0.24179720878601074,"65":0.3436242341995239,"66":-0.014966817572712898,"67":-0.12832146883010864,"68":0.5482382774353027,"69":1.0273486375808716,"70":0.20169733464717865,"71":-0.19269903004169464,"72":-0.3349805176258087,"73":-0.045550428330898285,"74":0.4111883044242859,"75":-0.05732158571481705,"76":0.2794240415096283,"77":0.7834117412567139,"78":1.095169186592102,"79":0.08151424676179886,"80":-0.1502458155155182,"81":-0.516357958316803,"82":0.02176945097744465,"83":0.766915500164032,"84":-0.2778862416744232,"85":-0.19856953620910645,"86":-1.7189195156097412,"87":-0.38521116971969604,"88":0.0003586866660043597,"89":-0.04805748164653778,"90":-0.5204130411148071,"91":0.6792420744895935,"92":0.14450570940971375,"93":-0.6773598194122314,"94":-0.28197792172431946,"95":-0.6397789120674133,"96":0.10771126300096512,"97":-0.09313646703958511,"98":0.8923800587654114,"99":0.5593656301498413,"100":0.2521955072879791,"101":-0.4168112874031067,"102":-0.13218308985233307,"103":0.39762943983078003,"104":-0.2966774106025696,"105":-0.003338864538818598,"106":0.6951563954353333,"107":-0.17392101883888245,"108":-0.9002079963684082,"109":0.32843849062919617,"110":-0.20387917757034302,"111":0.13057948648929596,"112":0.2259698063135147,"113":-0.0864785835146904,"114":-1.5239040851593018,"115":0.17596741020679474,"116":0.13564936816692352,"117":-0.2585025131702423,"118":0.7632247805595398,"119":-0.7569251656532288,"120":0.6868028044700623,"121":0.409659206867218,"122":-0.14279109239578247,"123":-0.4426512122154236,"124":1.201289415359497,"125":0.31546536087989807,"126":0.4835692346096039,"127":-0.07268058508634567,"128":-1.0029501914978027,"129":-0.3640797436237335,"130":0.42246633768081665,"131":0.22693893313407898,"132":0.7880216836929321,"133":-0.44084590673446655,"134":-0.32360899448394775,"135":0.19704052805900574,"136":-0.7646920084953308,"137":-1.2161881923675537,"138":0.15076236426830292,"139":-0.6936674118041992,"140":-0.599235475063324,"141":0.032565437257289886,"142":-0.19055119156837463,"143":-1.2380540370941162,"144":-0.20878173410892487}},"5":{"bias":1.1074717044830322,"weights":{"0":0.2760345935821533,"1":-1.0671762228012085,"2":-0.20120981335639954,"3":0.48965269327163696,"4":-0.08398378640413284,"5":-0.05782313644886017,"6":-0.5041874647140503,"7":-0.7810590863227844,"8":0.15759937465190887,"9":-0.5355803370475769,"10":-0.4882049560546875,"11":0.5070075392723083,"12":-0.9165443778038025,"13":0.1546536237001419,"14":0.5028749108314514,"15":-0.46234557032585144,"16":-0.6629930138587952,"17":-0.45938605070114136,"18":1.0239861011505127,"19":0.4150674343109131,"20":0.023979442194104195,"21":1.7219189405441284,"22":-0.45427682995796204,"23":0.141154944896698,"24":0.43193843960762024,"25":1.2231546640396118,"26":0.04293248429894447,"27":-1.030470848083496,"28":-0.2720915675163269,"29":0.8826515078544617,"30":-1.1039366722106934,"31":0.07131568342447281,"32":-0.8397677540779114,"33":-0.40973377227783203,"34":0.020702391862869263,"35":-0.2799643278121948,"36":-0.6966692805290222,"37":-0.7404171824455261,"38":-0.3320220708847046,"39":0.5321338176727295,"40":-0.4543541669845581,"41":-0.09163589775562286,"42":0.0445379875600338,"43":1.1622800827026367,"44":0.11084181815385818,"45":-0.2632194459438324,"46":-0.4665498435497284,"47":0.35139787197113037,"48":0.88448566198349,"49":-1.802667260169983,"50":-0.3474132716655731,"51":-0.7780199646949768,"52":0.938703179359436,"53":0.7880797982215881,"54":-0.2103082835674286,"55":0.01968061737716198,"56":0.8094713687896729,"57":-0.14219915866851807,"58":0.013711526058614254,"59":-0.4557141661643982,"60":-0.8243594169616699,"61":-1.0361320972442627,"62":-0.013140223920345306,"63":-0.030387980863451958,"64":-0.024095863103866577,"65":-0.195858433842659,"66":0.5253795981407166,"67":-0.29615268111228943,"68":-0.23904913663864136,"69":0.08231756836175919,"70":0.8221075534820557,"71":-0.12747697532176971,"72":0.8521040081977844,"73":-0.37671980261802673,"74":-0.11133326590061188,"75":-0.15555931627750397,"76":-0.008857672102749348,"77":0.2130185067653656,"78":1.2691774368286133,"79":-0.4546542763710022,"80":-0.8141783475875854,"81":-0.0815565288066864,"82":-1.0224517583847046,"83":0.4897882044315338,"84":0.048185255378484726,"85":0.7504915595054626,"86":-0.04905460774898529,"87":0.2676529288291931,"88":-0.09694872051477432,"89":-0.39075636863708496,"90":-0.8951544761657715,"91":-0.3866874575614929,"92":-0.10459381341934204,"93":-0.5735333561897278,"94":0.4055560529232025,"95":-0.005112822633236647,"96":-1.1845484972000122,"97":-0.8445082902908325,"98":0.14865170419216156,"99":0.20230703055858612,"100":-0.1978508085012436,"101":-0.6824094653129578,"102":0.02222638763487339,"103":-0.12208353728055954,"104":-0.20689783990383148,"105":-0.5616855621337891,"106":-0.3672024607658386,"107":-0.3233918249607086,"108":-0.5587556958198547,"109":-1.476077675819397,"110":-0.02791011333465576,"111":-0.617731511592865,"112":0.35035815834999084,"113":0.15442955493927002,"114":-0.029775230213999748,"115":-0.992628276348114,"116":1.2839922904968262,"117":1.419734001159668,"118":-0.4722760021686554,"119":-0.21808622777462006,"120":-0.2269647866487503,"121":-0.14582863450050354,"122":-0.15554507076740265,"123":-0.8900264501571655,"124":0.5424373149871826,"125":-0.644555926322937,"126":-0.4406237304210663,"127":0.448986291885376,"128":0.0412803553044796,"129":0.1309041976928711,"130":-0.9520589709281921,"131":-0.3148079812526703,"132":0.3013588786125183,"133":-0.30002740025520325,"134":0.12190195173025131,"135":0.006516241002827883,"136":-0.23564819991588593,"137":-0.6421291828155518,"138":-0.8567637205123901,"139":0.4818197786808014,"140":-0.1023818850517273,"141":-0.22463008761405945,"142":0.23357976973056793,"143":-0.9583483934402466,"144":-0.04722603037953377}},"6":{"bias":-0.6658876538276672,"weights":{"0":0.5182743072509766,"1":-0.35427403450012207,"2":0.532839834690094,"3":1.1028077602386475,"4":0.8137368559837341,"5":0.2998904287815094,"6":-0.010769224725663662,"7":-0.06887805461883545,"8":0.2938212454319,"9":0.6326944231987,"10":-0.12286627292633057,"11":-0.8854227662086487,"12":1.2466005086898804,"13":-0.11628440022468567,"14":-0.11882646381855011,"15":0.3529009222984314,"16":-0.3798488974571228,"17":0.2685791254043579,"18":0.39095231890678406,"19":0.14690805971622467,"20":0.7483070492744446,"21":-0.6601581573486328,"22":0.6564008593559265,"23":0.10461538285017014,"24":0.3631789982318878,"25":0.21063722670078278,"26":-0.2264520823955536,"27":-0.9062902331352234,"28":-0.015448499470949173,"29":0.27093175053596497,"30":0.1285320520401001,"31":0.24071678519248962,"32":0.6022658348083496,"33":0.304694265127182,"34":0.07496064901351929,"35":-0.21427270770072937,"36":-0.26932448148727417,"37":0.2434852123260498,"38":0.28638356924057007,"39":0.6934581398963928,"40":0.2618008255958557,"41":-0.47831544280052185,"42":-0.1111045852303505,"43":0.23752275109291077,"44":0.14099213480949402,"45":-0.20952101051807404,"46":0.23421886563301086,"47":0.20433814823627472,"48":0.3625237047672272,"49":0.9595460891723633,"50":0.8953967094421387,"51":-0.08134034276008606,"52":-0.09874334931373596,"53":0.3949427902698517,"54":0.31135010719299316,"55":-0.17368102073669434,"56":0.6734544038772583,"57":0.532032310962677,"58":-0.07844898104667664,"59":0.44233348965644836,"60":-0.4973224699497223,"61":-0.4956543743610382,"62":-0.11143746227025986,"63":0.3554544150829315,"64":0.2741307020187378,"65":-0.03376426175236702,"66":0.26253706216812134,"67":0.1724644899368286,"68":-0.3468628525733948,"69":-1.269641637802124,"70":-0.522857129573822,"71":0.15594199299812317,"72":0.39590853452682495,"73":-0.09609406441450119,"74":0.034783247858285904,"75":0.32482901215553284,"76":0.03246917203068733,"77":0.8190177083015442,"78":0.09347373992204666,"79":0.08046883344650269,"80":0.3288370668888092,"81":0.25072550773620605,"82":0.3448840081691742,"83":-0.1588786393404007,"84":-0.16709154844284058,"85":-0.6599267721176147,"86":-0.7503311634063721,"87":0.19223618507385254,"88":-0.3807816207408905,"89":-0.533739447593689,"90":0.9278576970100403,"91":-0.42496854066848755,"92":0.17590485513210297,"93":-0.19768653810024261,"94":-0.24090953171253204,"95":0.21483322978019714,"96":-0.08239062130451202,"97":-0.5712081789970398,"98":-0.12897621095180511,"99":-0.18100304901599884,"100":-0.290679395198822,"101":0.13790243864059448,"102":0.12013914436101913,"103":-0.1476265788078308,"104":0.09445091336965561,"105":-0.5284954309463501,"106":0.40353700518608093,"107":0.41995885968208313,"108":-1.303439974784851,"109":0.40500789880752563,"110":-0.3382924497127533,"111":-0.04632899537682533,"112":0.2961679697036743,"113":-0.20047618448734283,"114":0.5799978971481323,"115":-0.6412803530693054,"116":0.3199688196182251,"117":0.7578898072242737,"118":-0.4846346080303192,"119":-0.05644599348306656,"120":0.047433871775865555,"121":0.2590996325016022,"122":0.04151208698749542,"123":-0.10733063519001007,"124":0.13058078289031982,"125":-0.6985254883766174,"126":-0.732702374458313,"127":-0.7571983337402344,"128":0.4114395081996918,"129":-0.04859432950615883,"130":0.03076212853193283,"131":0.052709586918354034,"132":0.0356178916990757,"133":-0.14233441650867462,"134":-0.6527539491653442,"135":0.71949303150177,"136":-0.34209296107292175,"137":-0.43339934945106506,"138":-0.713391125202179,"139":-0.40678298473358154,"140":0.0952475368976593,"141":0.08715415745973587,"142":-0.20998084545135498,"143":-0.31684333086013794,"144":-1.2204750776290894}},"7":{"bias":1.5310583114624023,"weights":{"0":-0.23542077839374542,"1":-0.11786668002605438,"2":-0.41441062092781067,"3":0.582352876663208,"4":-0.4736901819705963,"5":0.2821848392486572,"6":0.03721693903207779,"7":0.0021854520309716463,"8":-0.14432737231254578,"9":-0.9478588104248047,"10":-2.3574650287628174,"11":0.15319369733333588,"12":-0.14797738194465637,"13":0.12258291244506836,"14":0.29679185152053833,"15":-0.25306257605552673,"16":0.38066211342811584,"17":-0.2073214054107666,"18":0.6038969159126282,"19":0.14991408586502075,"20":-0.8033900856971741,"21":-0.605134129524231,"22":0.4315035343170166,"23":0.33897802233695984,"24":-0.44922536611557007,"25":-0.3916262984275818,"26":0.05073678120970726,"27":-0.23054306209087372,"28":-0.2542077898979187,"29":-0.2006908357143402,"30":-0.06197906658053398,"31":-0.6707579493522644,"32":0.2139846235513687,"33":0.15692169964313507,"34":0.29351264238357544,"35":-0.23868165910243988,"36":-0.011680355295538902,"37":0.11821397393941879,"38":0.24559056758880615,"39":0.1351528912782669,"40":0.9015471339225769,"41":0.5831313729286194,"42":0.40674564242362976,"43":0.5131778120994568,"44":0.20409002900123596,"45":-0.13835987448692322,"46":-0.11176828294992447,"47":-0.9271742701530457,"48":-0.5977226495742798,"49":-0.37614700198173523,"50":0.21866898238658905,"51":0.40894681215286255,"52":0.1620723307132721,"53":-0.5079805850982666,"54":0.3022603392601013,"55":0.08760260790586472,"56":-0.42427754402160645,"57":-0.6053029894828796,"58":0.4860772490501404,"59":-0.7760578393936157,"60":0.19408632814884186,"61":0.3463444411754608,"62":0.3260175883769989,"63":0.32058125734329224,"64":0.01260585431009531,"65":0.025879496708512306,"66":0.7738096714019775,"67":0.2778034210205078,"68":1.1305657625198364,"69":-0.9003977179527283,"70":-0.3607231080532074,"71":-0.25778257846832275,"72":0.3841782510280609,"73":0.05200737714767456,"74":-0.5843590497970581,"75":0.2584925591945648,"76":0.5329631567001343,"77":-0.8173732757568359,"78":0.17672863602638245,"79":-0.14909864962100983,"80":-0.3586370646953583,"81":0.4601540267467499,"82":-0.6845752596855164,"83":0.0381896048784256,"84":-0.23747028410434723,"85":-0.31417545676231384,"86":0.9676195383071899,"87":-0.6224719882011414,"88":0.40584591031074524,"89":-1.4953265190124512,"90":-0.4831489622592926,"91":0.23607638478279114,"92":0.3217417299747467,"93":0.10811354219913483,"94":-0.9680919051170349,"95":0.0453486405313015,"96":0.09775853902101517,"97":-0.37007632851600647,"98":0.4539828896522522,"99":-0.030493488535284996,"100":0.12658357620239258,"101":0.15148626267910004,"102":0.07074183970689774,"103":-0.2389693260192871,"104":0.11009423434734344,"105":0.4172765016555786,"106":-0.6711978912353516,"107":0.16522829234600067,"108":-0.8545792102813721,"109":0.7620672583580017,"110":0.8968273401260376,"111":0.2601257860660553,"112":-0.4159765839576721,"113":0.11433612555265427,"114":0.7205754518508911,"115":0.31686532497406006,"116":0.9105086326599121,"117":-1.0119411945343018,"118":-0.841452419757843,"119":0.39846763014793396,"120":0.20307360589504242,"121":0.31751906871795654,"122":0.07118990272283554,"123":1.624021291732788,"124":0.32875338196754456,"125":-0.02445082552731037,"126":0.11424770951271057,"127":-1.5702842473983765,"128":1.2657413482666016,"129":-0.09562791138887405,"130":-0.037396397441625595,"131":-0.5693725943565369,"132":0.8679142594337463,"133":0.011248170398175716,"134":0.871246337890625,"135":-1.0184602737426758,"136":0.263186514377594,"137":0.7056229114532471,"138":-0.17091844975948334,"139":0.6137353777885437,"140":-0.5264262557029724,"141":-0.7503064274787903,"142":-0.06322542577981949,"143":0.0399431511759758,"144":0.46198636293411255}}},{"0":{"bias":0.41924721002578735,"weights":{"0":0.1419072151184082,"1":0.5595871806144714,"2":-0.2308475822210312,"3":0.42018744349479675,"4":-0.24298278987407684,"5":0.3136093318462372,"6":0.005219834856688976,"7":0.31427615880966187}},"1":{"bias":0.2965017259120941,"weights":{"0":-0.33853447437286377,"1":1.9227591753005981,"2":-0.6013917326927185,"3":-1.795356035232544,"4":1.676607608795166,"5":1.553437352180481,"6":1.143450379371643,"7":1.7203572988510132}},"2":{"bias":-0.3408338129520416,"weights":{"0":-0.5907995104789734,"1":0.32290083169937134,"2":-0.31839779019355774,"3":-0.663312554359436,"4":0.6749948263168335,"5":0.14776180684566498,"6":0.27285388112068176,"7":0.10448548942804337}},"3":{"bias":-0.09769602864980698,"weights":{"0":-0.13226789236068726,"1":1.0702025890350342,"2":-0.24814505875110626,"3":-0.9758297801017761,"4":1.0602635145187378,"5":0.8427557945251465,"6":0.6816624999046326,"7":0.9118981957435608}},"4":{"bias":0.03225741162896156,"weights":{"0":-0.17433229088783264,"1":0.291211873292923,"2":-0.32057690620422363,"3":0.13697846233844757,"4":-0.12549179792404175,"5":0.20265647768974304,"6":0.3626101613044739,"7":0.03509730473160744}},"5":{"bias":0.19519458711147308,"weights":{"0":-0.2467576563358307,"1":0.271368145942688,"2":-0.2498297542333603,"3":0.043405432254076004,"4":0.06591210514307022,"5":0.3457242548465729,"6":0.3899001479148865,"7":0.21390897035598755}},"6":{"bias":-0.25021985173225403,"weights":{"0":-0.8422229886054993,"1":0.11033142358064651,"2":-0.7798891067504883,"3":-0.9109334945678711,"4":0.808916449546814,"5":0.5368964076042175,"6":0.29262253642082214,"7":0.02072542905807495}},"7":{"bias":-0.4732849597930908,"weights":{"0":-3.6037845611572266,"1":4.682564735412598,"2":-4.019172668457031,"3":-4.26119327545166,"4":4.2661261558532715,"5":4.484020709991455,"6":3.4044086933135986,"7":3.502016067504883}}},{"0":{"bias":2.9741368293762207,"weights":{"0":1.7098878622055054,"1":-1.4923464059829712,"2":0.727600634098053,"3":-0.02623666264116764,"4":1.3444628715515137,"5":1.4211512804031372,"6":0.744727611541748,"7":-6.772243976593018}}}],"outputLookup":false,"inputLookup":false,"activation":"sigmoid","trainOpts":{"iterations":20000,"errorThresh":0.003,"log":true,"logPeriod":10,"learningRate":0.05,"momentum":0.1,"callbackPeriod":10,"beta1":0.9,"beta2":0.999,"epsilon":1e-8}}