{"sizes":[145,8,8,1],"layers":[{"0":{},"1":{},"2":{},"3":{},"4":{},"5":{},"6":{},"7":{},"8":{},"9":{},"10":{},"11":{},"12":{},"13":{},"14":{},"15":{},"16":{},"17":{},"18":{},"19":{},"20":{},"21":{},"22":{},"23":{},"24":{},"25":{},"26":{},"27":{},"28":{},"29":{},"30":{},"31":{},"32":{},"33":{},"34":{},"35":{},"36":{},"37":{},"38":{},"39":{},"40":{},"41":{},"42":{},"43":{},"44":{},"45":{},"46":{},"47":{},"48":{},"49":{},"50":{},"51":{},"52":{},"53":{},"54":{},"55":{},"56":{},"57":{},"58":{},"59":{},"60":{},"61":{},"62":{},"63":{},"64":{},"65":{},"66":{},"67":{},"68":{},"69":{},"70":{},"71":{},"72":{},"73":{},"74":{},"75":{},"76":{},"77":{},"78":{},"79":{},"80":{},"81":{},"82":{},"83":{},"84":{},"85":{},"86":{},"87":{},"88":{},"89":{},"90":{},"91":{},"92":{},"93":{},"94":{},"95":{},"96":{},"97":{},"98":{},"99":{},"100":{},"101":{},"102":{},"103":{},"104":{},"105":{},"106":{},"107":{},"108":{},"109":{},"110":{},"111":{},"112":{},"113":{},"114":{},"115":{},"116":{},"117":{},"118":{},"119":{},"120":{},"121":{},"122":{},"123":{},"124":{},"125":{},"126":{},"127":{},"128":{},"129":{},"130":{},"131":{},"132":{},"133":{},"134":{},"135":{},"136":{},"137":{},"138":{},"139":{},"140":{},"141":{},"142":{},"143":{},"144":{}},{"0":{"bias":2.5429177284240723,"weights":{"0":0.7920655012130737,"1":-0.23041807115077972,"2":0.8514314889907837,"3":-0.3910957872867584,"4":-0.27479344606399536,"5":-0.09954772889614105,"6":-0.6772577166557312,"7":0.4523104727268219,"8":-0.921176552772522,"9":-0.37906548380851746,"10":0.048539649695158005,"11":-1.1292895078659058,"12":-0.6178048849105835,"13":0.8384414911270142,"14":0.010111571289598942,"15":-0.023529382422566414,"16":-0.038175635039806366,"17":0.3533667325973511,"18":-0.4654363989830017,"19":-0.3915466070175171,"20":-0.5985252261161804,"21":-1.0094352960586548,"22":-0.24060405790805817,"23":0.8763877749443054,"24":-1.7795603275299072,"25":-1.6020257472991943,"26":0.2805514633655548,"27":0.8690996170043945,"28":-0.49606597423553467,"29":-1.94145929813385,"30":0.25400981307029724,"31":0.41087138652801514,"32":-0.33758988976478577,"33":0.04342246055603027,"34":0.23953166604042053,"35":2.226215124130249,"36":-0.918199896812439,"37":1.138832926750183,"38":0.9080756306648254,"39":0.07125290483236313,"40":0.3775940537452698,"41":0.022130059078335762,"42":0.18635760247707367,"43":-1.1289927959442139,"44":0.36169978976249695,"45":0.3254496157169342,"46":0.2385665476322174,"47":-0.18257296085357666,"48":0.6239718198776245,"49":0.6427602767944336,"50":-0.28134363889694214,"51":1.44727623462677,"52":1.031803846359253,"53":-0.3533722162246704,"54":-0.07092921435832977,"55":-0.008574693463742733,"56":1.166114091873169,"57":-0.0950404480099678,"58":-0.9415435194969177,"59":-0.743566632270813,"60":0.9438872337341309,"61":0.43147504329681396,"62":0.2547447681427002,"63":0.0051050325855612755,"64":-1.0510555505752563,"65":-0.3586123287677765,"66":2.4144699573516846,"67":0.5245018601417542,"68":0.83586585521698,"69":-0.17843417823314667,"70":-1.2358053922653198,"71":0.1006491482257843,"72":0.8846945762634277,"73":0.1719965934753418,"74":0.8161773085594177,"75":0.04763688147068024,"76":0.9798722267150879,"77":-0.13807834684848785,"78":0.726890504360199,"79":-1.2693943977355957,"80":0.06167610362172127,"81":-0.1986447125673294,"82":-0.6683043241500854,"83":2.464128017425537,"84":-0.24092933535575867,"85":0.6574361324310303,"86":0.1694648712873459,"87":1.2582107782363892,"88":-0.5672951340675354,"89":0.9751503467559814,"90":1.4100334644317627,"91":-0.19413138926029205,"92":-0.06669756770133972,"93":-0.7437921166419983,"94":-1.1775766611099243,"95":-0.9221388697624207,"96":-0.6544740796089172,"97":-0.7788617014884949,"98":0.2766857445240021,"99":0.08607786148786545,"100":1.7507925033569336,"101":-0.5420871376991272,"102":0.397403359413147,"103":0.06254987418651581,"104":0.011675304733216763,"105":-0.670583188533783,"106":-0.027649102732539177,"107":1.7391632795333862,"108":1.887379765510559,"109":-0.8396981954574585,"110":-0.03232526034116745,"111":-1.2514712810516357,"112":1.0617775917053223,"113":-0.007930574007332325,"114":0.13933660089969635,"115":0.3071938455104828,"116":0.6949610114097595,"117":-0.38847243785858154,"118":-0.2947111129760742,"119":0.2522936761379242,"120":0.5059431195259094,"121":-0.20718346536159515,"122":-1.5681904554367065,"123":-0.08407659083604813,"124":1.6411212682724,"125":0.5244255661964417,"126":-0.4557708203792572,"127":-1.8595346212387085,"128":-0.35433658957481384,"129":-0.9768904447555542,"130":-0.9041730165481567,"131":-0.8626797795295715,"132":0.3759813606739044,"133":0.726320207118988,"134":0.5849382877349854,"135":-1.2705252170562744,"136":1.4893670082092285,"137":3.365036725997925,"138":0.9274071455001831,"139":0.06844328343868256,"140":-1.5952506065368652,"141":0.11330758035182953,"142":-0.5997380018234253,"143":0.6114704012870789,"144":-0.12964007258415222}},"1":{"bias":-1.332465648651123,"weights":{"0":0.45487362146377563,"1":-0.3402588367462158,"2":0.9788461327552795,"3":0.290506511926651,"4":0.555218517780304,"5":0.2054363638162613,"6":0.1781134009361267,"7":0.6571242213249207,"8":0.4431047737598419,"9":0.32498836517333984,"10":0.9745444059371948,"11":1.3406856060028076,"12":-1.4751274585723877,"13":0.19502022862434387,"14":1.3821215629577637,"15":-0.09468076378107071,"16":-0.03373480588197708,"17":-0.18691210448741913,"18":0.09542051702737808,"19":-0.4159885048866272,"20":-0.7571171522140503,"21":0.46387776732444763,"22":-0.6896770000457764,"23":0.16180315613746643,"24":0.7773219347000122,"25":-0.4280320107936859,"26":-0.02636835351586342,"27":-0.10480033606290817,"28":0.5965578556060791,"29":-0.22038690745830536,"30":-0.36079493165016174,"31":0.09850949794054031,"32":-0.7035197019577026,"33":-1.003557801246643,"34":0.4755762219429016,"35":1.234021544456482,"36":1.8419634103775024,"37":-1.3576432466506958,"38":-0.596807599067688,"39":-0.023817183449864388,"40":-0.46426331996917725,"41":0.07368887960910797,"42":0.2478320300579071,"43":-0.3740287125110626,"44":0.12872211635112762,"45":1.0541894435882568,"46":-0.20651063323020935,"47":0.8427666425704956,"48":-0.13014660775661469,"49":-1.741836667060852,"50":-0.5818945169448853,"51":-0.9667123556137085,"52":-0.653330385684967,"53":0.02664269134402275,"54":-0.20461992919445038,"55":-0.12126200646162033,"56":-1.3405699729919434,"57":-0.6666231751441956,"58":-0.2180265188217163,"59":-0.014961167238652706,"60":-0.1620359569787979,"61":0.8059127330780029,"62":0.07508835196495056,"63":-0.0292348712682724,"64":-1.6360950469970703,"65":-0.581695556640625,"66":-0.28655552864074707,"67":-0.8105325698852539,"68":-0.6901518106460571,"69":-0.3683100938796997,"70":1.2042573690414429,"71":0.28748080134391785,"72":0.9106148481369019,"73":0.11355174332857132,"74":0.16376884281635284,"75":-0.2164769023656845,"76":0.3042670488357544,"77":-0.40934494137763977,"78":-0.29809531569480896,"79":0.27594590187072754,"80":-1.0464264154434204,"81":-0.8985762000083923,"82":0.6965819597244263,"83":1.2715206146240234,"84":0.12097549438476562,"85":0.32526686787605286,"86":2.5307328701019287,"87":-1.4825679063796997,"88":1.3938525915145874,"89":0.09256653487682343,"90":-0.38103124499320984,"91":-0.23837323486804962,"92":0.33422011137008667,"93":-0.17685772478580475,"94":0.2706446349620819,"95":-0.5765202045440674,"96":0.0342070497572422,"97":-0.3056274354457855,"98":0.4504930377006531,"99":-1.534242033958435,"100":-0.03193049505352974,"101":-1.0909818410873413,"102":0.550577700138092,"103":-0.09496206790208817,"104":-0.122044637799263,"105":0.25089335441589355,"106":0.44244569540023804,"107":0.6500118970870972,"108":-0.051267143338918686,"109":0.3003184497356415,"110":0.17540541291236877,"111":1.4334335327148438,"112":-0.02549995854496956,"113":0.46083876490592957,"114":1.0511678457260132,"115":-0.7742238640785217,"116":-0.6975547671318054,"117":-1.0474404096603394,"118":0.2577575445175171,"119":-0.20477904379367828,"120":0.7397099137306213,"121":0.034002237021923065,"122":-1.0550310611724854,"123":-0.27212077379226685,"124":-0.10344450920820236,"125":-0.3784099221229553,"126":-0.3141266405582428,"127":-0.013121853582561016,"128":-1.5369776487350464,"129":-0.1720772683620453,"130":1.1001083850860596,"131":0.43789738416671753,"132":-0.22947441041469574,"133":0.3141658306121826,"134":0.6409009695053101,"135":0.6621519923210144,"136":-0.603187620639801,"137":-0.4545372426509857,"138":-1.3593254089355469,"139":-0.20709969103336334,"140":1.0337777137756348,"141":0.08175744116306305,"142":0.5423714518547058,"143":0.004268007352948189,"144":1.3242610692977905}},"2":{"bias":1.2790237665176392,"weights":{"0":-0.7340773344039917,"1":0.7325325012207031,"2":-1.297688364982605,"3":-0.03671511635184288,"4":-0.5324920415878296,"5":0.15645399689674377,"6":-1.4606746435165405,"7":0.1714411973953247,"8":-0.2341490089893341,"9":-0.7898630499839783,"10":-1.8118454217910767,"11":0.04077708348631859,"12":-1.2256852388381958,"13":-0.2854091227054596,"14":0.5914936065673828,"15":-0.34626954793930054,"16":-0.7839303016662598,"17":0.11976642161607742,"18":-0.5871434211730957,"19":-0.4972926378250122,"20":-0.10789893567562103,"21":1.0117299556732178,"22":0.41938531398773193,"23":0.6721239686012268,"24":0.1624724417924881,"25":0.2702499032020569,"26":-0.6288881897926331,"27":-0.45385780930519104,"28":-0.05163786932826042,"29":-0.9936655759811401,"30":0.24964183568954468,"31":-1.0567325353622437,"32":-0.11965745687484741,"33":0.31488198041915894,"34":0.24921701848506927,"35":1.950028419494629,"36":-0.6549963355064392,"37":-1.3300776481628418,"38":-0.6838959455490112,"39":0.05425635725259781,"40":0.424045205116272,"41":0.39467933773994446,"42":0.492100328207016,"43":-0.1623440831899643,"44":0.8578576445579529,"45":-0.19285985827445984,"46":-0.26046812534332275,"47":-0.0798623189330101,"48":-0.04809892550110817,"49":0.3111993372440338,"50":0.0542563833296299,"51":-1.325887680053711,"52":0.9195169806480408,"53":-0.022247042506933212,"54":-0.3768142759799957,"55":-0.36167722940444946,"56":-0.24244169890880585,"57":0.09532007575035095,"58":-0.3013625741004944,"59":-0.17409369349479675,"60":-1.4932039976119995,"61":-0.6320866346359253,"62":-1.5964049100875854,"63":-0.4395643472671509,"64":-0.22564920783042908,"65":-0.7679546475410461,"66":0.231596440076828,"67":-0.128075510263443,"68":0.37120333313941956,"69":0.17515841126441956,"70":0.2683616876602173,"71":-0.5134603381156921,"72":1.4551680088043213,"73":0.45435717701911926,"74":-0.883659839630127,"75":-0.9727115035057068,"76":0.6131248474121094,"77":-0.1504223644733429,"78":-0.42632871866226196,"79":-1.2189996242523193,"80":0.8644047379493713,"81":-0.1305662840604782,"82":-1.5155702829360962,"83":-0.2720682621002197,"84":-0.9914904236793518,"85":-0.06300088763237,"86":0.5133523941040039,"87":0.7007343769073486,"88":-0.4671536087989807,"89":-1.0717030763626099,"90":0.2366606444120407,"91":0.27942898869514465,"92":0.13740681111812592,"93":1.45233154296875,"94":0.8041481375694275,"95":-0.04265959560871124,"96":-0.2863474190235138,"97":0.17800626158714294,"98":-0.23859642446041107,"99":-0.3853258490562439,"100":-0.35149356722831726,"101":-0.821485698223114,"102":0.9615648984909058,"103":-0.26895734667778015,"104":-0.290964275598526,"105":0.7873690128326416,"106":-0.1882581263780594,"107":0.12489688396453857,"108":0.2746444046497345,"109":-1.0756129026412964,"110":0.9179036617279053,"111":0.3744752109050751,"112":0.214656800031662,"113":-0.40443649888038635,"114":-0.3085644841194153,"115":0.26639923453330994,"116":0.7477823495864868,"117":0.9098019599914551,"118":-0.3229086101055145,"119":-0.3034477233886719,"120":0.5346091985702515,"121":-0.2277172952890396,"122":0.032537393271923065,"123":-0.5311072468757629,"124":0.8480024337768555,"125":-0.13047277927398682,"126":-0.4309481978416443,"127":-1.106153130531311,"128":0.24343396723270416,"129":0.3428524136543274,"130":-0.6122926473617554,"131":-0.5473821759223938,"132":0.9513463377952576,"133":-0.27247998118400574,"134":-0.5117800235748291,"135":-0.6882797479629517,"136":0.20559978485107422,"137":-0.006557431537657976,"138":-0.14022795855998993,"139":0.07249797880649567,"140":-1.0012999773025513,"141":-0.01373805571347475,"142":-0.26412203907966614,"143":0.7179787755012512,"144":-0.4585074484348297}},"3":{"bias":-0.3310270309448242,"weights":{"0":1.92898428440094,"1":-0.21642060577869415,"2":-0.6412211656570435,"3":0.36870238184928894,"4":-0.3545536696910858,"5":0.07238681614398956,"6":1.3623398542404175,"7":1.0233837366104126,"8":-0.8914527893066406,"9":-0.20098449289798737,"10":0.8806039094924927,"11":-0.6177912354469299,"12":1.088991641998291,"13":0.17063362896442413,"14":-0.10503748059272766,"15":-0.07913616299629211,"16":0.1698468178510666,"17":0.3439757227897644,"18":-1.3888641595840454,"19":0.1257099211215973,"20":0.4802055060863495,"21":0.3826088607311249,"22":-0.687082052230835,"23":-0.4492766559123993,"24":-0.25935325026512146,"25":0.3271125853061676,"26":-0.10630889981985092,"27":0.8733665943145752,"28":-0.08384282886981964,"29":0.4317147731781006,"30":0.6897265911102295,"31":-0.9238859415054321,"32":0.9053295254707336,"33":-2.103487014770508,"34":0.457123726606369,"35":-2.5577120780944824,"36":2.2562055587768555,"37":0.8061292767524719,"38":-0.2650500237941742,"39":0.5426875352859497,"40":-0.3303356468677521,"41":-0.5042868852615356,"42":0.38964319229125977,"43":-1.5213072299957275,"44":0.461014062166214,"45":-1.2820545434951782,"46":-0.23754659295082092,"47":-0.2782563865184784,"48":0.45918479561805725,"49":1.3434185981750488,"50":1.2235344648361206,"51":0.6379819512367249,"52":-0.5203565955162048,"53":-0.8037191033363342,"54":-0.42264050245285034,"55":-0.0251945611089468,"56":0.00904576200991869,"57":0.18666905164718628,"58":1.1062078475952148,"59":0.6074901819229126,"60":-1.9152848720550537,"61":0.32838043570518494,"62":1.1786389350891113,"63":-0.10006759315729141,"64":0.223524808883667,"65":1.149393081665039,"66":-0.3627766966819763,"67":0.5912868976593018,"68":1.03056001663208,"69":-0.07924012094736099,"70":0.4218159317970276,"71":0.34461408853530884,"72":-1.4721976518630981,"73":0.5367854833602905,"74":0.07508605718612671,"75":0.2550627291202545,"76":-2.652362108230591,"77":0.7143530249595642,"78":-0.6732426881790161,"79":0.6927279233932495,"80":-0.875762403011322,"81":0.14647994935512543,"82":0.43847230076789856,"83":-0.23018713295459747,"84":-0.5922629237174988,"85":0.12583863735198975,"86":-0.19147372245788574,"87":-0.1626691222190857,"88":-0.2838176190853119,"89":0.05705016106367111,"90":0.4788852632045746,"91":-0.12948720157146454,"92":0.22924326360225677,"93":-0.2830166816711426,"94":0.756865382194519,"95":2.039092540740967,"96":-0.06146388500928879,"97":0.2973755896091461,"98":-1.4346766471862793,"99":-0.22809547185897827,"100":-0.5887980461120605,"101":1.1656012535095215,"102":-0.40612518787384033,"103":0.21997341513633728,"104":0.20219941437244415,"105":0.630652666091919,"106":0.6052682995796204,"107":-0.6303677558898926,"108":0.7624484896659851,"109":0.05322076007723808,"110":0.19990500807762146,"111":0.1248733401298523,"112":-0.1491442322731018,"113":-0.1181158721446991,"114":0.2917732000350952,"115":-0.29214879870414734,"116":-0.794103741645813,"117":-0.05772945284843445,"118":-1.279365062713623,"119":-0.399881511926651,"120":0.21302182972431183,"121":-0.28957507014274597,"122":1.8084524869918823,"123":0.2116132378578186,"124":-0.27758145332336426,"125":1.0789639949798584,"126":0.5800262093544006,"127":-1.8088209629058838,"128":-1.1792773008346558,"129":1.1115773916244507,"130":0.33971530199050903,"131":0.33228743076324463,"132":0.8564989566802979,"133":0.8984096646308899,"134":1.1098802089691162,"135":-0.2968224585056305,"136":-1.2495076656341553,"137":0.2911136746406555,"138":1.9617223739624023,"139":0.4664471745491028,"140":0.6913062930107117,"141":-0.09904629737138748,"142":0.05908595398068428,"143":-0.8183764219284058,"144":-0.29025402665138245}},"4":{"bias":0.11990281194448471,"weights":{"0":0.6858175992965698,"1":0.8660598397254944,"2":-1.7749463319778442,"3":-0.9654299020767212,"4":2.1256487369537354,"5":-0.5130165815353394,"6":1.0799771547317505,"7":0.07530399411916733,"8":-1.255805253982544,"9":0.5546560883522034,"10":0.21412967145442963,"11":0.4525856673717499,"12":2.4178080558776855,"13":0.27671921253204346,"14":-0.6747917532920837,"15":-0.43772342801094055,"16":-0.7497034072875977,"17":-0.1995554268360138,"18":-1.413223385810852,"19":-0.42002055048942566,"20":-1.213749885559082,"21":-1.3191701173782349,"22":-0.709678590297699,"23":0.604019284248352,"24":0.5187373757362366,"25":-0.9166499972343445,"26":-0.403133749961853,"27":-0.14296354353427887,"28":-1.316888451576233,"29":-0.09930413216352463,"30":0.18085697293281555,"31":-0.05781878903508186,"32":0.047178417444229126,"33":0.35694172978401184,"34":-0.42971858382225037,"35":-0.9171530604362488,"36":-0.0781249850988388,"37":-2.4105327129364014,"38":0.4017271399497986,"39":0.6085063219070435,"40":-1.1365407705307007,"41":-0.39132413268089294,"42":0.025309257209300995,"43":-1.126339077949524,"44":0.7583203315734863,"45":0.484995573759079,"46":-0.4593476951122284,"47":-0.3516348898410797,"48":-1.2193820476531982,"49":1.1704902648925781,"50":-1.9928303956985474,"51":-0.25906991958618164,"52":0.40944287180900574,"53":0.4902511239051819,"54":0.25258076190948486,"55":-0.04878205806016922,"56":0.49875643849372864,"57":-0.6505997180938721,"58":1.6504628658294678,"59":0.015546214766800404,"60":0.3191700279712677,"61":-0.9574066996574402,"62":0.9598352909088135,"63":-0.19361728429794312,"64":-0.5614294409751892,"65":0.12996020913124084,"66":-0.24597814679145813,"67":0.6139093041419983,"68":-0.285724401473999,"69":0.49814558029174805,"70":0.45433276891708374,"71":-2.5879859924316406,"72":0.4584537744522095,"73":0.31235021352767944,"74":-0.17672736942768097,"75":-0.35217949748039246,"76":-0.9825963973999023,"77":-0.39873936772346497,"78":0.45834705233573914,"79":0.5473818778991699,"80":0.26945212483406067,"81":-0.012776801362633705,"82":0.7123703360557556,"83":0.6530904769897461,"84":0.37635770440101624,"85":0.1417592167854309,"86":-1.9186381101608276,"87":1.9944466352462769,"88":-0.5163050293922424,"89":1.0818955898284912,"90":0.7450015544891357,"91":1.9233880043029785,"92":-0.5653640031814575,"93":-0.18160313367843628,"94":-0.880875289440155,"95":-1.4383049011230469,"96":0.7183430790901184,"97":0.6280988454818726,"98":-1.1350010633468628,"99":1.0526816844940186,"100":-0.41816315054893494,"101":-1.0323551893234253,"102":0.13906221091747284,"103":0.27133703231811523,"104":0.446060448884964,"105":-1.1167657375335693,"106":-0.5224320888519287,"107":1.6109848022460938,"108":1.565613865852356,"109":-1.0919294357299805,"110":-0.2436661720275879,"111":-0.031111370772123337,"112":0.015843838453292847,"113":0.1884545087814331,"114":-0.8337997794151306,"115":-0.5093702673912048,"116":-2.106252431869507,"117":0.09139217436313629,"118":1.9694430828094482,"119":0.39230120182037354,"120":0.46063849329948425,"121":0.10724369436502457,"122":1.7440173625946045,"123":-2.4223814010620117,"124":1.2260175943374634,"125":0.7560012340545654,"126":1.3110603094100952,"127":-3.322441577911377,"128":0.39361804723739624,"129":0.9849795699119568,"130":-0.09858108311891556,"131":0.1692783087491989,"132":0.15050223469734192,"133":0.5409701466560364,"134":-0.470811665058136,"135":0.4948979914188385,"136":-1.9270708560943604,"137":-0.2856033146381378,"138":-0.24564048647880554,"139":-0.39909836649894714,"140":-0.5334019064903259,"141":-0.12789182364940643,"142":0.45901650190353394,"143":0.4202222228050232,"144":-0.31547966599464417}},"5":{"bias":-1.9608676433563232,"weights":{"0":-1.4701390266418457,"1":0.5794973373413086,"2":-0.16377240419387817,"3":0.48166510462760925,"4":-0.1279384195804596,"5":-0.07009100168943405,"6":-3.10125994682312,"7":-0.39278745651245117,"8":0.9780431985855103,"9":1.3007670640945435,"10":-0.5122089982032776,"11":1.8833210468292236,"12":-0.7781420350074768,"13":0.10095468163490295,"14":-0.775634229183197,"15":-0.3733466863632202,"16":-0.3857477605342865,"17":0.05839079990983009,"18":-1.8649104833602905,"19":-0.31641867756843567,"20":-2.732236862182617,"21":-0.5611517429351807,"22":2.6788768768310547,"23":-0.7910929322242737,"24":-0.20453354716300964,"25":0.21292532980442047,"26":0.22897177934646606,"27":1.1107505559921265,"28":0.4547310471534729,"29":-2.2380144596099854,"30":-1.3999743461608887,"31":-0.1508379727602005,"32":-1.0191465616226196,"33":-1.248868703842163,"34":-0.38545742630958557,"35":-0.0756097212433815,"36":0.7637177109718323,"37":2.0898642539978027,"38":-0.692673921585083,"39":0.5333705544471741,"40":-0.32949891686439514,"41":0.6127095818519592,"42":-0.10762862116098404,"43":-0.42127546668052673,"44":0.3304191827774048,"45":0.7612951397895813,"46":0.14474426209926605,"47":0.1829502135515213,"48":-0.1419554203748703,"49":0.03311104699969292,"50":-1.2086455821990967,"51":-0.679817259311676,"52":-0.2703535854816437,"53":0.23343154788017273,"54":-0.8773209452629089,"55":0.46999862790107727,"56":-0.7074097990989685,"57":-0.29571884870529175,"58":-0.14674660563468933,"59":0.36458906531333923,"60":-0.5241703391075134,"61":0.34421586990356445,"62":-0.24344676733016968,"63":0.06411062180995941,"64":-0.3335496485233307,"65":-0.35032331943511963,"66":-0.9518662691116333,"67":0.10256705433130264,"68":1.5250195264816284,"69":0.534227192401886,"70":0.6809462308883667,"71":2.2133126258850098,"72":0.12731081247329712,"73":-0.009914476424455643,"74":-0.4159000813961029,"75":-0.03547098487615585,"76":0.7473638653755188,"77":-0.010245940648019314,"78":0.031092749908566475,"79":-0.19137656688690186,"80":-0.80507493019104,"81":-0.7391483187675476,"82":0.08704815059900284,"83":-0.012714986689388752,"84":0.5939927697181702,"85":0.6020335555076599,"86":2.739302635192871,"87":-0.03926742076873779,"88":0.6129195690155029,"89":0.5323513746261597,"90":0.48077356815338135,"91":-0.4979616403579712,"92":0.057118453085422516,"93":0.7203102707862854,"94":0.10844283550977707,"95":-1.2870616912841797,"96":-0.46026474237442017,"97":0.2794596552848816,"98":-0.6042701005935669,"99":0.0976453498005867,"100":1.2464908361434937,"101":1.683461308479309,"102":0.1172613874077797,"103":0.2499624341726303,"104":0.015341708436608315,"105":-0.16873301565647125,"106":0.0032313766423612833,"107":-0.3247453570365906,"108":1.4935623407363892,"109":-1.195186972618103,"110":-1.1171663999557495,"111":0.3828665316104889,"112":0.8556176424026489,"113":0.12305683642625809,"114":1.3534717559814453,"115":0.05063758045434952,"116":-0.7248043417930603,"117":0.5169785022735596,"118":-1.4972524642944336,"119":0.47148171067237854,"120":0.572041928768158,"121":0.10291753709316254,"122":0.03475889191031456,"123":-0.43351396918296814,"124":0.40171927213668823,"125":-0.05946417897939682,"126":-0.27038678526878357,"127":-1.7953453063964844,"128":-0.38842907547950745,"129":-0.14261260628700256,"130":0.11551687121391296,"131":-0.17581570148468018,"132":-0.06641782075166702,"133":-0.019781826063990593,"134":-0.35760053992271423,"135":-0.06102516129612923,"136":-0.7164282202720642,"137":-2.288712978363037,"138":-0.34323617815971375,"139":-0.9315364360809326,"140":0.17023231089115143,"141":0.3446202874183655,"142":0.1368032544851303,"143":0.23634061217308044,"144":0.6475349068641663}},"6":{"bias":0.7793896198272705,"weights":{"0":2.6346325874328613,"1":-0.005174495279788971,"2":-0.6892053484916687,"3":-0.01184101216495037,"4":-1.2649686336517334,"5":0.32479533553123474,"6":2.022137403488159,"7":0.6904204487800598,"8":-1.3941500186920166,"9":-1.1346237659454346,"10":-0.1950491964817047,"11":-0.7732298374176025,"12":-1.4477726221084595,"13":0.12968571484088898,"14":1.3662083148956299,"15":0.8821421265602112,"16":0.2559261918067932,"17":-1.0000901222229004,"18":1.1622204780578613,"19":0.4536665678024292,"20":-0.26974475383758545,"21":1.446679949760437,"22":-1.4060264825820923,"23":0.5755189061164856,"24":-0.14585591852664948,"25":-0.6777980327606201,"26":-0.607697606086731,"27":1.0980820655822754,"28":0.7633047699928284,"29":-0.03492453321814537,"30":-0.33388060331344604,"31":0.164674311876297,"32":0.7640597820281982,"33":0.4714065492153168,"34":0.1801343858242035,"35":-0.15585888922214508,"36":0.9010909199714661,"37":-0.16108381748199463,"38":-0.10448238998651505,"39":-0.7849994897842407,"40":0.08757364004850388,"41":-0.613570511341095,"42":0.6044407486915588,"43":0.03393493965268135,"44":0.4407767355442047,"45":0.4051315188407898,"46":-0.15881969034671783,"47":-0.2587153911590576,"48":-0.44382914900779724,"49":0.5639364123344421,"50":1.1957217454910278,"51":-0.23498328030109406,"52":0.7512120604515076,"53":0.2099873572587967,"54":-0.3709370791912079,"55":-0.6564663052558899,"56":0.9065408706665039,"57":0.7175723910331726,"58":-2.7602195739746094,"59":0.2690393328666687,"60":-0.47557148337364197,"61":0.9684340357780457,"62":-1.118607997894287,"63":0.49291378259658813,"64":1.177616834640503,"65":0.6415627002716064,"66":1.8397774696350098,"67":0.06586787849664688,"68":0.3696310520172119,"69":-0.2518497407436371,"70":-0.6917338967323303,"71":-0.06567912548780441,"72":0.5096395611763,"73":0.8102906942367554,"74":0.37541449069976807,"75":0.2518821954727173,"76":-0.04519486799836159,"77":-0.7883074879646301,"78":-1.9091020822525024,"79":1.5852512121200562,"80":0.6765322685241699,"81":0.40285244584083557,"82":-0.18520931899547577,"83":0.0907914862036705,"84":-0.5015084147453308,"85":0.6672188639640808,"86":0.9480360150337219,"87":-1.757620096206665,"88":-0.592075765132904,"89":1.8381370306015015,"90":-0.01489182561635971,"91":-1.8560700416564941,"92":0.1259005218744278,"93":-1.882390022277832,"94":1.1679315567016602,"95":-0.725659966468811,"96":-0.23852947354316711,"97":0.7693198323249817,"98":-0.9264748096466064,"99":-1.4927595853805542,"100":0.6371003985404968,"101":0.7116753458976746,"102":0.4274543523788452,"103":-0.5273312926292419,"104":0.5359897613525391,"105":0.6825470328330994,"106":0.022797804325819016,"107":-0.5205991864204407,"108":-2.15149188041687,"109":0.9599782824516296,"110":0.9735528230667114,"111":1.2130444049835205,"112":0.9583473205566406,"113":-0.3411780297756195,"114":0.8764789700508118,"115":0.14374575018882751,"116":1.0730347633361816,"117":-0.06391924619674683,"118":-0.0031427680514752865,"119":-1.0964200496673584,"120":1.333480954170227,"121":0.7714217305183411,"122":-2.019822120666504,"123":-1.3771591186523438,"124":-0.8083416223526001,"125":1.7517577409744263,"126":-0.09932905435562134,"127":1.1641314029693604,"128":-1.3598337173461914,"129":0.791373610496521,"130":1.3150748014450073,"131":0.751563549041748,"132":-0.68338543176651,"133":0.2349289059638977,"134":1.701235294342041,"135":1.842294454574585,"136":0.3197964131832123,"137":-0.9135994911193848,"138":1.8805387020111084,"139":0.7172799706459045,"140":0.7499191761016846,"141":-0.02880779467523098,"142":-0.5472796559333801,"143":-0.9058984518051147,"144":-0.4511668384075165}},"7":{"bias":0.34015965461730957,"weights":{"0":-0.16631872951984406,"1":-0.7481338381767273,"2":-0.13219141960144043,"3":0.5806552767753601,"4":-0.6030247211456299,"5":0.003085335483774543,"6":-0.9259091019630432,"7":0.622207522392273,"8":-0.13862387835979462,"9":-0.11689039319753647,"10":0.32867681980133057,"11":-0.0992995947599411,"12":-1.0873990058898926,"13":-0.5212650299072266,"14":0.175109401345253,"15":-0.5169485807418823,"16":-0.13628491759300232,"17":-1.1010080575942993,"18":-0.4615519344806671,"19":1.145435094833374,"20":2.537236452102661,"21":1.4259341955184937,"22":0.13714300096035004,"23":-0.5293031334877014,"24":-1.0172476768493652,"25":0.4849037826061249,"26":0.22704525291919708,"27":-0.7197707891464233,"28":-0.29948967695236206,"29":-0.9428354501724243,"30":1.091372013092041,"31":-0.5698225498199463,"32":-0.18963883817195892,"33":-2.1072564125061035,"34":-0.23305028676986694,"35":1.0619020462036133,"36":0.6596806049346924,"37":1.6070935726165771,"38":-0.1338767558336258,"39":0.15725252032279968,"40":0.8168216347694397,"41":0.5266398191452026,"42":0.8129198551177979,"43":-1.1405174732208252,"44":-0.5982919335365295,"45":-0.5932230353355408,"46":-0.545391857624054,"47":0.004488617181777954,"48":-0.43131160736083984,"49":0.4127713441848755,"50":1.5536829233169556,"51":1.0217243432998657,"52":-0.5218905806541443,"53":-1.3879324197769165,"54":-0.043714702129364014,"55":-0.015754692256450653,"56":-1.4906424283981323,"57":-0.30359962582588196,"58":1.664061427116394,"59":-0.7676106095314026,"60":0.9214252233505249,"61":-0.29099902510643005,"62":1.6246227025985718,"63":0.03961893543601036,"64":0.3918183445930481,"65":-1.116815447807312,"66":-0.14881272614002228,"67":-0.1576291173696518,"68":0.026754125952720642,"69":-0.7224884033203125,"70":0.81358402967453,"71":0.5076719522476196,"72":0.018117636442184448,"73":0.5596218705177307,"74":-0.3282666802406311,"75":0.10467598587274551,"76":-0.07705134898424149,"77":-0.028682976961135864,"78":0.06075790524482727,"79":-2.7461020946502686,"80":-1.653801679611206,"81":0.325192928314209,"82":-0.10337100923061371,"83":-0.5877838134765625,"84":0.43996939063072205,"85":-0.6183390021324158,"86":0.7794103026390076,"87":-1.4192308187484741,"88":0.3843441605567932,"89":-0.03637026622891426,"90":0.5231168866157532,"91":-0.9897856712341309,"92":-0.4187138080596924,"93":1.5573924779891968,"94":1.6605379581451416,"95":0.25577008724212646,"96":-0.9418238997459412,"97":-0.6718149781227112,"98":0.6849653124809265,"99":-0.49172425270080566,"100":0.20309558510780334,"101":-0.06145422160625458,"102":0.7089424133300781,"103":-0.12474221736192703,"104":0.4215431213378906,"105":0.5455387234687805,"106":-0.5424460768699646,"107":-0.8464428782463074,"108":2.677950620651245,"109":-0.010407953523099422,"110":0.4576433300971985,"111":-0.06036676838994026,"112":-0.4241217076778412,"113":0.6340323090553284,"114":-0.36787402629852295,"115":-0.0788293182849884,"116":0.6961111426353455,"117":-0.35103845596313477,"118":-1.3873754739761353,"119":-0.22736845910549164,"120":-1.395383596420288,"121":0.20477066934108734,"122":1.8333516120910645,"123":1.8905621767044067,"124":-0.5573351383209229,"125":0.16997551918029785,"126":-0.19716955721378326,"127":-0.20112445950508118,"128":-0.8025931119918823,"129":-0.4396939277648926,"130":-0.4500223696231842,"131":-0.6486372947692871,"132":-0.5190295577049255,"133":0.24912486970424652,"134":0.22067312896251678,"135":1.3563141822814941,"136":0.36627277731895447,"137":1.5219013690948486,"138":1.1297988891601562,"139":0.6054413318634033,"140":-0.19382192194461823,"141":-1.0388660430908203,"142":0.17532823979854584,"143":0.7359918355941772,"144":0.5882379412651062}}},{"0":{"bias":-0.5555956363677979,"weights":{"0":-0.4405210316181183,"1":0.13157789409160614,"2":0.002838354092091322,"3":-0.19605973362922668,"4":-0.5346684455871582,"5":-0.4077882766723633,"6":-0.6709273457527161,"7":-0.48122119903564453}},"1":{"bias":-1.351216197013855,"weights":{"0":-3.4834163188934326,"1":-1.7511897087097168,"2":-1.1880768537521362,"3":-1.3651825189590454,"4":1.7538807392120361,"5":1.0810024738311768,"6":1.3434041738510132,"7":0.455693781375885}},"2":{"bias":-0.7922022938728333,"weights":{"0":-0.3819887638092041,"1":0.1417713761329651,"2":-0.1838855892419815,"3":-0.2289556860923767,"4":-0.1312844306230545,"5":-0.10084521770477295,"6":-0.28142693638801575,"7":1.0272785425186157}},"3":{"bias":-0.24278970062732697,"weights":{"0":-0.24775172770023346,"1":0.7500113248825073,"2":-1.51016104221344,"3":-0.8723407983779907,"4":-1.055892825126648,"5":-0.0016954554012045264,"6":-1.0573126077651978,"7":-0.5201396346092224}},"4":{"bias":-0.9761870503425598,"weights":{"0":1.6279940605163574,"1":0.9874281287193298,"2":-0.6933364868164062,"3":0.04098188504576683,"4":-1.5059770345687866,"5":-1.0959709882736206,"6":-0.9985212087631226,"7":-1.1837488412857056}},"5":{"bias":-1.0421006679534912,"weights":{"0":-2.19808292388916,"1":-0.948294460773468,"2":-0.8997241854667664,"3":-0.645031213760376,"4":0.7636246681213379,"5":0.22453300654888153,"6":0.7663332223892212,"7":-0.1552213430404663}},"6":{"bias":2.854200601577759,"weights":{"0":8.412253379821777,"1":5.898225784301758,"2":5.477097034454346,"3":6.070837497711182,"4":-5.3233561515808105,"5":-6.006083011627197,"6":-5.964852333068848,"7":-5.488551139831543}},"7":{"bias":-0.8222605586051941,"weights":{"0":-0.17074193060398102,"1":0.09539264440536499,"2":-0.28768670558929443,"3":0.228636234998703,"4":-0.27308011054992676,"5":-0.15579773485660553,"6":-0.27885475754737854,"7":-0.3311727046966553}}},{"0":{"bias":4.765212535858154,"weights":{"0":-0.06114649772644043,"1":2.2965121269226074,"2":0.906157374382019,"3":-0.9881961941719055,"4":1.5577027797698975,"5":1.0936366319656372,"6":-6.473556995391846,"7":0.24092742800712585}}}],"outputLookup":false,"inputLookup":false,"activation":"sigmoid","trainOpts":{"iterations":20000,"errorThresh":0.003,"log":true,"logPeriod":10,"learningRate":0.05,"momentum":0.1,"callbackPeriod":10,"beta1":0.9,"beta2":0.999,"epsilon":1e-8}}