{"sizes":[145,8,8,1],"layers":[{"0":{},"1":{},"2":{},"3":{},"4":{},"5":{},"6":{},"7":{},"8":{},"9":{},"10":{},"11":{},"12":{},"13":{},"14":{},"15":{},"16":{},"17":{},"18":{},"19":{},"20":{},"21":{},"22":{},"23":{},"24":{},"25":{},"26":{},"27":{},"28":{},"29":{},"30":{},"31":{},"32":{},"33":{},"34":{},"35":{},"36":{},"37":{},"38":{},"39":{},"40":{},"41":{},"42":{},"43":{},"44":{},"45":{},"46":{},"47":{},"48":{},"49":{},"50":{},"51":{},"52":{},"53":{},"54":{},"55":{},"56":{},"57":{},"58":{},"59":{},"60":{},"61":{},"62":{},"63":{},"64":{},"65":{},"66":{},"67":{},"68":{},"69":{},"70":{},"71":{},"72":{},"73":{},"74":{},"75":{},"76":{},"77":{},"78":{},"79":{},"80":{},"81":{},"82":{},"83":{},"84":{},"85":{},"86":{},"87":{},"88":{},"89":{},"90":{},"91":{},"92":{},"93":{},"94":{},"95":{},"96":{},"97":{},"98":{},"99":{},"100":{},"101":{},"102":{},"103":{},"104":{},"105":{},"106":{},"107":{},"108":{},"109":{},"110":{},"111":{},"112":{},"113":{},"114":{},"115":{},"116":{},"117":{},"118":{},"119":{},"120":{},"121":{},"122":{},"123":{},"124":{},"125":{},"126":{},"127":{},"128":{},"129":{},"130":{},"131":{},"132":{},"133":{},"134":{},"135":{},"136":{},"137":{},"138":{},"139":{},"140":{},"141":{},"142":{},"143":{},"144":{}},{"0":{"bias":-0.3164297938346863,"weights":{"0":-0.5316490530967712,"1":-0.9338544011116028,"2":1.38306725025177,"3":0.15723060071468353,"4":1.7541903257369995,"5":-0.28340795636177063,"6":0.08498697727918625,"7":-0.6346046328544617,"8":-0.29496797919273376,"9":0.5662210583686829,"10":0.2934240400791168,"11":1.2035084962844849,"12":-0.9763460159301758,"13":-0.3311821520328522,"14":0.03164071589708328,"15":0.13593508303165436,"16":0.09553206712007523,"17":0.2785922586917877,"18":-0.5667680501937866,"19":0.5687955021858215,"20":-0.752951443195343,"21":-1.6893177032470703,"22":-0.156853586435318,"23":-0.1286703646183014,"24":-0.009635557420551777,"25":0.031211992725729942,"26":-0.38215571641921997,"27":-0.698789119720459,"28":-0.39696741104125977,"29":0.6703802943229675,"30":0.8867919445037842,"31":0.5586439371109009,"32":1.591978669166565,"33":0.1166958287358284,"34":-0.276560515165329,"35":0.7184932827949524,"36":-0.8547956943511963,"37":0.46557748317718506,"38":-0.6397162079811096,"39":0.07557659596204758,"40":-0.43555933237075806,"41":-0.6666133403778076,"42":0.29137468338012695,"43":-0.6600855588912964,"44":-0.1931367814540863,"45":0.290957510471344,"46":-0.21272554993629456,"47":0.05111575499176979,"48":0.5056828856468201,"49":-0.2516044080257416,"50":-0.8236101269721985,"51":-1.1915175914764404,"52":0.06246766820549965,"53":0.37810876965522766,"54":0.8171389102935791,"55":-0.5830807685852051,"56":0.500123918056488,"57":0.08851060271263123,"58":-0.08386312425136566,"59":0.2039225548505783,"60":0.29554638266563416,"61":0.5990868806838989,"62":0.09790900349617004,"63":-0.23337185382843018,"64":-0.0502607636153698,"65":0.09213650971651077,"66":-0.511420726776123,"67":-0.5026185512542725,"68":-0.23444582521915436,"69":-0.5659567713737488,"70":0.7773790955543518,"71":1.180059552192688,"72":0.7274298071861267,"73":0.29532551765441895,"74":-0.41227003931999207,"75":-0.029457328841090202,"76":0.08902455121278763,"77":0.6421247720718384,"78":-0.5372800230979919,"79":-1.0487756729125977,"80":-1.32521653175354,"81":0.048571012914180756,"82":0.31826308369636536,"83":0.8106474280357361,"84":-0.4765038788318634,"85":1.1951600313186646,"86":0.49081355333328247,"87":0.3571690618991852,"88":1.4681785106658936,"89":-1.0692105293273926,"90":0.9963485598564148,"91":-0.9101126790046692,"92":-0.01791371963918209,"93":-0.01682623103260994,"94":1.9247719049453735,"95":-0.5631117224693298,"96":-0.9694514274597168,"97":-0.48151326179504395,"98":-0.5257930755615234,"99":-0.08662872761487961,"100":1.0766419172286987,"101":-0.09399650245904922,"102":0.6103233098983765,"103":0.10588614642620087,"104":-0.1546020358800888,"105":-0.20304617285728455,"106":0.5885645747184753,"107":0.8874066472053528,"108":0.30419719219207764,"109":-0.5954153537750244,"110":-0.41772913932800293,"111":-0.3592504560947418,"112":0.7124562859535217,"113":-0.4568251073360443,"114":-0.491084486246109,"115":0.14969629049301147,"116":0.070677250623703,"117":-0.23729407787322998,"118":0.43437591195106506,"119":-1.042738914489746,"120":-0.4047091603279114,"121":-0.22216017544269562,"122":-0.24527108669281006,"123":0.41083595156669617,"124":-0.5510603189468384,"125":0.0341973677277565,"126":0.5230363607406616,"127":0.8979929089546204,"128":-0.38034823536872864,"129":-0.4665932357311249,"130":-2.197941303253174,"131":-0.3688930869102478,"132":0.1373707354068756,"133":-0.09179496765136719,"134":-0.459646075963974,"135":-0.4540071189403534,"136":-0.08426137268543243,"137":-1.3293492794036865,"138":-0.5734422206878662,"139":-0.3793092668056488,"140":-0.4110219478607178,"141":0.04996335133910179,"142":-0.08966763317584991,"143":0.1557263731956482,"144":1.351502776145935}},"1":{"bias":1.280513048171997,"weights":{"0":-0.04382938891649246,"1":0.6434431672096252,"2":0.009071093052625656,"3":0.6427023410797119,"4":-0.2123115211725235,"5":0.05204594507813454,"6":-1.1662689447402954,"7":0.6940357685089111,"8":0.3588677942752838,"9":-0.34035444259643555,"10":-0.308682918548584,"11":-1.0256508588790894,"12":0.5837261080741882,"13":0.4752841293811798,"14":-0.9087436199188232,"15":0.24551355838775635,"16":-0.43265029788017273,"17":-0.2738296687602997,"18":1.0775867700576782,"19":0.3914918899536133,"20":0.16488546133041382,"21":-0.46562817692756653,"22":0.19383738934993744,"23":0.24878349900245667,"24":-0.38128289580345154,"25":0.11995605379343033,"26":-0.4917580485343933,"27":0.7750539779663086,"28":0.45578163862228394,"29":-0.4326460659503937,"30":0.5519764423370361,"31":0.38040441274642944,"32":-0.42137905955314636,"33":0.17919917404651642,"34":0.006721131503582001,"35":1.136915922164917,"36":-0.8674359917640686,"37":0.12171927094459534,"38":-0.49426862597465515,"39":0.5467420816421509,"40":0.31713101267814636,"41":-0.36278992891311646,"42":0.24889150261878967,"43":0.0774761363863945,"44":0.46962374448776245,"45":-0.4423666000366211,"46":-0.3907248377799988,"47":-1.2631479501724243,"48":0.7447969317436218,"49":0.382992148399353,"50":-0.6395860314369202,"51":-1.5292088985443115,"52":0.942297637462616,"53":0.5610997080802917,"54":-0.14859382808208466,"55":-0.5003541707992554,"56":1.0541068315505981,"57":0.13670946657657623,"58":-0.29827237129211426,"59":-0.6023234128952026,"60":-0.13662388920783997,"61":-0.2971271574497223,"62":-0.47462400794029236,"63":-0.11535149067640305,"64":0.18754112720489502,"65":0.8333618640899658,"66":0.4241107106208801,"67":0.12264873087406158,"68":0.008382661268115044,"69":0.13511601090431213,"70":0.6299040913581848,"71":-1.6232253313064575,"72":0.7320588827133179,"73":0.19442428648471832,"74":-0.42169561982154846,"75":-0.6483668088912964,"76":0.4838409721851349,"77":-0.640676736831665,"78":-1.104530692100525,"79":0.5547083616256714,"80":0.3942124545574188,"81":-0.7267135977745056,"82":-1.7048699855804443,"83":0.7315346598625183,"84":-0.2442379891872406,"85":-0.6411093473434448,"86":0.33722805976867676,"87":0.17738929390907288,"88":0.14475177228450775,"89":-0.6866956949234009,"90":0.8321807384490967,"91":1.0476802587509155,"92":0.37808820605278015,"93":0.21371027827262878,"94":0.35194072127342224,"95":0.8571217060089111,"96":0.23806606233119965,"97":-0.1670811027288437,"98":-0.8625675439834595,"99":-0.6840547919273376,"100":-0.2958555817604065,"101":-1.3247772455215454,"102":0.2012942135334015,"103":-0.11833064258098602,"104":-0.6599694490432739,"105":-0.49104976654052734,"106":-0.6702373623847961,"107":-0.26372337341308594,"108":0.3574390411376953,"109":0.14842355251312256,"110":0.14186199009418488,"111":-0.8553726673126221,"112":-0.8188116550445557,"113":-0.22412243485450745,"114":-0.05806155502796173,"115":-0.262788325548172,"116":-0.07046346366405487,"117":1.8589214086532593,"118":-0.9367964267730713,"119":-1.398890495300293,"120":-0.5578767657279968,"121":-0.09265239536762238,"122":0.13359756767749786,"123":-0.5892610549926758,"124":0.09530561417341232,"125":-1.0597506761550903,"126":-1.8580658435821533,"127":0.04136784002184868,"128":-0.6262681484222412,"129":1.6861506700515747,"130":-0.17601902782917023,"131":0.16166436672210693,"132":0.9985908269882202,"133":-0.1384887993335724,"134":-0.173300102353096,"135":-0.7888593673706055,"136":-1.3923983573913574,"137":-1.214795708656311,"138":0.18688169121742249,"139":-0.18072767555713654,"140":-0.7296008467674255,"141":0.47439900040626526,"142":-0.29330581426620483,"143":-0.36067941784858704,"144":-0.24949981272220612}},"2":{"bias":0.6984036564826965,"weights":{"0":0.7667731642723083,"1":0.15515470504760742,"2":-0.46403369307518005,"3":-0.9961770176887512,"4":1.5846952199935913,"5":-0.634983241558075,"6":1.2085472345352173,"7":0.4824647009372711,"8":-0.4061054289340973,"9":0.7690750956535339,"10":0.5137455463409424,"11":0.6141714453697205,"12":0.5305088758468628,"13":0.08612581342458725,"14":0.005649118218570948,"15":0.189080610871315,"16":0.03409390524029732,"17":-0.24547764658927917,"18":-0.27570241689682007,"19":0.02702062390744686,"20":-0.8159134387969971,"21":-0.5988540649414062,"22":-0.6629233360290527,"23":0.11335714906454086,"24":-0.2776593863964081,"25":0.49273720383644104,"26":0.0005331302527338266,"27":0.06959766149520874,"28":0.6643827557563782,"29":-1.1992876529693604,"30":0.4149157702922821,"31":0.7080653309822083,"32":0.9525119662284851,"33":0.8489729762077332,"34":-0.45465782284736633,"35":-0.023474209010601044,"36":0.052085381001234055,"37":-1.011364459991455,"38":0.23778177797794342,"39":0.7523379921913147,"40":-0.8991921544075012,"41":0.08380454778671265,"42":-0.2642131745815277,"43":0.4545527696609497,"44":0.4180314540863037,"45":-0.601195216178894,"46":0.21124547719955444,"47":1.0436986684799194,"48":-0.7202087640762329,"49":-0.21310508251190186,"50":-0.6239982843399048,"51":-0.7272452712059021,"52":-0.6869381070137024,"53":-1.3180842399597168,"54":0.2403164505958557,"55":0.13273295760154724,"56":0.3518933951854706,"57":0.17806659638881683,"58":0.24761806428432465,"59":-0.6453320384025574,"60":1.6938270330429077,"61":0.17694754898548126,"62":0.8515368700027466,"63":-0.4597202241420746,"64":0.47995349764823914,"65":1.5040366649627686,"66":1.4739737510681152,"67":0.25710374116897583,"68":1.1839275360107422,"69":-1.6064536571502686,"70":1.1205188035964966,"71":0.5442167520523071,"72":0.4984101355075836,"73":-0.5216028690338135,"74":0.26874488592147827,"75":0.1690637320280075,"76":0.5883915424346924,"77":-0.8822263479232788,"78":-0.1920948475599289,"79":1.2864450216293335,"80":-1.0586507320404053,"81":0.46749868988990784,"82":0.19227607548236847,"83":0.0037208294961601496,"84":0.09978263080120087,"85":1.1291390657424927,"86":-0.16693754494190216,"87":0.40343570709228516,"88":-1.224415898323059,"89":1.2929785251617432,"90":-0.03657527267932892,"91":0.0818566381931305,"92":-0.48514464497566223,"93":0.36956968903541565,"94":-1.0211265087127686,"95":-0.2133227288722992,"96":0.06422005593776703,"97":0.731901228427887,"98":-1.263594627380371,"99":0.7902140021324158,"100":0.8836070895195007,"101":0.12683266401290894,"102":0.4025997519493103,"103":-0.169844850897789,"104":0.39059484004974365,"105":-0.24426491558551788,"106":-1.0232495069503784,"107":1.0193581581115723,"108":-0.36008912324905396,"109":-0.8813635110855103,"110":-0.26914340257644653,"111":0.10391055792570114,"112":1.54054856300354,"113":-0.19561386108398438,"114":-0.7078920006752014,"115":1.410480260848999,"116":-0.9898138046264648,"117":1.4575715065002441,"118":0.5699208378791809,"119":-0.11497380584478378,"120":0.569290280342102,"121":-0.2207537740468979,"122":0.4429256319999695,"123":-1.84818434715271,"124":0.6198801398277283,"125":-0.00499294837936759,"126":0.860547661781311,"127":-3.070754051208496,"128":-0.3785226047039032,"129":0.620023787021637,"130":0.6145575642585754,"131":0.31649136543273926,"132":0.010528454557061195,"133":0.04323049262166023,"134":-0.2066868543624878,"135":0.0688820406794548,"136":-0.004165419843047857,"137":-1.645932912826538,"138":-1.1025041341781616,"139":0.6293519139289856,"140":-0.11694278568029404,"141":-0.7627836465835571,"142":-0.26090097427368164,"143":1.165622591972351,"144":1.2257720232009888}},"3":{"bias":0.40718206763267517,"weights":{"0":1.9669559001922607,"1":0.1955927014350891,"2":0.19204172492027283,"3":-0.9958146214485168,"4":-0.018024660646915436,"5":0.6110054850578308,"6":1.6413284540176392,"7":-0.460633784532547,"8":-0.20467132329940796,"9":-0.420209139585495,"10":0.9112296104431152,"11":-0.18153776228427887,"12":1.0808440446853638,"13":-0.5541176795959473,"14":0.8423145413398743,"15":-0.16420111060142517,"16":0.8521042466163635,"17":0.25911638140678406,"18":-0.20500995218753815,"19":-0.0913931354880333,"20":-1.2117512226104736,"21":1.2872077226638794,"22":-1.5660721063613892,"23":0.9561939239501953,"24":0.07626500725746155,"25":-1.181977391242981,"26":-0.7688891291618347,"27":0.27282068133354187,"28":0.7761237025260925,"29":0.45442134141921997,"30":-0.6021867394447327,"31":-0.7683467864990234,"32":0.15050256252288818,"33":0.19189348816871643,"34":0.10934385657310486,"35":-0.9886529445648193,"36":1.0205613374710083,"37":-1.2667726278305054,"38":-0.5115954875946045,"39":-0.049141474068164825,"40":-0.014003199525177479,"41":-0.03266855329275131,"42":0.11220439523458481,"43":0.20555919408798218,"44":0.18893231451511383,"45":0.3579252064228058,"46":0.03021303564310074,"47":-0.3854924738407135,"48":0.49422404170036316,"49":0.8617703318595886,"50":0.9929974675178528,"51":-0.7862492203712463,"52":0.0235880296677351,"53":0.07170748710632324,"54":0.700806736946106,"55":-0.669569194316864,"56":-0.5119576454162598,"57":0.14808036386966705,"58":0.5684885382652283,"59":0.9851813912391663,"60":-1.6298826932907104,"61":1.2921098470687866,"62":1.022265911102295,"63":0.39154157042503357,"64":-0.46719393134117126,"65":-0.3728654980659485,"66":-0.10504572093486786,"67":0.6350136995315552,"68":0.9676496386528015,"69":-0.4623594284057617,"70":-0.1118631511926651,"71":0.8732392191886902,"72":-0.6213391423225403,"73":0.7002145051956177,"74":0.7023777961730957,"75":0.3076496720314026,"76":-1.241918921470642,"77":0.1152959018945694,"78":-0.8217056393623352,"79":0.9290788769721985,"80":0.16155827045440674,"81":-0.3336077332496643,"82":-0.43921592831611633,"83":1.0026428699493408,"84":-0.5906451344490051,"85":-0.15849150717258453,"86":0.2633313834667206,"87":-0.541654646396637,"88":-1.1384421586990356,"89":0.6531996726989746,"90":-0.250193327665329,"91":0.1600828915834427,"92":0.443344384431839,"93":-1.0212316513061523,"94":0.4499216675758362,"95":0.7607567310333252,"96":0.8133494853973389,"97":0.9701533913612366,"98":-0.5353606343269348,"99":-1.3745343685150146,"100":-0.8261997103691101,"101":0.22661355137825012,"102":-0.2550446093082428,"103":0.5134286880493164,"104":0.5697624683380127,"105":0.3276827931404114,"106":0.6245436668395996,"107":0.3897188901901245,"108":0.26567021012306213,"109":0.5887954831123352,"110":0.6742943525314331,"111":0.5181502103805542,"112":0.045972585678100586,"113":-0.4056320786476135,"114":-0.40842878818511963,"115":-0.5189070701599121,"116":0.22564376890659332,"117":-1.0008635520935059,"118":-0.040760546922683716,"119":0.9004175662994385,"120":1.4377893209457397,"121":0.25761380791664124,"122":-1.1248846054077148,"123":0.2204398363828659,"124":1.1803240776062012,"125":0.6489172577857971,"126":0.15861515700817108,"127":-1.6405541896820068,"128":-1.023648977279663,"129":0.15181578695774078,"130":0.30810239911079407,"131":-0.24711820483207703,"132":0.5558021664619446,"133":0.9876720905303955,"134":0.9781315326690674,"135":-0.6913093328475952,"136":-0.13114233314990997,"137":0.7797266840934753,"138":0.41382211446762085,"139":0.28243333101272583,"140":0.917434811592102,"141":0.6906023621559143,"142":-0.29660099744796753,"143":-2.342393159866333,"144":0.16423000395298004}},"4":{"bias":-2.0118324756622314,"weights":{"0":-0.2824872136116028,"1":-0.5035393834114075,"2":0.18509541451931,"3":0.01690038852393627,"4":-0.17299455404281616,"5":0.15779675543308258,"6":0.2160266488790512,"7":-0.09402468055486679,"8":-0.028812916949391365,"9":0.22533372044563293,"10":-0.08882177621126175,"11":-0.40152648091316223,"12":2.4978671073913574,"13":0.7707257866859436,"14":-0.4924190640449524,"15":-0.045552950352430344,"16":0.12996667623519897,"17":0.6568229794502258,"18":-0.06522542983293533,"19":-0.5196986794471741,"20":0.2883164584636688,"21":-2.241591691970825,"22":1.0729479789733887,"23":-1.2042886018753052,"24":-0.866713285446167,"25":-0.4636024534702301,"26":0.11001431941986084,"27":0.6359812617301941,"28":0.513218879699707,"29":0.4764528274536133,"30":0.7711775302886963,"31":-0.28022879362106323,"32":0.3680824935436249,"33":-0.48004505038261414,"34":0.07349595427513123,"35":-1.1972143650054932,"36":1.4344744682312012,"37":1.2944865226745605,"38":1.2093809843063354,"39":0.28770896792411804,"40":-0.6023772954940796,"41":-0.8648673892021179,"42":0.6731746792793274,"43":-0.30634942650794983,"44":0.14872866868972778,"45":-0.08270397037267685,"46":0.10289531946182251,"47":-0.3432340919971466,"48":-0.5031057596206665,"49":0.29636844992637634,"50":0.6167623400688171,"51":2.054767370223999,"52":-0.6173181533813477,"53":-0.34009861946105957,"54":-0.8230848908424377,"55":-0.041433289647102356,"56":-1.1274127960205078,"57":0.912512481212616,"58":-0.4861745536327362,"59":-0.49824395775794983,"60":-0.7003021836280823,"61":-1.03388249874115,"62":-1.8134689331054688,"63":0.01457457896322012,"64":0.10072877258062363,"65":0.6728389263153076,"66":-0.15921050310134888,"67":0.18446587026119232,"68":0.32438328862190247,"69":-0.07146258652210236,"70":0.3970751464366913,"71":0.8981504440307617,"72":-0.40317362546920776,"73":0.23204803466796875,"74":-0.13180725276470184,"75":0.1758640557527542,"76":1.1070497035980225,"77":0.2686116397380829,"78":-1.5009548664093018,"79":1.6048834323883057,"80":1.4717764854431152,"81":0.07033740729093552,"82":0.5194015502929688,"83":-1.4513963460922241,"84":-0.1525583118200302,"85":-0.6522026062011719,"86":-1.0540530681610107,"87":1.5888891220092773,"88":-0.2994469404220581,"89":-0.5988788604736328,"90":0.1963644176721573,"91":0.8813381195068359,"92":0.17665207386016846,"93":0.6152238249778748,"94":-1.0450187921524048,"95":0.7920641899108887,"96":0.5055570006370544,"97":-0.11667551100254059,"98":0.40883100032806396,"99":1.1270941495895386,"100":-0.6479710340499878,"101":0.026393020525574684,"102":-0.21742071211338043,"103":0.062342435121536255,"104":-0.016292670741677284,"105":-0.6801567077636719,"106":0.033837612718343735,"107":0.9959383606910706,"108":0.4949212670326233,"109":0.40039244294166565,"110":-0.6785743832588196,"111":-0.8260254263877869,"112":-1.6666303873062134,"113":0.2823837995529175,"114":0.7047913670539856,"115":0.8809717893600464,"116":0.15779176354408264,"117":-0.5018490552902222,"118":0.7050607800483704,"119":-0.6724011898040771,"120":0.9353291392326355,"121":-0.14469024538993835,"122":0.31964510679244995,"123":-0.9035406112670898,"124":-0.13739615678787231,"125":0.38401299715042114,"126":0.4126422107219696,"127":-0.11900320649147034,"128":0.1599941849708557,"129":-0.5301077961921692,"130":0.020041126757860184,"131":0.02475181221961975,"132":0.3708235025405884,"133":0.07178714126348495,"134":0.6168122887611389,"135":-0.43838706612586975,"136":1.9850324392318726,"137":-1.827189326286316,"138":-0.2849101126194,"139":-0.7380670309066772,"140":0.06471161544322968,"141":-0.26818498969078064,"142":0.4370958209037781,"143":0.2193509340286255,"144":-0.8229649662971497}},"5":{"bias":0.3672381639480591,"weights":{"0":1.741012454032898,"1":-0.4662853479385376,"2":-1.0513255596160889,"3":0.17884281277656555,"4":-0.09268112480640411,"5":0.17375564575195312,"6":0.5044905543327332,"7":-0.17257735133171082,"8":-0.24738052487373352,"9":0.5878685116767883,"10":1.2512105703353882,"11":-0.312514990568161,"12":0.05059424415230751,"13":-0.43374282121658325,"14":0.2161179780960083,"15":0.5010607838630676,"16":-0.2671434283256531,"17":-0.03747449442744255,"18":-1.04041588306427,"19":0.35975903272628784,"20":-0.3345411419868469,"21":-0.42087188363075256,"22":0.03408994525671005,"23":1.1018588542938232,"24":0.6127123832702637,"25":-1.3578920364379883,"26":-0.5319496393203735,"27":1.1930887699127197,"28":1.1976290941238403,"29":0.45584988594055176,"30":0.28354257345199585,"31":0.8688710927963257,"32":-0.19171622395515442,"33":0.2455165833234787,"34":-0.031358785927295685,"35":-0.2955701947212219,"36":0.3966172933578491,"37":1.0637010335922241,"38":0.07651744782924652,"39":0.057336002588272095,"40":-0.015105790458619595,"41":0.35012686252593994,"42":-0.22537542879581451,"43":-0.6126241683959961,"44":-0.5012295842170715,"45":0.5501419305801392,"46":0.3252175450325012,"47":-1.6077250242233276,"48":0.18306411802768707,"49":0.7534557580947876,"50":0.2430552840232849,"51":-0.37779533863067627,"52":0.20643600821495056,"53":-0.1228131502866745,"54":-0.3659394681453705,"55":-0.6495411396026611,"56":-0.8418455123901367,"57":0.28883934020996094,"58":-0.9745689034461975,"59":-0.30943921208381653,"60":-0.03744262829422951,"61":0.2847864031791687,"62":-0.11758160591125488,"63":0.3741365075111389,"64":-0.6261509656906128,"65":-0.6011536121368408,"66":-0.20171068608760834,"67":0.0254953745752573,"68":-0.02047804184257984,"69":0.28897538781166077,"70":1.787077784538269,"71":0.8493936657905579,"72":0.23855170607566833,"73":-0.22196064889431,"74":-0.05085049569606781,"75":0.48642492294311523,"76":0.40014952421188354,"77":-0.3013291358947754,"78":-1.8274699449539185,"79":1.75174880027771,"80":-0.44358935952186584,"81":-0.12264525890350342,"82":-0.07476820796728134,"83":0.12872521579265594,"84":-0.34431028366088867,"85":-0.039942819625139236,"86":0.7100770473480225,"87":-0.7480561137199402,"88":0.5059419274330139,"89":-0.07286620885133743,"90":1.1224640607833862,"91":-0.7212468981742859,"92":-0.2540132701396942,"93":0.27262410521507263,"94":2.6592905521392822,"95":-0.00918335746973753,"96":0.1881590634584427,"97":0.3191390037536621,"98":-0.8519169092178345,"99":-1.7384737730026245,"100":-0.061938654631376266,"101":0.22153550386428833,"102":-0.07414883375167847,"103":0.07874462008476257,"104":0.5566702485084534,"105":0.20643427968025208,"106":0.02770906500518322,"107":0.2937696874141693,"108":1.918480396270752,"109":0.7490260601043701,"110":0.4875331521034241,"111":0.5023277401924133,"112":0.20136459171772003,"113":-0.7930046916007996,"114":0.46966227889060974,"115":0.09117524325847626,"116":0.1490061730146408,"117":-0.919404149055481,"118":-0.24572333693504333,"119":-1.8044090270996094,"120":0.3966802954673767,"121":0.2623046040534973,"122":-0.36587926745414734,"123":-0.4299440085887909,"124":-1.0108575820922852,"125":1.1306463479995728,"126":0.34354066848754883,"127":0.6581342220306396,"128":-1.6597588062286377,"129":0.754173994064331,"130":-0.8212257027626038,"131":0.18381522595882416,"132":-0.912908136844635,"133":-0.020521802827715874,"134":-0.390738844871521,"135":0.9249531626701355,"136":-0.14198029041290283,"137":-1.1659008264541626,"138":1.4916961193084717,"139":-0.08574523776769638,"140":-0.08336453139781952,"141":0.2820689380168915,"142":-0.5457162857055664,"143":-0.8571859002113342,"144":-0.3118593692779541}},"6":{"bias":0.6984638571739197,"weights":{"0":0.15068618953227997,"1":-0.45620641112327576,"2":0.6782833933830261,"3":-0.16374845802783966,"4":-0.08148034662008286,"5":-0.11766757816076279,"6":-0.5912456512451172,"7":-0.9142913222312927,"8":-0.22895807027816772,"9":0.7600625157356262,"10":1.2358475923538208,"11":-0.030959535390138626,"12":1.6254079341888428,"13":0.056205034255981445,"14":-0.22432059049606323,"15":0.6085805296897888,"16":0.8601186871528625,"17":-0.7258239388465881,"18":0.4108544886112213,"19":-0.03613702952861786,"20":-0.5036495327949524,"21":-0.6113173365592957,"22":0.3452589213848114,"23":0.2902342975139618,"24":0.3140697479248047,"25":-0.5726782083511353,"26":0.2963433563709259,"27":-0.016193706542253494,"28":-0.15632301568984985,"29":0.021870112046599388,"30":0.1932685524225235,"31":0.3093900978565216,"32":0.3705901503562927,"33":0.7627989053726196,"34":0.25589966773986816,"35":-0.6267929673194885,"36":-0.7866828441619873,"37":-0.03717241808772087,"38":0.8494676351547241,"39":0.48004916310310364,"40":-0.2071286290884018,"41":-1.7870104312896729,"42":-1.4293315410614014,"43":0.017535129562020302,"44":0.26212719082832336,"45":0.21609832346439362,"46":0.17276549339294434,"47":-0.10032336413860321,"48":-0.03372042626142502,"49":0.9247860908508301,"50":-0.6122716069221497,"51":0.9732617735862732,"52":-0.0341925323009491,"53":-0.04214394837617874,"54":0.7351608872413635,"55":0.09725745022296906,"56":0.9775313138961792,"57":0.5702930688858032,"58":-1.2333835363388062,"59":0.7844001054763794,"60":0.6649370789527893,"61":0.2962285578250885,"62":0.7746198177337646,"63":0.2114151567220688,"64":0.31699272990226746,"65":0.16626465320587158,"66":0.4686441719532013,"67":0.4054443836212158,"68":-0.7616827487945557,"69":0.06785450130701065,"70":-0.627467691898346,"71":0.7922850847244263,"72":-0.3592364490032196,"73":-0.4282066822052002,"74":0.8772442936897278,"75":0.30362096428871155,"76":0.8239873051643372,"77":-0.3842152953147888,"78":-1.5758824348449707,"79":1.4318403005599976,"80":0.7585487961769104,"81":0.7495570778846741,"82":1.2095097303390503,"83":0.4645269811153412,"84":0.37764301896095276,"85":-0.18875327706336975,"86":-0.0510934554040432,"87":0.8241127133369446,"88":-0.12227271497249603,"89":1.1743526458740234,"90":0.7268429398536682,"91":0.48271042108535767,"92":-0.201494500041008,"93":-0.9337679147720337,"94":-0.3430882692337036,"95":-0.4224731922149658,"96":0.463260293006897,"97":0.023840030655264854,"98":-0.634955883026123,"99":-0.013476427644491196,"100":1.802378535270691,"101":0.2412794679403305,"102":0.03167373314499855,"103":0.1549118310213089,"104":-0.20002520084381104,"105":0.24762992560863495,"106":0.44381362199783325,"107":-0.2961921989917755,"108":-0.46547597646713257,"109":0.7109332084655762,"110":1.0811619758605957,"111":0.7009564638137817,"112":-0.728113055229187,"113":-0.15594112873077393,"114":-0.5641904473304749,"115":-0.6085114479064941,"116":-0.8611884117126465,"117":-0.28561508655548096,"118":1.1970497369766235,"119":-0.6131383180618286,"120":0.3250620663166046,"121":0.2968118488788605,"122":0.434545636177063,"123":0.01913917437195778,"124":0.07879031449556351,"125":0.2904665768146515,"126":-0.3003467619419098,"127":1.1435329914093018,"128":-0.4581620693206787,"129":1.3868831396102905,"130":0.009375957772135735,"131":0.38536515831947327,"132":-0.5471596717834473,"133":-0.47226181626319885,"134":-0.09380937367677689,"135":1.1305534839630127,"136":-0.34469670057296753,"137":-1.073846697807312,"138":0.04124610871076584,"139":0.6871241331100464,"140":0.7202149033546448,"141":0.10757855325937271,"142":0.14638198912143707,"143":-2.132990598678589,"144":0.14580008387565613}},"7":{"bias":1.213691234588623,"weights":{"0":0.10033994913101196,"1":-0.2519555687904358,"2":0.9532750248908997,"3":-0.5187121629714966,"4":-0.01948661543428898,"5":-0.2925519049167633,"6":-0.8141562938690186,"7":0.9511817097663879,"8":0.6415515542030334,"9":0.20029664039611816,"10":-0.30618467926979065,"11":0.24510110914707184,"12":-1.34296715259552,"13":0.17853893339633942,"14":0.6565589308738708,"15":0.0966138243675232,"16":-0.17673951387405396,"17":0.20427297055721283,"18":-1.0823359489440918,"19":-0.506391167640686,"20":-0.8228113651275635,"21":0.5679311752319336,"22":1.0823894739151,"23":0.4868236482143402,"24":-0.5828433632850647,"25":-0.5760276317596436,"26":0.20947861671447754,"27":0.7446718811988831,"28":0.32457655668258667,"29":-1.6849969625473022,"30":-0.3376404047012329,"31":-0.30491459369659424,"32":-1.3407859802246094,"33":1.6217234134674072,"34":-0.4832759499549866,"35":0.5862510204315186,"36":-0.6994583606719971,"37":-0.5574448704719543,"38":1.6658843755722046,"39":0.39109233021736145,"40":0.07158110290765762,"41":0.35784298181533813,"42":-0.7795419096946716,"43":-0.5138511657714844,"44":0.44881391525268555,"45":0.15085053443908691,"46":-0.24568796157836914,"47":0.5093018412590027,"48":-0.3191053569316864,"49":-1.1502838134765625,"50":-1.978066325187683,"51":1.327732801437378,"52":0.5023918151855469,"53":0.15339604020118713,"54":0.5327832102775574,"55":-0.08763650804758072,"56":1.1454297304153442,"57":-0.6252961754798889,"58":-0.34332355856895447,"59":-0.5612252950668335,"60":1.8024234771728516,"61":-0.0917801558971405,"62":0.5590558052062988,"63":-0.512084424495697,"64":0.19668066501617432,"65":-1.1540004014968872,"66":0.5266526341438293,"67":0.3567649722099304,"68":1.6583404541015625,"69":0.3617262542247772,"70":-0.010239889845252037,"71":0.42142453789711,"72":-0.812023401260376,"73":0.280362069606781,"74":0.14758536219596863,"75":-0.3241129517555237,"76":-0.24630126357078552,"77":0.5662963390350342,"78":1.011797547340393,"79":1.1714061498641968,"80":-1.164315104484558,"81":0.2042200267314911,"82":-0.13468186557292938,"83":1.2449613809585571,"84":0.09338618814945221,"85":1.9093488454818726,"86":0.9475157856941223,"87":1.1415941715240479,"88":0.12841016054153442,"89":1.0332850217819214,"90":-0.14778831601142883,"91":1.0124948024749756,"92":-0.1486402004957199,"93":0.9827031493186951,"94":-0.7754818797111511,"95":0.29609498381614685,"96":0.017818767577409744,"97":-0.12923645973205566,"98":-1.3873873949050903,"99":-0.06655803322792053,"100":0.5117523074150085,"101":-0.25447574257850647,"102":-1.0432071685791016,"103":0.2646707594394684,"104":-0.41056835651397705,"105":0.2475743442773819,"106":0.3016856014728546,"107":-0.07868847250938416,"108":0.9288159608840942,"109":-1.3334590196609497,"110":0.5632474422454834,"111":-0.37356603145599365,"112":-0.1999729424715042,"113":-0.030634725466370583,"114":0.26671335101127625,"115":0.1868637055158615,"116":-0.23725131154060364,"117":-0.10052299499511719,"118":0.05239436402916908,"119":-0.27821290493011475,"120":-0.39892008900642395,"121":-0.2739662230014801,"122":-0.18292413651943207,"123":-0.19356489181518555,"124":0.30190780758857727,"125":-0.20123812556266785,"126":0.7828666567802429,"127":-1.603806734085083,"128":-0.3792882263660431,"129":0.476644366979599,"130":-0.011442529037594795,"131":-0.13722310960292816,"132":0.4371352195739746,"133":0.2962549328804016,"134":-0.8134021759033203,"135":-0.5068609118461609,"136":-0.6120622754096985,"137":0.8515791893005371,"138":0.04125038534402847,"139":0.7104384899139404,"140":0.5113484859466553,"141":0.45789116621017456,"142":0.21199746429920197,"143":0.4368803799152374,"144":0.2365456074476242}}},{"0":{"bias":-0.45667916536331177,"weights":{"0":0.2132725715637207,"1":0.7823291420936584,"2":-1.1846680641174316,"3":0.07317010313272476,"4":-0.21562770009040833,"5":-1.0947643518447876,"6":-0.3252430856227875,"7":-0.3638601005077362}},"1":{"bias":-0.5440853834152222,"weights":{"0":0.19183756411075592,"1":-0.007644385099411011,"2":-0.21325458586215973,"3":-0.312890887260437,"4":0.2967909872531891,"5":-0.1831781417131424,"6":-0.029136238619685173,"7":0.1377848982810974}},"2":{"bias":-0.5949541926383972,"weights":{"0":0.2620927393436432,"1":-0.3909192979335785,"2":-0.5046588182449341,"3":-0.050777893513441086,"4":0.02564062736928463,"5":-0.42375579476356506,"6":-0.1218172237277031,"7":-0.0902167558670044}},"3":{"bias":2.704789638519287,"weights":{"0":4.914297580718994,"1":5.909078121185303,"2":-5.065617084503174,"3":5.770569801330566,"4":6.050078868865967,"5":-5.096325874328613,"6":-5.067231178283691,"7":5.992823123931885}},"4":{"bias":-0.5636609196662903,"weights":{"0":0.5836915969848633,"1":-0.32387229800224304,"2":-0.7250195145606995,"3":-0.02691228687763214,"4":0.4163845181465149,"5":-0.8725361824035645,"6":-0.4350470006465912,"7":0.059453584253787994}},"5":{"bias":-0.4900299608707428,"weights":{"0":0.13200782239437103,"1":0.08132965117692947,"2":-0.19644060730934143,"3":-0.18108078837394714,"4":-0.09310714155435562,"5":0.02684278041124344,"6":0.2794572114944458,"7":0.3535950183868408}},"6":{"bias":-0.5589587688446045,"weights":{"0":0.29938939213752747,"1":-0.14459846913814545,"2":-0.31278106570243835,"3":-0.04912110045552254,"4":-0.053939901292324066,"5":-0.6312735676765442,"6":-0.5118371844291687,"7":-0.015093476511538029}},"7":{"bias":-1.064542293548584,"weights":{"0":-0.5013776421546936,"1":-0.14970210194587708,"2":-0.7609889507293701,"3":0.18147940933704376,"4":0.16880536079406738,"5":0.6602176427841187,"6":0.320784330368042,"7":-0.03760269656777382}}},{"0":{"bias":4.020525932312012,"weights":{"0":-0.6205081939697266,"1":0.7033901810646057,"2":0.4858589172363281,"3":-6.235840320587158,"4":0.7193068861961365,"5":0.8339205384254456,"6":0.3305681645870209,"7":1.018637776374817}}}],"outputLookup":false,"inputLookup":false,"activation":"sigmoid","trainOpts":{"iterations":20000,"errorThresh":0.003,"log":true,"logPeriod":10,"learningRate":0.05,"momentum":0.1,"callbackPeriod":10,"beta1":0.9,"beta2":0.999,"epsilon":1e-8}}