{"sizes":[95,8,8,1],"layers":[{"0":{},"1":{},"2":{},"3":{},"4":{},"5":{},"6":{},"7":{},"8":{},"9":{},"10":{},"11":{},"12":{},"13":{},"14":{},"15":{},"16":{},"17":{},"18":{},"19":{},"20":{},"21":{},"22":{},"23":{},"24":{},"25":{},"26":{},"27":{},"28":{},"29":{},"30":{},"31":{},"32":{},"33":{},"34":{},"35":{},"36":{},"37":{},"38":{},"39":{},"40":{},"41":{},"42":{},"43":{},"44":{},"45":{},"46":{},"47":{},"48":{},"49":{},"50":{},"51":{},"52":{},"53":{},"54":{},"55":{},"56":{},"57":{},"58":{},"59":{},"60":{},"61":{},"62":{},"63":{},"64":{},"65":{},"66":{},"67":{},"68":{},"69":{},"70":{},"71":{},"72":{},"73":{},"74":{},"75":{},"76":{},"77":{},"78":{},"79":{},"80":{},"81":{},"82":{},"83":{},"84":{},"85":{},"86":{},"87":{},"88":{},"89":{},"90":{},"91":{},"92":{},"93":{},"94":{}},{"0":{"bias":-1.3432670831680298,"weights":{"0":-3.2119243144989014,"1":-0.15791039168834686,"2":0.12263555824756622,"3":-0.15731722116470337,"4":4.569746494293213,"5":0.5668661594390869,"6":-0.18294093012809753,"7":-0.9153061509132385,"8":-0.3280254602432251,"9":0.6520130634307861,"10":-0.8921444416046143,"11":-1.9638711214065552,"12":-1.9670296907424927,"13":1.5262830257415771,"14":0.7980049848556519,"15":-0.07643182575702667,"16":1.7196060419082642,"17":4.221551895141602,"18":1.314954161643982,"19":1.626315951347351,"20":0.17267709970474243,"21":-1.6019388437271118,"22":1.9679126739501953,"23":-1.8462040424346924,"24":0.9311273097991943,"25":1.0654449462890625,"26":1.9691085815429688,"27":-0.6455775499343872,"28":-3.4776692390441895,"29":-1.8920453786849976,"30":-0.9770846962928772,"31":-3.191303253173828,"32":1.6628602743148804,"33":-0.668570339679718,"34":-1.2557179927825928,"35":0.9778317213058472,"36":3.3299672603607178,"37":-0.4561155140399933,"38":1.4812697172164917,"39":2.0297060012817383,"40":-2.4522147178649902,"41":0.5834337472915649,"42":0.40450090169906616,"43":0.641109824180603,"44":0.7608936429023743,"45":5.63953161239624,"46":-7.929320335388184,"47":0.24885831773281097,"48":-0.25409045815467834,"49":-0.5023924708366394,"50":0.4367986023426056,"51":0.9285696744918823,"52":-1.2776175737380981,"53":3.565877914428711,"54":0.4872688055038452,"55":-0.2950267195701599,"56":-2.6524715423583984,"57":-4.741323471069336,"58":0.18570172786712646,"59":-4.471132755279541,"60":-0.0006873349193483591,"61":0.8694755434989929,"62":0.8836579918861389,"63":0.9162040948867798,"64":-1.8452202081680298,"65":1.686966061592102,"66":-2.485018730163574,"67":-4.195221900939941,"68":0.599825382232666,"69":-2.613467216491699,"70":1.5806751251220703,"71":-3.801302671432495,"72":-3.1554946899414062,"73":-0.16528575122356415,"74":0.34959670901298523,"75":-2.1019113063812256,"76":-3.4783265590667725,"77":0.35148388147354126,"78":-3.010820150375366,"79":-1.3741017580032349,"80":-2.2618768215179443,"81":0.5732885599136353,"82":-0.37142887711524963,"83":-3.142082691192627,"84":2.2453508377075195,"85":-0.682601273059845,"86":1.8087338209152222,"87":0.14169099926948547,"88":-0.8108856081962585,"89":1.1797587871551514,"90":-1.6206564903259277,"91":-1.7375704050064087,"92":2.513427495956421,"93":-1.7343188524246216,"94":-0.36435309052467346}},"1":{"bias":-3.668346405029297,"weights":{"0":2.000379800796509,"1":0.7625796794891357,"2":-1.8202223777770996,"3":-2.3086886405944824,"4":1.0699373483657837,"5":-0.3153674006462097,"6":-1.8415037393569946,"7":-0.16524696350097656,"8":-2.194592237472534,"9":1.4762626886367798,"10":-0.48567262291908264,"11":-2.166579484939575,"12":2.2883143424987793,"13":1.5825897455215454,"14":-0.5375518202781677,"15":0.34369340538978577,"16":1.6484802961349487,"17":-0.40951523184776306,"18":-0.2024354785680771,"19":3.948734760284424,"20":0.025972627103328705,"21":-3.827585458755493,"22":0.25108063220977783,"23":-1.8082431554794312,"24":0.0004290300130378455,"25":2.6797900199890137,"26":0.8570310473442078,"27":0.6091510653495789,"28":1.8447847366333008,"29":1.0169939994812012,"30":-1.62282395362854,"31":4.253960609436035,"32":1.6395816802978516,"33":1.8237104415893555,"34":-5.862128734588623,"35":2.442556619644165,"36":0.29813846945762634,"37":-1.2244503498077393,"38":1.7641143798828125,"39":3.4629223346710205,"40":-2.5091094970703125,"41":-0.9553403854370117,"42":4.990367412567139,"43":-0.18432745337486267,"44":-0.8862646818161011,"45":1.534042239189148,"46":-2.856053352355957,"47":1.4123094081878662,"48":-2.5914180278778076,"49":-0.12430930137634277,"50":0.3604796528816223,"51":2.3064584732055664,"52":-0.7954573631286621,"53":2.0055413246154785,"54":-1.1282044649124146,"55":2.640382766723633,"56":-2.01242733001709,"57":2.888256788253784,"58":-1.347519040107727,"59":0.9519748091697693,"60":-2.1313271522521973,"61":0.4846101403236389,"62":-0.23878198862075806,"63":-0.2766827940940857,"64":0.9142701625823975,"65":-2.3626716136932373,"66":0.20881842076778412,"67":0.6802873015403748,"68":-0.5114265084266663,"69":-0.2979001998901367,"70":2.1674840450286865,"71":-2.377685308456421,"72":1.8266838788986206,"73":-2.1923294067382812,"74":-1.7822270393371582,"75":-2.027106285095215,"76":1.9180314540863037,"77":1.6208888292312622,"78":0.7015263438224792,"79":-0.8750686049461365,"80":-1.2122999429702759,"81":-0.319741815328598,"82":-2.353630781173706,"83":-1.2175716161727905,"84":1.1307011842727661,"85":0.14543622732162476,"86":2.4716289043426514,"87":-1.3174299001693726,"88":-1.2410447597503662,"89":2.2664358615875244,"90":7.14939022064209,"91":-0.4986426830291748,"92":-1.246646523475647,"93":-0.5694587230682373,"94":0.7027162909507751}},"2":{"bias":0.7682111263275146,"weights":{"0":-2.41017484664917,"1":-1.5301640033721924,"2":-2.6099252700805664,"3":0.5025119185447693,"4":0.02636514976620674,"5":-0.4195981025695801,"6":2.899946451187134,"7":-0.2410813719034195,"8":-1.4919450283050537,"9":-0.5057174563407898,"10":-3.3361024856567383,"11":-0.0882289707660675,"12":1.6043128967285156,"13":-0.01971047930419445,"14":0.5021547079086304,"15":-0.8311261534690857,"16":0.9807183146476746,"17":-0.20219609141349792,"18":-0.7167271971702576,"19":-0.953334391117096,"20":-0.7564092874526978,"21":-1.024684190750122,"22":-0.2948852777481079,"23":1.4526621103286743,"24":-0.5432090163230896,"25":0.6632896065711975,"26":-4.483763217926025,"27":2.1273539066314697,"28":0.129048153758049,"29":2.596226215362549,"30":0.19148710370063782,"31":-4.592121601104736,"32":-0.2943899631500244,"33":2.264989137649536,"34":-2.1116652488708496,"35":-0.6630129218101501,"36":-0.6168922185897827,"37":0.1096489354968071,"38":3.8370659351348877,"39":-0.33377206325531006,"40":-0.6094822287559509,"41":-1.6162816286087036,"42":0.35657501220703125,"43":-0.43170055747032166,"44":1.058648705482483,"45":-4.409877300262451,"46":1.8009281158447266,"47":-0.13720940053462982,"48":-1.636776328086853,"49":0.24399705231189728,"50":0.7456358075141907,"51":0.6489070653915405,"52":-1.6826344728469849,"53":-0.7011228799819946,"54":0.9110848307609558,"55":1.7466007471084595,"56":1.4159830808639526,"57":-0.7467597126960754,"58":-0.4543326199054718,"59":-3.3651111125946045,"60":-0.6961197257041931,"61":0.38951581716537476,"62":-0.5123265385627747,"63":-1.3025310039520264,"64":-0.24879178404808044,"65":0.6763073205947876,"66":-1.0871756076812744,"67":-1.8703455924987793,"68":1.0617821216583252,"69":-0.5019221901893616,"70":0.4177860617637634,"71":-2.5478644371032715,"72":4.059298038482666,"73":-1.977352261543274,"74":2.379615068435669,"75":0.13002948462963104,"76":-2.1594743728637695,"77":1.3309282064437866,"78":0.4197511374950409,"79":-0.6388405561447144,"80":-1.659920573234558,"81":-0.5085159540176392,"82":1.7453653812408447,"83":-0.1224806159734726,"84":1.4547306299209595,"85":-1.842105507850647,"86":-0.39579689502716064,"87":1.3432434797286987,"88":-1.8910465240478516,"89":0.42015907168388367,"90":-0.4604344367980957,"91":0.4465341866016388,"92":1.0596144199371338,"93":1.7459760904312134,"94":0.15385901927947998}},"3":{"bias":-1.8782916069030762,"weights":{"0":0.5285084247589111,"1":-0.5104368329048157,"2":-4.827436447143555,"3":-3.1357264518737793,"4":-2.66166615486145,"5":-1.1873621940612793,"6":0.6708186268806458,"7":-2.1799561977386475,"8":-0.12419479340314865,"9":-0.41205546259880066,"10":1.7309279441833496,"11":-1.4014198780059814,"12":-0.7598841190338135,"13":0.9816197752952576,"14":3.158839702606201,"15":-2.120502471923828,"16":-2.815094470977783,"17":2.0804646015167236,"18":-4.975268363952637,"19":2.382382392883301,"20":-1.3866209983825684,"21":0.6614929437637329,"22":-1.4288742542266846,"23":-0.42297470569610596,"24":-1.2636996507644653,"25":-0.3909650146961212,"26":2.1418890953063965,"27":-1.4592889547348022,"28":-0.8494231104850769,"29":-0.7341176867485046,"30":-0.27913913130760193,"31":-0.5588292479515076,"32":0.7390241622924805,"33":0.7914785742759705,"34":1.4286166429519653,"35":-0.7964372038841248,"36":0.40060001611709595,"37":-2.7367305755615234,"38":-1.4510575532913208,"39":-0.08891759067773819,"40":1.260264277458191,"41":-0.43361803889274597,"42":0.04902288690209389,"43":-1.1800154447555542,"44":-0.6369842886924744,"45":-2.0570642948150635,"46":-2.1706390380859375,"47":0.2961970269680023,"48":1.6119260787963867,"49":0.7169138789176941,"50":-1.5779556035995483,"51":1.2753409147262573,"52":1.3611036539077759,"53":0.8015691041946411,"54":-2.395461320877075,"55":-0.09575127810239792,"56":-4.502706050872803,"57":0.6449089050292969,"58":-0.7514010071754456,"59":1.0318434238433838,"60":-0.3285920321941376,"61":-3.7385568618774414,"62":-1.2008308172225952,"63":-3.7324512004852295,"64":-1.1769824028015137,"65":-5.169238090515137,"66":-0.8459605574607849,"67":1.1021084785461426,"68":1.2412574291229248,"69":1.8885382413864136,"70":1.3818415403366089,"71":0.862798273563385,"72":2.705861806869507,"73":0.42863816022872925,"74":0.3170028030872345,"75":-2.352980613708496,"76":4.33542013168335,"77":-0.9145921468734741,"78":-1.141348123550415,"79":0.6720041632652283,"80":-1.6144378185272217,"81":-1.0477831363677979,"82":-2.2884135246276855,"83":-0.5801606774330139,"84":1.4503238201141357,"85":-0.4709743559360504,"86":1.4642797708511353,"87":1.158658504486084,"88":-0.019816415384411812,"89":1.39216148853302,"90":1.7901039123535156,"91":1.145047903060913,"92":-2.8037235736846924,"93":-2.3247838020324707,"94":-0.9833978414535522}},"4":{"bias":0.4391082525253296,"weights":{"0":2.2396581172943115,"1":1.0438328981399536,"2":-2.586287498474121,"3":-0.7072852849960327,"4":-0.8667112588882446,"5":0.5872172713279724,"6":2.164485216140747,"7":-4.979337692260742,"8":1.6156686544418335,"9":0.4942949712276459,"10":3.4741711616516113,"11":-0.0828598365187645,"12":-0.7206777334213257,"13":-1.411356806755066,"14":1.5241323709487915,"15":0.8059967756271362,"16":0.02132345177233219,"17":2.0732626914978027,"18":0.8570234775543213,"19":-2.0657596588134766,"20":1.5263677835464478,"21":-0.5586715936660767,"22":-0.04813520982861519,"23":-0.5917260646820068,"24":0.4639338552951813,"25":4.1024885177612305,"26":-0.6681067943572998,"27":-4.780710697174072,"28":-0.9420959949493408,"29":-2.1889266967773438,"30":-0.8057819604873657,"31":-0.5234743356704712,"32":-1.1585639715194702,"33":-2.879194498062134,"34":-2.7647387981414795,"35":1.3829580545425415,"36":-2.5525970458984375,"37":-1.2240631580352783,"38":-4.7133049964904785,"39":-1.386347770690918,"40":-3.4157636165618896,"41":3.8435750007629395,"42":2.1485071182250977,"43":0.4052048623561859,"44":2.5213820934295654,"45":1.0562011003494263,"46":4.551458835601807,"47":-0.21794185042381287,"48":-0.5177831649780273,"49":-1.5970745086669922,"50":-1.667628526687622,"51":-0.8041185140609741,"52":2.091015100479126,"53":2.526123523712158,"54":2.4511563777923584,"55":0.6889929175376892,"56":1.701139211654663,"57":-3.5681324005126953,"58":2.551638126373291,"59":-0.950548529624939,"60":0.5828258991241455,"61":-2.101856231689453,"62":0.4065668284893036,"63":-0.33320048451423645,"64":1.6356279850006104,"65":-0.38781601190567017,"66":-1.2656970024108887,"67":0.677463173866272,"68":-1.2750777006149292,"69":-0.9206361174583435,"70":-1.0123077630996704,"71":-2.7720301151275635,"72":-1.2217726707458496,"73":1.1803157329559326,"74":0.1892448514699936,"75":-1.106975793838501,"76":1.565659523010254,"77":-0.8350181579589844,"78":-0.7786799073219299,"79":3.735663414001465,"80":0.49624595046043396,"81":0.33260399103164673,"82":1.0434362888336182,"83":-0.3887960910797119,"84":3.1353464126586914,"85":-0.06400717049837112,"86":-0.2845655381679535,"87":-0.23391371965408325,"88":-0.5099763870239258,"89":-0.990854024887085,"90":-5.086990833282471,"91":0.9792068600654602,"92":4.12772274017334,"93":2.6451261043548584,"94":-0.4531196355819702}},"5":{"bias":-1.5832717418670654,"weights":{"0":1.1240993738174438,"1":1.1951450109481812,"2":-1.1383512020111084,"3":-1.5264850854873657,"4":-0.11005395650863647,"5":0.598694384098053,"6":1.174411654472351,"7":-0.22201909124851227,"8":-3.957463026046753,"9":1.3388500213623047,"10":2.803014039993286,"11":1.525468349456787,"12":0.6547086238861084,"13":-0.23308897018432617,"14":-1.743654727935791,"15":6.187045097351074,"16":-1.2479838132858276,"17":-0.16892990469932556,"18":-1.5303990840911865,"19":-1.9429222345352173,"20":0.6407064199447632,"21":-0.06334026902914047,"22":-2.4234893321990967,"23":0.07680776715278625,"24":0.5164377689361572,"25":-1.9819648265838623,"26":3.862833261489868,"27":-0.4040642976760864,"28":-1.4251333475112915,"29":-1.3895483016967773,"30":1.9834277629852295,"31":-2.1522133350372314,"32":0.5402559041976929,"33":-2.8898563385009766,"34":4.9708075523376465,"35":-0.033618900924921036,"36":0.41560468077659607,"37":-0.5967933535575867,"38":1.5509862899780273,"39":-2.0310754776000977,"40":2.4969775676727295,"41":-2.4298200607299805,"42":1.3058732748031616,"43":0.7871957421302795,"44":0.4471395015716553,"45":-0.21543169021606445,"46":-1.4777547121047974,"47":-0.24864527583122253,"48":-3.9143459796905518,"49":0.9594488143920898,"50":1.2780210971832275,"51":0.8238182067871094,"52":2.8534348011016846,"53":1.1573954820632935,"54":0.6172598600387573,"55":-2.9231936931610107,"56":0.4831240177154541,"57":-1.3274831771850586,"58":1.8874852657318115,"59":-0.5912469029426575,"60":-0.6749017834663391,"61":4.563036918640137,"62":0.7741732001304626,"63":-2.3971481323242188,"64":-0.8253785967826843,"65":1.108717918395996,"66":1.1209475994110107,"67":-1.104467511177063,"68":0.09206690639257431,"69":-1.6707814931869507,"70":0.04417877271771431,"71":-2.370514392852783,"72":-1.0263975858688354,"73":2.8503034114837646,"74":-0.09597322344779968,"75":1.901680588722229,"76":0.9991389513015747,"77":-0.09609075635671616,"78":-0.6662927269935608,"79":-2.9127426147460938,"80":-0.4886261522769928,"81":0.6527391076087952,"82":0.010342865251004696,"83":-1.3378000259399414,"84":-0.701253354549408,"85":-0.10193606466054916,"86":-0.7163766026496887,"87":-1.2102446556091309,"88":1.0859367847442627,"89":0.29342925548553467,"90":-1.803649663925171,"91":0.10540657490491867,"92":3.0892839431762695,"93":-0.002802193397656083,"94":4.631568431854248}},"6":{"bias":-1.6055500507354736,"weights":{"0":0.7906302213668823,"1":2.005089282989502,"2":0.7069565653800964,"3":1.1998995542526245,"4":-3.195023536682129,"5":1.1343823671340942,"6":-0.9926908612251282,"7":1.8615798950195312,"8":2.2829325199127197,"9":-3.9811911582946777,"10":-3.012462854385376,"11":0.7012267708778381,"12":-1.9900990724563599,"13":-2.1272895336151123,"14":2.4221765995025635,"15":-0.35284867882728577,"16":-2.237208127975464,"17":2.871178388595581,"18":1.3325320482254028,"19":-0.7143316268920898,"20":0.4909743070602417,"21":1.504143238067627,"22":-0.09844260662794113,"23":0.706900417804718,"24":1.106349229812622,"25":2.1981546878814697,"26":-1.5491960048675537,"27":-2.714688777923584,"28":0.42333611845970154,"29":1.304525375366211,"30":0.8587437868118286,"31":-0.6460226774215698,"32":-2.0290749073028564,"33":1.5420337915420532,"34":2.7032525539398193,"35":0.37173140048980713,"36":1.1968436241149902,"37":2.307910919189453,"38":-0.39533036947250366,"39":3.09590482711792,"40":-3.9970266819000244,"41":-2.8854026794433594,"42":-1.4937514066696167,"43":0.9406681060791016,"44":-0.49913719296455383,"45":2.157396078109741,"46":2.961801052093506,"47":-2.0800514221191406,"48":0.9424853920936584,"49":0.6916596293449402,"50":-3.654249668121338,"51":-1.2022095918655396,"52":0.27439600229263306,"53":0.9475428462028503,"54":-2.019049644470215,"55":1.5808547735214233,"56":0.9958648681640625,"57":-0.6654344201087952,"58":-0.5016623735427856,"59":1.7549712657928467,"60":-0.2230767458677292,"61":-2.5511834621429443,"62":1.0857155323028564,"63":-2.3062338829040527,"64":-0.4796692430973053,"65":-0.44439610838890076,"66":-1.0266278982162476,"67":-0.5030423998832703,"68":-0.5424827337265015,"69":1.6076066493988037,"70":-1.5927369594573975,"71":-0.9237213730812073,"72":-2.3076510429382324,"73":0.6754511594772339,"74":-2.0252246856689453,"75":0.7231581807136536,"76":-4.818255424499512,"77":0.17962579429149628,"78":-4.00944185256958,"79":-0.41480281949043274,"80":2.179058790206909,"81":1.2015447616577148,"82":-0.6439900398254395,"83":-4.954822063446045,"84":-2.287660598754883,"85":-1.1734035015106201,"86":-2.698063850402832,"87":0.588279128074646,"88":-1.5683542490005493,"89":-1.584233283996582,"90":1.374212622642517,"91":1.8374649286270142,"92":0.5564318299293518,"93":0.43150946497917175,"94":-2.794650077819824}},"7":{"bias":5.352990627288818,"weights":{"0":1.807228446006775,"1":0.23339982330799103,"2":-3.7088892459869385,"3":-2.836913585662842,"4":-2.10219407081604,"5":-0.3262881636619568,"6":-1.6560379266738892,"7":3.373821973800659,"8":-0.6136069893836975,"9":-0.5174211859703064,"10":0.28223875164985657,"11":-0.7136195302009583,"12":1.6764224767684937,"13":-1.894028902053833,"14":-0.1366969496011734,"15":4.670769691467285,"16":-1.8977453708648682,"17":0.20521165430545807,"18":1.5694893598556519,"19":2.134570360183716,"20":0.8129719495773315,"21":-3.1670103073120117,"22":-0.849418044090271,"23":1.2949169874191284,"24":-0.5558884143829346,"25":-1.7615501880645752,"26":-0.1959257274866104,"27":1.519319772720337,"28":0.09540329873561859,"29":1.7869393825531006,"30":-0.9818596839904785,"31":-2.38191294670105,"32":-2.0029497146606445,"33":-0.698106050491333,"34":-1.3172146081924438,"35":2.4432880878448486,"36":-0.718888521194458,"37":0.6175482869148254,"38":-4.336575031280518,"39":0.41089728474617004,"40":-0.5871991515159607,"41":-2.048438549041748,"42":0.09305718541145325,"43":-0.341082364320755,"44":-2.535183906555176,"45":-0.5214259028434753,"46":-3.0024755001068115,"47":0.7216249108314514,"48":1.7350187301635742,"49":-2.3800547122955322,"50":0.19900581240653992,"51":-2.559605598449707,"52":2.723654270172119,"53":-3.1738619804382324,"54":-0.9269924759864807,"55":-1.148290991783142,"56":3.568147659301758,"57":-1.871989369392395,"58":-0.03862817585468292,"59":-0.474592387676239,"60":-6.671850204467773,"61":-0.047041602432727814,"62":-0.37518221139907837,"63":2.284097671508789,"64":2.2019431591033936,"65":-4.826789855957031,"66":0.7687961459159851,"67":1.2598915100097656,"68":-1.9568241834640503,"69":-0.79685378074646,"70":-1.984294056892395,"71":-1.1141650676727295,"72":1.1905766725540161,"73":-0.4494645893573761,"74":1.6540230512619019,"75":1.110412359237671,"76":4.07836389541626,"77":-0.2500346601009369,"78":-1.4179015159606934,"79":3.6977956295013428,"80":-1.8912254571914673,"81":-0.36189088225364685,"82":0.8924083113670349,"83":3.4396543502807617,"84":0.035765498876571655,"85":-0.548853874206543,"86":0.9735747575759888,"87":-2.5009865760803223,"88":-0.38372156023979187,"89":-2.2517893314361572,"90":-3.8581645488739014,"91":5.83421516418457,"92":1.4441338777542114,"93":2.0009536743164062,"94":2.877964973449707}}},{"0":{"bias":-1.3122402429580688,"weights":{"0":2.7971572875976562,"1":-4.418805122375488,"2":-1.2603570222854614,"3":0.1402714103460312,"4":3.7991068363189697,"5":-1.0975935459136963,"6":0.3426789939403534,"7":1.364161491394043}},"1":{"bias":8.3971586227417,"weights":{"0":9.368995666503906,"1":-4.399755477905273,"2":-5.790820121765137,"3":-5.83949613571167,"4":-5.354889869689941,"5":-5.271815776824951,"6":-4.658233165740967,"7":7.673641204833984}},"2":{"bias":-0.8220883011817932,"weights":{"0":1.720097541809082,"1":1.2496552467346191,"2":-1.1006439924240112,"3":-2.993450164794922,"4":1.1408387422561646,"5":-0.7276164889335632,"6":-2.383427858352661,"7":-0.9117618203163147}},"3":{"bias":0.4951549768447876,"weights":{"0":1.5499775409698486,"1":-1.7953457832336426,"2":-3.7217910289764404,"3":-0.7820781469345093,"4":-5.168538570404053,"5":-4.7052788734436035,"6":-2.2216312885284424,"7":0.44036591053009033}},"4":{"bias":-1.0355709791183472,"weights":{"0":0.16909188032150269,"1":-1.0889471769332886,"2":0.2585587203502655,"3":-1.5845457315444946,"4":-0.6710721254348755,"5":1.098512887954712,"6":-2.278219699859619,"7":-1.1348168849945068}},"5":{"bias":-2.7158405780792236,"weights":{"0":4.433316707611084,"1":-1.7007943391799927,"2":-0.07991418987512589,"3":-0.14962251484394073,"4":-1.085922360420227,"5":-0.2711651623249054,"6":-3.010226249694824,"7":0.2738185226917267}},"6":{"bias":0.29891613125801086,"weights":{"0":5.314092636108398,"1":-6.002510070800781,"2":-2.2480056285858154,"3":-1.8430958986282349,"4":1.683579921722412,"5":-3.203263998031616,"6":-1.1750718355178833,"7":4.4305572509765625}},"7":{"bias":7.511000633239746,"weights":{"0":3.128554344177246,"1":-1.74789559841156,"2":-1.4878545999526978,"3":-1.5248078107833862,"4":-1.102216124534607,"5":-6.110610008239746,"6":-4.562259197235107,"7":4.465989112854004}}},{"0":{"bias":7.240750789642334,"weights":{"0":-3.4389913082122803,"1":-6.312554836273193,"2":1.9655110836029053,"3":6.063117027282715,"4":-1.1965104341506958,"5":-3.207041025161743,"6":4.052286148071289,"7":-5.367255687713623}}}],"outputLookup":false,"inputLookup":false,"activation":"sigmoid","trainOpts":{"iterations":20000,"errorThresh":0.003,"log":true,"logPeriod":10,"learningRate":0.3,"momentum":0.1,"callbackPeriod":10,"beta1":0.9,"beta2":0.999,"epsilon":1e-8}}