{"sizes":[145,8,8,1],"layers":[{"0":{},"1":{},"2":{},"3":{},"4":{},"5":{},"6":{},"7":{},"8":{},"9":{},"10":{},"11":{},"12":{},"13":{},"14":{},"15":{},"16":{},"17":{},"18":{},"19":{},"20":{},"21":{},"22":{},"23":{},"24":{},"25":{},"26":{},"27":{},"28":{},"29":{},"30":{},"31":{},"32":{},"33":{},"34":{},"35":{},"36":{},"37":{},"38":{},"39":{},"40":{},"41":{},"42":{},"43":{},"44":{},"45":{},"46":{},"47":{},"48":{},"49":{},"50":{},"51":{},"52":{},"53":{},"54":{},"55":{},"56":{},"57":{},"58":{},"59":{},"60":{},"61":{},"62":{},"63":{},"64":{},"65":{},"66":{},"67":{},"68":{},"69":{},"70":{},"71":{},"72":{},"73":{},"74":{},"75":{},"76":{},"77":{},"78":{},"79":{},"80":{},"81":{},"82":{},"83":{},"84":{},"85":{},"86":{},"87":{},"88":{},"89":{},"90":{},"91":{},"92":{},"93":{},"94":{},"95":{},"96":{},"97":{},"98":{},"99":{},"100":{},"101":{},"102":{},"103":{},"104":{},"105":{},"106":{},"107":{},"108":{},"109":{},"110":{},"111":{},"112":{},"113":{},"114":{},"115":{},"116":{},"117":{},"118":{},"119":{},"120":{},"121":{},"122":{},"123":{},"124":{},"125":{},"126":{},"127":{},"128":{},"129":{},"130":{},"131":{},"132":{},"133":{},"134":{},"135":{},"136":{},"137":{},"138":{},"139":{},"140":{},"141":{},"142":{},"143":{},"144":{}},{"0":{"bias":0.4289587140083313,"weights":{"0":-2.862537384033203,"1":-0.13922341167926788,"2":-1.4892404079437256,"3":-0.528296947479248,"4":-0.1087464988231659,"5":-0.3624247908592224,"6":-0.013493928126990795,"7":1.3455052375793457,"8":0.4724883437156677,"9":-0.06596563011407852,"10":-0.5459351539611816,"11":-0.06019214540719986,"12":-1.8595671653747559,"13":-1.0909255743026733,"14":-0.06060467287898064,"15":-1.7951816320419312,"16":0.38985082507133484,"17":-1.3188358545303345,"18":0.40282249450683594,"19":0.23275233805179596,"20":-1.495414137840271,"21":-0.1861800104379654,"22":0.21434827148914337,"23":0.2676774263381958,"24":0.6083216667175293,"25":0.5705719590187073,"26":0.040388647466897964,"27":-1.7206509113311768,"28":-1.0162630081176758,"29":-0.3441886901855469,"30":-0.41796979308128357,"31":0.16195009648799896,"32":-0.26005059480667114,"33":0.5568138957023621,"34":-0.4393320679664612,"35":-0.5488654971122742,"36":-1.2463682889938354,"37":-0.35221952199935913,"38":0.8175104260444641,"39":0.7554565668106079,"40":0.4244028627872467,"41":-1.205016016960144,"42":-0.3742690086364746,"43":-0.20841370522975922,"44":-0.08841641247272491,"45":0.15677858889102936,"46":0.03302483633160591,"47":2.467838764190674,"48":-0.45512205362319946,"49":-1.2664237022399902,"50":-0.7572065591812134,"51":0.3972559869289398,"52":-0.4578946828842163,"53":-0.622472882270813,"54":-0.0974380373954773,"55":-0.40831631422042847,"56":-0.18554219603538513,"57":-1.4985278844833374,"58":-0.13876193761825562,"59":0.918945848941803,"60":2.2022838592529297,"61":1.0101836919784546,"62":-0.5662307739257812,"63":0.10508570820093155,"64":1.1851508617401123,"65":2.998391628265381,"66":-0.8165303468704224,"67":0.12766803801059723,"68":-0.9382663369178772,"69":0.9824960231781006,"70":-0.2467171549797058,"71":1.3033477067947388,"72":-0.31870540976524353,"73":-0.9257656335830688,"74":0.20467470586299896,"75":-0.31957581639289856,"76":1.0149329900741577,"77":-0.34634312987327576,"78":2.272742509841919,"79":-1.0478774309158325,"80":1.9983940124511719,"81":0.972014844417572,"82":1.1176185607910156,"83":0.39812570810317993,"84":0.16014286875724792,"85":-0.5554783940315247,"86":-0.7120621800422668,"87":-1.7446041107177734,"88":0.840782880783081,"89":0.17880801856517792,"90":-1.2556565999984741,"91":-1.01591157913208,"92":-0.13349352777004242,"93":-0.682717502117157,"94":-0.27415043115615845,"95":-1.7849148511886597,"96":-0.564622700214386,"97":-0.2199103683233261,"98":-0.38033801317214966,"99":-0.3886495530605316,"100":-0.33665359020233154,"101":0.5683950781822205,"102":-0.5410125851631165,"103":0.049689825624227524,"104":0.25992339849472046,"105":-2.5266144275665283,"106":0.5523197054862976,"107":-0.7901751399040222,"108":-2.133047580718994,"109":-0.36644312739372253,"110":1.2587652206420898,"111":1.5590182542800903,"112":-0.43843185901641846,"113":-0.1285061538219452,"114":0.7665961384773254,"115":0.9090881943702698,"116":1.7019975185394287,"117":0.2844080924987793,"118":2.431405782699585,"119":1.058518648147583,"120":1.0708599090576172,"121":0.12059159576892853,"122":1.2330164909362793,"123":-0.03883247822523117,"124":-0.8444966077804565,"125":0.9142923951148987,"126":0.9833469986915588,"127":-0.5555618405342102,"128":1.2682777643203735,"129":0.5384204387664795,"130":2.231677293777466,"131":-1.1632577180862427,"132":0.11482680588960648,"133":-0.5723246932029724,"134":-0.2959751784801483,"135":1.9179407358169556,"136":1.8313027620315552,"137":1.1868153810501099,"138":-0.45456570386886597,"139":0.8628819584846497,"140":0.39858004450798035,"141":-1.1955316066741943,"142":-0.0983986034989357,"143":1.7494406700134277,"144":0.8735268712043762}},"1":{"bias":-1.3605360984802246,"weights":{"0":1.732951283454895,"1":-0.6855577826499939,"2":1.1909393072128296,"3":0.12105619162321091,"4":-0.37002483010292053,"5":0.20672158896923065,"6":2.1528656482696533,"7":0.1260441243648529,"8":0.6721830368041992,"9":-0.4449875056743622,"10":1.3022925853729248,"11":0.5073257684707642,"12":2.1695749759674072,"13":0.5236109495162964,"14":-0.0031075107399374247,"15":0.13220809400081635,"16":0.2618725895881653,"17":-0.8845213651657104,"18":0.3891716003417969,"19":0.804247260093689,"20":2.5409436225891113,"21":0.4253144860267639,"22":-1.88724946975708,"23":-0.5637564659118652,"24":0.18358324468135834,"25":-0.2577720284461975,"26":0.5075342655181885,"27":0.8645163774490356,"28":0.1253167986869812,"29":0.46928927302360535,"30":-0.42165353894233704,"31":0.06317013502120972,"32":-0.18725359439849854,"33":-0.024091243743896484,"34":0.021008029580116272,"35":-3.3968098163604736,"36":0.07891271263360977,"37":1.1830501556396484,"38":0.7387054562568665,"39":-0.47131529450416565,"40":-0.19395765662193298,"41":-0.9448014497756958,"42":-0.03172406554222107,"43":0.3224170506000519,"44":-0.5636654496192932,"45":0.13754381239414215,"46":0.9184117317199707,"47":-0.7171330451965332,"48":0.41836777329444885,"49":-0.6248171329498291,"50":-0.6434251070022583,"51":2.2453482151031494,"52":-0.5422464609146118,"53":-1.467334270477295,"54":-1.943534016609192,"55":0.001377324340865016,"56":0.1788034290075302,"57":0.910179615020752,"58":-0.5770387649536133,"59":-0.008296748623251915,"60":1.0669834613800049,"61":0.19902710616588593,"62":0.9030352830886841,"63":0.40907764434814453,"64":0.5889741778373718,"65":-2.1320252418518066,"66":0.344252347946167,"67":-0.10615421086549759,"68":-0.6831511855125427,"69":-0.362228125333786,"70":-1.7140308618545532,"71":-0.10759396106004715,"72":0.501905620098114,"73":-0.3418673276901245,"74":0.6679584980010986,"75":1.0476408004760742,"76":-1.0314191579818726,"77":1.2556103467941284,"78":-2.0263454914093018,"79":4.5546369552612305,"80":-0.28097519278526306,"81":1.3822859525680542,"82":2.288233995437622,"83":-1.0474077463150024,"84":0.469235897064209,"85":-1.0041886568069458,"86":-0.41581761837005615,"87":-0.3880995512008667,"88":-0.40852826833724976,"89":1.3856109380722046,"90":0.5222771167755127,"91":0.5888471007347107,"92":0.17231696844100952,"93":-0.024050341919064522,"94":-0.874517560005188,"95":0.0193248949944973,"96":0.4425387382507324,"97":-0.5994793176651001,"98":0.12043051421642303,"99":1.4370890855789185,"100":0.6593196988105774,"101":-0.7941521406173706,"102":-0.6248919367790222,"103":-0.0026433358434587717,"104":0.22443200647830963,"105":-0.5757595300674438,"106":1.147002100944519,"107":0.22905096411705017,"108":0.34629586338996887,"109":0.9883313775062561,"110":-0.678766131401062,"111":-0.1010453999042511,"112":0.030703149735927582,"113":0.11333451420068741,"114":0.23460251092910767,"115":-0.2028219848871231,"116":-1.9757776260375977,"117":-0.46303099393844604,"118":-0.14886324107646942,"119":0.16028046607971191,"120":0.5868246555328369,"121":0.4161751866340637,"122":0.18491396307945251,"123":-1.853406310081482,"124":1.0474056005477905,"125":0.9688208699226379,"126":-0.2482677698135376,"127":0.6182472109794617,"128":-0.4417102634906769,"129":-0.5872775912284851,"130":-0.6929904818534851,"131":1.3015698194503784,"132":-1.1410984992980957,"133":-0.17088356614112854,"134":1.0174131393432617,"135":0.8189104199409485,"136":0.5506108999252319,"137":0.22454383969306946,"138":1.2710503339767456,"139":-0.6693785190582275,"140":0.2912651002407074,"141":0.6222943067550659,"142":0.12025434523820877,"143":-1.2362911701202393,"144":-0.3144383728504181}},"2":{"bias":1.8551644086837769,"weights":{"0":0.336179256439209,"1":2.03165864944458,"2":-1.0075594186782837,"3":-0.014814627356827259,"4":-0.926787793636322,"5":-0.6351721286773682,"6":-1.1147470474243164,"7":0.28234967589378357,"8":-0.9025490283966064,"9":-0.6872842907905579,"10":-2.0738413333892822,"11":0.12787865102291107,"12":0.4751576781272888,"13":-0.08306107670068741,"14":-2.4761390686035156,"15":1.08087158203125,"16":-0.19427336752414703,"17":-1.2470448017120361,"18":-0.30402684211730957,"19":-0.011236031539738178,"20":0.7462300062179565,"21":-1.997825264930725,"22":0.6782628297805786,"23":2.00376558303833,"24":0.5604490041732788,"25":-2.3145036697387695,"26":0.3947889506816864,"27":1.0857902765274048,"28":0.3675892949104309,"29":0.8936318755149841,"30":2.1358516216278076,"31":0.9787986278533936,"32":0.26315373182296753,"33":1.422389030456543,"34":-0.7201377749443054,"35":0.5790497064590454,"36":-1.90329110622406,"37":0.09442561864852905,"38":0.620729923248291,"39":0.3718593418598175,"40":-1.0965253114700317,"41":-0.45683538913726807,"42":0.014647130854427814,"43":0.5086358785629272,"44":-0.013984301127493382,"45":-1.5879411697387695,"46":0.44403955340385437,"47":-1.2400684356689453,"48":-0.15144914388656616,"49":2.35599946975708,"50":0.7697558403015137,"51":-0.15758273005485535,"52":0.3859065771102905,"53":-1.1056978702545166,"54":-0.6392209529876709,"55":0.09012143313884735,"56":2.1415650844573975,"57":1.3899798393249512,"58":-0.01427883468568325,"59":-0.21253234148025513,"60":-0.24846389889717102,"61":0.9868425726890564,"62":-0.08532582223415375,"63":-0.10790356993675232,"64":1.7652149200439453,"65":1.1556473970413208,"66":1.207196831703186,"67":0.18055939674377441,"68":-0.7935128211975098,"69":-1.5456302165985107,"70":0.5492638349533081,"71":1.2324299812316895,"72":-0.4957713186740875,"73":-0.4616507887840271,"74":-0.890308678150177,"75":0.5648952722549438,"76":0.8280726671218872,"77":0.19674766063690186,"78":1.260055422782898,"79":-0.7459777593612671,"80":1.2128976583480835,"81":1.3347033262252808,"82":0.23625551164150238,"83":-1.0558247566223145,"84":0.5913036465644836,"85":-0.3663402795791626,"86":-0.615916907787323,"87":2.8366711139678955,"88":0.06968995928764343,"89":-0.8567185997962952,"90":0.029170578345656395,"91":-0.8253095746040344,"92":-0.7252663969993591,"93":-0.756877601146698,"94":0.849157452583313,"95":0.2868996262550354,"96":0.4390142261981964,"97":0.9279739260673523,"98":-0.115165576338768,"99":0.5888320803642273,"100":-0.17690114676952362,"101":0.24172499775886536,"102":0.15732461214065552,"103":-0.5406363606452942,"104":-0.021414315328001976,"105":0.6525846123695374,"106":-0.024082453921437263,"107":-0.4046585261821747,"108":-1.783682942390442,"109":0.705690860748291,"110":1.6554782390594482,"111":0.4609869718551636,"112":-1.1879585981369019,"113":0.8133074641227722,"114":-0.4957803189754486,"115":-0.22978553175926208,"116":-0.19581474363803864,"117":-1.6440335512161255,"118":0.14056627452373505,"119":-1.5655521154403687,"120":-0.3487672805786133,"121":-0.1447911411523819,"122":-0.028320197016000748,"123":-0.3275164067745209,"124":-0.41798466444015503,"125":-1.4083250761032104,"126":-1.8892015218734741,"127":-1.2441498041152954,"128":0.3124653697013855,"129":-1.238210678100586,"130":-0.9274304509162903,"131":-0.4374128580093384,"132":0.06432612240314484,"133":-0.1769990622997284,"134":-0.03945271298289299,"135":0.9308562278747559,"136":-1.5250988006591797,"137":-1.36212158203125,"138":-1.2099539041519165,"139":1.1855382919311523,"140":0.0007595496135763824,"141":-0.8281340003013611,"142":0.6865160465240479,"143":-0.5854599475860596,"144":-0.40987280011177063}},"3":{"bias":-2.3006420135498047,"weights":{"0":-1.8217620849609375,"1":0.14277268946170807,"2":1.7544505596160889,"3":-0.49758970737457275,"4":0.13519811630249023,"5":0.5553293228149414,"6":-2.2515082359313965,"7":0.6769551634788513,"8":1.5666192770004272,"9":-0.610497236251831,"10":-2.0955305099487305,"11":0.4725959897041321,"12":1.7741652727127075,"13":0.04277165234088898,"14":-1.6411349773406982,"15":-0.950303852558136,"16":0.18994127213954926,"17":1.338917851448059,"18":0.6084250211715698,"19":-0.819017767906189,"20":0.13884669542312622,"21":-0.22364449501037598,"22":0.8712174892425537,"23":-2.0251784324645996,"24":-1.301994800567627,"25":0.340257465839386,"26":0.14215867221355438,"27":0.4578235149383545,"28":-0.7034580707550049,"29":-0.13896192610263824,"30":-0.21936585009098053,"31":-1.4474446773529053,"32":-0.18270820379257202,"33":-0.6229269504547119,"34":0.3261958658695221,"35":1.420132040977478,"36":-0.5224562883377075,"37":0.49486202001571655,"38":0.27710917592048645,"39":0.26507633924484253,"40":0.851229190826416,"41":-0.25373998284339905,"42":0.25916072726249695,"43":0.21006110310554504,"44":-0.12106730788946152,"45":0.03300805017352104,"46":-0.46245718002319336,"47":2.3088254928588867,"48":0.7709587216377258,"49":-2.3763821125030518,"50":0.04108239710330963,"51":1.0035970211029053,"52":0.12575802206993103,"53":0.3256518244743347,"54":-1.9690805673599243,"55":0.2650277018547058,"56":0.5458654761314392,"57":0.5226893424987793,"58":0.3288232982158661,"59":-0.4207628071308136,"60":0.6965718269348145,"61":-0.6845654249191284,"62":0.857084333896637,"63":-0.5713991522789001,"64":-0.4071541726589203,"65":1.403642177581787,"66":-2.128561496734619,"67":0.4905320703983307,"68":-0.8781086206436157,"69":-0.9268242716789246,"70":-0.25410202145576477,"71":0.8301688432693481,"72":0.6728428602218628,"73":0.12347729504108429,"74":-0.11673162877559662,"75":-0.8127480149269104,"76":-0.07247054576873779,"77":1.2984427213668823,"78":0.5690473318099976,"79":1.2220470905303955,"80":0.7600201964378357,"81":-0.49773678183555603,"82":0.3022404909133911,"83":-0.6905636191368103,"84":0.009347721934318542,"85":-0.5854569673538208,"86":-2.005558967590332,"87":1.9734829664230347,"88":0.6818274259567261,"89":-1.3489396572113037,"90":-0.10017544776201248,"91":1.1401907205581665,"92":0.1533868908882141,"93":0.5712034702301025,"94":-0.47162795066833496,"95":0.32268133759498596,"96":-0.5095700025558472,"97":-1.0802816152572632,"98":-0.06987924873828888,"99":2.5934295654296875,"100":-0.655949592590332,"101":-0.87241530418396,"102":-0.7122558951377869,"103":-0.33481109142303467,"104":-0.8735992312431335,"105":-2.750044345855713,"106":0.07789867371320724,"107":-1.66447913646698,"108":-2.575503349304199,"109":-1.4900639057159424,"110":-0.6452775597572327,"111":-1.2337335348129272,"112":-1.8138607740402222,"113":-0.21140164136886597,"114":-0.8004900813102722,"115":0.22036908566951752,"116":-0.7693597078323364,"117":1.221785545349121,"118":1.2113710641860962,"119":1.5417556762695312,"120":0.2351207137107849,"121":-0.38033801317214966,"122":1.5885448455810547,"123":-1.3292697668075562,"124":1.5469766855239868,"125":-2.1077444553375244,"126":-0.8390595316886902,"127":0.6596139073371887,"128":2.465649366378784,"129":-1.397609829902649,"130":-1.2910139560699463,"131":-0.23118001222610474,"132":0.8827663064002991,"133":-1.1097848415374756,"134":-0.970684289932251,"135":-0.9047162532806396,"136":0.21243935823440552,"137":2.1052939891815186,"138":-2.8647234439849854,"139":0.0790141373872757,"140":1.0148539543151855,"141":-0.4026217460632324,"142":0.6054559946060181,"143":-0.22252880036830902,"144":-0.4414217472076416}},"4":{"bias":-0.560445249080658,"weights":{"0":-0.7861432433128357,"1":-0.0757422000169754,"2":-0.9065564274787903,"3":-0.08389171212911606,"4":1.5847493410110474,"5":-0.23430654406547546,"6":-1.2705892324447632,"7":-0.14046598970890045,"8":-0.589083194732666,"9":1.2147936820983887,"10":-1.2598705291748047,"11":-0.09217698127031326,"12":1.7868082523345947,"13":-0.5908016562461853,"14":0.7592068314552307,"15":0.7179175615310669,"16":-0.7618095874786377,"17":-0.014257517643272877,"18":0.7631574869155884,"19":-0.13050717115402222,"20":-0.9635375738143921,"21":0.7346726655960083,"22":1.989652156829834,"23":0.24066376686096191,"24":1.0065549612045288,"25":0.22860392928123474,"26":0.21127371490001678,"27":1.9247077703475952,"28":-0.23625831305980682,"29":-1.5643717050552368,"30":-0.05555630102753639,"31":-2.180022716522217,"32":-0.5589852929115295,"33":1.0585983991622925,"34":-0.3565004765987396,"35":1.7991292476654053,"36":-0.0011938009411096573,"37":-1.1537741422653198,"38":0.05102848634123802,"39":-1.0183699131011963,"40":0.7490041851997375,"41":1.1605024337768555,"42":-0.7058778405189514,"43":1.7765432596206665,"44":0.35607168078422546,"45":0.4307381212711334,"46":0.44504866003990173,"47":0.08883894234895706,"48":-1.2871438264846802,"49":1.1068153381347656,"50":1.4365514516830444,"51":0.011920817196369171,"52":-1.3863343000411987,"53":-0.7820103764533997,"54":1.5926845073699951,"55":-0.23447078466415405,"56":0.8989070653915405,"57":0.39311283826828003,"58":0.5085453987121582,"59":-1.2621217966079712,"60":0.3022707998752594,"61":-1.6560581922531128,"62":0.8099367022514343,"63":0.6029202342033386,"64":-0.9619532227516174,"65":-0.4435654282569885,"66":0.22779008746147156,"67":-0.6139493584632874,"68":0.5538560152053833,"69":-0.6384504437446594,"70":0.9125648736953735,"71":1.3054897785186768,"72":-0.5780457258224487,"73":-0.14038141071796417,"74":-0.5682837963104248,"75":-0.007581497076898813,"76":1.2077041864395142,"77":-0.9333788752555847,"78":-1.627459168434143,"79":-2.2931876182556152,"80":-1.7755978107452393,"81":0.18060114979743958,"82":0.34936898946762085,"83":-0.3821847140789032,"84":-0.24942120909690857,"85":2.8964035511016846,"86":1.5700480937957764,"87":1.5178512334823608,"88":0.21501168608665466,"89":1.2091094255447388,"90":0.48095017671585083,"91":0.2181263417005539,"92":-0.21456724405288696,"93":-0.5197929739952087,"94":1.6366645097732544,"95":-1.1001551151275635,"96":-0.9126157164573669,"97":0.22823353111743927,"98":-0.2955080568790436,"99":0.06119074299931526,"100":1.3870224952697754,"101":-0.04886613041162491,"102":0.25404003262519836,"103":0.17398883402347565,"104":-0.23106640577316284,"105":0.2738551199436188,"106":-0.402334064245224,"107":-2.9318013191223145,"108":0.8459601402282715,"109":-2.013396739959717,"110":-0.15342245995998383,"111":0.16879719495773315,"112":-0.6491549611091614,"113":-0.20205998420715332,"114":-0.7279036045074463,"115":-0.8250831365585327,"116":-0.4035514295101166,"117":2.1374499797821045,"118":-0.6941250562667847,"119":0.8294033408164978,"120":-1.4275264739990234,"121":0.21913854777812958,"122":1.4339184761047363,"123":-5.536999702453613,"124":0.6563119292259216,"125":0.28813180327415466,"126":0.6873288750648499,"127":-2.07533597946167,"128":-0.6931056976318359,"129":-0.5680168271064758,"130":0.3800983130931854,"131":0.2691209316253662,"132":0.03619945049285889,"133":-0.1506548821926117,"134":-2.1112053394317627,"135":0.7481293678283691,"136":-2.258888006210327,"137":1.166844129562378,"138":0.9391922950744629,"139":-0.08767814189195633,"140":0.14804522693157196,"141":0.2818946838378906,"142":-0.37136298418045044,"143":-0.8289487957954407,"144":-0.002065847162157297}},"5":{"bias":-2.0260746479034424,"weights":{"0":-0.3921911120414734,"1":0.6557390689849854,"2":-0.16026654839515686,"3":0.5938817262649536,"4":0.2869473397731781,"5":-0.1627868413925171,"6":0.6151273250579834,"7":1.4862251281738281,"8":-2.6840434074401855,"9":0.2038607895374298,"10":-0.5958493947982788,"11":-0.8077006936073303,"12":0.11506879329681396,"13":0.2656066417694092,"14":0.4170772433280945,"15":-0.6205523610115051,"16":0.016517112031579018,"17":1.7557966709136963,"18":0.06113046035170555,"19":-0.09822016954421997,"20":0.5681934356689453,"21":-1.9106241464614868,"22":0.7158629894256592,"23":-0.3557930290699005,"24":0.7400726079940796,"25":0.07878122478723526,"26":0.2350231409072876,"27":0.17215071618556976,"28":0.5375458002090454,"29":-0.28296974301338196,"30":1.152708888053894,"31":-0.4724602997303009,"32":-0.6612216234207153,"33":0.5063034296035767,"34":-0.16918537020683289,"35":-1.5482141971588135,"36":-1.4448108673095703,"37":1.2586745023727417,"38":0.4462219476699829,"39":0.3834401071071625,"40":0.7665740251541138,"41":-0.0242901798337698,"42":-0.6791649460792542,"43":1.6312085390090942,"44":0.21494224667549133,"45":-0.33433815836906433,"46":-0.20168735086917877,"47":0.35664916038513184,"48":-0.5497863292694092,"49":-0.37169119715690613,"50":-1.7205450534820557,"51":0.027248911559581757,"52":-1.2890981435775757,"53":-0.1741025149822235,"54":0.38580453395843506,"55":0.5470572113990784,"56":0.3787206709384918,"57":-0.004110235720872879,"58":0.4648885726928711,"59":-0.08386828005313873,"60":0.8838698863983154,"61":0.4649941921234131,"62":-1.7159160375595093,"63":-0.2051953226327896,"64":0.8612439036369324,"65":-0.7311046123504639,"66":-0.515373706817627,"67":-0.9216289520263672,"68":-0.21608002483844757,"69":0.7818058729171753,"70":0.34691765904426575,"71":0.7697517275810242,"72":-2.7687087059020996,"73":0.4747260808944702,"74":0.34484168887138367,"75":-0.5343374609947205,"76":0.1556885987520218,"77":0.44940274953842163,"78":0.07969000935554504,"79":-0.5828255414962769,"80":0.058092568069696426,"81":0.04415368288755417,"82":1.1266391277313232,"83":-0.7528746724128723,"84":0.3416123390197754,"85":-0.506902277469635,"86":0.6155232191085815,"87":-0.5796431303024292,"88":0.17669710516929626,"89":0.6709680557250977,"90":-0.8576975464820862,"91":1.7643640041351318,"92":-0.2937869727611542,"93":-1.9240069389343262,"94":0.5452844500541687,"95":0.05789811909198761,"96":0.30580756068229675,"97":-0.7599199414253235,"98":1.0272353887557983,"99":-0.6990308165550232,"100":0.4195982813835144,"101":-0.2831527888774872,"102":0.4603850245475769,"103":0.038410674780607224,"104":-1.0651825666427612,"105":-0.6741451025009155,"106":0.4307849705219269,"107":-1.2973355054855347,"108":-0.8868557214736938,"109":-0.42394253611564636,"110":-0.04209157079458237,"111":-0.0704151839017868,"112":-1.8808581829071045,"113":0.4973922669887543,"114":-0.25357648730278015,"115":-0.06933842599391937,"116":1.5637418031692505,"117":-0.8681970834732056,"118":0.6227055788040161,"119":-0.8938401341438293,"120":-0.14242404699325562,"121":-0.3588208556175232,"122":2.257120370864868,"123":-1.2963535785675049,"124":-1.8052864074707031,"125":0.7817710041999817,"126":0.6399009823799133,"127":0.6390553712844849,"128":-0.6610289812088013,"129":-1.601096272468567,"130":0.8469383716583252,"131":-0.2966153621673584,"132":0.11440098285675049,"133":-0.5538572669029236,"134":0.07829692214727402,"135":0.11133061349391937,"136":-0.7530398964881897,"137":-0.0314311720430851,"138":1.7564443349838257,"139":-0.08062545955181122,"140":0.8497378826141357,"141":-0.22588981688022614,"142":0.9936299920082092,"143":-0.5274201035499573,"144":0.6782386898994446}},"6":{"bias":-1.0037413835525513,"weights":{"0":-1.4303356409072876,"1":0.31570860743522644,"2":1.482502818107605,"3":0.607872486114502,"4":-0.45118218660354614,"5":-0.336684912443161,"6":0.3748268187046051,"7":0.9051911234855652,"8":0.6137412786483765,"9":0.37880831956863403,"10":0.6360713243484497,"11":-0.164002925157547,"12":-1.0780199766159058,"13":0.794249951839447,"14":-0.02620307169854641,"15":-0.15145547688007355,"16":-0.7856490612030029,"17":-0.7214764356613159,"18":-0.47832798957824707,"19":-1.0013670921325684,"20":-0.6138308644294739,"21":-0.7245787978172302,"22":0.6565309166908264,"23":0.24244320392608643,"24":0.5866182446479797,"25":-0.6855847835540771,"26":1.2351882457733154,"27":-0.5201095938682556,"28":0.47663620114326477,"29":-1.7606897354125977,"30":0.6630832552909851,"31":-0.6023738980293274,"32":-0.3284483253955841,"33":-0.9242790341377258,"34":-0.4161827564239502,"35":2.587634563446045,"36":-0.49991491436958313,"37":0.33119961619377136,"38":-0.3190639615058899,"39":1.2830629348754883,"40":0.7773800492286682,"41":0.8319965600967407,"42":-0.31008878350257874,"43":0.06306648999452591,"44":-0.05737670138478279,"45":1.5990768671035767,"46":0.33313101530075073,"47":0.40880468487739563,"48":-0.6849122643470764,"49":-1.2626045942306519,"50":-0.9206064939498901,"51":-0.6828820705413818,"52":-0.4187427759170532,"53":-0.7141169309616089,"54":-0.7738215923309326,"55":0.6941919922828674,"56":-0.4216682016849518,"57":0.09019999951124191,"58":0.7379337549209595,"59":-0.249430850148201,"60":1.5756944417953491,"61":-0.9728217124938965,"62":-0.17274048924446106,"63":0.2399955540895462,"64":-0.9480143189430237,"65":-2.732191801071167,"66":-2.088162899017334,"67":-0.639426052570343,"68":-1.4363933801651,"69":0.3198283910751343,"70":0.4361938536167145,"71":-0.6563637852668762,"72":1.0485210418701172,"73":0.016229726374149323,"74":-0.07309393584728241,"75":-0.34045422077178955,"76":1.5334008932113647,"77":-0.6821881532669067,"78":2.212841272354126,"79":-0.24184177815914154,"80":0.8217329382896423,"81":-0.5754497051239014,"82":-0.5917536020278931,"83":-0.1835612803697586,"84":0.9518641829490662,"85":-0.8068239092826843,"86":-1.174980878829956,"87":-0.2812824249267578,"88":-0.7146093249320984,"89":0.834599494934082,"90":0.3527964949607849,"91":1.423294186592102,"92":-0.1577758938074112,"93":1.4641708135604858,"94":-0.7046265006065369,"95":0.8835009932518005,"96":0.10612904280424118,"97":0.3976097106933594,"98":0.6184142231941223,"99":0.6767690777778625,"100":-0.02284022606909275,"101":2.159224510192871,"102":1.2102493047714233,"103":-0.4518032371997833,"104":-1.058212161064148,"105":-0.31603574752807617,"106":-0.38383185863494873,"107":0.5314876437187195,"108":-0.44747230410575867,"109":-0.6749652624130249,"110":-1.0723079442977905,"111":-1.3191165924072266,"112":-0.2905386686325073,"113":0.42569592595100403,"114":-0.742274820804596,"115":0.43832916021347046,"116":0.4191620945930481,"117":1.331585168838501,"118":0.5023995041847229,"119":-0.3068273365497589,"120":-0.8155661225318909,"121":-0.03050803393125534,"122":-0.4261045753955841,"123":0.004361606203019619,"124":-1.3259207010269165,"125":-0.7344434261322021,"126":0.26352187991142273,"127":3.7162256240844727,"128":1.0481950044631958,"129":-0.4941152036190033,"130":-0.9807572364807129,"131":0.27892547845840454,"132":-1.0454847812652588,"133":-0.9471839070320129,"134":-0.06378189474344254,"135":0.7919764518737793,"136":0.4993724822998047,"137":-0.04891519248485565,"138":-1.2314296960830688,"139":-0.14273665845394135,"140":-0.3804034888744354,"141":-1.6224925518035889,"142":0.3729308545589447,"143":0.2653888761997223,"144":-0.3819396495819092}},"7":{"bias":3.102725028991699,"weights":{"0":0.3580513894557953,"1":-0.36582037806510925,"2":1.1327255964279175,"3":0.23512889444828033,"4":-0.8016853332519531,"5":-0.44450727105140686,"6":-1.4771896600723267,"7":0.6785533428192139,"8":0.6143056750297546,"9":-0.9976784586906433,"10":0.21676939725875854,"11":-0.17133550345897675,"12":-1.2119377851486206,"13":0.9642001390457153,"14":-0.14433768391609192,"15":0.1000913679599762,"16":-1.451328992843628,"17":1.1958317756652832,"18":-1.7571282386779785,"19":0.00173883605748415,"20":-0.8659716844558716,"21":0.13359537720680237,"22":-0.9621120691299438,"23":1.7097657918930054,"24":-0.8377688527107239,"25":-1.7279753684997559,"26":-0.20520690083503723,"27":0.7420258522033691,"28":1.2708625793457031,"29":0.2516854703426361,"30":0.7777788043022156,"31":-0.6668236255645752,"32":-0.2278151512145996,"33":2.1134068965911865,"34":-0.27538251876831055,"35":2.52730131149292,"36":-0.7401586174964905,"37":1.042495846748352,"38":0.23253700137138367,"39":0.5960759520530701,"40":-1.2815907001495361,"41":-0.6001912951469421,"42":-1.1941107511520386,"43":-0.39545348286628723,"44":0.26726117730140686,"45":0.9658337831497192,"46":0.6244457364082336,"47":-1.2190523147583008,"48":0.5853966474533081,"49":1.742546796798706,"50":0.719614565372467,"51":-1.5289591550827026,"52":0.4434792101383209,"53":-1.0033342838287354,"54":1.0480862855911255,"55":-0.08611997216939926,"56":1.9515268802642822,"57":-0.006308375857770443,"58":-0.4249613583087921,"59":0.0880637988448143,"60":0.6771459579467773,"61":0.8448747992515564,"62":-0.7288984656333923,"63":-0.17941561341285706,"64":-1.2919589281082153,"65":1.4705103635787964,"66":1.885561466217041,"67":0.32413819432258606,"68":0.5747266411781311,"69":-0.5572303533554077,"70":-1.228751301765442,"71":0.061007365584373474,"72":0.18354648351669312,"73":0.25238046050071716,"74":0.4037375748157501,"75":0.5517498850822449,"76":1.8912359476089478,"77":0.25001150369644165,"78":1.2506413459777832,"79":-2.2172935009002686,"80":0.9382046461105347,"81":0.6238375306129456,"82":-0.15607371926307678,"83":1.5994755029678345,"84":-0.594081699848175,"85":1.7797812223434448,"86":0.4998004734516144,"87":0.5822659134864807,"88":0.1380424201488495,"89":-0.7518786787986755,"90":0.9861316680908203,"91":0.7824854254722595,"92":-0.14192819595336914,"93":1.1955300569534302,"94":-0.2175726741552353,"95":0.6556023359298706,"96":-0.0358053594827652,"97":-0.3826008141040802,"98":-0.6961402893066406,"99":0.08382338285446167,"100":1.3113495111465454,"101":0.5953471660614014,"102":0.13862551748752594,"103":0.15475937724113464,"104":-0.6045581102371216,"105":0.28310057520866394,"106":0.5520519018173218,"107":1.0896543264389038,"108":1.5834856033325195,"109":-0.2905628979206085,"110":1.2937203645706177,"111":-0.26160791516304016,"112":-0.06285171210765839,"113":-0.4445256292819977,"114":1.25747811794281,"115":0.090081587433815,"116":1.884750485420227,"117":0.2002483308315277,"118":-1.7872340679168701,"119":-0.1770789474248886,"120":-0.8056906461715698,"121":-0.157156303524971,"122":-1.4807562828063965,"123":-0.12427471578121185,"124":2.5057456493377686,"125":-0.15259303152561188,"126":-0.6929334998130798,"127":-1.3746517896652222,"128":-1.5131949186325073,"129":-1.4628125429153442,"130":-1.2359435558319092,"131":-1.0579743385314941,"132":0.8208450675010681,"133":0.28384125232696533,"134":0.294403612613678,"135":-1.767995834350586,"136":1.52530837059021,"137":0.47428181767463684,"138":0.8325327038764954,"139":1.2094320058822632,"140":-1.043837070465088,"141":-0.3620896339416504,"142":-0.2509317398071289,"143":1.076891541481018,"144":-0.12712228298187256}}},{"0":{"bias":-0.08095735311508179,"weights":{"0":-0.47960805892944336,"1":-0.7168630361557007,"2":-0.9395386576652527,"3":-0.6574671268463135,"4":-2.0317671298980713,"5":1.261486530303955,"6":-0.46256738901138306,"7":1.7296240329742432}},"1":{"bias":8.719634056091309,"weights":{"0":-6.689877986907959,"1":-5.500543117523193,"2":-5.960308074951172,"3":8.167388916015625,"4":-5.793673515319824,"5":6.82157039642334,"6":-5.766033172607422,"7":13.14726448059082}},"2":{"bias":-2.2574234008789062,"weights":{"0":0.10605952143669128,"1":0.99375981092453,"2":-0.18062691390514374,"3":1.1864073276519775,"4":-0.10536924749612808,"5":-0.7837424874305725,"6":1.2155110836029053,"7":-1.1630207300186157}},"3":{"bias":-0.2891994118690491,"weights":{"0":-0.6175103783607483,"1":-0.6712098121643066,"2":-0.07678192853927612,"3":0.36395159363746643,"4":-0.614275336265564,"5":-0.5547224283218384,"6":-1.0185736417770386,"7":-0.014032652601599693}},"4":{"bias":-0.9308111667633057,"weights":{"0":-0.590378999710083,"1":-0.19091202318668365,"2":-0.22813451290130615,"3":0.11041424423456192,"4":0.701993465423584,"5":0.2971879839897156,"6":0.21973012387752533,"7":0.08638118952512741}},"5":{"bias":-0.21909306943416595,"weights":{"0":-0.44691410660743713,"1":-1.0574417114257812,"2":-0.14885857701301575,"3":-0.6438227891921997,"4":-0.3850814402103424,"5":1.5428812503814697,"6":-0.9588660597801208,"7":0.6369360685348511}},"6":{"bias":-0.5168938636779785,"weights":{"0":-0.46153026819229126,"1":-0.6675769090652466,"2":-0.6360654234886169,"3":0.031651560217142105,"4":-0.5117910504341125,"5":-0.04992467537522316,"6":-0.8532416224479675,"7":0.11642979830503464}},"7":{"bias":-1.2956016063690186,"weights":{"0":-0.4012448489665985,"1":0.476667195558548,"2":-0.11435043811798096,"3":0.3400444984436035,"4":0.9573596119880676,"5":-0.7236719131469727,"6":1.0490094423294067,"7":-0.8331586718559265}}},{"0":{"bias":5.858822822570801,"weights":{"0":0.6802431344985962,"1":-7.371401309967041,"2":0.8727670311927795,"3":-0.9654127359390259,"4":0.5149877071380615,"5":0.25156787037849426,"6":-0.3615533113479614,"7":0.3717283010482788}}}],"outputLookup":false,"inputLookup":false,"activation":"sigmoid","trainOpts":{"iterations":20000,"errorThresh":0.003,"log":true,"logPeriod":10,"learningRate":0.05,"momentum":0.1,"callbackPeriod":10,"beta1":0.9,"beta2":0.999,"epsilon":1e-8}}