{"sizes":[145,8,8,1],"layers":[{"0":{},"1":{},"2":{},"3":{},"4":{},"5":{},"6":{},"7":{},"8":{},"9":{},"10":{},"11":{},"12":{},"13":{},"14":{},"15":{},"16":{},"17":{},"18":{},"19":{},"20":{},"21":{},"22":{},"23":{},"24":{},"25":{},"26":{},"27":{},"28":{},"29":{},"30":{},"31":{},"32":{},"33":{},"34":{},"35":{},"36":{},"37":{},"38":{},"39":{},"40":{},"41":{},"42":{},"43":{},"44":{},"45":{},"46":{},"47":{},"48":{},"49":{},"50":{},"51":{},"52":{},"53":{},"54":{},"55":{},"56":{},"57":{},"58":{},"59":{},"60":{},"61":{},"62":{},"63":{},"64":{},"65":{},"66":{},"67":{},"68":{},"69":{},"70":{},"71":{},"72":{},"73":{},"74":{},"75":{},"76":{},"77":{},"78":{},"79":{},"80":{},"81":{},"82":{},"83":{},"84":{},"85":{},"86":{},"87":{},"88":{},"89":{},"90":{},"91":{},"92":{},"93":{},"94":{},"95":{},"96":{},"97":{},"98":{},"99":{},"100":{},"101":{},"102":{},"103":{},"104":{},"105":{},"106":{},"107":{},"108":{},"109":{},"110":{},"111":{},"112":{},"113":{},"114":{},"115":{},"116":{},"117":{},"118":{},"119":{},"120":{},"121":{},"122":{},"123":{},"124":{},"125":{},"126":{},"127":{},"128":{},"129":{},"130":{},"131":{},"132":{},"133":{},"134":{},"135":{},"136":{},"137":{},"138":{},"139":{},"140":{},"141":{},"142":{},"143":{},"144":{}},{"0":{"bias":-1.2643251419067383,"weights":{"0":1.1241685152053833,"1":0.04964577406644821,"2":0.32844066619873047,"3":0.10397700220346451,"4":0.97867751121521,"5":-0.27858462929725647,"6":1.1232479810714722,"7":1.5009011030197144,"8":0.5366567373275757,"9":0.3265715539455414,"10":0.17771369218826294,"11":-0.7377877235412598,"12":0.4492003321647644,"13":0.4330977499485016,"14":0.07414034008979797,"15":-0.2655895948410034,"16":0.3035470247268677,"17":0.8232069611549377,"18":-0.43246862292289734,"19":-0.2645925283432007,"20":-0.3730499744415283,"21":0.09632755070924759,"22":-0.1687135100364685,"23":-0.8136946558952332,"24":-1.1031467914581299,"25":-0.5689899325370789,"26":0.26082751154899597,"27":0.2367142140865326,"28":-0.7101768851280212,"29":0.5671559572219849,"30":0.03845794126391411,"31":-0.38863298296928406,"32":0.8050603866577148,"33":0.1792265623807907,"34":-0.03299877792596817,"35":-0.19100962579250336,"36":1.371181607246399,"37":0.6871219277381897,"38":0.23319876194000244,"39":0.9808732271194458,"40":-0.2535795569419861,"41":-0.2762071490287781,"42":-0.5370445847511292,"43":-0.06594839692115784,"44":0.29624947905540466,"45":0.6118288040161133,"46":0.4113638699054718,"47":-0.06220191717147827,"48":-0.3256686329841614,"49":-0.19030271470546722,"50":-0.882482647895813,"51":-0.2547760605812073,"52":-0.6985450387001038,"53":-0.332052081823349,"54":0.22519977390766144,"55":0.2928606867790222,"56":-0.022111499682068825,"57":-0.24515283107757568,"58":-0.006222047843039036,"59":-1.0835940837860107,"60":-0.4911858141422272,"61":0.6625228524208069,"62":0.06116662919521332,"63":-0.1850862354040146,"64":-0.5832667350769043,"65":-0.8307791352272034,"66":0.4540526270866394,"67":0.8223674893379211,"68":1.2780870199203491,"69":0.5078097581863403,"70":-0.3725982904434204,"71":0.2419501692056656,"72":-0.33314085006713867,"73":-0.13811872899532318,"74":-0.30221495032310486,"75":0.29249855875968933,"76":0.937881588935852,"77":-0.6434224247932434,"78":-0.6874046325683594,"79":0.09454496204853058,"80":0.15889179706573486,"81":-1.6753541231155396,"82":-0.9406086802482605,"83":0.7529253363609314,"84":-0.0033986796624958515,"85":0.1901807188987732,"86":0.1347000151872635,"87":0.07221920043230057,"88":-0.6183319687843323,"89":-0.32436099648475647,"90":1.527207612991333,"91":1.0129716396331787,"92":-0.03924233466386795,"93":-0.13235996663570404,"94":0.3269336223602295,"95":0.389105886220932,"96":0.05494625121355057,"97":-0.2325131595134735,"98":0.45808616280555725,"99":-0.11373986303806305,"100":0.14889387786388397,"101":0.2809695303440094,"102":0.3580276668071747,"103":-0.17253823578357697,"104":-0.40082207322120667,"105":-0.39256179332733154,"106":-0.23283164203166962,"107":2.2283873558044434,"108":-0.09712924063205719,"109":-0.528039813041687,"110":-0.05042926222085953,"111":0.2833805978298187,"112":-0.6525546312332153,"113":0.28337085247039795,"114":0.03221244737505913,"115":-0.9899966716766357,"116":-0.4844726026058197,"117":0.4546712040901184,"118":0.7459669709205627,"119":-0.04959748312830925,"120":0.6425767540931702,"121":-0.04342203587293625,"122":-1.5690735578536987,"123":1.4773730039596558,"124":0.3043801784515381,"125":0.3448987901210785,"126":0.7346953749656677,"127":1.9590435028076172,"128":-0.7352904081344604,"129":-0.9090501666069031,"130":0.005511298775672913,"131":-0.4539576768875122,"132":0.010076325386762619,"133":-0.39121729135513306,"134":0.0941179171204567,"135":-0.7715517282485962,"136":0.49669164419174194,"137":1.016473412513733,"138":0.13740020990371704,"139":-0.10499535501003265,"140":0.9170937538146973,"141":0.7716730833053589,"142":0.541637122631073,"143":0.054209206253290176,"144":1.0993229150772095}},"1":{"bias":-2.069227457046509,"weights":{"0":0.008857387118041515,"1":-0.268869012594223,"2":-0.9906319975852966,"3":-0.5315898656845093,"4":-0.8141991496086121,"5":0.016694102436304092,"6":-1.1062432527542114,"7":0.3748660087585449,"8":-0.41633930802345276,"9":-0.0468321219086647,"10":0.4146139621734619,"11":0.09953423589468002,"12":-0.8772460222244263,"13":-0.02158227004110813,"14":-0.09910424798727036,"15":0.8970996737480164,"16":-0.20105627179145813,"17":-0.2416391521692276,"18":0.1252155900001526,"19":-0.5678751468658447,"20":0.18755266070365906,"21":0.0976429358124733,"22":0.5647720098495483,"23":-0.6140766739845276,"24":0.01390322670340538,"25":-0.309392511844635,"26":0.5423677563667297,"27":0.43807631731033325,"28":0.09295705705881119,"29":-0.633992075920105,"30":-0.9242940545082092,"31":1.9158716201782227,"32":0.6093137264251709,"33":-0.10580351203680038,"34":0.3818596303462982,"35":-0.6450279951095581,"36":0.7784177660942078,"37":1.5242023468017578,"38":0.35454654693603516,"39":1.0120733976364136,"40":-0.738167941570282,"41":0.4819463789463043,"42":-0.6009870767593384,"43":0.27518513798713684,"44":-0.19552762806415558,"45":-0.49061837792396545,"46":-0.38863250613212585,"47":-0.18445347249507904,"48":-0.5586280822753906,"49":0.45332804322242737,"50":-0.6303808689117432,"51":0.5261983275413513,"52":-1.139350414276123,"53":-0.07611590623855591,"54":0.3653915226459503,"55":0.3918790817260742,"56":0.3474865257740021,"57":-0.4204793870449066,"58":0.30642032623291016,"59":-0.0540664978325367,"60":0.46912944316864014,"61":0.8194620013237,"62":-0.8893448710441589,"63":0.0020140288397669792,"64":0.3163897693157196,"65":-1.027111530303955,"66":2.056331157684326,"67":-0.04887069761753082,"68":1.4339022636413574,"69":-0.30468419194221497,"70":-0.9268015623092651,"71":1.8351746797561646,"72":1.3237617015838623,"73":-1.020293116569519,"74":0.4760183095932007,"75":-0.019861487671732903,"76":1.1375346183776855,"77":-0.9627013206481934,"78":0.4498293101787567,"79":0.49345287680625916,"80":0.06500884890556335,"81":-1.7024863958358765,"82":-0.649625837802887,"83":0.6637136340141296,"84":0.47116389870643616,"85":-0.05353894084692001,"86":-0.37001293897628784,"87":0.569998025894165,"88":0.21537157893180847,"89":-1.071116328239441,"90":0.8269762992858887,"91":-0.3679465353488922,"92":0.02987428568303585,"93":-0.6846961379051208,"94":0.7504259347915649,"95":0.11637047678232193,"96":-0.22970004379749298,"97":0.32611870765686035,"98":0.3845847249031067,"99":0.48427897691726685,"100":-1.0967957973480225,"101":0.5521260499954224,"102":-0.16528384387493134,"103":-0.3108622133731842,"104":0.47251197695732117,"105":-1.2226687669754028,"106":-0.6164948344230652,"107":1.0329785346984863,"108":0.8431407809257507,"109":-0.44475531578063965,"110":-0.9510664343833923,"111":1.2813698053359985,"112":1.4633136987686157,"113":0.3653404712677002,"114":1.2374719381332397,"115":0.013401733711361885,"116":-0.7994263172149658,"117":-0.6193172335624695,"118":1.4390816688537598,"119":0.7411678433418274,"120":1.0753371715545654,"121":0.35429126024246216,"122":-0.7143189907073975,"123":1.871006727218628,"124":-0.13974367082118988,"125":0.28249961137771606,"126":-0.8540096879005432,"127":0.7897307872772217,"128":-1.17798912525177,"129":0.1305210292339325,"130":-1.395079493522644,"131":-0.19628094136714935,"132":-1.1281110048294067,"133":-0.5858333110809326,"134":-0.5005658268928528,"135":-0.7081559300422668,"136":0.1748703569173813,"137":-0.840103268623352,"138":-0.4450453519821167,"139":-2.0227198600769043,"140":-0.5239009857177734,"141":1.5027270317077637,"142":-0.3119805157184601,"143":1.2340364456176758,"144":-0.8193501830101013}},"2":{"bias":-1.4712488651275635,"weights":{"0":2.3094496726989746,"1":-0.06405395269393921,"2":-1.64398992061615,"3":-0.6787140369415283,"4":0.6391392946243286,"5":-0.08287686109542847,"6":0.5416127443313599,"7":-0.9528034329414368,"8":0.053599536418914795,"9":0.01915927417576313,"10":0.1530819535255432,"11":-0.13539238274097443,"12":1.3096392154693604,"13":0.37891295552253723,"14":1.1007219552993774,"15":-1.2640712261199951,"16":0.474197655916214,"17":-0.09025894105434418,"18":-0.31808680295944214,"19":-0.24351854622364044,"20":0.743805468082428,"21":-0.4161964952945709,"22":-0.12887467443943024,"23":-0.5074992775917053,"24":1.5218852758407593,"25":2.0111255645751953,"26":-0.11267407238483429,"27":-0.6410034894943237,"28":0.10924095660448074,"29":0.4117923378944397,"30":-1.0506030321121216,"31":-0.06717003136873245,"32":1.3320726156234741,"33":0.3790940046310425,"34":0.017058035358786583,"35":-0.9103562235832214,"36":0.849843442440033,"37":-0.7714974880218506,"38":0.5225263833999634,"39":-0.058142729103565216,"40":-0.6221246123313904,"41":0.2844703793525696,"42":0.014919211156666279,"43":1.360792636871338,"44":-0.3744249641895294,"45":-0.2503674626350403,"46":-0.1421300321817398,"47":-0.03829742223024368,"48":0.11422525346279144,"49":0.5985917448997498,"50":-1.0387753248214722,"51":0.8946573138237,"52":-0.2535390555858612,"53":0.6964764595031738,"54":-0.3879197835922241,"55":0.1003376841545105,"56":-1.3774091005325317,"57":-0.4851899743080139,"58":0.42775776982307434,"59":0.04790413752198219,"60":-1.1151444911956787,"61":-0.4187229573726654,"62":1.2165096998214722,"63":-0.009065846912562847,"64":0.551020085811615,"65":1.091011881828308,"66":-0.28870266675949097,"67":0.4806022346019745,"68":0.19318394362926483,"69":0.02677345648407936,"70":0.4855668842792511,"71":-0.1770862489938736,"72":0.6901236772537231,"73":-0.15323203802108765,"74":-0.6782248616218567,"75":0.042168743908405304,"76":-0.34677982330322266,"77":-0.9721275568008423,"78":0.5374647974967957,"79":-0.44376140832901,"80":0.1690005660057068,"81":-0.09488722681999207,"82":0.5160430073738098,"83":-0.11572084575891495,"84":0.34663447737693787,"85":-1.1925393342971802,"86":-0.3722788691520691,"87":-0.8112181425094604,"88":0.0548546239733696,"89":0.1728048026561737,"90":-1.0082595348358154,"91":0.21889400482177734,"92":-0.11364760249853134,"93":-1.9476568698883057,"94":-2.1567206382751465,"95":0.2167418748140335,"96":-1.1730657815933228,"97":-0.49501901865005493,"98":1.5087705850601196,"99":-0.8277780413627625,"100":-0.7858675718307495,"101":-0.45928847789764404,"102":1.3768339157104492,"103":0.034973546862602234,"104":0.21551533043384552,"105":0.5864379405975342,"106":-1.1505532264709473,"107":-0.08690313249826431,"108":-2.06594181060791,"109":-2.1517221927642822,"110":-1.2287821769714355,"111":-0.3715679943561554,"112":0.15401026606559753,"113":0.014714159071445465,"114":-0.7791865468025208,"115":-0.7116902470588684,"116":-0.6492519378662109,"117":0.35222139954566956,"118":0.7275159358978271,"119":0.2936086058616638,"120":-0.20625628530979156,"121":-0.02435792237520218,"122":1.2953972816467285,"123":-0.8496994972229004,"124":-0.20316433906555176,"125":-0.3390125036239624,"126":1.2141749858856201,"127":1.1132298707962036,"128":-0.9924426674842834,"129":-0.14945249259471893,"130":0.48982733488082886,"131":-0.5487070679664612,"132":-0.7798948884010315,"133":0.12473103404045105,"134":0.25223851203918457,"135":1.8372937440872192,"136":0.5965265035629272,"137":0.546135663986206,"138":-2.088733673095703,"139":0.6668933033943176,"140":1.6862783432006836,"141":-1.021552562713623,"142":0.37494394183158875,"143":-0.020327195525169373,"144":-0.014803747646510601}},"3":{"bias":-0.5495970845222473,"weights":{"0":0.05042095109820366,"1":0.15480093657970428,"2":-0.01576959155499935,"3":0.22673651576042175,"4":0.10369318723678589,"5":-0.22761105000972748,"6":0.23689039051532745,"7":0.08846515417098999,"8":-0.02131173014640808,"9":1.0333303213119507,"10":0.5378846526145935,"11":0.22231370210647583,"12":-0.016918571665883064,"13":-0.1783023178577423,"14":-0.625807523727417,"15":0.42194896936416626,"16":-1.2067207098007202,"17":-0.3300921618938446,"18":0.0340045690536499,"19":-0.5516719222068787,"20":-0.6507294774055481,"21":-1.8728187084197998,"22":0.8208069801330566,"23":-0.9332596063613892,"24":-1.0378100872039795,"25":0.5906189680099487,"26":0.5296415090560913,"27":0.32087990641593933,"28":0.039382677525281906,"29":0.9264872670173645,"30":0.6551372408866882,"31":1.1610827445983887,"32":-0.3307500183582306,"33":0.11113044619560242,"34":-0.3276882767677307,"35":0.31377020478248596,"36":-1.211656928062439,"37":-0.08362782001495361,"38":-0.41393306851387024,"39":0.7233628034591675,"40":0.48144859075546265,"41":-0.0571269690990448,"42":-0.12177904695272446,"43":-0.29532915353775024,"44":0.6927496790885925,"45":-0.052900005131959915,"46":-0.04347004368901253,"47":0.6617352962493896,"48":-0.7898358702659607,"49":0.045342106372117996,"50":0.41129598021507263,"51":-1.2571316957473755,"52":-0.0909384936094284,"53":0.029383225366473198,"54":-0.42925554513931274,"55":0.6184839010238647,"56":0.881973922252655,"57":-0.2981005907058716,"58":-0.7537092566490173,"59":-1.1986511945724487,"60":0.6963225603103638,"61":-0.9515852332115173,"62":1.231421947479248,"63":-0.17611978948116302,"64":-0.3132442831993103,"65":-0.20091581344604492,"66":0.2063387632369995,"67":0.8705078363418579,"68":0.15478579699993134,"69":0.23908443748950958,"70":0.8254421949386597,"71":-1.1402695178985596,"72":-0.5536156892776489,"73":-0.07351325452327728,"74":-0.5376960635185242,"75":-0.3990075886249542,"76":0.4101082980632782,"77":-0.7779397368431091,"78":-0.9458335041999817,"79":-1.0202805995941162,"80":0.13873009383678436,"81":-0.048242032527923584,"82":0.17243194580078125,"83":0.0674283504486084,"84":0.763279378414154,"85":0.0630381852388382,"86":-0.8435646295547485,"87":0.08785939961671829,"88":-0.3894968628883362,"89":-0.24649113416671753,"90":0.8362588882446289,"91":-0.6735281348228455,"92":-0.17317728698253632,"93":0.02776796743273735,"94":0.468075692653656,"95":1.1122232675552368,"96":0.018491387367248535,"97":-0.028806885704398155,"98":-0.4848765730857849,"99":0.045330386608839035,"100":-0.7696727514266968,"101":0.6070423126220703,"102":0.19812709093093872,"103":-0.26842382550239563,"104":-0.08917730301618576,"105":-0.4258621037006378,"106":-1.336502194404602,"107":-0.6026189923286438,"108":-0.2998698353767395,"109":1.024495244026184,"110":-0.17019985616207123,"111":-0.659630537033081,"112":-0.583412766456604,"113":0.3203299939632416,"114":0.3892214894294739,"115":-0.06855671107769012,"116":0.06729257851839066,"117":1.2520980834960938,"118":0.042051807045936584,"119":-1.369035243988037,"120":-2.607069730758667,"121":-0.15934905409812927,"122":1.4601802825927734,"123":0.08553660660982132,"124":-0.17363262176513672,"125":-1.2963701486587524,"126":-0.3610702455043793,"127":1.3485139608383179,"128":0.8307092785835266,"129":-0.8694324493408203,"130":-0.5025513172149658,"131":0.36925074458122253,"132":0.3873177468776703,"133":0.061080072075128555,"134":-0.7647997736930847,"135":-0.01538368035107851,"136":0.3298419415950775,"137":-1.3150243759155273,"138":-0.24384593963623047,"139":0.21816523373126984,"140":-0.005039458628743887,"141":-0.9056002497673035,"142":0.16927412152290344,"143":0.7181038856506348,"144":0.19137991964817047}},"4":{"bias":-0.8895074129104614,"weights":{"0":-1.3215577602386475,"1":-0.625346302986145,"2":-0.5225380659103394,"3":-0.9950196743011475,"4":-0.22107289731502533,"5":-0.05338574945926666,"6":-0.7303417921066284,"7":-1.0087510347366333,"8":0.6407881379127502,"9":0.09709225594997406,"10":-0.02535650134086609,"11":0.37366074323654175,"12":-1.1931486129760742,"13":-0.42840576171875,"14":1.0641932487487793,"15":0.8852101564407349,"16":-0.2399769276380539,"17":-0.29943060874938965,"18":0.5231153964996338,"19":-0.8094378113746643,"20":-0.4551227390766144,"21":-0.7314147353172302,"22":0.8096328377723694,"23":-0.6394165754318237,"24":0.5966922640800476,"25":1.4941704273223877,"26":0.3828120827674866,"27":-0.509128749370575,"28":0.5332756042480469,"29":-1.0478235483169556,"30":-0.8316935300827026,"31":-0.0011556557146832347,"32":-0.19038577377796173,"33":0.5602871179580688,"34":0.05235947668552399,"35":-0.19295161962509155,"36":-0.5420613884925842,"37":0.10582321137189865,"38":-0.14999893307685852,"39":0.38504019379615784,"40":0.7331370711326599,"41":0.23743093013763428,"42":0.5758863687515259,"43":-0.6686417460441589,"44":0.21292680501937866,"45":0.4624013304710388,"46":-0.3988285958766937,"47":0.21016812324523926,"48":-0.7260242104530334,"49":-0.690428614616394,"50":-1.8903173208236694,"51":-1.0513097047805786,"52":-0.24130050837993622,"53":0.9536252021789551,"54":0.7613945603370667,"55":0.302701473236084,"56":-0.07112453132867813,"57":-0.7910813689231873,"58":0.066001757979393,"59":-0.2980092167854309,"60":1.2309811115264893,"61":0.017652645707130432,"62":0.36575204133987427,"63":0.1327429562807083,"64":-0.08258727192878723,"65":0.2925413250923157,"66":0.5939244031906128,"67":0.8538467288017273,"68":0.7491548657417297,"69":-0.3151627779006958,"70":-1.2891234159469604,"71":-0.6034805774688721,"72":0.3284963071346283,"73":-0.05947553738951683,"74":0.8399638533592224,"75":-0.757280170917511,"76":-0.42919260263442993,"77":-0.523524284362793,"78":2.0825388431549072,"79":-0.19918251037597656,"80":0.6280019879341125,"81":-0.015037189237773418,"82":0.4127780497074127,"83":0.28921064734458923,"84":0.07015831768512726,"85":-0.3164731562137604,"86":-2.018643379211426,"87":0.20167142152786255,"88":0.961658239364624,"89":-0.10773207992315292,"90":-0.33550548553466797,"91":-0.11647737771272659,"92":-0.09034651517868042,"93":0.8026398420333862,"94":0.05669582635164261,"95":-0.8525773882865906,"96":-0.7433819770812988,"97":-1.8007957935333252,"98":1.0007820129394531,"99":0.5321320295333862,"100":0.19468094408512115,"101":0.14505022764205933,"102":-0.2906762957572937,"103":0.021504445001482964,"104":-1.104678750038147,"105":-1.6637938022613525,"106":-0.3223814070224762,"107":-0.8504797220230103,"108":-1.7316480875015259,"109":-0.19118613004684448,"110":-0.1850692182779312,"111":0.39940375089645386,"112":0.03672105818986893,"113":0.1915464550256729,"114":1.1810567378997803,"115":0.17024298012256622,"116":-0.19258081912994385,"117":0.0641009658575058,"118":0.9263330698013306,"119":0.9976314902305603,"120":0.44451549649238586,"121":0.02772763930261135,"122":-0.17626261711120605,"123":-0.7429038882255554,"124":0.12779369950294495,"125":-0.6402701735496521,"126":0.4582430422306061,"127":0.220823734998703,"128":-0.007710522506386042,"129":0.08565281331539154,"130":0.4130803048610687,"131":0.2315986603498459,"132":0.4675906300544739,"133":-1.0972429513931274,"134":0.31979691982269287,"135":-0.8472477197647095,"136":0.6332064867019653,"137":-0.5662938356399536,"138":-2.1770873069763184,"139":-0.8514797687530518,"140":-0.2684423625469208,"141":-0.3803185224533081,"142":0.8636425137519836,"143":1.744124174118042,"144":-0.3820878863334656}},"5":{"bias":0.4093272089958191,"weights":{"0":-0.4109964966773987,"1":0.15526504814624786,"2":0.6311933398246765,"3":0.3743184506893158,"4":0.0021245612297207117,"5":-0.23191145062446594,"6":-1.4975714683532715,"7":-0.7454210519790649,"8":0.022880788892507553,"9":-0.10102320462465286,"10":-0.05059703439474106,"11":0.23272143304347992,"12":0.1294565349817276,"13":-0.03523079678416252,"14":-0.603435218334198,"15":-0.2510196268558502,"16":-0.30138617753982544,"17":0.38947296142578125,"18":-0.7544156908988953,"19":0.06490956246852875,"20":0.41387301683425903,"21":-1.3413957357406616,"22":0.4081549644470215,"23":-0.3880540430545807,"24":-0.6541494131088257,"25":0.11846214532852173,"26":-0.4138867259025574,"27":-0.6681588888168335,"28":-0.20365294814109802,"29":0.03567326441407204,"30":0.33970868587493896,"31":1.19100821018219,"32":-0.5390060544013977,"33":-0.4703304171562195,"34":-0.09443527460098267,"35":0.5385944843292236,"36":-1.6274468898773193,"37":0.8227570056915283,"38":0.3341171443462372,"39":0.4265722334384918,"40":-0.19074465334415436,"41":0.19023500382900238,"42":-0.07458499073982239,"43":0.845284104347229,"44":-0.38367122411727905,"45":-0.39806002378463745,"46":0.2812226712703705,"47":0.31735432147979736,"48":0.6744305491447449,"49":-0.4496760070323944,"50":-0.07491566985845566,"51":0.41176295280456543,"52":0.35156357288360596,"53":0.5421315431594849,"54":-0.017710598185658455,"55":-0.33980032801628113,"56":0.6997266411781311,"57":0.1783822923898697,"58":0.7924179434776306,"59":-0.008935305289924145,"60":-0.2662343680858612,"61":-0.2426852583885193,"62":-0.7399923205375671,"63":-0.3282962441444397,"64":0.2683221995830536,"65":1.2365449666976929,"66":0.07950051128864288,"67":-0.46106913685798645,"68":-0.710790753364563,"69":-0.013494480401277542,"70":0.346884161233902,"71":0.17764872312545776,"72":0.8953182101249695,"73":-0.15751121938228607,"74":-0.7639936804771423,"75":0.4030366837978363,"76":0.06599115580320358,"77":0.6264744400978088,"78":0.7006875276565552,"79":-2.3026273250579834,"80":0.40934789180755615,"81":-0.3695130944252014,"82":-0.5773292779922485,"83":0.1270321011543274,"84":-0.34198904037475586,"85":-0.1889508068561554,"86":-0.14958199858665466,"87":1.0263662338256836,"88":-0.3306768834590912,"89":-0.3625365197658539,"90":-0.5968284010887146,"91":0.9224565029144287,"92":-0.2073841094970703,"93":-0.390181303024292,"94":-0.43034231662750244,"95":-0.6964329481124878,"96":0.15407833456993103,"97":0.19973066449165344,"98":-0.29303431510925293,"99":0.8418046832084656,"100":-0.779869794845581,"101":-0.7550806999206543,"102":0.5003129839897156,"103":-0.08768896758556366,"104":0.03596605733036995,"105":0.9901126027107239,"106":-0.053347986191511154,"107":-0.9335393905639648,"108":-0.1266007274389267,"109":-0.7568569183349609,"110":-0.9074647426605225,"111":-1.460121750831604,"112":0.7464773654937744,"113":-0.1905452013015747,"114":-0.898230791091919,"115":0.13066455721855164,"116":0.5172532796859741,"117":0.41410398483276367,"118":0.12303664535284042,"119":-0.6783629655838013,"120":-0.963946521282196,"121":-0.2929513156414032,"122":0.06747502833604813,"123":-0.24167582392692566,"124":0.0811878964304924,"125":-1.0922961235046387,"126":-0.642734944820404,"127":0.021023297682404518,"128":0.9688849449157715,"129":0.07245831936597824,"130":-1.5738099813461304,"131":-0.03486693277955055,"132":0.8746947050094604,"133":-0.43127313256263733,"134":-1.4196248054504395,"135":-0.4257529079914093,"136":-0.10425121337175369,"137":-0.7322622537612915,"138":-0.08895500749349594,"139":0.7809313535690308,"140":0.3336554169654846,"141":-1.196869134902954,"142":-0.12891189754009247,"143":-0.3851647973060608,"144":-0.40976735949516296}},"6":{"bias":0.6782776117324829,"weights":{"0":-1.5916556119918823,"1":0.42796775698661804,"2":0.5962993502616882,"3":0.5874433517456055,"4":-0.4346541166305542,"5":-0.08682660758495331,"6":-0.12703688442707062,"7":0.4030638635158539,"8":0.7163541316986084,"9":-0.012952059507369995,"10":-0.23423704504966736,"11":-0.04306156560778618,"12":-1.3533388376235962,"13":-0.20607982575893402,"14":0.7113786339759827,"15":-1.3348063230514526,"16":0.2173399180173874,"17":-0.5202962160110474,"18":-0.4392428696155548,"19":1.1316797733306885,"20":-0.07442355155944824,"21":0.8573017716407776,"22":0.3317631185054779,"23":0.34612131118774414,"24":0.2187596559524536,"25":0.5807972550392151,"26":-0.26718148589134216,"27":-0.9717487096786499,"28":-1.1247680187225342,"29":-1.0266730785369873,"30":-0.7002779841423035,"31":0.09177090972661972,"32":-0.07883051782846451,"33":0.013622317463159561,"34":-0.36502113938331604,"35":-0.6989988088607788,"36":-0.050179094076156616,"37":0.3022233247756958,"38":-0.8001483678817749,"39":-0.48335233330726624,"40":0.16244946420192719,"41":0.6301141977310181,"42":0.199309304356575,"43":-0.2882991433143616,"44":-0.9639272093772888,"45":0.9314789772033691,"46":-0.250066876411438,"47":1.0553950071334839,"48":0.46642059087753296,"49":-1.662047266960144,"50":-0.6423307657241821,"51":-0.8528635501861572,"52":-0.3135206997394562,"53":-0.5703216791152954,"54":0.5259494185447693,"55":-0.4969346225261688,"56":-0.2638331949710846,"57":-0.21178558468818665,"58":0.5010277628898621,"59":-0.42468810081481934,"60":1.100121259689331,"61":0.34740355610847473,"62":-0.945873498916626,"63":-0.10689490288496017,"64":0.9800280332565308,"65":0.09772531688213348,"66":-0.7313411235809326,"67":-0.32564759254455566,"68":-0.3213152289390564,"69":0.4523969888687134,"70":-0.6113607883453369,"71":0.4057595431804657,"72":0.10649601370096207,"73":-0.24593429267406464,"74":0.6236753463745117,"75":0.09818185865879059,"76":-0.24922986328601837,"77":0.09563744813203812,"78":1.9266383647918701,"79":-2.2288198471069336,"80":0.30807217955589294,"81":0.07385474443435669,"82":0.30265945196151733,"83":0.4559420347213745,"84":-0.2119264006614685,"85":0.2857719957828522,"86":0.15572868287563324,"87":0.7339848875999451,"88":-0.6126391291618347,"89":0.881961464881897,"90":-0.667310893535614,"91":1.3685569763183594,"92":-0.08664549142122269,"93":0.551038920879364,"94":-0.5923815965652466,"95":-2.141458511352539,"96":0.18369801342487335,"97":-0.21392884850502014,"98":-0.08788656443357468,"99":0.6478069424629211,"100":0.4137435257434845,"101":-0.7702978253364563,"102":-0.21173419058322906,"103":-0.1352853775024414,"104":-0.25091245770454407,"105":0.45182591676712036,"106":0.2064487189054489,"107":0.46692562103271484,"108":-0.6976944208145142,"109":-0.7168925404548645,"110":-0.06545370072126389,"111":-0.257254421710968,"112":-0.03530389070510864,"113":-0.6130625605583191,"114":-0.8278423547744751,"115":-0.14079156517982483,"116":0.177303746342659,"117":-0.09434809535741806,"118":1.0578649044036865,"119":0.3046073615550995,"120":0.955432653427124,"121":-0.11075392365455627,"122":0.403411328792572,"123":-1.0188227891921997,"124":-0.8688501715660095,"125":1.0398640632629395,"126":0.6618395447731018,"127":0.8469532132148743,"128":0.6957086324691772,"129":-0.07077430188655853,"130":0.32422810792922974,"131":-0.3882073163986206,"132":0.16699792444705963,"133":0.19887006282806396,"134":0.09572802484035492,"135":1.1242562532424927,"136":0.7845162749290466,"137":0.6159679293632507,"138":0.3453342616558075,"139":-0.07395501434803009,"140":-0.7696121335029602,"141":-0.3710820972919464,"142":-0.5411161780357361,"143":0.6334625482559204,"144":0.4032726585865021}},"7":{"bias":-0.17553900182247162,"weights":{"0":0.4053705632686615,"1":-0.6123549342155457,"2":1.0045958757400513,"3":-0.43659740686416626,"4":1.569090485572815,"5":-0.07609492540359497,"6":0.09337438642978668,"7":-1.2572996616363525,"8":-0.4228150248527527,"9":1.0893151760101318,"10":0.13925324380397797,"11":-0.37792280316352844,"12":1.4869818687438965,"13":0.47669196128845215,"14":0.31149807572364807,"15":0.25116342306137085,"16":0.5264067053794861,"17":-0.4090670347213745,"18":0.13203956186771393,"19":-0.2962237596511841,"20":1.6957908868789673,"21":-0.31259429454803467,"22":0.8431025743484497,"23":-0.31117767095565796,"24":0.04212323576211929,"25":0.36678603291511536,"26":0.4283587634563446,"27":-0.6236953139305115,"28":0.17407839000225067,"29":-0.25433358550071716,"30":1.1789823770523071,"31":0.00010123489482793957,"32":-0.475019633769989,"33":0.17967526614665985,"34":-0.19541624188423157,"35":0.650243878364563,"36":-0.841761589050293,"37":0.4206967353820801,"38":0.9877872467041016,"39":-0.24795293807983398,"40":0.11125332117080688,"41":-0.8611223697662354,"42":-0.7197642922401428,"43":1.02500581741333,"44":-0.4868834912776947,"45":0.22012600302696228,"46":0.24186047911643982,"47":-0.589795708656311,"48":-0.24310308694839478,"49":0.18165422976016998,"50":-1.1591483354568481,"51":2.3119592666625977,"52":-0.31086215376853943,"53":-0.501448392868042,"54":0.2972756624221802,"55":0.15014220774173737,"56":0.1782967448234558,"57":0.6838750243186951,"58":0.6262857913970947,"59":0.1345972865819931,"60":0.9392462968826294,"61":0.8235229849815369,"62":-0.20117394626140594,"63":-0.35295167565345764,"64":-1.1061755418777466,"65":0.436898410320282,"66":-0.041261013597249985,"67":-0.08925582468509674,"68":-0.09396020323038101,"69":-0.3004021942615509,"70":-0.7900964021682739,"71":-0.21768833696842194,"72":-0.778583824634552,"73":-0.5119390487670898,"74":0.2494400590658188,"75":0.22878237068653107,"76":0.3283850848674774,"77":-0.16833637654781342,"78":0.6679936647415161,"79":1.3122272491455078,"80":-0.055767972022295,"81":0.6306040287017822,"82":1.5208351612091064,"83":-0.18155671656131744,"84":0.4235936105251312,"85":-0.5289484262466431,"86":0.06870211660861969,"87":0.20410537719726562,"88":-0.11802798509597778,"89":0.7898789644241333,"90":0.7630561590194702,"91":0.24684421718120575,"92":-0.18641629815101624,"93":-0.6567082405090332,"94":-0.4284506142139435,"95":-1.2000463008880615,"96":0.3911817967891693,"97":-0.29593440890312195,"98":0.7507132291793823,"99":0.6628766655921936,"100":1.8681339025497437,"101":0.4013228416442871,"102":-0.14586299657821655,"103":-0.05981156975030899,"104":-0.10974138975143433,"105":0.4494885802268982,"106":0.10778447985649109,"107":0.02154836803674698,"108":0.5824800133705139,"109":0.8535292148590088,"110":0.6914533376693726,"111":0.7991597056388855,"112":-1.0321344137191772,"113":0.3317059278488159,"114":-0.5994019508361816,"115":-0.5909934639930725,"116":-0.33245500922203064,"117":-0.17494013905525208,"118":0.997444748878479,"119":0.538671612739563,"120":1.2047667503356934,"121":0.007878895848989487,"122":0.4447566866874695,"123":0.9979211091995239,"124":-0.2809794843196869,"125":0.793572723865509,"126":0.4080926477909088,"127":0.04811958968639374,"128":0.08834406733512878,"129":0.44560596346855164,"130":0.33142581582069397,"131":0.4676463305950165,"132":0.20292198657989502,"133":-0.4353448450565338,"134":-0.10593248158693314,"135":1.1510921716690063,"136":-0.5468391180038452,"137":0.6984834671020508,"138":0.1972043812274933,"139":0.8874258399009705,"140":1.4367352724075317,"141":-0.17165528237819672,"142":-0.07459152489900589,"143":-1.7253137826919556,"144":0.5769146084785461}}},{"0":{"bias":-0.3497793972492218,"weights":{"0":0.3653331398963928,"1":-0.08960948139429092,"2":-0.3041815459728241,"3":-0.5250369310379028,"4":0.1163063570857048,"5":0.3241995573043823,"6":-0.517126202583313,"7":-0.3891051709651947}},"1":{"bias":-0.7090060114860535,"weights":{"0":0.46207770705223083,"1":0.4521508812904358,"2":0.6595064997673035,"3":0.2744370400905609,"4":0.48570516705513,"5":0.9486733078956604,"6":0.5723512768745422,"7":-0.20599600672721863}},"2":{"bias":-0.0763901099562645,"weights":{"0":0.9645735621452332,"1":-1.0564910173416138,"2":-1.3795583248138428,"3":-0.29525434970855713,"4":0.7970849871635437,"5":0.5091979503631592,"6":-0.7072873711585999,"7":-0.3093908429145813}},"3":{"bias":6.964614391326904,"weights":{"0":4.157388210296631,"1":-4.594537734985352,"2":-5.304903030395508,"3":-3.471376657485962,"4":4.864834308624268,"5":4.86558723449707,"6":-3.498523712158203,"7":-3.2099928855895996}},"4":{"bias":-2.1998043060302734,"weights":{"0":-0.45081526041030884,"1":0.8803035020828247,"2":1.5247725248336792,"3":-0.32399970293045044,"4":-0.6588330268859863,"5":-0.6695944666862488,"6":-0.3989374339580536,"7":-0.18520167469978333}},"5":{"bias":-0.19138473272323608,"weights":{"0":0.4329666793346405,"1":-0.7704025506973267,"2":-1.2317681312561035,"3":-0.762516975402832,"4":0.16190578043460846,"5":-0.5190523862838745,"6":-1.1582592725753784,"7":0.1744142770767212}},"6":{"bias":-0.13756923377513885,"weights":{"0":0.1269146353006363,"1":-0.6804094910621643,"2":-0.9910942912101746,"3":-0.643957257270813,"4":0.2917543947696686,"5":-0.5580587387084961,"6":-0.6182350516319275,"7":-0.30595090985298157}},"7":{"bias":-0.22262999415397644,"weights":{"0":0.4440995454788208,"1":-0.5520464181900024,"2":-1.0259521007537842,"3":-0.6672576665878296,"4":0.3269995152950287,"5":-0.4649628698825836,"6":-0.6663628816604614,"7":-0.3455416262149811}}},{"0":{"bias":3.206921100616455,"weights":{"0":0.7143252491950989,"1":1.3142038583755493,"2":1.4568506479263306,"3":-6.248183727264404,"4":1.1339051723480225,"5":0.3142803907394409,"6":0.25470003485679626,"7":0.42651158571243286}}}],"outputLookup":false,"inputLookup":false,"activation":"sigmoid","trainOpts":{"iterations":20000,"errorThresh":0.003,"log":true,"logPeriod":10,"learningRate":0.05,"momentum":0.1,"callbackPeriod":10,"beta1":0.9,"beta2":0.999,"epsilon":1e-8}}