{"sizes":[145,8,8,1],"layers":[{"0":{},"1":{},"2":{},"3":{},"4":{},"5":{},"6":{},"7":{},"8":{},"9":{},"10":{},"11":{},"12":{},"13":{},"14":{},"15":{},"16":{},"17":{},"18":{},"19":{},"20":{},"21":{},"22":{},"23":{},"24":{},"25":{},"26":{},"27":{},"28":{},"29":{},"30":{},"31":{},"32":{},"33":{},"34":{},"35":{},"36":{},"37":{},"38":{},"39":{},"40":{},"41":{},"42":{},"43":{},"44":{},"45":{},"46":{},"47":{},"48":{},"49":{},"50":{},"51":{},"52":{},"53":{},"54":{},"55":{},"56":{},"57":{},"58":{},"59":{},"60":{},"61":{},"62":{},"63":{},"64":{},"65":{},"66":{},"67":{},"68":{},"69":{},"70":{},"71":{},"72":{},"73":{},"74":{},"75":{},"76":{},"77":{},"78":{},"79":{},"80":{},"81":{},"82":{},"83":{},"84":{},"85":{},"86":{},"87":{},"88":{},"89":{},"90":{},"91":{},"92":{},"93":{},"94":{},"95":{},"96":{},"97":{},"98":{},"99":{},"100":{},"101":{},"102":{},"103":{},"104":{},"105":{},"106":{},"107":{},"108":{},"109":{},"110":{},"111":{},"112":{},"113":{},"114":{},"115":{},"116":{},"117":{},"118":{},"119":{},"120":{},"121":{},"122":{},"123":{},"124":{},"125":{},"126":{},"127":{},"128":{},"129":{},"130":{},"131":{},"132":{},"133":{},"134":{},"135":{},"136":{},"137":{},"138":{},"139":{},"140":{},"141":{},"142":{},"143":{},"144":{}},{"0":{"bias":-0.2533947825431824,"weights":{"0":0.13406670093536377,"1":0.7537785172462463,"2":-0.0014150711940601468,"3":-0.1480933576822281,"4":-0.20471838116645813,"5":-0.1173926591873169,"6":-0.1824849396944046,"7":-0.01663898676633835,"8":-0.3176397383213043,"9":-0.43915876746177673,"10":0.0069708977825939655,"11":0.24364899098873138,"12":-0.46690985560417175,"13":-0.18548113107681274,"14":0.2772636115550995,"15":0.2318411022424698,"16":0.174384206533432,"17":0.0939280092716217,"18":-0.13218945264816284,"19":0.26297006011009216,"20":-0.46766555309295654,"21":-0.23963695764541626,"22":-0.564798891544342,"23":0.17260676622390747,"24":-0.09607284516096115,"25":-0.4740302562713623,"26":0.38572174310684204,"27":0.653680682182312,"28":0.22201326489448547,"29":-0.04282716289162636,"30":0.45759379863739014,"31":-0.03049318678677082,"32":0.1369866281747818,"33":-0.47938066720962524,"34":-0.2653317153453827,"35":0.2208760529756546,"36":-0.6169291734695435,"37":0.36281582713127136,"38":-0.24589262902736664,"39":-0.6430728435516357,"40":0.045565467327833176,"41":-0.07735778391361237,"42":-0.2795221507549286,"43":0.05058839172124863,"44":-0.15061363577842712,"45":0.3490675389766693,"46":0.021144341677427292,"47":0.0802738144993782,"48":-0.12535110116004944,"49":-0.5033837556838989,"50":-0.2981818914413452,"51":0.5160420536994934,"52":-0.3479381799697876,"53":-0.3486570119857788,"54":-0.222648024559021,"55":0.4176270663738251,"56":-0.7805628180503845,"57":-0.11598123610019684,"58":0.38389626145362854,"59":0.6218976378440857,"60":0.28960415720939636,"61":0.8784233927726746,"62":0.2191290706396103,"63":0.028553979471325874,"64":-0.09010651707649231,"65":-0.282337486743927,"66":-0.41971781849861145,"67":-0.4168475866317749,"68":-0.460619181394577,"69":0.2704367935657501,"70":-0.20274345576763153,"71":0.3377656042575836,"72":-0.20150937139987946,"73":0.007090880535542965,"74":-0.01795061118900776,"75":0.18487563729286194,"76":-0.205192431807518,"77":0.04203161597251892,"78":0.5355913043022156,"79":1.1234517097473145,"80":-0.45589202642440796,"81":0.34595951437950134,"82":0.3936496078968048,"83":0.22827085852622986,"84":0.6494625210762024,"85":0.15924851596355438,"86":-0.8225286602973938,"87":0.002587981056421995,"88":-0.03697730228304863,"89":0.3791935443878174,"90":0.04940461367368698,"91":0.34140095114707947,"92":0.0873502865433693,"93":-0.09344299137592316,"94":0.7160291075706482,"95":-0.2974157929420471,"96":0.30752405524253845,"97":0.17620907723903656,"98":1.3376445770263672,"99":0.4240153431892395,"100":-0.12522044777870178,"101":0.3337796926498413,"102":0.09900491684675217,"103":-0.027506325393915176,"104":-0.1988651603460312,"105":0.4119947850704193,"106":0.3151654005050659,"107":-0.7155744433403015,"108":0.0557209812104702,"109":0.42485466599464417,"110":0.1149241104722023,"111":0.23115138709545135,"112":-0.3996020257472992,"113":0.4387859106063843,"114":-0.5669118165969849,"115":0.5996850728988647,"116":-0.3054472804069519,"117":-1.4729264974594116,"118":-0.02375641278922558,"119":0.3209724724292755,"120":-0.15928655862808228,"121":-0.29097411036491394,"122":-0.47272351384162903,"123":0.7894539833068848,"124":0.06652038544416428,"125":0.5769712924957275,"126":0.48266059160232544,"127":-0.05100518465042114,"128":0.29231327772140503,"129":-0.16622397303581238,"130":0.6591601371765137,"131":0.11997336149215698,"132":-0.3651635944843292,"133":-0.0426398403942585,"134":0.14821985363960266,"135":0.14437346160411835,"136":0.44099652767181396,"137":0.4522106945514679,"138":0.7646884918212891,"139":-0.015685642138123512,"140":0.332036554813385,"141":0.3465936779975891,"142":0.49872681498527527,"143":-0.326224148273468,"144":-0.42998379468917847}},"1":{"bias":-0.15093763172626495,"weights":{"0":0.10439687222242355,"1":-0.4742317795753479,"2":0.007140428759157658,"3":0.2443874180316925,"4":0.19097639620304108,"5":-0.362666517496109,"6":0.15863622725009918,"7":-0.1932237148284912,"8":-0.20751948654651642,"9":0.12268930673599243,"10":-0.11717004328966141,"11":-0.006537104491144419,"12":-0.5525651574134827,"13":0.05782044306397438,"14":-0.06925128400325775,"15":-0.07321237027645111,"16":0.14921481907367706,"17":0.008733589202165604,"18":-0.03104565665125847,"19":-0.0591866672039032,"20":0.08303847908973694,"21":-0.2823132574558258,"22":-0.08458393067121506,"23":0.09163755923509598,"24":-0.09352388232946396,"25":-0.1054510623216629,"26":-0.14981085062026978,"27":-0.15859267115592957,"28":0.07001009583473206,"29":0.0863700732588768,"30":0.2434196025133133,"31":0.27535325288772583,"32":0.23249371349811554,"33":-0.19482354819774628,"34":-0.11416894942522049,"35":0.022554319351911545,"36":-0.2666659653186798,"37":0.05613391473889351,"38":-0.06130535155534744,"39":0.3328774869441986,"40":-0.06229874864220619,"41":-0.2202150523662567,"42":-0.037933100014925,"43":-0.12694260478019714,"44":0.20837557315826416,"45":-0.20218075811862946,"46":-0.07305144518613815,"47":0.15772907435894012,"48":-0.11608249694108963,"49":0.11460121721029282,"50":-0.20398028194904327,"51":-0.007601363118737936,"52":0.07101520150899887,"53":0.12547217309474945,"54":0.018651653081178665,"55":-0.2850959002971649,"56":0.21025462448596954,"57":-0.06686881929636002,"58":-0.10876934975385666,"59":-0.26856300234794617,"60":0.0200729388743639,"61":0.4438762962818146,"62":-0.016814209520816803,"63":-0.2850847840309143,"64":-0.1702989935874939,"65":0.2622629702091217,"66":0.0634787306189537,"67":-0.13722039759159088,"68":0.011290422640740871,"69":0.6115155220031738,"70":0.23062840104103088,"71":-0.007780971471220255,"72":-0.07691081613302231,"73":0.168366938829422,"74":0.0012850526254624128,"75":-0.047165241092443466,"76":-0.15282726287841797,"77":-0.12051785737276077,"78":0.31851378083229065,"79":0.0036908669862896204,"80":-0.15939879417419434,"81":0.07123807072639465,"82":-0.1757134050130844,"83":-0.1646183431148529,"84":-0.30164769291877747,"85":0.5929557681083679,"86":0.30117714405059814,"87":0.014901522547006607,"88":0.16053339838981628,"89":0.05989992246031761,"90":0.3636496067047119,"91":0.0023771212436258793,"92":-0.23728837072849274,"93":-0.1361372470855713,"94":0.02584186941385269,"95":-0.13547967374324799,"96":0.02297254279255867,"97":0.07482678443193436,"98":-0.18013527989387512,"99":-0.17640310525894165,"100":0.01686697266995907,"101":0.09228111803531647,"102":-0.08035150915384293,"103":-0.1383219212293625,"104":-0.13158275187015533,"105":-0.001211641007103026,"106":-0.11769000440835953,"107":0.16760866343975067,"108":-0.29295557737350464,"109":-0.12361809611320496,"110":-0.06698369979858398,"111":0.1587405949831009,"112":0.028439965099096298,"113":-0.15046560764312744,"114":-0.7631061673164368,"115":-0.012219525873661041,"116":-0.2041931301355362,"117":-0.6418396234512329,"118":-0.31187304854393005,"119":0.44619256258010864,"120":-0.16869908571243286,"121":-0.30546578764915466,"122":-0.016245363280177116,"123":-0.010789047926664352,"124":-0.1166185662150383,"125":-0.2355836033821106,"126":-0.3577314019203186,"127":-0.08774781227111816,"128":0.3543536067008972,"129":0.12006615102291107,"130":-0.051456354558467865,"131":-0.09850943833589554,"132":0.04610152542591095,"133":-0.0035015942994505167,"134":0.05222652480006218,"135":-0.17014674842357635,"136":0.11589637398719788,"137":-0.17173703014850616,"138":-0.2571446895599365,"139":0.09156239032745361,"140":0.06386218965053558,"141":-0.19360466301441193,"142":-0.23799990117549896,"143":-0.018893029540777206,"144":-0.2623000144958496}},"2":{"bias":0.7113617658615112,"weights":{"0":0.46091949939727783,"1":-0.3373574912548065,"2":0.2186783105134964,"3":-0.675065815448761,"4":0.8507600426673889,"5":-0.19145061075687408,"6":0.050393663346767426,"7":-0.2670675218105316,"8":0.5951030254364014,"9":0.1082407757639885,"10":0.9500826001167297,"11":-0.2862819731235504,"12":0.4098062217235565,"13":0.5030652284622192,"14":0.7560011148452759,"15":0.5746421217918396,"16":0.0015239373315125704,"17":0.03294236585497856,"18":0.4972843527793884,"19":-0.11565503478050232,"20":0.39758604764938354,"21":0.10015183687210083,"22":-0.9439907073974609,"23":0.28266799449920654,"24":-0.13029205799102783,"25":-0.309939444065094,"26":0.14462482929229736,"27":0.7426819801330566,"28":0.6778440475463867,"29":-0.37182772159576416,"30":-0.6130708456039429,"31":-0.11381731182336807,"32":-0.8039610385894775,"33":-0.06139276176691055,"34":0.01701417565345764,"35":-0.38851627707481384,"36":-0.29978999495506287,"37":-0.25580987334251404,"38":-0.17234496772289276,"39":0.5601741075515747,"40":0.4196217954158783,"41":0.2650643289089203,"42":0.1258985698223114,"43":-0.12697747349739075,"44":0.3181324303150177,"45":0.21764026582241058,"46":-0.02259625867009163,"47":0.5090177655220032,"48":-0.3815370500087738,"49":0.34476757049560547,"50":-1.3024438619613647,"51":-0.30365240573883057,"52":0.16191202402114868,"53":0.3766988515853882,"54":0.14266732335090637,"55":-0.15113866329193115,"56":1.2766064405441284,"57":0.7596203684806824,"58":-0.35205429792404175,"59":0.1743623912334442,"60":-0.3718108534812927,"61":-0.6697511076927185,"62":0.7489967346191406,"63":-0.056500352919101715,"64":0.5536679625511169,"65":0.41270506381988525,"66":-0.6488050818443298,"67":0.011899967677891254,"68":-0.638568639755249,"69":0.5931790471076965,"70":0.12275031954050064,"71":-0.6028137803077698,"72":-0.028387613594532013,"73":0.34235307574272156,"74":-0.049613893032073975,"75":0.2956847846508026,"76":-0.07185986638069153,"77":-0.3463939130306244,"78":0.3231688141822815,"79":0.13168664276599884,"80":-0.26291623711586,"81":0.1986883133649826,"82":0.030087146908044815,"83":0.5791400074958801,"84":-0.1653536707162857,"85":0.30213668942451477,"86":-0.0041032824665308,"87":0.2471081018447876,"88":-0.7852979898452759,"89":0.4946592152118683,"90":0.093318410217762,"91":0.3436119854450226,"92":0.17282091081142426,"93":0.32215026021003723,"94":-0.16774041950702667,"95":0.7983846664428711,"96":0.2265608012676239,"97":0.22003613412380219,"98":-0.8767215609550476,"99":-0.17472650110721588,"100":0.31274211406707764,"101":-0.19617889821529388,"102":0.12353024631738663,"103":0.0382743775844574,"104":0.31026285886764526,"105":-0.13423500955104828,"106":-0.018552398309111595,"107":-0.3576734960079193,"108":1.3757535219192505,"109":-0.6291221976280212,"110":0.6129853129386902,"111":0.09191299974918365,"112":-0.5827292203903198,"113":-0.05438929796218872,"114":-0.5701268315315247,"115":-0.06370877474546432,"116":0.4292655289173126,"117":0.7100402116775513,"118":-0.22529800236225128,"119":0.31483012437820435,"120":-0.3220113217830658,"121":0.153231680393219,"122":0.37024012207984924,"123":-0.18629314005374908,"124":0.9172497391700745,"125":-0.2893964350223541,"126":-0.12930120527744293,"127":-0.9651494026184082,"128":-0.8754931092262268,"129":0.23335357010364532,"130":-0.09218484163284302,"131":-0.005213938653469086,"132":0.44331908226013184,"133":0.38444167375564575,"134":-0.4282439351081848,"135":-0.18018878996372223,"136":0.4702542722225189,"137":1.0045032501220703,"138":0.14578494429588318,"139":0.22991091012954712,"140":-0.009142392314970493,"141":-0.02990187145769596,"142":0.3306444585323334,"143":1.3444902896881104,"144":0.29149553179740906}},"3":{"bias":0.2646641731262207,"weights":{"0":-0.35344618558883667,"1":-0.43284282088279724,"2":0.06620050966739655,"3":0.28565162420272827,"4":0.28515714406967163,"5":-0.4027975797653198,"6":-0.3869006335735321,"7":0.2874137759208679,"8":-0.6241788864135742,"9":0.44416341185569763,"10":-0.12277694046497345,"11":-0.0720522552728653,"12":0.6681594252586365,"13":-0.2074003368616104,"14":-0.14606274664402008,"15":-0.04516174644231796,"16":0.26462650299072266,"17":-0.052782781422138214,"18":0.40564078092575073,"19":-0.46910086274147034,"20":0.2949546277523041,"21":-0.16811712086200714,"22":0.5457335710525513,"23":0.16040381789207458,"24":0.208461731672287,"25":-0.11809591203927994,"26":0.47287502884864807,"27":-0.3202083110809326,"28":-0.5802275538444519,"29":0.22634102404117584,"30":0.05588192120194435,"31":0.4389829635620117,"32":-1.365512728691101,"33":0.32107657194137573,"34":-0.3303607404232025,"35":-0.0958390012383461,"36":0.2038363665342331,"37":0.03870280832052231,"38":0.06151030585169792,"39":-0.04098938778042793,"40":0.28772029280662537,"41":-0.05207531899213791,"42":-0.2430466115474701,"43":-0.3029026389122009,"44":-0.005113782826811075,"45":0.0886319950222969,"46":0.10127954930067062,"47":0.2723413407802582,"48":-0.6046764254570007,"49":0.06534017622470856,"50":0.3411175012588501,"51":-0.02859877608716488,"52":-0.07018660753965378,"53":-0.673510730266571,"54":0.058261070400476456,"55":0.3592778742313385,"56":-0.015518956817686558,"57":-0.2721578776836395,"58":-0.3213898241519928,"59":-0.08126960694789886,"60":-0.07817742228507996,"61":-0.5125671625137329,"62":0.3513791263103485,"63":-0.05789976939558983,"64":-0.09312427043914795,"65":-0.06207294017076492,"66":0.15577560663223267,"67":0.3468196988105774,"68":0.38116034865379333,"69":0.004901134874671698,"70":-0.6036707758903503,"71":-0.4665467441082001,"72":0.40572571754455566,"73":-0.1901157647371292,"74":-0.11653643101453781,"75":-0.2086193859577179,"76":0.44851091504096985,"77":-0.5964105725288391,"78":-0.6676594614982605,"79":-0.5238196849822998,"80":0.429977148771286,"81":0.5987377166748047,"82":0.4251323938369751,"83":-0.19501805305480957,"84":0.2809644043445587,"85":-0.0008789654239080846,"86":0.8148253560066223,"87":-0.3836967945098877,"88":-0.18576429784297943,"89":0.6132577061653137,"90":0.19440284371376038,"91":-0.3958629071712494,"92":-0.41867339611053467,"93":0.17857103049755096,"94":-0.2620306611061096,"95":0.1928377002477646,"96":0.25234121084213257,"97":0.28755173087120056,"98":-0.4104498028755188,"99":-0.5989389419555664,"100":-0.07946664839982986,"101":0.5947524905204773,"102":-0.3035155236721039,"103":-0.13279616832733154,"104":-0.0638347715139389,"105":0.20162324607372284,"106":-0.2789778709411621,"107":0.7327752113342285,"108":0.4776113033294678,"109":0.20614838600158691,"110":0.12794141471385956,"111":0.17113520205020905,"112":-0.13222640752792358,"113":0.36361002922058105,"114":0.7123069167137146,"115":-0.33433929085731506,"116":0.1351255476474762,"117":0.015408582985401154,"118":0.08069802075624466,"119":0.7558199763298035,"120":-0.31720900535583496,"121":-0.39306172728538513,"122":-0.15114575624465942,"123":0.497218519449234,"124":-0.7961507439613342,"125":0.5607399940490723,"126":-0.1933489441871643,"127":0.538407564163208,"128":-0.107447050511837,"129":0.03311321884393692,"130":0.233956441283226,"131":-0.12323770672082901,"132":-0.03118358552455902,"133":-0.01447758823633194,"134":0.6465568542480469,"135":-0.10887353122234344,"136":0.5365762710571289,"137":0.1144464984536171,"138":1.1865513324737549,"139":0.5241655111312866,"140":0.3879023790359497,"141":0.057622820138931274,"142":0.05505621060729027,"143":0.631733238697052,"144":0.08462973684072495}},"4":{"bias":0.17593739926815033,"weights":{"0":-0.12936800718307495,"1":-0.3665558993816376,"2":0.2839914560317993,"3":0.606471061706543,"4":0.0503237284719944,"5":0.296866774559021,"6":-0.06265393644571304,"7":-0.19258196651935577,"8":-0.5505064725875854,"9":0.4212856590747833,"10":0.3153500258922577,"11":-0.33665719628334045,"12":0.17563718557357788,"13":-0.43913641571998596,"14":0.5752609968185425,"15":-0.011335151270031929,"16":0.1666184365749359,"17":-0.031177980825304985,"18":0.011416509747505188,"19":0.08782382309436798,"20":1.0539271831512451,"21":0.35152795910835266,"22":0.4013045132160187,"23":0.24925564229488373,"24":-0.08834722638130188,"25":-0.12667246162891388,"26":-0.12768779695034027,"27":0.12882006168365479,"28":0.3552073836326599,"29":-0.2430717796087265,"30":-1.0463005304336548,"31":-0.17383040487766266,"32":1.2403005361557007,"33":0.15766970813274384,"34":0.25977852940559387,"35":0.34431615471839905,"36":0.0255097895860672,"37":0.15318067371845245,"38":-0.3027550280094147,"39":-0.43829426169395447,"40":-0.009473806247115135,"41":-0.3268286883831024,"42":-0.5118297338485718,"43":-0.032259922474622726,"44":-0.19899523258209229,"45":-0.2625891864299774,"46":0.005567140411585569,"47":0.049897801131010056,"48":-0.07875149697065353,"49":1.6554380655288696,"50":0.5406256318092346,"51":0.15942539274692535,"52":0.12562617659568787,"53":-0.2933536171913147,"54":-0.6537854075431824,"55":-0.1797737181186676,"56":0.5307835936546326,"57":0.6042148470878601,"58":-0.30968281626701355,"59":-0.09744325280189514,"60":0.2324470430612564,"61":0.7222946882247925,"62":-0.0265730619430542,"63":0.4335325062274933,"64":0.007167557254433632,"65":0.06375752389431,"66":0.4292745292186737,"67":-0.18124227225780487,"68":-0.08781273663043976,"69":-0.37470585107803345,"70":-0.2502109408378601,"71":0.24884064495563507,"72":0.5993402600288391,"73":-0.02159102074801922,"74":0.15753163397312164,"75":0.024729058146476746,"76":0.010679725557565689,"77":0.25933837890625,"78":0.6470040082931519,"79":0.5226178169250488,"80":-0.4114759564399719,"81":0.14384983479976654,"82":0.06190713122487068,"83":-0.319778174161911,"84":-0.24365434050559998,"85":-0.8352112770080566,"86":0.2037685662508011,"87":-0.08448152989149094,"88":-0.1432429552078247,"89":0.1397947371006012,"90":0.44473883509635925,"91":0.168960839509964,"92":0.45430925488471985,"93":0.11451620608568192,"94":0.12533144652843475,"95":-0.5292704105377197,"96":0.004058061633259058,"97":0.1430736929178238,"98":-1.4751389026641846,"99":-0.06739072501659393,"100":-0.044619087129831314,"101":0.49797186255455017,"102":-0.002842414192855358,"103":0.10709571838378906,"104":0.30997616052627563,"105":-0.15687625110149384,"106":-0.10539505630731583,"107":-0.04393043741583824,"108":-0.027784068137407303,"109":0.34139537811279297,"110":-0.11745599657297134,"111":-0.1097211018204689,"112":0.40273386240005493,"113":-0.1475200206041336,"114":-0.3169938027858734,"115":0.12069471925497055,"116":-0.35163891315460205,"117":0.0030913909431546926,"118":0.018233628943562508,"119":0.48045432567596436,"120":-0.03459419682621956,"121":0.26282790303230286,"122":0.17428234219551086,"123":-0.5517963171005249,"124":-1.0319435596466064,"125":-0.07606098800897598,"126":-0.1604081094264984,"127":-1.3198050260543823,"128":-0.15387369692325592,"129":-0.19940553605556488,"130":0.22012579441070557,"131":-0.1230546161532402,"132":-0.27200621366500854,"133":0.05036051943898201,"134":0.07156278938055038,"135":0.39445745944976807,"136":-0.33908912539482117,"137":-0.21336282789707184,"138":-0.1492522805929184,"139":0.3405219316482544,"140":0.6554874181747437,"141":0.2156609147787094,"142":-0.09979560971260071,"143":0.04348880797624588,"144":0.43602538108825684}},"5":{"bias":0.17909860610961914,"weights":{"0":-0.38683387637138367,"1":-0.02123422548174858,"2":-0.189154252409935,"3":0.6777989864349365,"4":-0.38913604617118835,"5":-0.30160847306251526,"6":-0.19802194833755493,"7":0.4344727694988251,"8":0.3335307240486145,"9":-0.5975664258003235,"10":-0.45138898491859436,"11":0.1612548977136612,"12":0.6565837264060974,"13":-0.07802563160657883,"14":0.8342866897583008,"15":0.2571517825126648,"16":0.31890085339546204,"17":-0.16217437386512756,"18":-0.009496410377323627,"19":-0.17335663735866547,"20":0.46992138028144836,"21":0.36260268092155457,"22":-0.6170627474784851,"23":0.08156519383192062,"24":-0.10360610485076904,"25":-0.2348693162202835,"26":0.27691885828971863,"27":0.7715176939964294,"28":-0.3125366270542145,"29":0.11169961839914322,"30":-0.021818483248353004,"31":-0.3716621994972229,"32":-0.2589596211910248,"33":-0.16508865356445312,"34":-0.41361871361732483,"35":-0.2211189717054367,"36":0.5278546810150146,"37":-0.722835898399353,"38":-0.4238682985305786,"39":-0.5398238301277161,"40":-0.32716867327690125,"41":-0.20213451981544495,"42":0.3187738358974457,"43":0.15797318518161774,"44":0.015118143521249294,"45":-0.1739935427904129,"46":-0.11449743807315826,"47":-0.4720601439476013,"48":-0.3212415277957916,"49":0.4834410846233368,"50":0.10796203464269638,"51":-0.2087409347295761,"52":0.22147348523139954,"53":-0.1367623209953308,"54":-0.23579029738903046,"55":0.38127049803733826,"56":-0.7800849080085754,"57":0.27953118085861206,"58":-0.06527941673994064,"59":0.09452144056558609,"60":-0.6403575539588928,"61":0.7285075783729553,"62":0.23250074684619904,"63":-0.19230715930461884,"64":-0.0816507562994957,"65":0.061121921986341476,"66":-0.4100205600261688,"67":0.002124883932992816,"68":-0.03617412596940994,"69":-0.4732307195663452,"70":-0.6640036702156067,"71":0.5181033611297607,"72":0.12044531852006912,"73":0.20068322122097015,"74":0.3051522970199585,"75":-0.11362764239311218,"76":-0.3485047519207001,"77":-0.26065191626548767,"78":-0.2929328978061676,"79":0.7937738299369812,"80":0.07249701768159866,"81":0.11332841217517853,"82":-0.22233545780181885,"83":-0.5436014533042908,"84":0.3533685505390167,"85":-0.6145974397659302,"86":0.2958463430404663,"87":-0.4128980338573456,"88":0.11854004114866257,"89":-0.5054072737693787,"90":0.27540460228919983,"91":0.06321126967668533,"92":-0.13936494290828705,"93":-0.02300293743610382,"94":-0.3367856442928314,"95":0.18722213804721832,"96":0.1751948446035385,"97":-0.11818759143352509,"98":-0.26331380009651184,"99":-0.4576443135738373,"100":0.05156739428639412,"101":-0.050080664455890656,"102":0.10880157351493835,"103":0.07859908044338226,"104":-0.03137056902050972,"105":-0.03300013765692711,"106":-0.3954263925552368,"107":-0.31336575746536255,"108":-0.11006879061460495,"109":0.13877184689044952,"110":0.13152660429477692,"111":-0.5158450603485107,"112":-0.4762076735496521,"113":0.17515447735786438,"114":0.06118668615818024,"115":0.19500850141048431,"116":0.16462372243404388,"117":-0.9700954556465149,"118":-0.1210276186466217,"119":0.3962203562259674,"120":-0.26629170775413513,"121":-0.1771123856306076,"122":-0.23311594128608704,"123":0.11153584718704224,"124":-0.14820809662342072,"125":-0.5989475250244141,"126":-0.4235977530479431,"127":-0.3089200556278229,"128":-0.2557925581932068,"129":0.06667663902044296,"130":-0.09008803218603134,"131":-0.16808269917964935,"132":0.2100493460893631,"133":-0.2713485360145569,"134":-0.41286006569862366,"135":-0.3719664216041565,"136":0.528888463973999,"137":0.17142805457115173,"138":-0.36019524931907654,"139":0.02858162298798561,"140":-0.519942581653595,"141":-0.14340975880622864,"142":0.07220243662595749,"143":0.5899699330329895,"144":0.38115718960762024}},"6":{"bias":0.4079819321632385,"weights":{"0":-0.11569034308195114,"1":-0.354777455329895,"2":-0.12236462533473969,"3":-0.41784805059432983,"4":-0.22418567538261414,"5":-0.1882106363773346,"6":0.2689490020275116,"7":0.10122230648994446,"8":-0.075373575091362,"9":0.02060585469007492,"10":-0.07217462360858917,"11":-0.19836443662643433,"12":0.13537751138210297,"13":-0.2787279486656189,"14":0.028866445645689964,"15":-0.20910297334194183,"16":-0.10031695663928986,"17":0.14787060022354126,"18":0.023380380123853683,"19":-0.2754846215248108,"20":-0.007990109734237194,"21":0.1579066812992096,"22":-0.24105417728424072,"23":0.2055160403251648,"24":-0.03585491701960564,"25":-0.3448578417301178,"26":-0.3827175199985504,"27":0.030095523223280907,"28":0.2373047024011612,"29":0.10331973433494568,"30":-0.2775816321372986,"31":0.2713652551174164,"32":-0.4399103820323944,"33":-0.1476704478263855,"34":-0.031684111803770065,"35":0.18102100491523743,"36":0.06432873010635376,"37":-0.12931202352046967,"38":-0.08736095577478409,"39":0.17784200608730316,"40":0.3466740846633911,"41":0.019793039187788963,"42":-0.1786891222000122,"43":0.18764391541481018,"44":0.032454922795295715,"45":-0.01489756815135479,"46":0.08568201959133148,"47":0.1710732877254486,"48":-0.14207656681537628,"49":0.18242663145065308,"50":-0.28492239117622375,"51":-0.07637349516153336,"52":0.19623875617980957,"53":-0.14815613627433777,"54":-0.3462032079696655,"55":-0.3334246575832367,"56":0.28977906703948975,"57":-0.037255313247442245,"58":-0.28565266728401184,"59":-0.37096595764160156,"60":0.13196808099746704,"61":-0.4282445013523102,"62":-0.09245843440294266,"63":0.023956650868058205,"64":0.2938331067562103,"65":0.048292744904756546,"66":-0.2555557191371918,"67":-0.3618694841861725,"68":0.06891261041164398,"69":0.008458307012915611,"70":0.6916022300720215,"71":-0.029705770313739777,"72":-0.004835544154047966,"73":-0.002000246662646532,"74":-0.15880781412124634,"75":0.0940403863787651,"76":0.27218809723854065,"77":-0.3078707158565521,"78":-0.05311047285795212,"79":-0.3216742277145386,"80":-0.20222392678260803,"81":0.250070184469223,"82":-0.23956841230392456,"83":-0.3394327759742737,"84":-0.29280489683151245,"85":0.5101350545883179,"86":0.7094720602035522,"87":-0.14607281982898712,"88":-0.3015499413013458,"89":0.11146964132785797,"90":-0.5386754274368286,"91":-0.09183372557163239,"92":0.027170313522219658,"93":0.32180485129356384,"94":0.03756428137421608,"95":-0.3173584043979645,"96":-0.23893868923187256,"97":-0.009154903702437878,"98":-0.6128514409065247,"99":-0.5435406565666199,"100":-0.1986563354730606,"101":0.04278310760855675,"102":-0.059648703783750534,"103":0.010600986890494823,"104":0.19142037630081177,"105":0.0011860422091558576,"106":-0.05202894285321236,"107":-0.5725447535514832,"108":0.30243879556655884,"109":-0.4800751805305481,"110":0.2300591617822647,"111":-0.24987968802452087,"112":-0.09819978475570679,"113":-0.4488811492919922,"114":-0.4445595145225525,"115":-0.26043498516082764,"116":-0.08171353489160538,"117":-0.06052093952894211,"118":0.054298628121614456,"119":-0.8568611741065979,"120":0.11709843575954437,"121":0.062431700527668,"122":0.3577817380428314,"123":0.3628576099872589,"124":-0.41380399465560913,"125":0.2066974639892578,"126":0.08033103495836258,"127":-0.017618117853999138,"128":-0.1063249409198761,"129":-0.14607277512550354,"130":0.039999086409807205,"131":0.2291421890258789,"132":-0.1000768318772316,"133":0.32843586802482605,"134":0.34853145480155945,"135":-0.19214226305484772,"136":0.35445863008499146,"137":0.010811285115778446,"138":-0.21735478937625885,"139":-0.01392404455691576,"140":0.2700994610786438,"141":-0.05343502759933472,"142":-0.27186596393585205,"143":0.5654985904693604,"144":0.7388424873352051}},"7":{"bias":1.0560225248336792,"weights":{"0":-0.01935523748397827,"1":0.36178135871887207,"2":0.3286123275756836,"3":0.29356175661087036,"4":-0.05743749067187309,"5":0.39843007922172546,"6":0.010117165744304657,"7":0.0947883352637291,"8":0.08865667879581451,"9":-0.2718733251094818,"10":-0.24850806593894958,"11":-0.3349432945251465,"12":-0.8277171850204468,"13":0.2344900369644165,"14":0.16450738906860352,"15":0.3061591684818268,"16":0.23043496906757355,"17":-0.06064159423112869,"18":0.382738322019577,"19":0.12580232322216034,"20":-0.5175542235374451,"21":-0.3864173889160156,"22":-0.1133522316813469,"23":0.7204899787902832,"24":-0.02445225603878498,"25":-0.489202082157135,"26":-0.08963727205991745,"27":-0.24035826325416565,"28":0.29682686924934387,"29":0.26274654269218445,"30":-0.14422792196273804,"31":-0.20100794732570648,"32":-0.27980637550354004,"33":0.153074711561203,"34":0.17064276337623596,"35":-0.4059734344482422,"36":-0.43514126539230347,"37":-0.48832497000694275,"38":0.006783181335777044,"39":-0.1832403689622879,"40":0.9554501175880432,"41":-1.2694662809371948,"42":0.5861563086509705,"43":-0.40322554111480713,"44":0.014431788586080074,"45":0.09447117149829865,"46":0.17712834477424622,"47":-0.2687833905220032,"48":-0.43774130940437317,"49":-0.07655499130487442,"50":-0.022010575979948044,"51":-0.02474425546824932,"52":0.14209823310375214,"53":-0.08209598809480667,"54":0.7065736651420593,"55":0.08893244713544846,"56":0.4432380497455597,"57":-0.5818086266517639,"58":-1.05038583278656,"59":0.04533557593822479,"60":-0.022321589291095734,"61":0.3573555052280426,"62":-0.9896697998046875,"63":0.2253890186548233,"64":0.1053444892168045,"65":0.5035874247550964,"66":0.39923495054244995,"67":0.10089782625436783,"68":0.16050224006175995,"69":-0.665182888507843,"70":-0.5473449230194092,"71":-0.2520992159843445,"72":-0.6985324621200562,"73":0.11243737488985062,"74":-0.7992673516273499,"75":0.1585174798965454,"76":0.5216704607009888,"77":-0.3488115966320038,"78":0.5929245352745056,"79":-0.04608886316418648,"80":0.6916371583938599,"81":0.28831782937049866,"82":-0.2768820524215698,"83":0.2907220721244812,"84":-0.15353503823280334,"85":-0.09820374101400375,"86":-0.0064181918278336525,"87":0.24149377644062042,"88":-0.2993817627429962,"89":-0.4698767066001892,"90":-0.36162349581718445,"91":0.3818778097629547,"92":0.42418962717056274,"93":0.45738154649734497,"94":0.39456188678741455,"95":0.4576786756515503,"96":0.1556849330663681,"97":0.3574219346046448,"98":0.49654436111450195,"99":0.25907883048057556,"100":-0.17731547355651855,"101":-0.2702780067920685,"102":-0.06787767261266708,"103":0.20430594682693481,"104":0.5275685787200928,"105":0.30423659086227417,"106":-0.24604432284832,"107":0.0853845402598381,"108":0.46944618225097656,"109":-0.28410083055496216,"110":0.8896294832229614,"111":0.32414525747299194,"112":-0.2751145362854004,"113":-0.046748559921979904,"114":0.30031538009643555,"115":-0.2861286997795105,"116":0.2816011607646942,"117":-1.26951265335083,"118":0.02541249990463257,"119":0.10884089022874832,"120":0.7779419422149658,"121":0.3824336528778076,"122":0.6657429337501526,"123":-0.6133242249488831,"124":0.49728620052337646,"125":0.5471547245979309,"126":-0.12197063118219376,"127":-1.1691752672195435,"128":0.6136958599090576,"129":-0.1877739131450653,"130":-0.3570175766944885,"131":-0.3658747673034668,"132":0.48170241713523865,"133":0.3259655237197876,"134":0.5185729265213013,"135":0.007165031507611275,"136":-0.018614307045936584,"137":0.00882213655859232,"138":0.8551455140113831,"139":0.9714690446853638,"140":-0.5346941351890564,"141":-1.0929789543151855,"142":0.13039648532867432,"143":-0.32913023233413696,"144":0.272919625043869}}},{"0":{"bias":0.2872750461101532,"weights":{"0":0.16419759392738342,"1":-0.15515345335006714,"2":-0.12211888283491135,"3":0.3306691646575928,"4":0.766805112361908,"5":-0.028513694182038307,"6":0.805551290512085,"7":0.1483253538608551}},"1":{"bias":0.18374218046665192,"weights":{"0":-0.9454371333122253,"1":0.7275838255882263,"2":1.8392632007598877,"3":-1.0498270988464355,"4":-0.9613515138626099,"5":1.027275562286377,"6":-0.7066972851753235,"7":1.405805230140686}},"2":{"bias":0.038045477122068405,"weights":{"0":-0.18222551047801971,"1":-0.15765440464019775,"2":0.13869649171829224,"3":-0.22156143188476562,"4":0.12625038623809814,"5":0.27889516949653625,"6":0.18811370432376862,"7":0.0015620810445398092}},"3":{"bias":-0.3030545115470886,"weights":{"0":-0.32823529839515686,"1":-0.06001809239387512,"2":0.2662581503391266,"3":-0.426145076751709,"4":-0.8191698789596558,"5":0.18741554021835327,"6":-0.37643951177597046,"7":0.4086567461490631}},"4":{"bias":0.3305704593658447,"weights":{"0":-1.6703341007232666,"1":0.7678975462913513,"2":2.4802699089050293,"3":-1.5587496757507324,"4":-1.4440234899520874,"5":1.7819138765335083,"6":-0.9727627635002136,"7":2.2514617443084717}},"5":{"bias":-0.3237454891204834,"weights":{"0":-0.24906247854232788,"1":-0.06529059261083603,"2":0.04855077713727951,"3":-0.5421382188796997,"4":-0.39362871646881104,"5":0.2623530328273773,"6":-0.48111066222190857,"7":0.3427095413208008}},"6":{"bias":0.36478757858276367,"weights":{"0":-2.36466646194458,"1":1.1390796899795532,"2":2.7837562561035156,"3":-2.0149495601654053,"4":-1.7017719745635986,"5":2.094569444656372,"6":-0.8807889819145203,"7":2.770796775817871}},"7":{"bias":-0.20052282512187958,"weights":{"0":-0.42551568150520325,"1":-0.04553551226854324,"2":0.5549048781394958,"3":-0.6114856004714966,"4":-0.8248468637466431,"5":0.3740434944629669,"6":-0.9531552195549011,"7":0.48713991045951843}}},{"0":{"bias":3.263321876525879,"weights":{"0":2.2962145805358887,"1":-1.6809563636779785,"2":0.8086997270584106,"3":-0.22937321662902832,"4":-2.8698556423187256,"5":-0.06151239573955536,"6":-3.6136014461517334,"7":-0.7861531376838684}}}],"outputLookup":false,"inputLookup":false,"activation":"sigmoid","trainOpts":{"iterations":20000,"errorThresh":0.003,"log":true,"logPeriod":10,"learningRate":0.05,"momentum":0.1,"callbackPeriod":10,"beta1":0.9,"beta2":0.999,"epsilon":1e-8}}