{"sizes":[145,8,8,1],"layers":[{"0":{},"1":{},"2":{},"3":{},"4":{},"5":{},"6":{},"7":{},"8":{},"9":{},"10":{},"11":{},"12":{},"13":{},"14":{},"15":{},"16":{},"17":{},"18":{},"19":{},"20":{},"21":{},"22":{},"23":{},"24":{},"25":{},"26":{},"27":{},"28":{},"29":{},"30":{},"31":{},"32":{},"33":{},"34":{},"35":{},"36":{},"37":{},"38":{},"39":{},"40":{},"41":{},"42":{},"43":{},"44":{},"45":{},"46":{},"47":{},"48":{},"49":{},"50":{},"51":{},"52":{},"53":{},"54":{},"55":{},"56":{},"57":{},"58":{},"59":{},"60":{},"61":{},"62":{},"63":{},"64":{},"65":{},"66":{},"67":{},"68":{},"69":{},"70":{},"71":{},"72":{},"73":{},"74":{},"75":{},"76":{},"77":{},"78":{},"79":{},"80":{},"81":{},"82":{},"83":{},"84":{},"85":{},"86":{},"87":{},"88":{},"89":{},"90":{},"91":{},"92":{},"93":{},"94":{},"95":{},"96":{},"97":{},"98":{},"99":{},"100":{},"101":{},"102":{},"103":{},"104":{},"105":{},"106":{},"107":{},"108":{},"109":{},"110":{},"111":{},"112":{},"113":{},"114":{},"115":{},"116":{},"117":{},"118":{},"119":{},"120":{},"121":{},"122":{},"123":{},"124":{},"125":{},"126":{},"127":{},"128":{},"129":{},"130":{},"131":{},"132":{},"133":{},"134":{},"135":{},"136":{},"137":{},"138":{},"139":{},"140":{},"141":{},"142":{},"143":{},"144":{}},{"0":{"bias":0.7465258836746216,"weights":{"0":1.5830172300338745,"1":0.1712103635072708,"2":1.6644923686981201,"3":-0.18923433125019073,"4":1.0010125637054443,"5":0.10095219314098358,"6":-0.09504280984401703,"7":-0.7167455554008484,"8":-0.010585648939013481,"9":-0.08461630344390869,"10":-0.8694872856140137,"11":-0.17650926113128662,"12":-0.8289488554000854,"13":-0.31556180119514465,"14":1.0012532472610474,"15":0.05553571507334709,"16":0.0810784250497818,"17":0.17381268739700317,"18":0.012028265744447708,"19":-0.6681731343269348,"20":0.8304941058158875,"21":0.4997137188911438,"22":-0.7035591006278992,"23":0.7841295003890991,"24":0.5239494442939758,"25":-0.9599525928497314,"26":0.25614500045776367,"27":1.598448634147644,"28":-0.18069210648536682,"29":0.15744629502296448,"30":-0.42403554916381836,"31":-0.10548833012580872,"32":0.019983157515525818,"33":-0.2490733563899994,"34":0.10219879448413849,"35":0.5983369946479797,"36":-0.6369134187698364,"37":-0.5371630191802979,"38":0.7197334170341492,"39":0.1816195547580719,"40":1.3615576028823853,"41":0.018976034596562386,"42":0.5693504214286804,"43":-0.37705978751182556,"44":0.9206625819206238,"45":0.4319777488708496,"46":-0.047941915690898895,"47":0.38170671463012695,"48":-0.4799859821796417,"49":-2.3338024616241455,"50":-0.960326075553894,"51":0.8341057300567627,"52":0.17771491408348083,"53":0.25036168098449707,"54":-0.08614231646060944,"55":-0.048315614461898804,"56":0.40473899245262146,"57":0.38444530963897705,"58":0.25931239128112793,"59":-0.7723274827003479,"60":0.3945893347263336,"61":-1.1456830501556396,"62":0.3942071199417114,"63":-0.24665865302085876,"64":-0.5928550958633423,"65":1.0230399370193481,"66":-0.15453340113162994,"67":0.8970125913619995,"68":0.45578533411026,"69":-0.5782428979873657,"70":0.8705508708953857,"71":-0.6403600573539734,"72":-1.0511035919189453,"73":0.7218259572982788,"74":0.30850547552108765,"75":0.04213647544384003,"76":-0.6691984534263611,"77":0.09265411645174026,"78":0.5129557251930237,"79":1.033349633216858,"80":0.9096679091453552,"81":0.5499070882797241,"82":0.14595703780651093,"83":-0.18242837488651276,"84":-0.022762326523661613,"85":-0.38093140721321106,"86":0.9090900421142578,"87":0.6131415367126465,"88":-0.3389611840248108,"89":0.5934602618217468,"90":-0.15808188915252686,"91":1.0408599376678467,"92":0.07118115574121475,"93":-0.5335827469825745,"94":0.13868948817253113,"95":0.22991785407066345,"96":0.5312358736991882,"97":0.13850754499435425,"98":0.0795946717262268,"99":-0.3850686848163605,"100":0.6614981889724731,"101":-0.7225757241249084,"102":-0.4911022484302521,"103":0.09021033346652985,"104":0.19956707954406738,"105":0.09465266019105911,"106":-0.01848379150032997,"107":-0.08966916054487228,"108":0.2531781792640686,"109":0.45840951800346375,"110":0.33350905776023865,"111":-0.46433037519454956,"112":-0.6178473234176636,"113":0.10521446168422699,"114":-0.5922718048095703,"115":-0.051393624395132065,"116":0.7848498225212097,"117":0.19195356965065002,"118":-1.4575612545013428,"119":-0.7689390182495117,"120":-0.5470597147941589,"121":-0.1628507375717163,"122":0.27946409583091736,"123":-0.04832366853952408,"124":-0.34460175037384033,"125":-0.18851424753665924,"126":-0.05854899808764458,"127":-0.6935162544250488,"128":0.4655803143978119,"129":0.18511003255844116,"130":0.13328205049037933,"131":0.18617931008338928,"132":0.6862940788269043,"133":0.6883466839790344,"134":1.3068063259124756,"135":-1.3205989599227905,"136":-1.2194565534591675,"137":0.402896910905838,"138":0.28112441301345825,"139":0.731463611125946,"140":0.5087630748748779,"141":-0.14613834023475647,"142":-0.04863676428794861,"143":-0.6231178641319275,"144":0.9301430583000183}},"1":{"bias":0.1312667280435562,"weights":{"0":1.6796907186508179,"1":-0.22129471600055695,"2":-0.2964637279510498,"3":0.16566820442676544,"4":0.277886301279068,"5":0.49613964557647705,"6":1.4587507247924805,"7":0.12102150171995163,"8":0.16721218824386597,"9":-0.2637673020362854,"10":0.9608833193778992,"11":-0.07309989631175995,"12":0.9218763709068298,"13":-0.08843579888343811,"14":0.3382542133331299,"15":0.06269732117652893,"16":0.4218100905418396,"17":0.8804341554641724,"18":0.5374140739440918,"19":-0.5651382207870483,"20":0.2161984145641327,"21":-0.14037956297397614,"22":-1.4367239475250244,"23":0.1632542461156845,"24":-0.5927075147628784,"25":-0.9579769968986511,"26":-0.5551103949546814,"27":0.800007700920105,"28":0.2633374333381653,"29":0.3921298682689667,"30":0.48575031757354736,"31":-0.5833056569099426,"32":-0.0012755293864756823,"33":-0.47260892391204834,"34":0.2578505277633667,"35":-0.6072995662689209,"36":1.2168375253677368,"37":-0.7326244115829468,"38":-0.18730615079402924,"39":0.05758559703826904,"40":-0.19843383133411407,"41":0.23672226071357727,"42":-0.3852865397930145,"43":-0.33593353629112244,"44":0.6757415533065796,"45":-0.28000327944755554,"46":0.16229315102100372,"47":-1.178149938583374,"48":0.018484437838196754,"49":0.6199113130569458,"50":0.7268000841140747,"51":-0.15808209776878357,"52":0.49258846044540405,"53":-0.029455039650201797,"54":-0.4957849383354187,"55":-0.4157285988330841,"56":-0.11428730189800262,"57":0.46214473247528076,"58":0.5105475187301636,"59":0.28224655985832214,"60":-0.21158796548843384,"61":0.2805153727531433,"62":-0.09688197821378708,"63":0.1221311017870903,"64":-0.12235654145479202,"65":0.34002918004989624,"66":-0.1901792287826538,"67":0.505847692489624,"68":0.6409172415733337,"69":-1.2901191711425781,"70":0.773432731628418,"71":0.7014650702476501,"72":0.25042393803596497,"73":0.522020697593689,"74":-0.2524002194404602,"75":0.7450778484344482,"76":-0.3837004601955414,"77":0.49230635166168213,"78":-1.7528655529022217,"79":1.3442453145980835,"80":0.15208154916763306,"81":-0.09564946591854095,"82":0.11886364221572876,"83":0.7182356715202332,"84":-0.6644337177276611,"85":0.22439132630825043,"86":1.0546578168869019,"87":-0.2926121950149536,"88":-0.2821321189403534,"89":0.5289705991744995,"90":0.2183935046195984,"91":-0.30777356028556824,"92":0.6067029237747192,"93":-1.9245725870132446,"94":0.952195942401886,"95":1.3898588418960571,"96":0.6949605941772461,"97":0.6262713670730591,"98":-0.7570359706878662,"99":-1.4250199794769287,"100":-0.5943678617477417,"101":0.005033563356846571,"102":0.5967596173286438,"103":0.3697219491004944,"104":0.47819989919662476,"105":0.28302237391471863,"106":0.4669967293739319,"107":0.7343205809593201,"108":0.29337620735168457,"109":0.8691017627716064,"110":-0.024319225922226906,"111":-0.03494976833462715,"112":0.12139691412448883,"113":-0.5740271806716919,"114":-0.23580226302146912,"115":-0.08647564798593521,"116":-0.39549359679222107,"117":-0.25923770666122437,"118":-1.1733893156051636,"119":-1.249645471572876,"120":1.2623296976089478,"121":0.06225411593914032,"122":-0.6110443472862244,"123":-0.5883851647377014,"124":0.889606237411499,"125":0.5678431391716003,"126":-0.5470899939537048,"127":-0.5117945671081543,"128":-1.578060269355774,"129":0.7467845678329468,"130":0.13179472088813782,"131":0.3220140337944031,"132":0.15489698946475983,"133":0.4578658640384674,"134":0.09741609543561935,"135":-0.39128050208091736,"136":-0.9869881868362427,"137":-0.3644382059574127,"138":1.074671983718872,"139":0.3451758027076721,"140":0.907597005367279,"141":0.808264970779419,"142":-0.1927066147327423,"143":-1.9646846055984497,"144":-0.10584091395139694}},"2":{"bias":-0.6392859220504761,"weights":{"0":1.7629948854446411,"1":-0.10863886028528214,"2":-0.46845588088035583,"3":-0.08901243656873703,"4":0.4590725302696228,"5":-0.3400770425796509,"6":0.2486426830291748,"7":-0.13857927918434143,"8":-0.9518767595291138,"9":0.7293360829353333,"10":0.25072959065437317,"11":-0.10509660094976425,"12":1.2817282676696777,"13":-0.1358325034379959,"14":-0.15003535151481628,"15":0.029174616560339928,"16":-0.12736323475837708,"17":0.33249762654304504,"18":0.819597601890564,"19":0.1698693335056305,"20":0.7973006963729858,"21":-0.8612119555473328,"22":0.9365319609642029,"23":-0.2669009566307068,"24":-0.2504091262817383,"25":-0.06198950484395027,"26":0.39061012864112854,"27":0.4419942796230316,"28":-0.04007113724946976,"29":0.9036731123924255,"30":0.8395299315452576,"31":0.9332624673843384,"32":-0.6225095391273499,"33":-0.2982483506202698,"34":-0.3794109523296356,"35":-0.7377686500549316,"36":-0.22535616159439087,"37":1.0897860527038574,"38":0.5252931118011475,"39":0.6381072998046875,"40":0.6899506449699402,"41":-0.7823315858840942,"42":-0.7995595335960388,"43":-0.17979417741298676,"44":-0.48376771807670593,"45":-0.4468388557434082,"46":0.7673693299293518,"47":-0.5470794439315796,"48":-0.468685120344162,"49":-0.3197959363460541,"50":-0.06398895382881165,"51":0.5786712765693665,"52":-0.9506652355194092,"53":-1.0098634958267212,"54":0.06669272482395172,"55":0.5010777115821838,"56":1.0372895002365112,"57":0.4019742012023926,"58":0.812941312789917,"59":-0.23853644728660583,"60":0.3587011992931366,"61":0.8919110298156738,"62":1.0046366453170776,"63":-0.011868330650031567,"64":-0.03591564670205116,"65":0.2763521373271942,"66":1.0593352317810059,"67":0.5193525552749634,"68":0.5640485882759094,"69":-0.6875877976417542,"70":0.1717681735754013,"71":-0.25914835929870605,"72":-0.28515323996543884,"73":-0.45790866017341614,"74":-0.24875842034816742,"75":0.47882869839668274,"76":0.15640302002429962,"77":-0.33690735697746277,"78":-1.0019934177398682,"79":2.157541513442993,"80":-0.3755790889263153,"81":-0.02262291871011257,"82":0.1886850893497467,"83":-0.030703680589795113,"84":0.7118992209434509,"85":-0.0568828284740448,"86":-0.04457726702094078,"87":0.4487614333629608,"88":-0.4603060185909271,"89":0.28913450241088867,"90":1.0642144680023193,"91":-0.6491066813468933,"92":-0.4462825059890747,"93":-1.2903711795806885,"94":0.46420732140541077,"95":0.7290659546852112,"96":0.30389079451560974,"97":0.8425987958908081,"98":-0.20615260303020477,"99":0.4305553734302521,"100":0.8277091383934021,"101":0.7725317478179932,"102":-0.03538732975721359,"103":-0.3012239933013916,"104":0.6767494082450867,"105":0.05267167091369629,"106":-0.5680139660835266,"107":-0.4721413850784302,"108":0.45425400137901306,"109":0.7996968626976013,"110":0.3012588620185852,"111":-0.04865475744009018,"112":-1.1695752143859863,"113":0.11833052337169647,"114":0.5175500512123108,"115":-0.4620610475540161,"116":-0.4458257853984833,"117":-0.07788899540901184,"118":-0.3437708616256714,"119":-0.9010229706764221,"120":-0.9640152454376221,"121":-0.011717090383172035,"122":0.6974562406539917,"123":-0.22491174936294556,"124":-0.3398744463920593,"125":0.2369914948940277,"126":-0.3297552168369293,"127":0.5450511574745178,"128":-0.17449000477790833,"129":0.26707398891448975,"130":0.47312918305397034,"131":-0.21441182494163513,"132":-0.324624240398407,"133":0.12428051978349686,"134":-0.14318053424358368,"135":0.6283982396125793,"136":-1.0691744089126587,"137":-0.9778637290000916,"138":1.0744692087173462,"139":0.11260838806629181,"140":0.8383801579475403,"141":-0.008852963335812092,"142":0.3263549208641052,"143":-1.499132513999939,"144":0.6150262355804443}},"3":{"bias":1.0904474258422852,"weights":{"0":-0.810053288936615,"1":-0.980229377746582,"2":-1.0318247079849243,"3":1.2258094549179077,"4":-1.2910833358764648,"5":0.31935757398605347,"6":0.20209231972694397,"7":-1.0446803569793701,"8":-0.0369444340467453,"9":0.12620453536510468,"10":-0.22656987607479095,"11":0.5892613530158997,"12":-0.8555514216423035,"13":-0.4454648494720459,"14":0.17370256781578064,"15":-0.3267236649990082,"16":0.2211257517337799,"17":-0.5562213063240051,"18":-0.13745726644992828,"19":0.882914662361145,"20":0.27611297369003296,"21":0.4132811725139618,"22":1.2305620908737183,"23":0.7316011190414429,"24":0.5322892665863037,"25":0.37995612621307373,"26":-0.4729521870613098,"27":0.5893665552139282,"28":0.455527663230896,"29":-0.6927936673164368,"30":-1.1018867492675781,"31":0.07884984463453293,"32":-0.32520443201065063,"33":-0.0008886618888936937,"34":0.43928712606430054,"35":0.5128843188285828,"36":-0.37648123502731323,"37":0.9072821140289307,"38":-0.04648889973759651,"39":-0.5380526185035706,"40":-0.4936770498752594,"41":0.8249098062515259,"42":0.4915185570716858,"43":0.08885251730680466,"44":-0.2001696527004242,"45":-0.101785808801651,"46":-0.22460949420928955,"47":-0.1553441882133484,"48":0.167253777384758,"49":-0.22065794467926025,"50":-0.4181029796600342,"51":0.2893253266811371,"52":0.6274580955505371,"53":-0.07258617877960205,"54":-0.23800651729106903,"55":-0.2188444882631302,"56":0.5851141214370728,"57":0.9128356575965881,"58":1.0922361612319946,"59":0.3168063461780548,"60":0.6000608205795288,"61":-0.8737388849258423,"62":0.6681551337242126,"63":0.7027610540390015,"64":0.36337602138519287,"65":0.5327298641204834,"66":0.48503631353378296,"67":0.4113118350505829,"68":-0.00913894921541214,"69":-1.831393837928772,"70":0.7317484021186829,"71":0.018992235884070396,"72":-0.2152612805366516,"73":0.2988756597042084,"74":0.46721845865249634,"75":0.15893210470676422,"76":-0.40689441561698914,"77":0.378379225730896,"78":0.4066615700721741,"79":0.8080251812934875,"80":-0.09973232448101044,"81":0.9134305119514465,"82":0.4365079402923584,"83":-1.0371344089508057,"84":-0.5126660466194153,"85":-0.2558387517929077,"86":-0.20697197318077087,"87":-0.18522213399410248,"88":0.2815137207508087,"89":-0.4153624475002289,"90":-0.8657114505767822,"91":-0.8172923922538757,"92":0.018557069823145866,"93":-1.3008710145950317,"94":0.02149420976638794,"95":0.034692589193582535,"96":0.1835753470659256,"97":0.3971915543079376,"98":-1.8829275369644165,"99":-0.6728653311729431,"100":-0.19285228848457336,"101":-0.5887429118156433,"102":-0.3475967049598694,"103":0.10076942294836044,"104":0.5415774583816528,"105":0.06368865817785263,"106":-0.4649333357810974,"107":-1.1382509469985962,"108":-0.5777610540390015,"109":0.6664772629737854,"110":0.39601171016693115,"111":0.5051989555358887,"112":0.872190535068512,"113":-0.5605379939079285,"114":-0.6979514956474304,"115":2.0896637439727783,"116":-0.5984505414962769,"117":0.6417112350463867,"118":-0.5000119209289551,"119":0.8162108063697815,"120":-0.3737354576587677,"121":0.7232489585876465,"122":1.0723392963409424,"123":-0.3895207345485687,"124":-1.4903615713119507,"125":0.004370895214378834,"126":-0.15058287978172302,"127":-1.543756127357483,"128":0.3480263948440552,"129":0.1889367699623108,"130":0.026999427005648613,"131":-0.13169826567173004,"132":-0.08060788363218307,"133":0.2949795722961426,"134":0.03618530184030533,"135":0.8168344497680664,"136":0.8337099552154541,"137":-0.7804980278015137,"138":0.023898370563983917,"139":0.6079409122467041,"140":0.3486003279685974,"141":0.10071420669555664,"142":-0.7582291960716248,"143":-0.38859808444976807,"144":-0.10093313455581665}},"4":{"bias":-0.07241407036781311,"weights":{"0":0.6375045776367188,"1":-0.7005534172058105,"2":-0.8436141014099121,"3":-0.36855337023735046,"4":0.32988640666007996,"5":0.056925252079963684,"6":-1.2694154977798462,"7":0.2983216643333435,"8":-0.15331268310546875,"9":0.421294242143631,"10":-0.8871079087257385,"11":-0.17876362800598145,"12":0.6990363597869873,"13":0.43075600266456604,"14":0.8282944560050964,"15":0.610167920589447,"16":0.359186053276062,"17":0.02198568359017372,"18":0.47742947936058044,"19":0.5220121145248413,"20":0.15164613723754883,"21":0.17447583377361298,"22":1.224799633026123,"23":-0.26709070801734924,"24":-0.16522063314914703,"25":0.6696980595588684,"26":-0.2210369110107422,"27":0.2224055826663971,"28":0.9652711153030396,"29":0.06741786748170853,"30":-0.3890739679336548,"31":-1.0048637390136719,"32":0.17848536372184753,"33":-0.37976616621017456,"34":0.16245070099830627,"35":-0.2800658345222473,"36":0.00950836855918169,"37":-0.4851827323436737,"38":-0.3411579132080078,"39":-0.12734904885292053,"40":0.31094443798065186,"41":-0.8008642792701721,"42":0.18087756633758545,"43":-0.18011648952960968,"44":0.31141671538352966,"45":-0.9774889945983887,"46":-0.027571620419621468,"47":0.5436951518058777,"48":0.7940099239349365,"49":0.12294483184814453,"50":-1.4537103176116943,"51":-0.7757587432861328,"52":-0.161863774061203,"53":0.03395496681332588,"54":0.82139652967453,"55":-0.05663732439279556,"56":0.4669141173362732,"57":-0.14187073707580566,"58":-0.35891610383987427,"59":0.19923964142799377,"60":0.26257699728012085,"61":-0.4145891070365906,"62":-0.009836682118475437,"63":-0.08736078441143036,"64":0.4709978699684143,"65":0.7258217334747314,"66":0.24706490337848663,"67":-0.3785291612148285,"68":0.02942594327032566,"69":0.4949418902397156,"70":-0.25788721442222595,"71":-1.1967909336090088,"72":-0.2147693634033203,"73":0.09177400171756744,"74":-0.11753768473863602,"75":-0.6365817785263062,"76":-0.1360640823841095,"77":-0.03761395066976547,"78":-0.3194996416568756,"79":1.588552474975586,"80":-0.6711219549179077,"81":-0.6750339269638062,"82":-0.9597786068916321,"83":0.42892271280288696,"84":-0.40298932790756226,"85":-0.5885383486747742,"86":-1.408866047859192,"87":-0.07194487005472183,"88":0.2136458307504654,"89":-1.3490536212921143,"90":0.6611629724502563,"91":0.36907270550727844,"92":0.35056865215301514,"93":0.3194544315338135,"94":0.28625690937042236,"95":0.5041830539703369,"96":-0.5668510794639587,"97":-1.337924599647522,"98":-0.9666194915771484,"99":0.5607712268829346,"100":0.06140845641493797,"101":-0.00503379525616765,"102":-0.003417564556002617,"103":0.062444817274808884,"104":-0.15459640324115753,"105":-1.2214164733886719,"106":-0.11611843854188919,"107":-0.3139135539531708,"108":-1.1599653959274292,"109":-0.2337048500776291,"110":0.12960073351860046,"111":-0.09249959141016006,"112":0.03715139999985695,"113":-0.1379549503326416,"114":1.744625449180603,"115":0.25901103019714355,"116":-0.8991231918334961,"117":0.47769036889076233,"118":-0.33984237909317017,"119":1.2812312841415405,"120":-1.9571658372879028,"121":-0.2345530390739441,"122":0.5051760673522949,"123":0.36845627427101135,"124":1.3831499814987183,"125":-1.028931736946106,"126":-0.6003162264823914,"127":-1.1375290155410767,"128":0.01716809719800949,"129":-0.08869227766990662,"130":-0.05560579523444176,"131":0.2874548137187958,"132":0.3212648928165436,"133":-0.0038482421077787876,"134":0.2012755572795868,"135":-0.4333426058292389,"136":0.2553378641605377,"137":0.08869937062263489,"138":0.14895188808441162,"139":0.5118857622146606,"140":0.7258284091949463,"141":0.01265000831335783,"142":-0.20558497309684753,"143":0.49779608845710754,"144":0.2455962598323822}},"5":{"bias":1.342416763305664,"weights":{"0":-1.5862840414047241,"1":-0.34606850147247314,"2":0.7452093958854675,"3":0.6141372919082642,"4":-0.6857402920722961,"5":0.03658067807555199,"6":-0.20273464918136597,"7":-0.028927654027938843,"8":0.5187448859214783,"9":0.4072813093662262,"10":-0.17478282749652863,"11":0.11978501081466675,"12":-1.3541299104690552,"13":-0.0864463746547699,"14":-1.2066854238510132,"15":0.8168759346008301,"16":-0.09605567902326584,"17":0.3724762797355652,"18":0.13472923636436462,"19":0.047330643981695175,"20":-0.6455088257789612,"21":0.7525652647018433,"22":1.5436404943466187,"23":0.12269578874111176,"24":-0.7215461730957031,"25":-0.5462347269058228,"26":0.12309513986110687,"27":0.5703038573265076,"28":-0.14897316694259644,"29":-0.3559166193008423,"30":1.1056896448135376,"31":-0.0213552825152874,"32":-1.3220922946929932,"33":0.6557334661483765,"34":0.13107044994831085,"35":0.5565005540847778,"36":0.2711026072502136,"37":1.015169382095337,"38":0.49759814143180847,"39":0.06111106276512146,"40":-0.07068917155265808,"41":-0.15859317779541016,"42":-0.003999276086688042,"43":-0.20747460424900055,"44":0.186308816075325,"45":0.24366995692253113,"46":-0.30742329359054565,"47":0.2537207305431366,"48":0.4051162600517273,"49":-1.2707607746124268,"50":-0.7704476118087769,"51":0.061215564608573914,"52":0.2992233335971832,"53":-0.1899004727602005,"54":0.4214293658733368,"55":0.15585681796073914,"56":0.7515932321548462,"57":0.6231576800346375,"58":0.44447576999664307,"59":0.31289392709732056,"60":0.39094337821006775,"61":1.3437952995300293,"62":-0.38108518719673157,"63":0.12196626514196396,"64":-1.1710577011108398,"65":-0.8703652024269104,"66":0.12862488627433777,"67":0.25105899572372437,"68":0.598269522190094,"69":-0.6135319471359253,"70":-1.3598542213439941,"71":0.6578611135482788,"72":-0.9827324748039246,"73":-0.05915020406246185,"74":-0.027706246823072433,"75":-0.18729525804519653,"76":0.18633659183979034,"77":0.5044816732406616,"78":-0.5460362434387207,"79":0.35570597648620605,"80":-0.006033817306160927,"81":0.17403994500637054,"82":-0.4626888334751129,"83":0.13100703060626984,"84":-0.2753002941608429,"85":1.2950098514556885,"86":0.4434947669506073,"87":0.5125843286514282,"88":-0.6315652132034302,"89":-0.4312971532344818,"90":0.8562319278717041,"91":0.003370844293385744,"92":0.4260214567184448,"93":0.9580841064453125,"94":0.5911149978637695,"95":-0.07155077159404755,"96":0.9291361570358276,"97":0.58243727684021,"98":-0.779287576675415,"99":0.13419367372989655,"100":0.46191897988319397,"101":-0.07320670783519745,"102":-0.6344729065895081,"103":0.024127572774887085,"104":-0.4888036549091339,"105":0.08178617060184479,"106":0.7772201895713806,"107":-0.11163220554590225,"108":1.7047468423843384,"109":1.1381371021270752,"110":0.6530306935310364,"111":0.16142532229423523,"112":-0.19977252185344696,"113":-0.04460051283240318,"114":1.0698285102844238,"115":0.22823889553546906,"116":0.6168211698532104,"117":-0.08053646236658096,"118":-0.6047906279563904,"119":0.29750609397888184,"120":-0.14848560094833374,"121":0.01187194138765335,"122":-0.48838603496551514,"123":1.030203938484192,"124":-0.07182178646326065,"125":-0.09304589033126831,"126":-0.3629564046859741,"127":-0.7315229177474976,"128":0.893099844455719,"129":-0.5994282960891724,"130":-0.5969969630241394,"131":-0.642035722732544,"132":0.4303082823753357,"133":-0.08534497767686844,"134":0.1597549170255661,"135":-0.9156580567359924,"136":1.0959994792938232,"137":-0.9732527732849121,"138":0.24138177931308746,"139":0.20114246010780334,"140":-0.6166759133338928,"141":0.4622049331665039,"142":-0.14997781813144684,"143":-0.05374755710363388,"144":0.13315045833587646}},"6":{"bias":-0.614466667175293,"weights":{"0":-0.49932438135147095,"1":-0.595036506652832,"2":0.5287719964981079,"3":0.24295613169670105,"4":-0.773760199546814,"5":-0.29719871282577515,"6":-0.10731903463602066,"7":-0.10558284819126129,"8":-0.060040369629859924,"9":-0.7241358160972595,"10":-0.6070128083229065,"11":0.40624672174453735,"12":1.4162479639053345,"13":0.0892328992486,"14":-0.5698027014732361,"15":0.1425163596868515,"16":0.19651363790035248,"17":0.7016351819038391,"18":-0.42895790934562683,"19":-0.4547622501850128,"20":-1.0926185846328735,"21":-0.6004568338394165,"22":-0.34810036420822144,"23":-0.20191426575183868,"24":0.08280748873949051,"25":0.34235629439353943,"26":0.17645946145057678,"27":-2.1434695720672607,"28":-0.8828904032707214,"29":0.18961697816848755,"30":-0.699969470500946,"31":0.2298743724822998,"32":-0.4918455183506012,"33":-0.16806171834468842,"34":-0.07212942093610764,"35":0.9686705470085144,"36":-0.32067593932151794,"37":0.14503952860832214,"38":0.7452318668365479,"39":0.9808435440063477,"40":-0.780529797077179,"41":-0.0926121398806572,"42":-1.1436110734939575,"43":-0.06138620153069496,"44":-0.2149309664964676,"45":0.011425440199673176,"46":0.07498767971992493,"47":-0.46932363510131836,"48":0.11037559062242508,"49":1.0862101316452026,"50":1.097133994102478,"51":0.6759645342826843,"52":-0.3390679657459259,"53":0.5992847681045532,"54":0.5365409255027771,"55":0.22633096575737,"56":0.046593744307756424,"57":-0.1439981311559677,"58":0.4522963762283325,"59":0.7920050621032715,"60":-0.7913916707038879,"61":1.7315263748168945,"62":-0.4068981409072876,"63":-0.40360015630722046,"64":-0.025722013786435127,"65":1.2050666809082031,"66":-0.9613545536994934,"67":-0.13652801513671875,"68":0.044982653111219406,"69":-0.7354883551597595,"70":-0.8707974553108215,"71":0.4355632960796356,"72":-0.1390787661075592,"73":-0.18686307966709137,"74":0.1666889190673828,"75":0.06416940689086914,"76":-0.300858736038208,"77":0.7470182776451111,"78":1.4020147323608398,"79":-0.4424748122692108,"80":0.06725919991731644,"81":0.5727043151855469,"82":0.7083043456077576,"83":-0.6256808638572693,"84":-0.015027673915028572,"85":0.3025900423526764,"86":-0.37191128730773926,"87":0.8565347194671631,"88":0.8443034887313843,"89":0.44906750321388245,"90":-1.1785963773727417,"91":-0.2096278965473175,"92":0.11385881155729294,"93":-1.0202232599258423,"94":-2.209620237350464,"95":-0.12596489489078522,"96":-0.39832451939582825,"97":0.1078328937292099,"98":0.34322163462638855,"99":1.1275469064712524,"100":0.11085166782140732,"101":0.6504007577896118,"102":-0.45324090123176575,"103":-0.142490416765213,"104":-0.09068465232849121,"105":-0.33375000953674316,"106":1.3261467218399048,"107":-1.0122138261795044,"108":-0.28215232491493225,"109":-0.4297657310962677,"110":0.2601555585861206,"111":0.1317116916179657,"112":-0.986815869808197,"113":0.2692713439464569,"114":-1.213732361793518,"115":0.46759355068206787,"116":1.0920225381851196,"117":-0.043772485107183456,"118":-0.07106253504753113,"119":1.4991058111190796,"120":1.4987411499023438,"121":-0.25857919454574585,"122":0.027251381427049637,"123":-0.5752978920936584,"124":0.38874712586402893,"125":0.1986277550458908,"126":0.16653449833393097,"127":0.4086318910121918,"128":0.29681122303009033,"129":0.553382933139801,"130":0.07673685252666473,"131":-0.270662397146225,"132":0.4029681086540222,"133":0.2147209197282791,"134":0.24346132576465607,"135":-0.18403951823711395,"136":0.9519866108894348,"137":0.38982245326042175,"138":-0.9099795818328857,"139":-0.19125673174858093,"140":0.179432213306427,"141":-0.1780824512243271,"142":0.4648742973804474,"143":-0.9622678756713867,"144":-0.20302264392375946}},"7":{"bias":0.9677172899246216,"weights":{"0":0.9822479486465454,"1":-0.38820454478263855,"2":-0.09811358898878098,"3":-0.6776465773582458,"4":0.30013877153396606,"5":0.17389735579490662,"6":0.4494130313396454,"7":-0.26395919919013977,"8":-0.165654718875885,"9":-0.29551979899406433,"10":0.06982460618019104,"11":0.23458150029182434,"12":0.36509889364242554,"13":-0.42423132061958313,"14":0.9442386031150818,"15":-0.07149718701839447,"16":1.6478631496429443,"17":-0.7924903631210327,"18":0.669255256652832,"19":0.038264475762844086,"20":-0.2082722932100296,"21":1.7868366241455078,"22":-0.911703884601593,"23":1.0162181854248047,"24":1.0246739387512207,"25":0.21019911766052246,"26":-0.1295691579580307,"27":-0.39826110005378723,"28":-0.31398648023605347,"29":-0.41340747475624084,"30":-0.6475924849510193,"31":-0.8018389344215393,"32":-0.4838918447494507,"33":0.3311311900615692,"34":0.27774539589881897,"35":-0.3400237560272217,"36":0.5200347304344177,"37":-0.7262951731681824,"38":0.34930506348609924,"39":-0.4184536337852478,"40":-0.10439616441726685,"41":-0.6912170052528381,"42":-0.18498125672340393,"43":-0.5986964702606201,"44":-0.48442530632019043,"45":0.6543701887130737,"46":-0.021189725026488304,"47":0.08300427347421646,"48":-0.06494111567735672,"49":-0.5192450284957886,"50":-0.22531864047050476,"51":0.5108976364135742,"52":0.4328450858592987,"53":0.06449688971042633,"54":-0.13543428480625153,"55":-0.2812839150428772,"56":-0.6324272155761719,"57":-0.10735844820737839,"58":-0.4599186182022095,"59":0.7660043239593506,"60":0.3014415502548218,"61":1.402845025062561,"62":-0.8403288125991821,"63":0.33355996012687683,"64":-1.1283504962921143,"65":0.6121153235435486,"66":-0.33524686098098755,"67":-0.28177663683891296,"68":-0.11141613125801086,"69":-0.35588574409484863,"70":-1.669227957725525,"71":0.15713973343372345,"72":-0.6565625667572021,"73":-0.12030709534883499,"74":0.21802206337451935,"75":-0.041179362684488297,"76":-0.17483793199062347,"77":0.45013663172721863,"78":0.20379488170146942,"79":1.3212212324142456,"80":-0.03057284839451313,"81":0.9497179388999939,"82":0.8803660273551941,"83":0.24423983693122864,"84":-0.07551198452711105,"85":0.5512136816978455,"86":0.474944531917572,"87":-0.22929799556732178,"88":-0.18938586115837097,"89":0.8082621693611145,"90":-0.05755583941936493,"91":0.2959403395652771,"92":0.1786005198955536,"93":0.22326767444610596,"94":-0.30296584963798523,"95":-0.15679480135440826,"96":0.5949925184249878,"97":0.33210358023643494,"98":0.018348800018429756,"99":-0.5498371720314026,"100":0.8302903175354004,"101":0.6952142715454102,"102":-0.2575187087059021,"103":0.006825660355389118,"104":0.4138478636741638,"105":-0.2737340033054352,"106":1.1761524677276611,"107":0.34145304560661316,"108":0.2198062241077423,"109":1.0693976879119873,"110":1.1529701948165894,"111":1.3600767850875854,"112":-0.3571780323982239,"113":-0.03975741192698479,"114":0.41860926151275635,"115":-0.4407869875431061,"116":-0.9865341186523438,"117":-0.4029219448566437,"118":0.2806565463542938,"119":2.321908473968506,"120":1.5777186155319214,"121":0.30214059352874756,"122":-0.0377870574593544,"123":-0.30392733216285706,"124":0.08310315757989883,"125":0.8873876333236694,"126":0.22428758442401886,"127":-0.41405653953552246,"128":-0.4950326383113861,"129":0.41228240728378296,"130":0.670645534992218,"131":-0.029871774837374687,"132":-0.7999701499938965,"133":0.24840298295021057,"134":1.0434114933013916,"135":1.212870478630066,"136":1.3523279428482056,"137":1.9938127994537354,"138":0.2417091280221939,"139":0.030976993963122368,"140":0.39625418186187744,"141":0.7636752724647522,"142":-0.16107717156410217,"143":-1.0082049369812012,"144":0.09884277731180191}}},{"0":{"bias":1.0243666172027588,"weights":{"0":5.212838172912598,"1":4.8794450759887695,"2":-5.044331073760986,"3":-4.232356071472168,"4":4.694177627563477,"5":4.668707370758057,"6":4.548907279968262,"7":-5.250512599945068}},"1":{"bias":-0.4939541518688202,"weights":{"0":0.04685024172067642,"1":0.053995076566934586,"2":-0.039904773235321045,"3":-0.41067421436309814,"4":0.12513819336891174,"5":0.225303515791893,"6":0.059811417013406754,"7":-0.03377408906817436}},"2":{"bias":-0.895662784576416,"weights":{"0":-1.8175979852676392,"1":-1.4032049179077148,"2":0.49119967222213745,"3":1.0591963529586792,"4":-0.7279613614082336,"5":-1.7701647281646729,"6":-1.250391960144043,"7":0.7750253677368164}},"3":{"bias":-0.5019461512565613,"weights":{"0":0.07460860908031464,"1":-0.18155024945735931,"2":-0.6376999616622925,"3":-0.4996233284473419,"4":0.16426332294940948,"5":-0.19182755053043365,"6":0.1719420999288559,"7":-0.5627955794334412}},"4":{"bias":-0.5817033648490906,"weights":{"0":-0.040228214114904404,"1":-0.09448830783367157,"2":-0.8086010217666626,"3":-0.683203935623169,"4":0.07910694181919098,"5":0.13784508407115936,"6":0.3720610737800598,"7":-0.4832192659378052}},"5":{"bias":-0.3096688687801361,"weights":{"0":-0.17268986999988556,"1":-0.01873035915195942,"2":-0.5639738440513611,"3":-0.45566147565841675,"4":-0.0007638735696673393,"5":-0.184370219707489,"6":0.20190396904945374,"7":-0.7075149416923523}},"6":{"bias":-0.3939360976219177,"weights":{"0":0.9163904786109924,"1":0.4430397152900696,"2":-0.6729017496109009,"3":-1.3850514888763428,"4":0.28461408615112305,"5":0.7960891723632812,"6":0.9329591393470764,"7":-0.9174067974090576}},"7":{"bias":-0.2888217270374298,"weights":{"0":0.38388580083847046,"1":0.1904440075159073,"2":0.29626646637916565,"3":-0.035596758127212524,"4":0.11613567173480988,"5":0.2211001217365265,"6":-0.27063360810279846,"7":0.35330140590667725}}},{"0":{"bias":3.5622880458831787,"weights":{"0":-6.167943954467773,"1":0.6828920841217041,"2":1.8230708837509155,"3":0.1746036559343338,"4":0.27878111600875854,"5":0.020830783993005753,"6":0.9419931173324585,"7":1.0779913663864136}}}],"outputLookup":false,"inputLookup":false,"activation":"sigmoid","trainOpts":{"iterations":20000,"errorThresh":0.003,"log":true,"logPeriod":10,"learningRate":0.05,"momentum":0.1,"callbackPeriod":10,"beta1":0.9,"beta2":0.999,"epsilon":1e-8}}