{"sizes":[145,8,8,1],"layers":[{"0":{},"1":{},"2":{},"3":{},"4":{},"5":{},"6":{},"7":{},"8":{},"9":{},"10":{},"11":{},"12":{},"13":{},"14":{},"15":{},"16":{},"17":{},"18":{},"19":{},"20":{},"21":{},"22":{},"23":{},"24":{},"25":{},"26":{},"27":{},"28":{},"29":{},"30":{},"31":{},"32":{},"33":{},"34":{},"35":{},"36":{},"37":{},"38":{},"39":{},"40":{},"41":{},"42":{},"43":{},"44":{},"45":{},"46":{},"47":{},"48":{},"49":{},"50":{},"51":{},"52":{},"53":{},"54":{},"55":{},"56":{},"57":{},"58":{},"59":{},"60":{},"61":{},"62":{},"63":{},"64":{},"65":{},"66":{},"67":{},"68":{},"69":{},"70":{},"71":{},"72":{},"73":{},"74":{},"75":{},"76":{},"77":{},"78":{},"79":{},"80":{},"81":{},"82":{},"83":{},"84":{},"85":{},"86":{},"87":{},"88":{},"89":{},"90":{},"91":{},"92":{},"93":{},"94":{},"95":{},"96":{},"97":{},"98":{},"99":{},"100":{},"101":{},"102":{},"103":{},"104":{},"105":{},"106":{},"107":{},"108":{},"109":{},"110":{},"111":{},"112":{},"113":{},"114":{},"115":{},"116":{},"117":{},"118":{},"119":{},"120":{},"121":{},"122":{},"123":{},"124":{},"125":{},"126":{},"127":{},"128":{},"129":{},"130":{},"131":{},"132":{},"133":{},"134":{},"135":{},"136":{},"137":{},"138":{},"139":{},"140":{},"141":{},"142":{},"143":{},"144":{}},{"0":{"bias":-0.7285090088844299,"weights":{"0":-1.0004576444625854,"1":-0.4853437840938568,"2":0.6521433591842651,"3":0.18429434299468994,"4":0.43279680609703064,"5":-0.03158054128289223,"6":-0.28204503655433655,"7":0.07911558449268341,"8":-0.009381197392940521,"9":1.268093228340149,"10":0.05613938346505165,"11":-0.5151436924934387,"12":0.5734999775886536,"13":-0.03333224728703499,"14":-0.10348118841648102,"15":0.17776979506015778,"16":0.5735516548156738,"17":-0.13618552684783936,"18":0.13354110717773438,"19":0.5212921500205994,"20":-0.48812833428382874,"21":-1.7858439683914185,"22":2.188951015472412,"23":-0.21322880685329437,"24":0.42207014560699463,"25":0.6198689341545105,"26":-0.20487819612026215,"27":-0.3395342230796814,"28":0.008585100993514061,"29":-1.209242820739746,"30":1.4903137683868408,"31":0.4321167469024658,"32":0.1439572274684906,"33":0.06843019276857376,"34":0.007159609347581863,"35":-0.31055325269699097,"36":-0.8234006762504578,"37":0.6065453290939331,"38":-0.17294201254844666,"39":-0.14601027965545654,"40":-0.244410440325737,"41":0.08514092862606049,"42":0.160049706697464,"43":0.2834573984146118,"44":-0.08218587934970856,"45":-0.26428651809692383,"46":-0.3298560082912445,"47":-1.2505908012390137,"48":0.5733314156532288,"49":-1.085020661354065,"50":-0.020707355812191963,"51":-0.0912584587931633,"52":-0.0785662829875946,"53":0.06506655365228653,"54":0.32505568861961365,"55":-0.02898315154016018,"56":0.6935637593269348,"57":0.5352601408958435,"58":-0.3857496976852417,"59":0.49769100546836853,"60":-0.2684590518474579,"61":-1.443894386291504,"62":-0.2571098208427429,"63":0.12451658397912979,"64":-0.06513732671737671,"65":0.5968123078346252,"66":0.43501782417297363,"67":-0.2767532169818878,"68":-0.0028232482727617025,"69":-0.021714339032769203,"70":0.7580327391624451,"71":-0.4581778049468994,"72":-0.16469816863536835,"73":-0.01860436052083969,"74":-0.24034368991851807,"75":-0.40162456035614014,"76":-0.37779122591018677,"77":0.6608750224113464,"78":0.7105321884155273,"79":-0.44583481550216675,"80":-0.04060018062591553,"81":0.05737316980957985,"82":0.05367693677544594,"83":-0.31854334473609924,"84":0.024519097059965134,"85":0.1462322175502777,"86":-0.7189884185791016,"87":0.72698575258255,"88":0.9459103941917419,"89":0.027979133650660515,"90":-0.599399983882904,"91":0.4067823588848114,"92":0.1591702401638031,"93":-0.7036073207855225,"94":-0.1501488983631134,"95":-0.42392614483833313,"96":-0.44248923659324646,"97":-0.5071049928665161,"98":0.3748825490474701,"99":1.9630910158157349,"100":0.5181282758712769,"101":-0.43693941831588745,"102":0.04615909606218338,"103":-0.06486423313617706,"104":-0.6335171461105347,"105":-0.32360416650772095,"106":0.39592111110687256,"107":-0.7299249768257141,"108":-0.4201872646808624,"109":-0.6045594811439514,"110":-0.22705458104610443,"111":-0.08187736570835114,"112":-0.09631117433309555,"113":-0.23363462090492249,"114":-0.4915856122970581,"115":0.18978647887706757,"116":-0.2925611734390259,"117":-0.26067468523979187,"118":0.19426773488521576,"119":-0.24908171594142914,"120":0.09356231987476349,"121":-0.11124139279127121,"122":-0.06443201005458832,"123":0.26025012135505676,"124":0.6129658222198486,"125":-0.1636500209569931,"126":-0.20828434824943542,"127":0.0017914911732077599,"128":-1.0519115924835205,"129":-0.06574887037277222,"130":-0.9474772810935974,"131":0.050575364381074905,"132":0.9110268950462341,"133":-0.5064406394958496,"134":-0.20689857006072998,"135":0.5547835230827332,"136":0.402273029088974,"137":-0.9630120992660522,"138":0.16029280424118042,"139":-0.06973952054977417,"140":-0.08065935969352722,"141":-0.9067900776863098,"142":-0.24476860463619232,"143":0.7018503546714783,"144":-0.06406376510858536}},"1":{"bias":-0.28785842657089233,"weights":{"0":0.3634452521800995,"1":-0.16779711842536926,"2":1.5824259519577026,"3":-0.228936567902565,"4":-1.2034317255020142,"5":-0.09226559847593307,"6":0.9971458315849304,"7":-0.9500746130943298,"8":1.4306632280349731,"9":-0.8157522082328796,"10":0.5908985733985901,"11":0.15212507545948029,"12":-0.3410322666168213,"13":0.11169441044330597,"14":-0.0005403801915235817,"15":0.4441075921058655,"16":-0.04225052148103714,"17":0.5853057503700256,"18":-0.9498748779296875,"19":-0.8936050534248352,"20":-1.1512105464935303,"21":-0.41044628620147705,"22":-1.0092175006866455,"23":0.11628176271915436,"24":-0.3846158981323242,"25":-1.0217872858047485,"26":-0.8050025701522827,"27":1.0457611083984375,"28":-0.31051185727119446,"29":-0.06988508254289627,"30":0.9487743973731995,"31":0.4324440360069275,"32":1.5311002731323242,"33":0.14759483933448792,"34":-0.20767806470394135,"35":1.0676414966583252,"36":-1.0374020338058472,"37":-0.6438583731651306,"38":-0.04796714708209038,"39":1.0410079956054688,"40":-0.18682537972927094,"41":-1.3874281644821167,"42":0.5003635287284851,"43":-0.1277395784854889,"44":0.4763036072254181,"45":-0.138208270072937,"46":0.5310822129249573,"47":-0.5767428874969482,"48":-0.4374631941318512,"49":0.8157750368118286,"50":0.5184800624847412,"51":-1.5838911533355713,"52":0.7013777494430542,"53":0.5395920872688293,"54":-1.4190655946731567,"55":-0.5505592226982117,"56":-1.2101596593856812,"57":0.3623407781124115,"58":-0.20459239184856415,"59":0.9662033319473267,"60":-0.7181788682937622,"61":1.9996342658996582,"62":-0.1859215646982193,"63":-0.1173250824213028,"64":0.8757323026657104,"65":0.8873001337051392,"66":-0.6741069555282593,"67":-0.7465177774429321,"68":-0.5191595554351807,"69":-0.07544417679309845,"70":0.009238606318831444,"71":1.1246258020401,"72":0.6461361646652222,"73":0.26709166169166565,"74":-0.31591740250587463,"75":0.5505970120429993,"76":0.9370262026786804,"77":0.08943315595388412,"78":0.4907529056072235,"79":-1.4730415344238281,"80":-0.7091906666755676,"81":0.9678046703338623,"82":1.0288032293319702,"83":-1.0390808582305908,"84":-0.3645862340927124,"85":-0.6453645825386047,"86":-1.5134806632995605,"87":-1.339762806892395,"88":0.40436404943466187,"89":-0.4562821686267853,"90":0.3970291018486023,"91":-0.5952759385108948,"92":0.003204310778528452,"93":-0.4717431366443634,"94":-0.09605325758457184,"95":0.8744029402732849,"96":0.7927976250648499,"97":0.8814679384231567,"98":0.25146931409835815,"99":0.9241698980331421,"100":-0.2050056755542755,"101":0.14304374158382416,"102":0.4006853699684143,"103":0.1386507749557495,"104":0.08511361479759216,"105":-1.0135143995285034,"106":-0.44555702805519104,"107":-0.508511483669281,"108":-0.538395345211029,"109":1.0728116035461426,"110":-0.6757217049598694,"111":-0.11055725812911987,"112":0.7442107200622559,"113":-0.2531892955303192,"114":-0.1741940826177597,"115":0.33711478114128113,"116":1.6404727697372437,"117":-0.366735577583313,"118":-0.2643604576587677,"119":0.06842527538537979,"120":-0.24836045503616333,"121":-0.018905246630311012,"122":0.45717135071754456,"123":-1.933510661125183,"124":0.10991938412189484,"125":-1.2523634433746338,"126":-1.2201412916183472,"127":-0.9371622204780579,"128":0.3968874216079712,"129":-0.2423718422651291,"130":-0.1259128451347351,"131":0.10887376219034195,"132":-0.09217097610235214,"133":0.17728865146636963,"134":-0.8301853537559509,"135":-0.6233168840408325,"136":1.026374340057373,"137":0.8933515548706055,"138":-1.158509612083435,"139":-0.35113221406936646,"140":-0.446349561214447,"141":0.24499782919883728,"142":0.050628822296857834,"143":0.9069991111755371,"144":-1.1060439348220825}},"2":{"bias":1.0471067428588867,"weights":{"0":0.2313678115606308,"1":-0.5158358812332153,"2":-1.024224042892456,"3":0.613380491733551,"4":0.2929604649543762,"5":-0.19312706589698792,"6":-0.13703931868076324,"7":0.16790390014648438,"8":-0.42159783840179443,"9":-0.6615361571311951,"10":-0.5436458587646484,"11":0.42447736859321594,"12":-1.3187224864959717,"13":0.12248799204826355,"14":0.21954026818275452,"15":0.37180402874946594,"16":-0.8049005270004272,"17":-0.5243104696273804,"18":0.3561674654483795,"19":0.606424868106842,"20":-0.39864274859428406,"21":0.4385925233364105,"22":-0.7720581293106079,"23":0.3086448311805725,"24":0.1411854773759842,"25":0.9297264814376831,"26":-0.20983612537384033,"27":-0.6180754899978638,"28":-0.17804491519927979,"29":-0.05539395287632942,"30":-1.942745566368103,"31":1.2268180847167969,"32":-1.489235281944275,"33":0.17880591750144958,"34":-0.07899988442659378,"35":0.019359882920980453,"36":-0.6934641599655151,"37":-0.9580024480819702,"38":0.4935855567455292,"39":0.770056426525116,"40":-0.7577986717224121,"41":0.3452289402484894,"42":0.1455935537815094,"43":0.7758620381355286,"44":0.2722241282463074,"45":0.16209375858306885,"46":-0.8173884153366089,"47":-0.4259527623653412,"48":0.798966109752655,"49":-1.245300054550171,"50":-1.9083845615386963,"51":-0.1587672233581543,"52":0.6889835000038147,"53":0.4803061783313751,"54":-0.01653355546295643,"55":-0.024624479934573174,"56":1.1176040172576904,"57":0.017141764983534813,"58":-0.8268159031867981,"59":-0.0017729890532791615,"60":-0.7997300028800964,"61":-1.146506905555725,"62":-0.0641292929649353,"63":-0.26355835795402527,"64":0.06787166744470596,"65":-0.07922860980033875,"66":0.22259661555290222,"67":-0.007441871799528599,"68":0.22728650271892548,"69":1.3443777561187744,"70":-0.01337652187794447,"71":0.3057255148887634,"72":0.5077423453330994,"73":-0.1116439700126648,"74":0.3133614659309387,"75":-0.7406153678894043,"76":0.3567933440208435,"77":-0.40240564942359924,"78":2.158113718032837,"79":0.8280170559883118,"80":-0.5313428044319153,"81":-0.5919644832611084,"82":-1.5245263576507568,"83":-0.09554968774318695,"84":-0.41789716482162476,"85":1.2669405937194824,"86":0.8027066588401794,"87":-1.2420786619186401,"88":0.1725032776594162,"89":-1.245288610458374,"90":-1.7887742519378662,"91":0.007678686641156673,"92":-0.16985943913459778,"93":-1.0896391868591309,"94":-1.3590902090072632,"95":-0.6472242474555969,"96":-0.1848537027835846,"97":0.07364750653505325,"98":1.0390386581420898,"99":-0.3822222352027893,"100":-0.7313840389251709,"101":-0.14298593997955322,"102":0.6566054224967957,"103":-0.3933262526988983,"104":-0.9318478107452393,"105":-1.0511869192123413,"106":-0.9828930497169495,"107":0.14273610711097717,"108":0.0684061050415039,"109":-0.5091997385025024,"110":-0.29858800768852234,"111":-0.9742587208747864,"112":0.2217862606048584,"113":0.0033792892936617136,"114":-0.24679844081401825,"115":-0.8965681195259094,"116":0.452274352312088,"117":1.5123264789581299,"118":-0.3278270661830902,"119":0.8497145771980286,"120":0.5429857969284058,"121":0.08747873455286026,"122":0.23566505312919617,"123":0.1371876299381256,"124":0.48279446363449097,"125":-0.9147214293479919,"126":-0.8035593628883362,"127":-0.14553192257881165,"128":1.538903832435608,"129":0.862227737903595,"130":-0.32755061984062195,"131":0.2398952692747116,"132":0.4298166334629059,"133":-0.8991236090660095,"134":0.6406335830688477,"135":-0.5817832946777344,"136":1.1639152765274048,"137":-2.103766679763794,"138":-1.2467421293258667,"139":0.4066641926765442,"140":-0.32417237758636475,"141":-0.9011437296867371,"142":-0.2107212245464325,"143":-0.29670557379722595,"144":-0.427485853433609}},"3":{"bias":0.23836010694503784,"weights":{"0":0.6271790862083435,"1":0.22036732733249664,"2":-0.01935475878417492,"3":-0.005922094453126192,"4":-0.3781183958053589,"5":0.023833489045500755,"6":-0.012736380100250244,"7":-0.5458135008811951,"8":-1.3750406503677368,"9":-0.7569987773895264,"10":-0.6864591836929321,"11":0.16025789082050323,"12":-0.7836383581161499,"13":0.5012199282646179,"14":0.5617538094520569,"15":-0.371526300907135,"16":-0.44960662722587585,"17":-0.7189804911613464,"18":-0.6752811074256897,"19":0.25824156403541565,"20":-0.05461885407567024,"21":-1.044541835784912,"22":-0.6650270223617554,"23":0.29343798756599426,"24":-0.5351419448852539,"25":-1.1175413131713867,"26":0.28603336215019226,"27":1.3084508180618286,"28":0.7478508949279785,"29":0.19282996654510498,"30":-0.19452396035194397,"31":-0.4946193993091583,"32":1.1731398105621338,"33":0.3661500811576843,"34":-0.266981840133667,"35":-0.3579181432723999,"36":0.5005537271499634,"37":-0.7404326796531677,"38":0.06219686567783356,"39":-0.6335472464561462,"40":-0.6761480569839478,"41":-1.0486321449279785,"42":0.18125192821025848,"43":-0.38872864842414856,"44":-0.21179862320423126,"45":0.15403185784816742,"46":-0.4184657335281372,"47":-0.2829429507255554,"48":0.31778135895729065,"49":-0.7736090421676636,"50":-0.18093076348304749,"51":0.4055541753768921,"52":-0.027375802397727966,"53":-0.13738076388835907,"54":-0.18413078784942627,"55":0.10529395937919617,"56":-0.11680284142494202,"57":0.23105596005916595,"58":-0.6374512910842896,"59":1.1503652334213257,"60":-1.0623332262039185,"61":0.22274205088615417,"62":0.16955004632472992,"63":-0.11642906814813614,"64":-0.27913209795951843,"65":-0.9705094695091248,"66":-0.7367586493492126,"67":-0.5036309957504272,"68":-0.7416799068450928,"69":1.7266842126846313,"70":1.2620158195495605,"71":0.061408109962940216,"72":-0.37497544288635254,"73":0.029489021748304367,"74":-0.22084717452526093,"75":-0.3160116374492645,"76":0.01864352822303772,"77":0.37866145372390747,"78":1.1403146982192993,"79":0.6204857230186462,"80":-0.8182118535041809,"81":0.06805945932865143,"82":-0.0019314555684104562,"83":0.14855332672595978,"84":0.03767932206392288,"85":1.3456103801727295,"86":-0.6142300367355347,"87":-0.526433527469635,"88":-0.253479927778244,"89":-0.1302589625120163,"90":-0.9160402417182922,"91":0.2526432275772095,"92":-0.07656524330377579,"93":0.7711395025253296,"94":-0.32511812448501587,"95":-0.46305957436561584,"96":0.17962799966335297,"97":0.43995121121406555,"98":2.2017807960510254,"99":0.06457729637622833,"100":0.15540307760238647,"101":0.10526662319898605,"102":-0.05465827137231827,"103":0.21809670329093933,"104":0.08533071726560593,"105":0.0871618241071701,"106":0.7071362137794495,"107":-1.365527868270874,"108":2.3391714096069336,"109":0.08135733008384705,"110":0.5818741321563721,"111":0.6155789494514465,"112":-0.6884874701499939,"113":0.1070743128657341,"114":-1.8866527080535889,"115":0.3040451109409332,"116":-0.05707915872335434,"117":-1.3639755249023438,"118":1.397365927696228,"119":0.7829996347427368,"120":1.1186730861663818,"121":-0.2939889132976532,"122":-0.5299299955368042,"123":1.3153778314590454,"124":-1.5311733484268188,"125":1.046332836151123,"126":-0.0685739740729332,"127":-0.45485973358154297,"128":0.2554885745048523,"129":0.3854061961174011,"130":-0.03372728079557419,"131":-0.2712533175945282,"132":-0.19376309216022491,"133":-0.2778332233428955,"134":0.8369180560112,"135":0.8716292977333069,"136":1.227091908454895,"137":-1.272274374961853,"138":0.5118429660797119,"139":0.2869066596031189,"140":0.09061659127473831,"141":0.255771666765213,"142":0.07158830761909485,"143":-0.6984611749649048,"144":0.16928426921367645}},"4":{"bias":-0.2621181309223175,"weights":{"0":1.1610552072525024,"1":-0.759509801864624,"2":-0.6354248523712158,"3":0.24810686707496643,"4":-0.16964663565158844,"5":0.06220458075404167,"6":0.4243670105934143,"7":0.5559423565864563,"8":0.03055034764111042,"9":-0.5115834474563599,"10":-1.2163830995559692,"11":-0.020612191408872604,"12":1.4227126836776733,"13":0.12894223630428314,"14":0.728515625,"15":0.2766318917274475,"16":0.966279149055481,"17":-0.0550302155315876,"18":0.2542335093021393,"19":-0.2900472581386566,"20":0.8322058916091919,"21":0.18906189501285553,"22":-0.29514047503471375,"23":-0.7745993733406067,"24":-0.7601310610771179,"25":-0.1345856636762619,"26":0.5892612338066101,"27":0.4778754711151123,"28":1.5288822650909424,"29":0.6420695185661316,"30":-0.34898337721824646,"31":-0.5463714599609375,"32":-0.906150221824646,"33":-0.2535342574119568,"34":0.09581650048494339,"35":0.18115785717964172,"36":1.405819296836853,"37":-0.6838636994361877,"38":-0.13792158663272858,"39":0.37105274200439453,"40":-0.19858017563819885,"41":-0.774260401725769,"42":0.2926913797855377,"43":-0.013348775915801525,"44":-0.018345477059483528,"45":-0.20791704952716827,"46":-0.09109649807214737,"47":-0.8379983901977539,"48":-0.3035556972026825,"49":-1.5324963331222534,"50":0.14644202589988708,"51":0.11891168355941772,"52":0.018064258620142937,"53":0.7294059991836548,"54":0.666611909866333,"55":0.572986364364624,"56":-0.9276209473609924,"57":0.8862726092338562,"58":1.1398429870605469,"59":0.044931430369615555,"60":-0.19326075911521912,"61":0.11436229199171066,"62":0.6634904146194458,"63":0.19620954990386963,"64":0.5978694558143616,"65":-0.14994476735591888,"66":0.3793378174304962,"67":0.5586009621620178,"68":0.40322941541671753,"69":-0.750603973865509,"70":-0.12764742970466614,"71":0.011051810346543789,"72":-0.10393328964710236,"73":0.1736215054988861,"74":0.449959397315979,"75":-0.18496635556221008,"76":0.1979980170726776,"77":0.3041984438896179,"78":-0.3827302157878876,"79":1.1895530223846436,"80":0.4600234925746918,"81":0.5871050357818604,"82":1.3721779584884644,"83":0.3413885831832886,"84":0.913704514503479,"85":-0.8770350217819214,"86":0.04193296656012535,"87":0.3334014415740967,"88":0.4433150589466095,"89":-0.09196010231971741,"90":-0.20462872087955475,"91":-0.19705268740653992,"92":0.37355324625968933,"93":-0.6424331665039062,"94":0.9174150228500366,"95":1.9445347785949707,"96":0.35679906606674194,"97":-0.47912412881851196,"98":0.5051571130752563,"99":-0.5247273445129395,"100":-0.12688381969928741,"101":-0.5094104409217834,"102":0.14397954940795898,"103":0.2901779115200043,"104":-0.46766671538352966,"105":-1.2649462223052979,"106":0.057294394820928574,"107":-0.1684529185295105,"108":1.5047409534454346,"109":0.6483050584793091,"110":-0.25696492195129395,"111":0.22492095828056335,"112":0.6731714606285095,"113":0.7628140449523926,"114":-0.4671168923377991,"115":-0.08038900792598724,"116":0.21454770863056183,"117":-1.1184077262878418,"118":-0.6539530754089355,"119":0.2064085155725479,"120":0.15910649299621582,"121":0.21179641783237457,"122":-0.0730641633272171,"123":0.594631016254425,"124":1.0818341970443726,"125":0.35047054290771484,"126":0.6256635189056396,"127":-0.24993827939033508,"128":-0.6428776979446411,"129":0.7541942596435547,"130":0.4904888868331909,"131":0.0922626405954361,"132":-0.013580132275819778,"133":0.019454065710306168,"134":-0.06573525071144104,"135":-0.29202407598495483,"136":-0.21117368340492249,"137":-0.1479102522134781,"138":0.5665386915206909,"139":-0.3747904300689697,"140":-0.10701584815979004,"141":0.26544567942619324,"142":0.7299395799636841,"143":-1.1978734731674194,"144":-0.2721033990383148}},"5":{"bias":-1.9766043424606323,"weights":{"0":-0.399546355009079,"1":-0.3790668845176697,"2":-0.08645220100879669,"3":-0.10137800872325897,"4":-0.7072469592094421,"5":-0.07164744287729263,"6":-0.4648754894733429,"7":-1.275205373764038,"8":-0.8614354133605957,"9":0.5468990802764893,"10":1.491550326347351,"11":0.23814700543880463,"12":0.6152209639549255,"13":-0.3800458312034607,"14":-0.45436787605285645,"15":0.06176823750138283,"16":-0.4891783595085144,"17":0.043656326830387115,"18":-0.495626300573349,"19":-0.32918792963027954,"20":1.8924318552017212,"21":0.09018072485923767,"22":0.04213185980916023,"23":-0.8250576853752136,"24":0.32365816831588745,"25":0.4699873924255371,"26":0.22305238246917725,"27":0.09306161850690842,"28":0.306007981300354,"29":-0.17411859333515167,"30":-1.072218894958496,"31":0.7287599444389343,"32":0.5704231262207031,"33":0.2118327021598816,"34":-0.1264026015996933,"35":0.2511051595211029,"36":0.4620688259601593,"37":0.6097370386123657,"38":0.19248567521572113,"39":0.7172194123268127,"40":-1.2445688247680664,"41":-0.7071763277053833,"42":-0.4151794910430908,"43":0.06997517496347427,"44":-0.4136807918548584,"45":-0.22514617443084717,"46":0.15275444090366364,"47":-0.15436817705631256,"48":0.06560588628053665,"49":0.615948498249054,"50":-0.32935771346092224,"51":-0.703567624092102,"52":-0.6914740204811096,"53":0.35665616393089294,"54":-0.48521196842193604,"55":0.5370644330978394,"56":-0.2697424590587616,"57":0.8013066649436951,"58":0.20154795050621033,"59":1.0318268537521362,"60":0.34744033217430115,"61":0.5137290358543396,"62":0.4796491861343384,"63":-0.04267759248614311,"64":-0.2977909445762634,"65":1.2045644521713257,"66":-0.3939076364040375,"67":0.10880692303180695,"68":-0.2814934551715851,"69":0.04171968996524811,"70":0.3408578336238861,"71":0.718263566493988,"72":0.37506359815597534,"73":0.029395733028650284,"74":-0.43385735154151917,"75":0.11003900319337845,"76":-1.1495020389556885,"77":0.5980185270309448,"78":0.698111355304718,"79":1.6082240343093872,"80":0.04428799822926521,"81":-0.7150129675865173,"82":0.4539377689361572,"83":0.11382702738046646,"84":0.3227638006210327,"85":0.2571796178817749,"86":-0.07735351473093033,"87":0.024038787931203842,"88":-0.6228915452957153,"89":-0.2586655020713806,"90":-1.0473508834838867,"91":-1.2191513776779175,"92":-0.3636123538017273,"93":0.25710201263427734,"94":-0.17062672972679138,"95":0.486510694026947,"96":-0.016468219459056854,"97":0.6703600883483887,"98":-0.13667550683021545,"99":0.49143752455711365,"100":-0.7345778346061707,"101":0.777901291847229,"102":-0.103416308760643,"103":-0.12099990248680115,"104":0.08134417235851288,"105":-0.1323077380657196,"106":0.08739475905895233,"107":-1.1427910327911377,"108":-0.16130419075489044,"109":-0.26805898547172546,"110":-1.5346267223358154,"111":0.4133739173412323,"112":1.6126421689987183,"113":0.22859805822372437,"114":-0.05653972923755646,"115":-0.25447914004325867,"116":0.03621479123830795,"117":0.7462890148162842,"118":0.8172768950462341,"119":-0.12936373054981232,"120":-1.2178795337677002,"121":-0.17534707486629486,"122":-0.10304493457078934,"123":-1.030137062072754,"124":-0.3034694492816925,"125":-0.9119610786437988,"126":0.8106953501701355,"127":1.7015609741210938,"128":-1.7874205112457275,"129":0.41534796357154846,"130":-0.05083325132727623,"131":0.2916054427623749,"132":-0.7629067301750183,"133":-0.017853960394859314,"134":0.509798526763916,"135":0.1558447927236557,"136":-0.5009713768959045,"137":-0.8520210981369019,"138":-1.3392767906188965,"139":-1.0382803678512573,"140":0.8586275577545166,"141":1.9656212329864502,"142":0.13200603425502777,"143":0.5117475986480713,"144":-0.18225759267807007}},"6":{"bias":-0.3376164734363556,"weights":{"0":0.4892159402370453,"1":1.647574782371521,"2":-1.6747690439224243,"3":-0.5830392837524414,"4":-0.7678030729293823,"5":0.3916594088077545,"6":0.1765660047531128,"7":-0.16419433057308197,"8":-0.059444013983011246,"9":-0.7627336978912354,"10":-0.27144208550453186,"11":0.32854294776916504,"12":-0.5201355218887329,"13":-0.32649698853492737,"14":0.03859732672572136,"15":-0.48083633184432983,"16":0.2458416372537613,"17":0.046650100499391556,"18":0.16199925541877747,"19":0.9962902069091797,"20":0.5429815649986267,"21":0.9753602147102356,"22":-0.9157938361167908,"23":0.07190506905317307,"24":0.21173083782196045,"25":-0.6271753907203674,"26":-0.8489477038383484,"27":0.7787798643112183,"28":0.22463998198509216,"29":0.4129519462585449,"30":-0.8362321257591248,"31":-0.6499549150466919,"32":1.1321008205413818,"33":-0.1393536776304245,"34":0.23398536443710327,"35":0.08629485219717026,"36":0.9227783679962158,"37":-0.6158358454704285,"38":0.7084782719612122,"39":-0.010372145101428032,"40":-0.4327537417411804,"41":0.08649055659770966,"42":0.4465354084968567,"43":-0.801902711391449,"44":0.14871717989444733,"45":0.351790189743042,"46":-0.17196141183376312,"47":0.4501186013221741,"48":1.059247612953186,"49":0.8912382125854492,"50":1.6839075088500977,"51":1.4224143028259277,"52":0.30691227316856384,"53":0.4807215631008148,"54":-0.6186981797218323,"55":-0.9871553778648376,"56":-0.02390788123011589,"57":-1.612372875213623,"58":0.9848085641860962,"59":0.20291146636009216,"60":-0.6262057423591614,"61":0.8333085179328918,"62":-0.4334006607532501,"63":0.20726609230041504,"64":0.7734123468399048,"65":0.839933454990387,"66":0.11085665225982666,"67":-0.5228245854377747,"68":0.3150580823421478,"69":-0.7273685336112976,"70":1.1769142150878906,"71":0.9932361245155334,"72":0.6492303609848022,"73":0.14619022607803345,"74":-0.34295499324798584,"75":-0.1355915665626526,"76":-0.2802441418170929,"77":0.8008169531822205,"78":-1.121669054031372,"79":0.7609991431236267,"80":-0.6907142996788025,"81":-0.05181876942515373,"82":0.047405533492565155,"83":0.31834325194358826,"84":-0.8890663981437683,"85":0.4305678606033325,"86":0.2873910963535309,"87":0.9244670867919922,"88":-0.641756534576416,"89":-1.3589980602264404,"90":0.1473151594400406,"91":1.1369246244430542,"92":0.34964507818222046,"93":-0.4833375811576843,"94":0.30524957180023193,"95":-0.12914080917835236,"96":0.09235059469938278,"97":0.8537630438804626,"98":-1.519200086593628,"99":-0.5081228613853455,"100":-0.19328992068767548,"101":0.27006787061691284,"102":0.3129957318305969,"103":-0.004801140632480383,"104":0.030741095542907715,"105":2.1838793754577637,"106":0.8915412425994873,"107":-0.672394871711731,"108":0.09989483654499054,"109":-1.256648302078247,"110":-0.26411086320877075,"111":0.18318620324134827,"112":0.43043938279151917,"113":-0.991866946220398,"114":0.6962559223175049,"115":0.6510314345359802,"116":-0.7872896790504456,"117":0.06359978765249252,"118":-0.09704408794641495,"119":-0.7566599249839783,"120":1.1883549690246582,"121":0.3986995816230774,"122":-0.16106870770454407,"123":-0.12058497965335846,"124":0.7515734434127808,"125":0.4571884572505951,"126":0.40160423517227173,"127":-1.144929051399231,"128":-1.4840738773345947,"129":-0.4704412519931793,"130":-0.6961466073989868,"131":0.4918334186077118,"132":-0.2408236265182495,"133":0.11780599504709244,"134":0.828058123588562,"135":0.6992344856262207,"136":-0.0050695184618234634,"137":-0.2749474048614502,"138":0.06959347426891327,"139":-0.37287190556526184,"140":0.5563085079193115,"141":1.2205218076705933,"142":-0.6935526728630066,"143":0.16237986087799072,"144":1.5709868669509888}},"7":{"bias":0.9044349789619446,"weights":{"0":-0.8905673027038574,"1":-0.6186150908470154,"2":0.23974600434303284,"3":0.2642020583152771,"4":-0.5133167505264282,"5":0.5769641995429993,"6":-0.3240809738636017,"7":0.6925341486930847,"8":-0.8263007998466492,"9":-0.11429724842309952,"10":-0.24512779712677002,"11":0.07378637045621872,"12":0.2055402398109436,"13":0.3054257035255432,"14":-0.0642443522810936,"15":-0.29080039262771606,"16":1.0229747295379639,"17":-0.4031061828136444,"18":-0.544069766998291,"19":0.5146806240081787,"20":0.006261421833187342,"21":0.34009572863578796,"22":0.18350499868392944,"23":0.7289472818374634,"24":0.31351369619369507,"25":-0.1371094286441803,"26":-0.2555576264858246,"27":-0.26601213216781616,"28":0.1475265473127365,"29":0.5190888047218323,"30":0.2602008581161499,"31":0.6491552591323853,"32":-0.9056367874145508,"33":-0.19296656548976898,"34":0.41692280769348145,"35":-0.21064472198486328,"36":-1.0331275463104248,"37":0.3372025191783905,"38":-0.48198264837265015,"39":-0.10117502510547638,"40":-0.05499405786395073,"41":-0.13057801127433777,"42":-0.2665758728981018,"43":0.40922603011131287,"44":-0.2610543966293335,"45":0.7185143828392029,"46":-0.4278799295425415,"47":-0.8431590795516968,"48":0.08655160665512085,"49":-1.2322413921356201,"50":0.8788227438926697,"51":-0.3037138879299164,"52":-0.13545379042625427,"53":-0.42448392510414124,"54":0.6247838139533997,"55":-0.4296133518218994,"56":-0.6102863550186157,"57":-0.5677098035812378,"58":0.5284199714660645,"59":0.4915720820426941,"60":0.7916039228439331,"61":0.0359187014400959,"62":-0.19517149031162262,"63":0.47523096203804016,"64":-0.7484172582626343,"65":-0.3211134374141693,"66":0.12614993751049042,"67":-0.9280863404273987,"68":-0.12082993984222412,"69":-0.6033571362495422,"70":0.7325939536094666,"71":0.203835591673851,"72":-0.0502944253385067,"73":-0.2683890461921692,"74":0.3101990222930908,"75":-0.2807917594909668,"76":0.9186612367630005,"77":0.5382394790649414,"78":0.1852307915687561,"79":0.7101263403892517,"80":-1.6641556024551392,"81":1.0499216318130493,"82":0.08114822953939438,"83":-1.5001895427703857,"84":-0.5108462572097778,"85":-1.450538992881775,"86":-0.13563716411590576,"87":-1.097008228302002,"88":1.2008944749832153,"89":-0.38366904854774475,"90":-0.5395930409431458,"91":-0.971839964389801,"92":0.6097294688224792,"93":1.0642300844192505,"94":-0.6970179080963135,"95":0.06645221263170242,"96":0.6966734528541565,"97":0.6013548970222473,"98":-1.0994309186935425,"99":0.2893524467945099,"100":-0.2837097942829132,"101":-0.24517019093036652,"102":-0.27846652269363403,"103":0.2645111680030823,"104":0.37481191754341125,"105":-0.45440754294395447,"106":0.954037606716156,"107":-0.10550903528928757,"108":-0.8129676580429077,"109":1.8359969854354858,"110":0.3668346703052521,"111":0.18752656877040863,"112":0.18761250376701355,"113":-0.4138922691345215,"114":0.21353058516979218,"115":0.09084709733724594,"116":-0.14440971612930298,"117":0.05838177725672722,"118":0.14990518987178802,"119":-0.7517788410186768,"120":-0.23899491131305695,"121":0.40879976749420166,"122":-0.07477203011512756,"123":-0.7784083485603333,"124":-0.6073533296585083,"125":0.17457984387874603,"126":-0.9085046052932739,"127":-2.0865206718444824,"128":0.32259154319763184,"129":1.1809430122375488,"130":-0.24406571686267853,"131":-0.6279563903808594,"132":0.42812371253967285,"133":0.07015301287174225,"134":0.31747564673423767,"135":1.1828311681747437,"136":0.8877238035202026,"137":-1.364174723625183,"138":1.0783848762512207,"139":0.8110418319702148,"140":0.027178902179002762,"141":-1.1742885112762451,"142":-0.2854168117046356,"143":-0.12320592999458313,"144":-0.26535704731941223}}},{"0":{"bias":-0.38096585869789124,"weights":{"0":0.4796268045902252,"1":-0.05048558861017227,"2":0.6386130452156067,"3":-0.3518461287021637,"4":0.5402588248252869,"5":-0.5894256234169006,"6":0.09294945001602173,"7":-0.7565709948539734}},"1":{"bias":1.9689264297485352,"weights":{"0":4.830472469329834,"1":4.8838348388671875,"2":5.373274803161621,"3":-4.760634422302246,"4":5.040905952453613,"5":-6.414153575897217,"6":5.893716335296631,"7":-5.083106994628906}},"2":{"bias":0.13862043619155884,"weights":{"0":0.6778693795204163,"1":-0.01227773167192936,"2":1.2823642492294312,"3":-0.543364942073822,"4":0.9452211856842041,"5":-0.8835312128067017,"6":0.7293686866760254,"7":-0.07043025642633438}},"3":{"bias":-0.2649356722831726,"weights":{"0":-0.1383117139339447,"1":0.25632306933403015,"2":-0.08910967409610748,"3":-0.16830697655677795,"4":0.13462619483470917,"5":0.1673218011856079,"6":-0.22708985209465027,"7":-1.434875249862671}},"4":{"bias":0.4927162230014801,"weights":{"0":0.2554517984390259,"1":0.9209851026535034,"2":0.17108900845050812,"3":-0.07214497029781342,"4":0.4099743962287903,"5":0.34362903237342834,"6":0.9975895881652832,"7":0.3015846610069275}},"5":{"bias":-0.35318294167518616,"weights":{"0":0.6476213335990906,"1":0.014942030422389507,"2":0.6352932453155518,"3":-0.36007004976272583,"4":0.3923399746417999,"5":-0.7503782510757446,"6":0.35308653116226196,"7":-0.589101254940033}},"6":{"bias":-0.2647674083709717,"weights":{"0":0.10298935323953629,"1":-0.01841665618121624,"2":0.21735511720180511,"3":-0.34647655487060547,"4":0.275425523519516,"5":-0.277248740196228,"6":0.08393478393554688,"7":-0.42252182960510254}},"7":{"bias":-0.29231545329093933,"weights":{"0":0.07844822853803635,"1":0.2045411765575409,"2":0.1799425333738327,"3":-0.368857204914093,"4":0.31513911485671997,"5":-0.4215832054615021,"6":0.29245227575302124,"7":-0.5351900458335876}}},{"0":{"bias":3.0331904888153076,"weights":{"0":0.6832813024520874,"1":-7.87288761138916,"2":-0.004349281545728445,"3":1.493871808052063,"4":1.929844617843628,"5":0.719101071357727,"6":0.7932404279708862,"7":0.8693286180496216}}}],"outputLookup":true,"inputLookup":true,"activation":"sigmoid","trainOpts":{"iterations":20000,"errorThresh":0.003,"log":true,"logPeriod":10,"learningRate":0.05,"momentum":0.1,"callbackPeriod":10,"beta1":0.9,"beta2":0.999,"epsilon":1e-8}}