{"sizes":[145,8,8,1],"layers":[{"0":{},"1":{},"2":{},"3":{},"4":{},"5":{},"6":{},"7":{},"8":{},"9":{},"10":{},"11":{},"12":{},"13":{},"14":{},"15":{},"16":{},"17":{},"18":{},"19":{},"20":{},"21":{},"22":{},"23":{},"24":{},"25":{},"26":{},"27":{},"28":{},"29":{},"30":{},"31":{},"32":{},"33":{},"34":{},"35":{},"36":{},"37":{},"38":{},"39":{},"40":{},"41":{},"42":{},"43":{},"44":{},"45":{},"46":{},"47":{},"48":{},"49":{},"50":{},"51":{},"52":{},"53":{},"54":{},"55":{},"56":{},"57":{},"58":{},"59":{},"60":{},"61":{},"62":{},"63":{},"64":{},"65":{},"66":{},"67":{},"68":{},"69":{},"70":{},"71":{},"72":{},"73":{},"74":{},"75":{},"76":{},"77":{},"78":{},"79":{},"80":{},"81":{},"82":{},"83":{},"84":{},"85":{},"86":{},"87":{},"88":{},"89":{},"90":{},"91":{},"92":{},"93":{},"94":{},"95":{},"96":{},"97":{},"98":{},"99":{},"100":{},"101":{},"102":{},"103":{},"104":{},"105":{},"106":{},"107":{},"108":{},"109":{},"110":{},"111":{},"112":{},"113":{},"114":{},"115":{},"116":{},"117":{},"118":{},"119":{},"120":{},"121":{},"122":{},"123":{},"124":{},"125":{},"126":{},"127":{},"128":{},"129":{},"130":{},"131":{},"132":{},"133":{},"134":{},"135":{},"136":{},"137":{},"138":{},"139":{},"140":{},"141":{},"142":{},"143":{},"144":{}},{"0":{"bias":0.10336325317621231,"weights":{"0":1.5977227687835693,"1":-1.4112555980682373,"2":2.5757744312286377,"3":0.104983389377594,"4":0.024896932765841484,"5":0.0011822483502328396,"6":0.9667805433273315,"7":1.7290112972259521,"8":1.3189544677734375,"9":-0.11976773291826248,"10":0.14011724293231964,"11":0.23955242335796356,"12":1.2675951719284058,"13":0.15586833655834198,"14":-0.9462980628013611,"15":-0.6206668019294739,"16":0.47942429780960083,"17":1.680363416671753,"18":-2.3656680583953857,"19":-0.9854583740234375,"20":1.29179048538208,"21":-0.03939251974225044,"22":-0.6239945292472839,"23":-0.4684275984764099,"24":-0.6547420024871826,"25":0.5999751687049866,"26":-0.126570463180542,"27":-0.2541731297969818,"28":-1.7188160419464111,"29":-0.4186173677444458,"30":0.8800470232963562,"31":-0.1346115916967392,"32":-0.4292142689228058,"33":1.8530040979385376,"34":-0.11363114416599274,"35":1.7676169872283936,"36":-0.9355335831642151,"37":1.212074875831604,"38":1.6241543292999268,"39":-0.18663236498832703,"40":-0.5290191769599915,"41":0.3001928925514221,"42":-0.8886786699295044,"43":0.28198152780532837,"44":0.89553302526474,"45":0.21381776034832,"46":0.651437520980835,"47":0.9178151488304138,"48":0.1841886192560196,"49":-0.8638051152229309,"50":-0.010522939264774323,"51":2.3136515617370605,"52":0.18228065967559814,"53":0.4760982394218445,"54":0.40472733974456787,"55":0.153096005320549,"56":-0.37616240978240967,"57":0.34531843662261963,"58":0.19094523787498474,"59":-0.5388844609260559,"60":-0.6268852949142456,"61":0.7920600771903992,"62":-0.8750057220458984,"63":0.09259377419948578,"64":-0.3198723793029785,"65":-0.43199536204338074,"66":-0.6861408352851868,"67":1.173021674156189,"68":0.5248509049415588,"69":0.774654746055603,"70":-1.9544559717178345,"71":0.4973407983779907,"72":-0.24492798745632172,"73":0.12339819967746735,"74":0.14116455614566803,"75":0.5330041646957397,"76":-0.963273823261261,"77":-0.011932735331356525,"78":0.8615210652351379,"79":-0.08248632401227951,"80":2.7929842472076416,"81":-1.359547734260559,"82":-1.1822868585586548,"83":1.4788708686828613,"84":0.04335607960820198,"85":-1.6764887571334839,"86":-0.7155441641807556,"87":0.08774168789386749,"88":1.2859652042388916,"89":-0.2629770040512085,"90":0.6036582589149475,"91":0.7143895626068115,"92":-0.06008387729525566,"93":-0.6544016003608704,"94":-1.5969159603118896,"95":0.6886255741119385,"96":-0.21683833003044128,"97":-1.3569387197494507,"98":0.08937682956457138,"99":-0.8881120085716248,"100":0.2496427595615387,"101":-1.0595484972000122,"102":-0.14381536841392517,"103":0.27294954657554626,"104":-1.0862585306167603,"105":0.3692761957645416,"106":0.19476814568042755,"107":0.5812624096870422,"108":-1.1385905742645264,"109":0.31011834740638733,"110":-0.6381598114967346,"111":-1.2852473258972168,"112":-0.35716918110847473,"113":0.794585108757019,"114":-0.9780674576759338,"115":-1.1519525051116943,"116":1.3608834743499756,"117":-0.6508492827415466,"118":0.2762760519981384,"119":0.6057400703430176,"120":0.6335040330886841,"121":-0.03815305233001709,"122":-2.0884060859680176,"123":1.729640007019043,"124":-0.19316299259662628,"125":0.18084736168384552,"126":-1.1063177585601807,"127":0.21809284389019012,"128":-0.2504574954509735,"129":-2.326666831970215,"130":-1.1247235536575317,"131":0.16174978017807007,"132":-0.2151130735874176,"133":0.7090772986412048,"134":1.646290898323059,"135":-1.2240345478057861,"136":0.15886981785297394,"137":1.2602190971374512,"138":0.7395316958427429,"139":0.4911421537399292,"140":0.26688602566719055,"141":-0.443387895822525,"142":1.2587496042251587,"143":-0.6490620970726013,"144":1.772363543510437}},"1":{"bias":1.2584567070007324,"weights":{"0":1.4664950370788574,"1":0.8816247582435608,"2":-1.4738950729370117,"3":-0.0098465820774436,"4":0.041812051087617874,"5":-0.3260459005832672,"6":-0.08031126856803894,"7":0.3016662895679474,"8":0.6599379181861877,"9":0.7438315153121948,"10":0.18156534433364868,"11":-0.06278389692306519,"12":0.3082408010959625,"13":0.04362007975578308,"14":0.8609544634819031,"15":-0.18422327935695648,"16":0.441744327545166,"17":-0.21139872074127197,"18":-0.6645915508270264,"19":0.11115109175443649,"20":0.11602665483951569,"21":-1.3764159679412842,"22":0.9502395391464233,"23":0.22971896827220917,"24":-1.323266625404358,"25":-0.8784961104393005,"26":0.006344562862068415,"27":0.6419891119003296,"28":-0.525118350982666,"29":-0.2460661679506302,"30":-0.3595447838306427,"31":0.2604038715362549,"32":1.0174700021743774,"33":2.492690324783325,"34":-0.18543295562267303,"35":0.7208665013313293,"36":0.9598666429519653,"37":-0.44181305170059204,"38":1.2517110109329224,"39":1.1791386604309082,"40":-0.6340948939323425,"41":0.5174240469932556,"42":-0.30562877655029297,"43":0.7266028523445129,"44":-0.2993994951248169,"45":0.28868958353996277,"46":0.009442843496799469,"47":0.37316370010375977,"48":-0.9734879732131958,"49":0.47502583265304565,"50":-2.2507407665252686,"51":-0.6423868536949158,"52":-0.08940818905830383,"53":-1.3686877489089966,"54":-0.8145876526832581,"55":-0.018526311963796616,"56":1.4799505472183228,"57":-0.4466530978679657,"58":0.11117879301309586,"59":-0.8981133103370667,"60":0.32659080624580383,"61":0.07706849277019501,"62":-0.7122393846511841,"63":-0.11530115455389023,"64":-1.9909005165100098,"65":0.8145491480827332,"66":1.1918691396713257,"67":0.49554476141929626,"68":0.7189874649047852,"69":-1.4159036874771118,"70":-0.31541746854782104,"71":1.0806463956832886,"72":0.6456327438354492,"73":-0.24494144320487976,"74":0.3229919970035553,"75":-0.3069137930870056,"76":-0.2664184868335724,"77":-0.4244600832462311,"78":0.19120454788208008,"79":-1.5049448013305664,"80":1.3807774782180786,"81":0.8488131165504456,"82":0.18149332702159882,"83":-0.6966980695724487,"84":-0.10901099443435669,"85":1.4090043306350708,"86":0.03613380342721939,"87":-0.5043823719024658,"88":-1.8456987142562866,"89":0.7112169861793518,"90":1.0792921781539917,"91":-0.8472393751144409,"92":-0.20595909655094147,"93":-1.7162339687347412,"94":1.1470521688461304,"95":-0.39537447690963745,"96":-1.0988821983337402,"97":-0.16767257452011108,"98":-2.0753862857818604,"99":0.20046401023864746,"100":-0.6572132110595703,"101":-1.0229672193527222,"102":0.5028554201126099,"103":0.18960528075695038,"104":1.00975501537323,"105":-0.4661716818809509,"106":-0.5464689135551453,"107":1.6969465017318726,"108":1.1358168125152588,"109":-1.442182183265686,"110":0.125657856464386,"111":-0.07986760884523392,"112":1.0523253679275513,"113":-0.20454713702201843,"114":-0.3286362886428833,"115":-1.296875238418579,"116":-1.2792612314224243,"117":1.7607492208480835,"118":0.03451071307063103,"119":0.539681613445282,"120":-0.05210665240883827,"121":-0.3869709074497223,"122":1.1323555707931519,"123":-2.235950231552124,"124":-0.9181880354881287,"125":-0.04734782129526138,"126":0.8321658372879028,"127":-2.989872455596924,"128":-1.2898051738739014,"129":-0.06290296465158463,"130":1.6811845302581787,"131":1.3990802764892578,"132":0.10224734991788864,"133":0.41886067390441895,"134":-0.6236748695373535,"135":0.5394845604896545,"136":-0.5074975490570068,"137":1.0988739728927612,"138":-1.0771132707595825,"139":0.7702807188034058,"140":0.8196117877960205,"141":0.8720036149024963,"142":-0.29965105652809143,"143":0.8979398012161255,"144":-0.24049969017505646}},"2":{"bias":0.8110097646713257,"weights":{"0":2.0510716438293457,"1":-0.1134447455406189,"2":-2.100668430328369,"3":-0.5057872533798218,"4":-1.2018578052520752,"5":0.16421668231487274,"6":1.2106479406356812,"7":-0.372539222240448,"8":-1.0139760971069336,"9":0.24040819704532623,"10":0.9736430644989014,"11":0.2615181803703308,"12":0.7240257263183594,"13":0.03408893942832947,"14":0.7146185636520386,"15":-0.3192565143108368,"16":-0.5027604699134827,"17":0.35207194089889526,"18":1.1542760133743286,"19":-0.1787751466035843,"20":0.060377102345228195,"21":0.2610853314399719,"22":0.3385659158229828,"23":0.1742047220468521,"24":-0.50365149974823,"25":-0.03422050550580025,"26":-1.0573267936706543,"27":-0.023742184042930603,"28":-0.2892870604991913,"29":1.0921928882598877,"30":0.5168718099594116,"31":-0.18857641518115997,"32":1.0715550184249878,"33":-0.08385888487100601,"34":0.2063249796628952,"35":-1.2653558254241943,"36":1.261186122894287,"37":-0.2175956666469574,"38":-0.2232799082994461,"39":-0.3599085509777069,"40":-0.3316861391067505,"41":-0.39986205101013184,"42":0.5397233366966248,"43":-0.7698971033096313,"44":0.017116034403443336,"45":-0.6133760809898376,"46":-0.06405147910118103,"47":-1.219803810119629,"48":0.039095744490623474,"49":1.1905603408813477,"50":2.4335248470306396,"51":0.6708575487136841,"52":-0.854500412940979,"53":-1.1780444383621216,"54":0.7134289741516113,"55":-0.5795511603355408,"56":-0.2775552272796631,"57":-0.002440333366394043,"58":-0.6787062883377075,"59":0.8019000887870789,"60":-1.6233322620391846,"61":0.4943976402282715,"62":2.4777748584747314,"63":-0.2839905023574829,"64":0.35435259342193604,"65":2.531564235687256,"66":0.79554283618927,"67":0.3323911428451538,"68":1.1619131565093994,"69":-0.7267772555351257,"70":0.15981730818748474,"71":0.4079340100288391,"72":0.2723348140716553,"73":0.5960291028022766,"74":0.16631440818309784,"75":-0.09263573586940765,"76":-2.133713960647583,"77":1.1753902435302734,"78":-1.900560736656189,"79":0.4668949544429779,"80":-2.4372849464416504,"81":0.8692322969436646,"82":0.687213659286499,"83":-0.017831839621067047,"84":-0.5862228274345398,"85":0.1347227543592453,"86":0.6144654154777527,"87":-0.6155920624732971,"88":0.5153641104698181,"89":-1.868220567703247,"90":0.8961655497550964,"91":-2.1985480785369873,"92":0.06692372262477875,"93":-0.3462931513786316,"94":1.7489509582519531,"95":1.0325514078140259,"96":0.28869953751564026,"97":0.2059493511915207,"98":-1.5295863151550293,"99":-0.8330584168434143,"100":-0.21123409271240234,"101":1.011088252067566,"102":-0.4569781720638275,"103":0.4270613193511963,"104":-0.5158728957176208,"105":0.9912174940109253,"106":0.08756418526172638,"107":-0.6961528062820435,"108":0.29166606068611145,"109":2.016055107116699,"110":0.1540236473083496,"111":-0.49105364084243774,"112":0.5506874322891235,"113":-0.2709079384803772,"114":0.8343162536621094,"115":-0.3333071768283844,"116":-0.7025617361068726,"117":0.45427393913269043,"118":-2.034844398498535,"119":-0.4088410437107086,"120":-0.18048104643821716,"121":0.1532171070575714,"122":1.204046368598938,"123":-0.3050365447998047,"124":0.897778332233429,"125":-0.590665876865387,"126":-0.7392366528511047,"127":-0.8008065819740295,"128":-0.8644154071807861,"129":0.23330335319042206,"130":-0.8685201406478882,"131":0.4829162359237671,"132":0.6736494898796082,"133":1.2137620449066162,"134":0.6562917828559875,"135":-1.1019997596740723,"136":-0.41496512293815613,"137":0.694027304649353,"138":-0.1087244302034378,"139":0.4643011689186096,"140":0.25238803029060364,"141":0.5608955025672913,"142":0.1144639104604721,"143":-0.24330759048461914,"144":0.40830060839653015}},"3":{"bias":-1.9198006391525269,"weights":{"0":1.5387227535247803,"1":0.32136645913124084,"2":-1.1957324743270874,"3":0.8609327077865601,"4":-0.058713044971227646,"5":0.23709535598754883,"6":0.23529331386089325,"7":-0.12882189452648163,"8":-0.29793140292167664,"9":0.41475892066955566,"10":0.16173489391803741,"11":0.0014980518026277423,"12":0.4610544443130493,"13":-0.6659632921218872,"14":-1.0303899049758911,"15":0.07171304523944855,"16":1.478250503540039,"17":-0.6712861657142639,"18":1.1407365798950195,"19":0.19532997906208038,"20":0.29570308327674866,"21":0.3508954346179962,"22":0.9293220043182373,"23":-1.2704963684082031,"24":-0.12732431292533875,"25":1.0649362802505493,"26":-0.07090944051742554,"27":-1.8431531190872192,"28":-0.07302986830472946,"29":0.4796559810638428,"30":-0.6609100103378296,"31":0.08005852997303009,"32":1.7802560329437256,"33":-1.6344908475875854,"34":0.4549850523471832,"35":-0.7764309048652649,"36":0.6241247653961182,"37":-0.14293789863586426,"38":-0.2909802198410034,"39":0.14244940876960754,"40":-0.28723374009132385,"41":2.3499815464019775,"42":0.1185506209731102,"43":1.0835239887237549,"44":-0.57485431432724,"45":-0.6696240305900574,"46":-0.3728284537792206,"47":0.2704114317893982,"48":0.7708892226219177,"49":-2.037750244140625,"50":0.8839722275733948,"51":0.5152536034584045,"52":-0.008840424939990044,"53":1.0556461811065674,"54":-0.9464545249938965,"55":0.2450484037399292,"56":-1.7544875144958496,"57":0.08689264953136444,"58":-0.1720869541168213,"59":-0.28449225425720215,"60":-3.4130916595458984,"61":-0.1913924664258957,"62":-0.9135238528251648,"63":0.6161980628967285,"64":1.380318284034729,"65":0.9951673150062561,"66":-1.0497198104858398,"67":-0.31543922424316406,"68":0.583716094493866,"69":0.9720240831375122,"70":0.7010029554367065,"71":-1.260064959526062,"72":0.1626720279455185,"73":-0.05990307778120041,"74":-1.060711145401001,"75":0.1860087513923645,"76":-0.6472944617271423,"77":-0.2727949619293213,"78":-0.0840114951133728,"79":1.4386372566223145,"80":-0.17661075294017792,"81":-0.2243180274963379,"82":-0.24852129817008972,"83":-1.8580093383789062,"84":0.29378393292427063,"85":-1.8989076614379883,"86":-0.1331060379743576,"87":-1.669649600982666,"88":0.11005895584821701,"89":-2.7179782390594482,"90":-0.44660699367523193,"91":-0.8127343058586121,"92":0.560499906539917,"93":-1.8642245531082153,"94":0.9467654824256897,"95":-0.2927090525627136,"96":-0.385174423456192,"97":-0.20669525861740112,"98":-0.1041063591837883,"99":0.23624247312545776,"100":-1.4371446371078491,"101":-0.015153602696955204,"102":-0.15507300198078156,"103":-0.04506229981780052,"104":0.36382731795310974,"105":-0.5574190616607666,"106":-0.690467119216919,"107":-1.1517916917800903,"108":-0.5879016518592834,"109":-0.08878614008426666,"110":-0.6175605058670044,"111":0.1280078887939453,"112":-0.6906488537788391,"113":0.02016689069569111,"114":-0.04192342236638069,"115":-1.2512375116348267,"116":-0.54014652967453,"117":0.581886351108551,"118":-0.5565413236618042,"119":0.11174449324607849,"120":1.5009156465530396,"121":0.42451855540275574,"122":0.657490611076355,"123":3.1860833168029785,"124":-1.6013484001159668,"125":-0.23003210127353668,"126":-1.2378016710281372,"127":1.012446403503418,"128":0.5806528925895691,"129":0.06690654903650284,"130":-0.07089871168136597,"131":0.8829245567321777,"132":-0.23181898891925812,"133":-0.3752579092979431,"134":0.016139592975378036,"135":0.3000105321407318,"136":0.44697627425193787,"137":1.1714978218078613,"138":-0.554098904132843,"139":-1.2394877672195435,"140":0.14191842079162598,"141":0.6864002346992493,"142":-0.18330717086791992,"143":-0.004329514689743519,"144":-0.5029373168945312}},"4":{"bias":0.5449731945991516,"weights":{"0":0.7412493228912354,"1":0.39047834277153015,"2":0.5090119242668152,"3":-0.4319020211696625,"4":1.7222044467926025,"5":-0.02829456515610218,"6":-1.2697820663452148,"7":-1.902403473854065,"8":-0.4519726634025574,"9":-0.5619996190071106,"10":-0.08264516294002533,"11":-0.027958588674664497,"12":-1.200382113456726,"13":0.22444835305213928,"14":0.49500542879104614,"15":-0.04836246743798256,"16":-0.4710615277290344,"17":0.7503573894500732,"18":-0.5125221014022827,"19":-1.2956756353378296,"20":-0.6195007562637329,"21":0.15736903250217438,"22":-2.017906904220581,"23":-0.2793133556842804,"24":-0.4284748136997223,"25":0.7045828700065613,"26":-1.1405495405197144,"27":-0.17371544241905212,"28":1.3068102598190308,"29":-0.7207680344581604,"30":-1.371960997581482,"31":-1.1202590465545654,"32":-0.2724387049674988,"33":-0.9069558382034302,"34":0.16378509998321533,"35":0.6870758533477783,"36":-0.2685061991214752,"37":1.114372730255127,"38":-0.8338750600814819,"39":0.6854645609855652,"40":0.3863751292228699,"41":-0.11549494415521622,"42":-0.36173272132873535,"43":0.04110514372587204,"44":0.12092383205890656,"45":-0.44385644793510437,"46":-0.4318544864654541,"47":0.9048171043395996,"48":0.21702004969120026,"49":-0.9248539805412292,"50":-0.3466997444629669,"51":-1.8541597127914429,"52":1.393908143043518,"53":1.9591912031173706,"54":0.13707076013088226,"55":-1.0164523124694824,"56":-0.6700833439826965,"57":-1.0058016777038574,"58":-0.353344589471817,"59":0.23766809701919556,"60":-0.18249882757663727,"61":-0.6671663522720337,"62":-1.8295022249221802,"63":-0.3392122983932495,"64":-0.5413330793380737,"65":-1.1408946514129639,"66":-1.7328948974609375,"67":-0.4852801561355591,"68":0.4236701428890228,"69":-0.006667577661573887,"70":0.8325657248497009,"71":1.0008823871612549,"72":0.7498507499694824,"73":0.37364548444747925,"74":-0.1987256556749344,"75":-0.788569450378418,"76":2.0419554710388184,"77":0.44362857937812805,"78":0.6931047439575195,"79":0.31164416670799255,"80":-0.34207597374916077,"81":-0.8618303537368774,"82":-1.8967678546905518,"83":-0.36066725850105286,"84":-0.8939047455787659,"85":1.7769739627838135,"86":0.35612472891807556,"87":-0.012497417628765106,"88":-0.4160899817943573,"89":0.8775520920753479,"90":-0.32031771540641785,"91":1.631710410118103,"92":-0.16402387619018555,"93":0.1433127075433731,"94":0.6433872580528259,"95":-0.07139654457569122,"96":-0.8611047267913818,"97":-0.5825035572052002,"98":0.36576300859451294,"99":0.5660479068756104,"100":-2.0526068210601807,"101":-2.155808210372925,"102":0.15098033845424652,"103":-0.15215399861335754,"104":-1.5773757696151733,"105":-1.3642973899841309,"106":1.3052977323532104,"107":1.5909045934677124,"108":0.8625471591949463,"109":-2.317793369293213,"110":-0.30527499318122864,"111":0.104520782828331,"112":1.3765698671340942,"113":0.03983315825462341,"114":0.7407494783401489,"115":0.13450507819652557,"116":-1.1894917488098145,"117":-0.5393782258033752,"118":0.3382929265499115,"119":-0.05364379286766052,"120":1.2734863758087158,"121":0.05088609457015991,"122":-0.24579234421253204,"123":1.2839927673339844,"124":1.2821080684661865,"125":0.2857108414173126,"126":1.1891157627105713,"127":-0.666143000125885,"128":0.4712775647640228,"129":-0.06805182993412018,"130":0.9793664216995239,"131":-0.14725667238235474,"132":0.3887327015399933,"133":0.055314358323812485,"134":-0.5922147035598755,"135":-0.5250784158706665,"136":1.364269495010376,"137":0.6463159322738647,"138":-1.2253713607788086,"139":-0.23978273570537567,"140":-1.401206612586975,"141":-0.2701698839664459,"142":0.38131973147392273,"143":1.2079713344573975,"144":-1.468359351158142}},"5":{"bias":-1.7379106283187866,"weights":{"0":0.11078666895627975,"1":-0.96696537733078,"2":0.5166871547698975,"3":-0.8883766531944275,"4":-0.4063468277454376,"5":-0.1768365353345871,"6":-0.7175338268280029,"7":-0.49073341488838196,"8":-0.8131546974182129,"9":-0.31314578652381897,"10":1.340121865272522,"11":0.17886283993721008,"12":0.8242383003234863,"13":-0.007635279558598995,"14":-1.3790761232376099,"15":0.6639279127120972,"16":-0.31323954463005066,"17":-0.16982252895832062,"18":-0.07167018204927444,"19":0.6330413222312927,"20":1.4232423305511475,"21":-0.0036721904762089252,"22":-1.5727535486221313,"23":-0.8268436193466187,"24":0.6220186352729797,"25":0.4064539670944214,"26":0.3122616112232208,"27":0.09211424738168716,"28":0.38956382870674133,"29":-0.8200932145118713,"30":0.5753980875015259,"31":0.7120662927627563,"32":-0.1312231868505478,"33":-0.012345334514975548,"34":-0.36550846695899963,"35":-0.3901435136795044,"36":0.08437879383563995,"37":1.1214977502822876,"38":-0.34459754824638367,"39":0.1166168674826622,"40":-1.451144814491272,"41":-0.25895655155181885,"42":-0.18994781374931335,"43":0.03609399497509003,"44":0.14200519025325775,"45":-1.0923365354537964,"46":0.5927348732948303,"47":-0.8231309652328491,"48":0.42310500144958496,"49":1.7230143547058105,"50":0.9721509218215942,"51":-0.7061347961425781,"52":-1.0982410907745361,"53":-0.1393691599369049,"54":0.7294864058494568,"55":0.22750523686408997,"56":0.07769661396741867,"57":-0.3940293788909912,"58":0.04995698854327202,"59":0.691138505935669,"60":-0.4319865107536316,"61":0.5826587677001953,"62":1.4057464599609375,"63":-0.091595858335495,"64":1.6646040678024292,"65":0.05016891285777092,"66":1.280664086341858,"67":-0.28090786933898926,"68":0.2595500648021698,"69":0.5341281890869141,"70":-0.6320239901542664,"71":0.39888131618499756,"72":1.0374910831451416,"73":-0.1113431379199028,"74":0.5217148661613464,"75":0.13185515999794006,"76":0.884691596031189,"77":-0.28524354100227356,"78":-0.16003866493701935,"79":0.45049741864204407,"80":-1.427721619606018,"81":-1.4041262865066528,"82":-0.9715445637702942,"83":-0.19526410102844238,"84":0.06368754059076309,"85":-0.01689353585243225,"86":-0.3682827949523926,"87":0.5679123997688293,"88":0.7232446670532227,"89":-0.8501010537147522,"90":0.24957916140556335,"91":-1.6009043455123901,"92":-0.4254607558250427,"93":0.0691358745098114,"94":0.9571177959442139,"95":-0.12115440517663956,"96":-0.15578845143318176,"97":-0.211231529712677,"98":-0.47573694586753845,"99":0.1368430107831955,"100":-1.246185541152954,"101":-0.45854243636131287,"102":0.3622097373008728,"103":0.01657903753221035,"104":0.3857657313346863,"105":0.12191825360059738,"106":-0.2395750731229782,"107":-0.24990104138851166,"108":-0.7722169160842896,"109":0.6589345932006836,"110":-1.281517744064331,"111":0.5519348978996277,"112":2.1062676906585693,"113":0.03420550003647804,"114":0.04708000645041466,"115":0.1680966168642044,"116":0.22989270091056824,"117":-1.0912156105041504,"118":1.3690272569656372,"119":-0.6362743973731995,"120":0.775755763053894,"121":-0.07758041471242905,"122":-0.8244848251342773,"123":0.36352577805519104,"124":0.18121492862701416,"125":-0.20304463803768158,"126":-0.08783052116632462,"127":2.06477952003479,"128":-1.1884818077087402,"129":-0.03836579620838165,"130":-0.6712496280670166,"131":0.18128789961338043,"132":-0.698505163192749,"133":-0.8846263885498047,"134":-0.3242974579334259,"135":0.46211931109428406,"136":0.5657538175582886,"137":-0.4413031041622162,"138":-0.5607236623764038,"139":-1.504500389099121,"140":-0.8225560188293457,"141":0.46116212010383606,"142":-0.24606212973594666,"143":0.9066108465194702,"144":-0.9778591394424438}},"6":{"bias":0.3839656114578247,"weights":{"0":1.7875622510910034,"1":-0.6430287957191467,"2":-0.2387927919626236,"3":-0.9225903749465942,"4":0.8641604781150818,"5":0.04279495030641556,"6":1.994160771369934,"7":-0.36571815609931946,"8":-0.6827100515365601,"9":-0.1599350869655609,"10":1.1120365858078003,"11":0.658360481262207,"12":-0.17943687736988068,"13":-0.39392155408859253,"14":2.17948842048645,"15":-0.2217371016740799,"16":-1.420231819152832,"17":-0.8060749769210815,"18":-0.3896446228027344,"19":-0.09450216591358185,"20":0.7984171509742737,"21":0.3899599313735962,"22":-1.4464070796966553,"23":1.0039277076721191,"24":1.0316493511199951,"25":-0.44108298420906067,"26":0.40841129422187805,"27":-0.19824586808681488,"28":0.24393711984157562,"29":-0.008211632259190083,"30":-0.14089713990688324,"31":-0.4228411018848419,"32":-0.4339704215526581,"33":-0.3680124878883362,"34":-0.2871975898742676,"35":-0.3163555860519409,"36":-0.13757500052452087,"37":-0.5630509853363037,"38":1.018216609954834,"39":0.1111326515674591,"40":-1.1181762218475342,"41":-1.0863279104232788,"42":-0.1584450602531433,"43":-0.9639091491699219,"44":-0.814363956451416,"45":0.27284136414527893,"46":-0.7349048256874084,"47":0.9235872030258179,"48":-0.258308082818985,"49":-1.043208360671997,"50":2.889338254928589,"51":2.462510824203491,"52":0.5376226305961609,"53":0.49257728457450867,"54":-0.18780744075775146,"55":0.259606271982193,"56":-2.40278697013855,"57":-0.16642044484615326,"58":0.6366675496101379,"59":0.31639450788497925,"60":-0.12662482261657715,"61":0.5102179646492004,"62":0.38409531116485596,"63":0.18457767367362976,"64":-0.6878067851066589,"65":-0.279867559671402,"66":0.0269686970859766,"67":-0.0235120952129364,"68":0.056862298399209976,"69":0.271535187959671,"70":-0.6408869624137878,"71":1.7119396924972534,"72":-0.2299918681383133,"73":0.11825887113809586,"74":-0.13505974411964417,"75":0.016334908083081245,"76":0.9000756740570068,"77":0.02248350717127323,"78":-1.0073175430297852,"79":0.09876944124698639,"80":-0.004639924503862858,"81":0.46912693977355957,"82":0.45241081714630127,"83":-0.0656208023428917,"84":0.2429654598236084,"85":0.6484670639038086,"86":0.6019052863121033,"87":-1.2483980655670166,"88":0.704627275466919,"89":0.8839784860610962,"90":-0.053930532187223434,"91":-0.4623472988605499,"92":0.036423347890377045,"93":0.10284052789211273,"94":-1.1283005475997925,"95":0.001633777399547398,"96":0.3992963135242462,"97":0.046962711960077286,"98":0.7891055941581726,"99":-0.21821075677871704,"100":1.141991376876831,"101":-0.45349520444869995,"102":0.10219192504882812,"103":0.014000416733324528,"104":0.8451418876647949,"105":-0.20836469531059265,"106":0.021913770586252213,"107":0.5744407773017883,"108":1.1475335359573364,"109":1.564749002456665,"110":0.4361048638820648,"111":0.7526950836181641,"112":0.6215898394584656,"113":-0.0012002595467492938,"114":0.0702347457408905,"115":-0.14709089696407318,"116":-0.27512621879577637,"117":-1.9384161233901978,"118":0.13756927847862244,"119":0.4544828236103058,"120":1.969626545906067,"121":-0.08334219455718994,"122":0.5420286655426025,"123":0.5126500725746155,"124":0.23058761656284332,"125":1.6305334568023682,"126":1.2999730110168457,"127":-0.24904097616672516,"128":-1.1515792608261108,"129":0.28352925181388855,"130":-0.44538164138793945,"131":0.05392381176352501,"132":-0.43628746271133423,"133":0.33632326126098633,"134":1.5315351486206055,"135":0.5522280335426331,"136":1.7531697750091553,"137":1.5075416564941406,"138":0.3717188239097595,"139":0.16053587198257446,"140":0.2017793208360672,"141":0.4378771483898163,"142":0.02492358162999153,"143":-0.12988464534282684,"144":0.5851836204528809}},"7":{"bias":-0.2849787771701813,"weights":{"0":2.112574815750122,"1":-0.8966712355613708,"2":0.2075771987438202,"3":0.0643196552991867,"4":0.46664881706237793,"5":0.24983255565166473,"6":-1.0210256576538086,"7":-0.7867205142974854,"8":-0.45272523164749146,"9":0.03665238618850708,"10":0.5375056862831116,"11":0.014897344633936882,"12":0.060171276330947876,"13":-0.3962516188621521,"14":-0.29779505729675293,"15":0.08570403605699539,"16":-0.6279019117355347,"17":0.3304051160812378,"18":0.2958065867424011,"19":-0.42332300543785095,"20":-1.034183144569397,"21":1.299028754234314,"22":-0.5389339923858643,"23":0.03253526613116264,"24":0.24796205759048462,"25":0.1823023557662964,"26":-0.5751481652259827,"27":-0.3674547076225281,"28":-0.7716869115829468,"29":-0.4594745337963104,"30":-0.6083856225013733,"31":0.583457350730896,"32":-0.1892782747745514,"33":-0.16802287101745605,"34":-0.24069656431674957,"35":0.7120248675346375,"36":2.1757750511169434,"37":-0.07158773392438889,"38":-0.4346564710140228,"39":0.7823753356933594,"40":1.8202707767486572,"41":-0.46046656370162964,"42":-0.11337742954492569,"43":-1.722754955291748,"44":-0.046223726123571396,"45":0.23931197822093964,"46":0.5949785113334656,"47":-0.2523197531700134,"48":-0.18210066854953766,"49":0.08999854326248169,"50":0.6259269118309021,"51":-1.4009073972702026,"52":-0.07543078809976578,"53":0.15432725846767426,"54":0.2994925081729889,"55":-0.46974265575408936,"56":0.21610870957374573,"57":-0.5497405529022217,"58":-0.8261573314666748,"59":-0.26117560267448425,"60":-0.06889740377664566,"61":-0.07617989927530289,"62":1.989175796508789,"63":0.2607620060443878,"64":0.09608427435159683,"65":0.3918149769306183,"66":0.48288875818252563,"67":0.25852304697036743,"68":0.19193464517593384,"69":-0.4655905067920685,"70":0.41348159313201904,"71":-0.2708999812602997,"72":-0.7687053084373474,"73":0.15353775024414062,"74":-0.021228991448879242,"75":-0.0960027202963829,"76":-0.4655832350254059,"77":-0.8717115521430969,"78":-0.3902309834957123,"79":1.6279278993606567,"80":-0.9519727230072021,"81":-0.3954884707927704,"82":-0.6436370015144348,"83":-0.07172268629074097,"84":-0.4099593162536621,"85":-0.21999695897102356,"86":-0.1732548177242279,"87":-0.007065772544592619,"88":0.5974093079566956,"89":1.0531845092773438,"90":1.3250761032104492,"91":-0.6213796734809875,"92":-0.01850326918065548,"93":-0.4552639126777649,"94":1.5200083255767822,"95":1.147675633430481,"96":-0.3282089829444885,"97":0.3563307821750641,"98":-0.5545900464057922,"99":-1.8157424926757812,"100":-1.353438377380371,"101":0.054326798766851425,"102":-0.2950206696987152,"103":-0.07951673120260239,"104":0.35392022132873535,"105":-0.08792567998170853,"106":-1.0581225156784058,"107":-0.2830394506454468,"108":0.4007444679737091,"109":-0.08247308433055878,"110":-0.14952516555786133,"111":0.154352605342865,"112":0.03095122054219246,"113":-0.6123669743537903,"114":0.9963303804397583,"115":-0.6828723549842834,"116":-0.8331326246261597,"117":0.18671096861362457,"118":-1.0749355554580688,"119":-0.6817793846130371,"120":-0.5560625195503235,"121":0.13822799921035767,"122":-0.2854570150375366,"123":-0.9594190716743469,"124":-0.2663184404373169,"125":-0.0008985117892734706,"126":-0.5833307504653931,"127":1.1720688343048096,"128":1.663274884223938,"129":-0.9326412081718445,"130":0.4051664471626282,"131":0.41423723101615906,"132":-0.8008682131767273,"133":0.08372657001018524,"134":-0.19155734777450562,"135":0.35875940322875977,"136":-0.3669417202472687,"137":0.6054238677024841,"138":1.044026494026184,"139":0.3653068244457245,"140":0.029514268040657043,"141":-1.1064425706863403,"142":-0.9069163799285889,"143":-0.6034824848175049,"144":0.9774094820022583}}},{"0":{"bias":-4.198050498962402,"weights":{"0":-4.066114902496338,"1":3.2043066024780273,"2":-5.028750896453857,"3":3.7130539417266846,"4":-5.649881839752197,"5":2.596782922744751,"6":3.482525110244751,"7":2.101196765899658}},"1":{"bias":-1.2843058109283447,"weights":{"0":0.9436743855476379,"1":-0.8526376485824585,"2":-0.5899431109428406,"3":-1.172961711883545,"4":0.2188166081905365,"5":1.2667731046676636,"6":0.3558005094528198,"7":-0.39137524366378784}},"2":{"bias":-0.6414300203323364,"weights":{"0":0.19127023220062256,"1":-0.9388243556022644,"2":0.0037595382891595364,"3":-0.012010649777948856,"4":-0.5984782576560974,"5":-0.5946972966194153,"6":-0.45497387647628784,"7":-0.8299132585525513}},"3":{"bias":-0.484261691570282,"weights":{"0":-0.6948402523994446,"1":-0.9489705562591553,"2":-0.5964145064353943,"3":0.08750182390213013,"4":-1.403640627861023,"5":0.44706836342811584,"6":1.0185065269470215,"7":-1.1811285018920898}},"4":{"bias":4.364741802215576,"weights":{"0":5.75486421585083,"1":-3.9986066818237305,"2":6.8478264808654785,"3":-4.536801338195801,"4":7.23419713973999,"5":-6.255486965179443,"6":-5.574972152709961,"7":-2.3108420372009277}},"5":{"bias":-0.04909377545118332,"weights":{"0":0.43979912996292114,"1":-0.6411645412445068,"2":-1.8987183570861816,"3":0.20283108949661255,"4":-1.2207188606262207,"5":0.6125714182853699,"6":0.5110328197479248,"7":-1.5347068309783936}},"6":{"bias":-0.7379648089408875,"weights":{"0":0.28178417682647705,"1":-1.3252112865447998,"2":-0.2434300035238266,"3":0.1175946518778801,"4":0.12392617017030716,"5":-0.1442466676235199,"6":-0.14096587896347046,"7":-0.6533318758010864}},"7":{"bias":-0.48326772451400757,"weights":{"0":-0.6152891516685486,"1":-0.5591004490852356,"2":-0.2962814271450043,"3":0.07921896874904633,"4":-0.8255189061164856,"5":-0.3113580346107483,"6":0.05204344540834427,"7":-1.1470110416412354}}},{"0":{"bias":3.9309797286987305,"weights":{"0":5.032044410705566,"1":1.479939341545105,"2":0.8048608899116516,"3":-0.9797280430793762,"4":-5.3616509437561035,"5":-0.9753431677818298,"6":1.1481893062591553,"7":-0.0751308873295784}}}],"outputLookup":false,"inputLookup":false,"activation":"sigmoid","trainOpts":{"iterations":20000,"errorThresh":0.003,"log":true,"logPeriod":10,"learningRate":0.05,"momentum":0.1,"callbackPeriod":10,"beta1":0.9,"beta2":0.999,"epsilon":1e-8}}