{"sizes":[145,8,8,1],"layers":[{"0":{},"1":{},"2":{},"3":{},"4":{},"5":{},"6":{},"7":{},"8":{},"9":{},"10":{},"11":{},"12":{},"13":{},"14":{},"15":{},"16":{},"17":{},"18":{},"19":{},"20":{},"21":{},"22":{},"23":{},"24":{},"25":{},"26":{},"27":{},"28":{},"29":{},"30":{},"31":{},"32":{},"33":{},"34":{},"35":{},"36":{},"37":{},"38":{},"39":{},"40":{},"41":{},"42":{},"43":{},"44":{},"45":{},"46":{},"47":{},"48":{},"49":{},"50":{},"51":{},"52":{},"53":{},"54":{},"55":{},"56":{},"57":{},"58":{},"59":{},"60":{},"61":{},"62":{},"63":{},"64":{},"65":{},"66":{},"67":{},"68":{},"69":{},"70":{},"71":{},"72":{},"73":{},"74":{},"75":{},"76":{},"77":{},"78":{},"79":{},"80":{},"81":{},"82":{},"83":{},"84":{},"85":{},"86":{},"87":{},"88":{},"89":{},"90":{},"91":{},"92":{},"93":{},"94":{},"95":{},"96":{},"97":{},"98":{},"99":{},"100":{},"101":{},"102":{},"103":{},"104":{},"105":{},"106":{},"107":{},"108":{},"109":{},"110":{},"111":{},"112":{},"113":{},"114":{},"115":{},"116":{},"117":{},"118":{},"119":{},"120":{},"121":{},"122":{},"123":{},"124":{},"125":{},"126":{},"127":{},"128":{},"129":{},"130":{},"131":{},"132":{},"133":{},"134":{},"135":{},"136":{},"137":{},"138":{},"139":{},"140":{},"141":{},"142":{},"143":{},"144":{}},{"0":{"bias":0.28047508001327515,"weights":{"0":-0.3009195625782013,"1":-0.29893818497657776,"2":-0.9389978051185608,"3":0.023602286353707314,"4":-0.6517735123634338,"5":-0.11483079940080643,"6":0.3977871537208557,"7":0.13419856131076813,"8":0.4787377715110779,"9":-0.9768996238708496,"10":-0.9150528311729431,"11":0.19024430215358734,"12":-0.39026546478271484,"13":-0.17355051636695862,"14":-1.4646642208099365,"15":0.33729034662246704,"16":-1.328894019126892,"17":0.5493904948234558,"18":-1.0363637208938599,"19":0.0772089958190918,"20":0.44974005222320557,"21":0.10639256238937378,"22":-0.26375412940979004,"23":-0.11066444218158722,"24":-0.15123726427555084,"25":0.24296779930591583,"26":-0.9235011339187622,"27":0.676379919052124,"28":-0.9119009971618652,"29":-0.1969631016254425,"30":0.717592716217041,"31":-0.9219743609428406,"32":1.0830689668655396,"33":-1.1733460426330566,"34":-0.09790194034576416,"35":0.4272453188896179,"36":-0.46846723556518555,"37":-0.4421446919441223,"38":-0.7252631783485413,"39":-1.6205823421478271,"40":-0.08129678666591644,"41":-0.5189066529273987,"42":1.1699773073196411,"43":0.30636921525001526,"44":0.1555323600769043,"45":-0.6995944976806641,"46":0.21692894399166107,"47":-0.733039915561676,"48":0.5558542013168335,"49":-0.3961312174797058,"50":1.375980257987976,"51":0.47356513142585754,"52":0.9886314868927002,"53":0.30981534719467163,"54":-1.0224134922027588,"55":-1.1021997928619385,"56":0.47467008233070374,"57":0.08596924692392349,"58":0.39085710048675537,"59":0.22575558722019196,"60":-1.187824010848999,"61":-1.187851905822754,"62":-1.2193926572799683,"63":-0.08130896091461182,"64":0.35980337858200073,"65":1.0873901844024658,"66":0.6547536849975586,"67":-0.5196914076805115,"68":0.34590181708335876,"69":-0.2633747160434723,"70":0.6495176553726196,"71":0.04444863274693489,"72":1.4087443351745605,"73":-0.08815506100654602,"74":-0.5003654360771179,"75":0.5094051361083984,"76":-0.08212767541408539,"77":0.24153593182563782,"78":-0.0459020733833313,"79":0.3035755753517151,"80":-0.3198782801628113,"81":-0.05276934430003166,"82":-0.678737223148346,"83":-0.3711952567100525,"84":-1.0304853916168213,"85":0.1180507242679596,"86":-0.5617825388908386,"87":1.557965874671936,"88":-2.1270415782928467,"89":-1.3311731815338135,"90":0.007085802964866161,"91":0.5747658014297485,"92":-0.09856881201267242,"93":0.7500491142272949,"94":-0.43215489387512207,"95":0.36154940724372864,"96":0.46841681003570557,"97":-0.010840395465493202,"98":-1.5109853744506836,"99":0.5762273669242859,"100":-0.9625871777534485,"101":-0.24843212962150574,"102":-0.1573573648929596,"103":-0.38413751125335693,"104":0.00360183697193861,"105":0.11980022490024567,"106":-0.34197574853897095,"107":-0.9052032232284546,"108":-0.05200718715786934,"109":0.7743649482727051,"110":-0.3480614721775055,"111":-0.3748716115951538,"112":0.5544272065162659,"113":-0.8572055697441101,"114":-0.2765601873397827,"115":0.6418137550354004,"116":0.6944524049758911,"117":0.26946499943733215,"118":-0.693874716758728,"119":-1.7009273767471313,"120":-0.26324599981307983,"121":0.03287789970636368,"122":0.888781726360321,"123":-1.0322660207748413,"124":0.14354415237903595,"125":0.18907156586647034,"126":0.3435189425945282,"127":-1.0101039409637451,"128":0.26036274433135986,"129":0.4525514245033264,"130":-0.7748147249221802,"131":-0.11290597170591354,"132":1.044644832611084,"133":0.021530205383896828,"134":0.35657748579978943,"135":-0.4631885290145874,"136":-1.090699553489685,"137":-0.8163913488388062,"138":0.3204524517059326,"139":-0.2670360207557678,"140":-0.9646714329719543,"141":-0.15187403559684753,"142":-0.8295939564704895,"143":1.1404154300689697,"144":-1.19712233543396}},"1":{"bias":-0.6573611497879028,"weights":{"0":-2.0428857803344727,"1":0.0137686338275671,"2":-0.4299144744873047,"3":0.292753130197525,"4":-0.8055182695388794,"5":0.0748482495546341,"6":-0.12907978892326355,"7":0.20369285345077515,"8":0.8481816649436951,"9":-0.9131110310554504,"10":0.7953216433525085,"11":0.8702813386917114,"12":0.7143275141716003,"13":-0.0963859111070633,"14":-0.293575644493103,"15":-0.3767814636230469,"16":0.6402166485786438,"17":0.3527703583240509,"18":0.7407864928245544,"19":-0.5343364477157593,"20":0.053502898663282394,"21":-0.2709110677242279,"22":-2.1541764736175537,"23":-0.2650812268257141,"24":0.347154438495636,"25":-0.4986036717891693,"26":-0.16571560502052307,"27":2.500328540802002,"28":-0.8225423693656921,"29":-1.3458627462387085,"30":0.14680081605911255,"31":-1.5992189645767212,"32":-0.8335970044136047,"33":0.2777630686759949,"34":0.2199489027261734,"35":-0.09143225103616714,"36":0.9853420853614807,"37":-1.3084172010421753,"38":-0.09601786732673645,"39":-1.355676531791687,"40":0.37326693534851074,"41":0.7200495004653931,"42":-0.07531296461820602,"43":0.5956364274024963,"44":-0.23778614401817322,"45":-0.4189507067203522,"46":0.1750686764717102,"47":0.6594454646110535,"48":-0.7783344388008118,"49":0.045809056609869,"50":0.6370075941085815,"51":0.657760739326477,"52":-0.4228110611438751,"53":-0.48726212978363037,"54":-0.02937813103199005,"55":0.01783321239054203,"56":-0.1470101773738861,"57":-0.8507091403007507,"58":-0.37330102920532227,"59":-0.6016769409179688,"60":-0.6755549311637878,"61":0.825144350528717,"62":-1.1359174251556396,"63":0.12253469228744507,"64":0.034989241510629654,"65":-0.6644763946533203,"66":-0.7505980730056763,"67":0.05343174561858177,"68":-0.6036348342895508,"69":-1.0597083568572998,"70":-0.08593765646219254,"71":0.0075742583721876144,"72":0.015712613239884377,"73":-0.3995499610900879,"74":-0.15914657711982727,"75":0.5195692777633667,"76":0.12896786630153656,"77":-0.38232988119125366,"78":-0.5129756331443787,"79":-0.8126470446586609,"80":1.7624449729919434,"81":0.1291298270225525,"82":0.551784873008728,"83":-0.03392405807971954,"84":0.07722476869821548,"85":-0.4756750166416168,"86":1.1764963865280151,"87":0.17144407331943512,"88":1.0203076601028442,"89":0.414612740278244,"90":0.19004660844802856,"91":0.5264708399772644,"92":0.04786669462919235,"93":0.446772962808609,"94":-0.306428998708725,"95":-0.7036421298980713,"96":-0.035229992121458054,"97":-0.6481447815895081,"98":-0.8052312135696411,"99":0.5884612798690796,"100":-0.209883451461792,"101":-0.7698337435722351,"102":-0.227798730134964,"103":0.40138107538223267,"104":0.9429133534431458,"105":-0.8580949902534485,"106":0.03595197945833206,"107":0.16377854347229004,"108":-0.6717407703399658,"109":0.2900952100753784,"110":-0.08776724338531494,"111":0.13998743891716003,"112":-0.5743383169174194,"113":0.24353735148906708,"114":-1.8347947597503662,"115":0.6232621669769287,"116":0.280696839094162,"117":0.5612311959266663,"118":0.2988901138305664,"119":-0.04291712865233421,"120":0.47043338418006897,"121":0.07329540699720383,"122":0.47470980882644653,"123":0.4516814649105072,"124":0.5797930955886841,"125":0.5883829593658447,"126":0.32294246554374695,"127":-0.5839189291000366,"128":0.708157479763031,"129":0.24504996836185455,"130":1.0107672214508057,"131":0.16240745782852173,"132":-0.06458886712789536,"133":0.34815293550491333,"134":0.8701016902923584,"135":0.10249850898981094,"136":0.15798746049404144,"137":1.3782304525375366,"138":1.177730679512024,"139":-0.12857156991958618,"140":-0.13811372220516205,"141":-0.6014389395713806,"142":-0.10827614367008209,"143":-0.49177706241607666,"144":-0.7992731928825378}},"2":{"bias":0.12589353322982788,"weights":{"0":-0.3257927894592285,"1":-0.35179373621940613,"2":-0.33161264657974243,"3":0.32813385128974915,"4":0.5407448410987854,"5":0.011707870289683342,"6":-0.46530798077583313,"7":-0.17849448323249817,"8":0.14957721531391144,"9":-0.9366794228553772,"10":-0.08990085124969482,"11":-0.7069485187530518,"12":0.3924975097179413,"13":0.00044300532317720354,"14":-0.10882531851530075,"15":-0.8933084607124329,"16":0.5613253712654114,"17":-0.11026475578546524,"18":-1.209835171699524,"19":-0.4436500668525696,"20":-0.09631618112325668,"21":0.7106589674949646,"22":-2.1117351055145264,"23":0.0691206231713295,"24":-0.36603304743766785,"25":-0.7732819318771362,"26":-0.4256186783313751,"27":-2.1063129901885986,"28":0.6880154013633728,"29":2.3316047191619873,"30":1.0124884843826294,"31":-0.07223745435476303,"32":1.463031530380249,"33":-0.6544517874717712,"34":0.043192364275455475,"35":-0.12236888706684113,"36":0.01636614091694355,"37":-0.7916873097419739,"38":-0.3913823068141937,"39":0.04926050081849098,"40":-0.6511844396591187,"41":-0.7786346673965454,"42":-0.18502645194530487,"43":0.15498003363609314,"44":-0.44477227330207825,"45":-1.2727848291397095,"46":-0.02133307233452797,"47":-0.40542924404144287,"48":-0.20467115938663483,"49":-0.48218032717704773,"50":0.7825033664703369,"51":-0.654063880443573,"52":0.5312321186065674,"53":0.011886326596140862,"54":-0.9705955386161804,"55":-0.32780662178993225,"56":-1.1777276992797852,"57":0.013403357937932014,"58":1.5668988227844238,"59":-0.3607766926288605,"60":0.27453652024269104,"61":-0.26945772767066956,"62":-0.06709777563810349,"63":0.20064206421375275,"64":-0.30667322874069214,"65":1.751114010810852,"66":1.2182643413543701,"67":0.5851560235023499,"68":-0.24960677325725555,"69":-0.49887290596961975,"70":0.030042709782719612,"71":-0.008485117927193642,"72":0.5060837864875793,"73":0.020735187456011772,"74":-0.13635405898094177,"75":-0.06270575523376465,"76":-0.6912720799446106,"77":0.41717198491096497,"78":-0.1224355548620224,"79":0.6699915528297424,"80":1.0061752796173096,"81":0.7291771769523621,"82":0.8682541251182556,"83":-0.5970776081085205,"84":0.03796042501926422,"85":-1.3631296157836914,"86":-1.327967882156372,"87":-1.9728974103927612,"88":-0.37551820278167725,"89":-1.0691797733306885,"90":-0.7785265445709229,"91":-0.25190797448158264,"92":0.2102132886648178,"93":-0.37050265073776245,"94":-0.17030377686023712,"95":-0.22447291016578674,"96":0.5316979289054871,"97":0.41471725702285767,"98":0.9872169494628906,"99":-0.9165427088737488,"100":-1.8713334798812866,"101":-0.4379339814186096,"102":0.6703662276268005,"103":0.20590946078300476,"104":0.4142143428325653,"105":1.3606313467025757,"106":0.2026652693748474,"107":0.38709548115730286,"108":1.229343056678772,"109":1.2952216863632202,"110":0.1890137940645218,"111":0.7338436841964722,"112":0.5447233319282532,"113":-0.08294092863798141,"114":-0.32125818729400635,"115":0.22528788447380066,"116":-0.3624808192253113,"117":-1.688287377357483,"118":0.7890716791152954,"119":0.49138203263282776,"120":-0.24345651268959045,"121":-0.07202084362506866,"122":-0.2244700938463211,"123":0.4947722256183624,"124":-0.8535306453704834,"125":-0.06840788573026657,"126":-0.95978182554245,"127":1.2819209098815918,"128":0.13795293867588043,"129":0.6284213066101074,"130":0.9471437335014343,"131":-0.17682063579559326,"132":-0.7578484416007996,"133":0.014070257544517517,"134":0.18657664954662323,"135":0.9002984166145325,"136":-0.6590011119842529,"137":-2.0972299575805664,"138":0.896804928779602,"139":0.5010147094726562,"140":0.38184118270874023,"141":-0.25278785824775696,"142":0.0995141863822937,"143":0.6698842644691467,"144":0.1816694438457489}},"3":{"bias":0.28736013174057007,"weights":{"0":-0.14199450612068176,"1":-0.1363508254289627,"2":0.2687901258468628,"3":0.20419952273368835,"4":-0.9353692531585693,"5":0.11013946682214737,"6":0.05481620505452156,"7":-0.7012935280799866,"8":1.6490586996078491,"9":-0.32781580090522766,"10":0.39611783623695374,"11":0.3309156596660614,"12":-0.41763222217559814,"13":-0.9256507158279419,"14":-1.3104709386825562,"15":0.06121354177594185,"16":0.7030800580978394,"17":-0.20273073017597198,"18":0.5890302062034607,"19":0.06624196469783783,"20":0.13739584386348724,"21":0.42366886138916016,"22":-0.1779462844133377,"23":-0.004181149415671825,"24":-0.28470104932785034,"25":-0.15630459785461426,"26":0.3463572561740875,"27":-0.9551780819892883,"28":1.4316705465316772,"29":0.9827711582183838,"30":0.17029814422130585,"31":0.03375783935189247,"32":-0.4104127287864685,"33":0.8719782829284668,"34":0.36644241213798523,"35":0.5649462938308716,"36":0.15582646429538727,"37":2.4053893089294434,"38":0.01980220340192318,"39":0.495645672082901,"40":0.10409742593765259,"41":0.9837659001350403,"42":0.7310358285903931,"43":0.43213793635368347,"44":-0.18036338686943054,"45":0.646530032157898,"46":0.004339777398854494,"47":-1.3189338445663452,"48":0.1720663607120514,"49":-0.580143392086029,"50":0.5653945207595825,"51":-1.1633048057556152,"52":0.10134311020374298,"53":0.5916815400123596,"54":0.3882751762866974,"55":0.08624310046434402,"56":-1.247472882270813,"57":-0.049364835023880005,"58":-0.5754120945930481,"59":-0.6757233738899231,"60":0.5848631262779236,"61":0.06314567476511002,"62":-1.0772383213043213,"63":0.3879603445529938,"64":0.4292541742324829,"65":1.2198379039764404,"66":1.0470633506774902,"67":0.14146605134010315,"68":-0.5840474963188171,"69":-0.7226554155349731,"70":-0.24054867029190063,"71":-1.289605975151062,"72":-1.0971320867538452,"73":0.31581971049308777,"74":-0.8124120831489563,"75":0.392243355512619,"76":0.5147600769996643,"77":-0.06651434302330017,"78":-0.40000733733177185,"79":-2.332911968231201,"80":1.5157023668289185,"81":-0.10350944101810455,"82":-0.2479681670665741,"83":0.07012590765953064,"84":-0.29368317127227783,"85":-0.35766857862472534,"86":-0.024442993104457855,"87":-0.7269083857536316,"88":1.5888663530349731,"89":-3.183112859725952,"90":-0.01664571650326252,"91":0.012061601504683495,"92":0.24873407185077667,"93":0.1944870948791504,"94":1.359751582145691,"95":0.2672501802444458,"96":0.25092804431915283,"97":-0.37056437134742737,"98":1.6754900217056274,"99":-0.9353910684585571,"100":-0.35357439517974854,"101":-0.6986933350563049,"102":-0.26977822184562683,"103":-0.0822615772485733,"104":-0.5259642601013184,"105":0.16435858607292175,"106":0.08719074726104736,"107":0.5707084536552429,"108":-1.5892903804779053,"109":1.2451937198638916,"110":0.3684263527393341,"111":0.0914023295044899,"112":0.19180165231227875,"113":-0.25745680928230286,"114":0.6381154656410217,"115":-0.13429386913776398,"116":-1.2829170227050781,"117":-0.05851577967405319,"118":-2.2272911071777344,"119":0.9166170358657837,"120":0.22172141075134277,"121":0.070493683218956,"122":0.24195894598960876,"123":2.251777410507202,"124":-0.2251621037721634,"125":0.5738061666488647,"126":0.21523921191692352,"127":2.4571897983551025,"128":0.3638598322868347,"129":-0.5871754288673401,"130":-0.7450921535491943,"131":-0.12574583292007446,"132":0.47556057572364807,"133":-0.055226247757673264,"134":0.3256956934928894,"135":-0.5103603005409241,"136":1.0696077346801758,"137":0.8002752065658569,"138":0.8114216923713684,"139":-0.562362551689148,"140":-1.0752313137054443,"141":-0.27255454659461975,"142":-0.027810337021946907,"143":-0.6889320611953735,"144":-0.10604428499937057}},"4":{"bias":-1.834052324295044,"weights":{"0":0.6129936575889587,"1":0.8315160274505615,"2":-0.4807790219783783,"3":0.40295180678367615,"4":-0.5098631978034973,"5":0.3006354570388794,"6":-0.4195908010005951,"7":1.119817852973938,"8":-1.0400499105453491,"9":0.537788450717926,"10":-1.324997067451477,"11":0.5987602472305298,"12":0.7369027137756348,"13":-0.7266983985900879,"14":-1.104521632194519,"15":-0.023682866245508194,"16":-0.08489296585321426,"17":-0.6543795466423035,"18":0.5361724495887756,"19":-0.49596264958381653,"20":-0.30071982741355896,"21":-0.1860060691833496,"22":2.258389949798584,"23":-0.5393810272216797,"24":0.746372640132904,"25":-0.15986022353172302,"26":0.3577907979488373,"27":0.23734097182750702,"28":0.3265117406845093,"29":-0.031816087663173676,"30":-1.0515984296798706,"31":-0.2765027582645416,"32":-0.46417397260665894,"33":-0.02777012810111046,"34":0.13432219624519348,"35":0.04209401085972786,"36":0.05860135704278946,"37":2.3312668800354004,"38":-0.17602691054344177,"39":-0.07600711286067963,"40":-0.7374696135520935,"41":0.198268324136734,"42":-0.47601720690727234,"43":2.3854451179504395,"44":-0.28179731965065,"45":-0.45335888862609863,"46":-0.9842031598091125,"47":0.34301406145095825,"48":-0.38086166977882385,"49":1.6788421869277954,"50":-0.05326666682958603,"51":0.25829148292541504,"52":-1.3293418884277344,"53":-0.16335654258728027,"54":0.7534493803977966,"55":0.5612643361091614,"56":-1.0216803550720215,"57":0.5640566945075989,"58":0.6055166721343994,"59":1.1122125387191772,"60":0.5852411985397339,"61":1.0580148696899414,"62":-1.004693865776062,"63":0.3828447461128235,"64":-0.6919812560081482,"65":0.3790934979915619,"66":0.05071611702442169,"67":-1.2985899448394775,"68":0.23887264728546143,"69":0.9863426685333252,"70":-0.42303526401519775,"71":0.27323323488235474,"72":0.14254812896251678,"73":-0.6568025946617126,"74":0.07669652998447418,"75":-1.0209020376205444,"76":0.162915900349617,"77":0.32446810603141785,"78":0.15386787056922913,"79":-1.1043208837509155,"80":-2.1248762607574463,"81":-0.07142148166894913,"82":1.0153669118881226,"83":-0.32570457458496094,"84":0.5508054494857788,"85":-0.7032972574234009,"86":0.6024986505508423,"87":0.6199178695678711,"88":0.7569648027420044,"89":-1.5201681852340698,"90":0.2718024253845215,"91":-1.7013760805130005,"92":0.4319116175174713,"93":0.21621499955654144,"94":1.481781005859375,"95":-0.37531203031539917,"96":-0.09187465161085129,"97":-1.0375738143920898,"98":-0.15561619400978088,"99":0.34167516231536865,"100":-1.3959180116653442,"101":-0.010907390154898167,"102":-0.42510104179382324,"103":-0.3731784224510193,"104":-0.728814423084259,"105":-0.010110493749380112,"106":0.5818887948989868,"107":0.43592897057533264,"108":-0.1600816398859024,"109":1.6536390781402588,"110":-0.49566707015037537,"111":1.5111535787582397,"112":1.2070420980453491,"113":0.41228368878364563,"114":0.20235155522823334,"115":-0.5867837071418762,"116":-0.6858882904052734,"117":0.03184708580374718,"118":-0.49026837944984436,"119":0.7256942391395569,"120":1.0154893398284912,"121":0.21092744171619415,"122":0.08369271457195282,"123":0.07259641587734222,"124":-1.0387465953826904,"125":-0.10179606825113297,"126":-0.44799283146858215,"127":1.2483103275299072,"128":-0.45508435368537903,"129":-0.4361208379268646,"130":-0.8870412111282349,"131":-0.13194207847118378,"132":-0.6972103118896484,"133":-1.0948209762573242,"134":1.4953595399856567,"135":0.19279497861862183,"136":0.521308422088623,"137":1.188564419746399,"138":-0.6812601089477539,"139":-1.6207809448242188,"140":0.617947518825531,"141":2.0443902015686035,"142":0.10398611426353455,"143":-0.2799845039844513,"144":0.0576709620654583}},"5":{"bias":0.14007481932640076,"weights":{"0":0.6353834271430969,"1":-0.5864881277084351,"2":-0.5552273392677307,"3":0.29916882514953613,"4":0.9345501065254211,"5":0.009163952432572842,"6":0.2590353190898895,"7":0.4786694347858429,"8":-0.6761999130249023,"9":0.1972673088312149,"10":-0.7452298402786255,"11":1.5444086790084839,"12":-3.846400499343872,"13":-0.6187982559204102,"14":0.9322311878204346,"15":0.190541073679924,"16":-0.5218915343284607,"17":0.749867856502533,"18":-1.1382282972335815,"19":1.3548915386199951,"20":0.42840811610221863,"21":0.09398026019334793,"22":-0.23342496156692505,"23":1.0170074701309204,"24":1.8397682905197144,"25":0.2899605333805084,"26":-0.15258637070655823,"27":-2.1216976642608643,"28":-0.4031800925731659,"29":-1.8344210386276245,"30":-0.10035227984189987,"31":1.43467378616333,"32":-0.9717277884483337,"33":-0.2093140184879303,"34":-0.16613662242889404,"35":0.6368299126625061,"36":-0.7025953531265259,"37":0.8510334491729736,"38":-0.48238441348075867,"39":0.135811910033226,"40":0.8471125960350037,"41":1.9214248657226562,"42":0.3819228410720825,"43":0.4412577450275421,"44":-0.3188190460205078,"45":1.0287917852401733,"46":0.7375180125236511,"47":0.5351771116256714,"48":0.4562555253505707,"49":-2.247772455215454,"50":-0.37319663166999817,"51":-0.23771661520004272,"52":-1.535362720489502,"53":-1.282113790512085,"54":1.3086869716644287,"55":-0.181473046541214,"56":0.09394277632236481,"57":-0.7787535190582275,"58":0.6759685277938843,"59":-0.03479206934571266,"60":0.2918528616428375,"61":0.31496796011924744,"62":-0.8572773933410645,"63":-0.33394426107406616,"64":0.24887315928936005,"65":-0.5860594511032104,"66":-0.5639340281486511,"67":-0.7310799360275269,"68":-0.42580392956733704,"69":-0.5179932117462158,"70":0.13241863250732422,"71":0.20159223675727844,"72":0.04284677281975746,"73":-0.40591689944267273,"74":0.30440834164619446,"75":0.8190092444419861,"76":-1.5695732831954956,"77":0.17860378324985504,"78":1.2925481796264648,"79":-2.018536329269409,"80":-1.4289484024047852,"81":-0.4051966369152069,"82":-0.7460646033287048,"83":0.22133104503154755,"84":-0.1110149547457695,"85":0.8683033585548401,"86":0.03870847821235657,"87":-0.48637235164642334,"88":-0.27003899216651917,"89":-0.320770263671875,"90":-0.9111377596855164,"91":0.8202062845230103,"92":-0.02772883139550686,"93":-0.2991733253002167,"94":-0.4570876359939575,"95":-1.0636919736862183,"96":0.3880443274974823,"97":-0.5986810922622681,"98":0.11328330636024475,"99":-0.0003062438918277621,"100":0.036059729754924774,"101":1.1104811429977417,"102":1.7280064821243286,"103":-0.4405670762062073,"104":1.1742682456970215,"105":0.5876013040542603,"106":-0.05031456798315048,"107":-0.11716555058956146,"108":-3.2108919620513916,"109":0.6275156140327454,"110":-0.13765652477741241,"111":-0.3282192349433899,"112":-0.14976976811885834,"113":-0.3468594253063202,"114":-0.5709635615348816,"115":0.44050341844558716,"116":1.3195576667785645,"117":-1.2090775966644287,"118":-0.5241641998291016,"119":0.3200121223926544,"120":0.8586091995239258,"121":-0.300619900226593,"122":1.5439012050628662,"123":1.7874782085418701,"124":-2.4889774322509766,"125":0.3173866271972656,"126":-0.5380071997642517,"127":0.33323660492897034,"128":0.17158450186252594,"129":-0.8141326308250427,"130":-0.36036184430122375,"131":0.32809939980506897,"132":-0.39648520946502686,"133":0.9814680218696594,"134":0.5875251889228821,"135":0.18293394148349762,"136":0.3905027508735657,"137":-0.5539594292640686,"138":0.46061787009239197,"139":0.39339780807495117,"140":0.37883254885673523,"141":-0.25515320897102356,"142":-0.6272897720336914,"143":1.2134745121002197,"144":0.9948516488075256}},"6":{"bias":-1.2651023864746094,"weights":{"0":1.6753244400024414,"1":0.7630466222763062,"2":0.621212899684906,"3":-1.521353840827942,"4":-1.5118463039398193,"5":0.2881384491920471,"6":-0.25600746273994446,"7":-0.025034932419657707,"8":1.2117829322814941,"9":0.18177028000354767,"10":1.1806950569152832,"11":-0.9891331791877747,"12":2.2300779819488525,"13":0.09199625253677368,"14":-0.28064265847206116,"15":-0.15220467746257782,"16":0.3481714725494385,"17":-0.23245951533317566,"18":0.23153579235076904,"19":-0.25298672914505005,"20":0.5681475400924683,"21":1.1520411968231201,"22":0.7467500567436218,"23":0.5198558568954468,"24":0.7953928112983704,"25":-0.9896590113639832,"26":-0.47306564450263977,"27":1.081748127937317,"28":-0.3967231214046478,"29":-0.17902632057666779,"30":-0.06490092724561691,"31":-0.2609846293926239,"32":0.38737013936042786,"33":0.27847564220428467,"34":0.4061863422393799,"35":-0.03567320480942726,"36":1.4288601875305176,"37":0.247412770986557,"38":-1.04472017288208,"39":-0.6279957294464111,"40":0.15846042335033417,"41":-0.7028673887252808,"42":0.6593645215034485,"43":-1.117716670036316,"44":-0.28419405221939087,"45":0.5587218999862671,"46":-0.015490032732486725,"47":-1.2400799989700317,"48":0.07238107174634933,"49":0.30228137969970703,"50":0.687927782535553,"51":-1.3954675197601318,"52":-0.19060294330120087,"53":0.1636558324098587,"54":-0.9003344178199768,"55":-0.22015906870365143,"56":-0.6720100045204163,"57":1.1636379957199097,"58":-1.8686087131500244,"59":0.16561979055404663,"60":1.948548674583435,"61":-0.4221433103084564,"62":-0.2306087613105774,"63":0.5756219029426575,"64":-0.38267502188682556,"65":1.334065318107605,"66":0.4055638313293457,"67":0.09449375420808792,"68":0.3957304358482361,"69":-1.060083270072937,"70":-0.07184121012687683,"71":-0.10312175005674362,"72":-0.26371562480926514,"73":0.2381347268819809,"74":-1.122495174407959,"75":-0.001384766073897481,"76":0.7054752111434937,"77":0.33869409561157227,"78":-1.1121071577072144,"79":1.1809815168380737,"80":-0.4069667458534241,"81":-0.5703096985816956,"82":0.011910581029951572,"83":0.005659349262714386,"84":-0.05940030887722969,"85":-0.13405831158161163,"86":0.683781623840332,"87":0.8697568774223328,"88":-0.21313917636871338,"89":0.4922829568386078,"90":0.8113141059875488,"91":1.2810086011886597,"92":0.38678717613220215,"93":-1.049791693687439,"94":1.32117760181427,"95":0.5545441508293152,"96":0.6622067093849182,"97":0.13964352011680603,"98":-0.2741701304912567,"99":-0.8904778361320496,"100":2.4175755977630615,"101":0.10892607271671295,"102":-0.11126002669334412,"103":-0.3108256459236145,"104":0.7653455138206482,"105":0.287692129611969,"106":0.09652601927518845,"107":-1.6550781726837158,"108":0.3311045169830322,"109":0.16784049570560455,"110":-0.7484699487686157,"111":-0.06793494522571564,"112":0.6364121437072754,"113":0.032637596130371094,"114":1.5857175588607788,"115":0.00960150919854641,"116":-0.3952014148235321,"117":1.0312762260437012,"118":1.436785101890564,"119":-1.0446058511734009,"120":-0.2686798572540283,"121":0.4242383539676666,"122":-0.14252255856990814,"123":-0.9737040996551514,"124":1.1185252666473389,"125":0.9531317353248596,"126":0.09241294115781784,"127":1.2164894342422485,"128":-1.2060307264328003,"129":0.6978932023048401,"130":0.10929249972105026,"131":0.37327274680137634,"132":-0.6110859513282776,"133":0.16299666464328766,"134":-0.3835901618003845,"135":0.7363802194595337,"136":0.015520310029387474,"137":2.419851779937744,"138":1.8245805501937866,"139":-0.5290204882621765,"140":0.8549851179122925,"141":1.4311227798461914,"142":-0.2363218516111374,"143":-1.6609925031661987,"144":-1.0148968696594238}},"7":{"bias":0.7094122171401978,"weights":{"0":0.5101589560508728,"1":0.9417834281921387,"2":-0.6430460214614868,"3":-0.3372201919555664,"4":0.07131239771842957,"5":0.5342009663581848,"6":0.3534449636936188,"7":2.0418975353240967,"8":-0.18177472054958344,"9":-1.5059837102890015,"10":-1.1430754661560059,"11":0.0358586423099041,"12":0.5183835029602051,"13":0.1887166053056717,"14":1.5216912031173706,"15":-0.22015494108200073,"16":1.291980504989624,"17":0.3727084994316101,"18":-0.4027496874332428,"19":0.3408306837081909,"20":0.00794286374002695,"21":1.3401834964752197,"22":-1.763695240020752,"23":1.1910234689712524,"24":0.697347104549408,"25":-0.9829393625259399,"26":-0.24911870062351227,"27":0.4769851267337799,"28":-0.21480439603328705,"29":-0.9419444799423218,"30":-0.2187599241733551,"31":-1.5592095851898193,"32":-0.2682414948940277,"33":-0.13555283844470978,"34":0.45954105257987976,"35":0.22265362739562988,"36":2.4853692054748535,"37":0.27394309639930725,"38":-0.7125635147094727,"39":-0.8716139793395996,"40":-0.22385114431381226,"41":0.45882847905158997,"42":-0.09454916417598724,"43":0.42340025305747986,"44":-0.04751570150256157,"45":-0.9384433031082153,"46":0.39897510409355164,"47":-0.20272530615329742,"48":0.23818956315517426,"49":-1.1477737426757812,"50":0.16116976737976074,"51":-0.6301339864730835,"52":-0.03883950412273407,"53":0.5278109908103943,"54":1.502854824066162,"55":-0.15768280625343323,"56":-1.2681032419204712,"57":0.10475539416074753,"58":1.5579382181167603,"59":0.7959422469139099,"60":-0.05616357922554016,"61":1.6369620561599731,"62":-1.1207973957061768,"63":0.4040209949016571,"64":0.5694974660873413,"65":1.2604135274887085,"66":-0.25411179661750793,"67":-0.8853634595870972,"68":-0.2749355137348175,"69":-1.1950024366378784,"70":-0.7298280596733093,"71":1.2076243162155151,"72":-0.35597068071365356,"73":0.8045213222503662,"74":-1.077890157699585,"75":0.5053043365478516,"76":-0.5613521933555603,"77":0.28133460879325867,"78":-0.2191362828016281,"79":0.24615097045898438,"80":-0.8391063809394836,"81":0.24356001615524292,"82":0.6562620401382446,"83":0.6365772485733032,"84":-0.4521431624889374,"85":-0.8617367744445801,"86":1.0298984050750732,"87":0.9449186325073242,"88":1.086573839187622,"89":-1.1779406070709229,"90":-0.9275363683700562,"91":1.4295985698699951,"92":0.588789701461792,"93":-0.22884272038936615,"94":0.31880638003349304,"95":-1.5783413648605347,"96":0.750581681728363,"97":-0.07841653376817703,"98":-0.5101928114891052,"99":-0.7157784104347229,"100":-1.0840611457824707,"101":-0.00888762529939413,"102":-0.9298350214958191,"103":0.4221450388431549,"104":-0.28510764241218567,"105":0.7715111970901489,"106":0.20541304349899292,"107":0.48996371030807495,"108":-0.6166728138923645,"109":0.5997287034988403,"110":0.3734159469604492,"111":1.1084046363830566,"112":2.134341239929199,"113":0.05725940689444542,"114":-0.8037121891975403,"115":0.5718981623649597,"116":1.3669593334197998,"117":-0.5509158968925476,"118":-0.5266579985618591,"119":0.8319652676582336,"120":0.9643809795379639,"121":0.3041144907474518,"122":-1.142322063446045,"123":1.1491034030914307,"124":-0.9734899401664734,"125":0.4436672627925873,"126":0.5669831037521362,"127":-1.6442303657531738,"128":-1.0056344270706177,"129":-0.23795415461063385,"130":1.111280083656311,"131":-0.5189800262451172,"132":-0.9856982231140137,"133":0.33442845940589905,"134":0.6091127991676331,"135":-0.5801670551300049,"136":0.14889514446258545,"137":1.9783684015274048,"138":0.27066606283187866,"139":-0.46811050176620483,"140":0.25504517555236816,"141":2.1479010581970215,"142":-0.006423212122172117,"143":-0.6212562918663025,"144":-0.16015301644802094}}},{"0":{"bias":-0.48241856694221497,"weights":{"0":0.036027099937200546,"1":-0.30969002842903137,"2":-0.20402032136917114,"3":0.022107746452093124,"4":-0.4908025562763214,"5":-0.44394001364707947,"6":-0.20906715095043182,"7":0.10976877063512802}},"1":{"bias":-0.8913254737854004,"weights":{"0":-0.6091375350952148,"1":0.0712001770734787,"2":-0.2271701991558075,"3":0.8425595164299011,"4":0.0059862928465008736,"5":-0.5684413313865662,"6":0.23593468964099884,"7":-0.09430018812417984}},"2":{"bias":-0.4945019781589508,"weights":{"0":0.17216616868972778,"1":-0.75888592004776,"2":-0.22295276820659637,"3":0.05516746640205383,"4":-0.38426369428634644,"5":-0.8029536604881287,"6":-0.25074681639671326,"7":-0.21988320350646973}},"3":{"bias":0.23615095019340515,"weights":{"0":0.22623087465763092,"1":-1.245423674583435,"2":-0.14816001057624817,"3":0.4855683743953705,"4":-0.7778910994529724,"5":-0.16185420751571655,"6":-1.0617742538452148,"7":0.3069570064544678}},"4":{"bias":-0.2672494649887085,"weights":{"0":0.13915778696537018,"1":-0.792363703250885,"2":-0.21218055486679077,"3":0.05656897649168968,"4":-0.5227716565132141,"5":-0.742438018321991,"6":-0.5691617131233215,"7":-0.17220832407474518}},"5":{"bias":5.705496311187744,"weights":{"0":7.386869430541992,"1":-4.527211666107178,"2":-5.206325054168701,"3":8.217227935791016,"4":-6.141910076141357,"5":-5.369956970214844,"6":-5.137742042541504,"7":6.622854232788086}},"6":{"bias":-0.2488519698381424,"weights":{"0":-0.002546649193391204,"1":-0.6867318153381348,"2":-0.5830758213996887,"3":-0.010540900751948357,"4":-0.7217337489128113,"5":-0.438008189201355,"6":-0.704962968826294,"7":0.4376673400402069}},"7":{"bias":0.50830078125,"weights":{"0":0.20344842970371246,"1":0.459679514169693,"2":0.7844972610473633,"3":0.36649689078330994,"4":0.3002873361110687,"5":0.7073441743850708,"6":-0.3061177134513855,"7":-0.1807986944913864}}},{"0":{"bias":4.050096035003662,"weights":{"0":0.4017085134983063,"1":1.260719895362854,"2":0.4274950325489044,"3":-0.4726693332195282,"4":0.21276798844337463,"5":-7.604336738586426,"6":0.010515092872083187,"7":1.8432724475860596}}}],"outputLookup":false,"inputLookup":false,"activation":"sigmoid","trainOpts":{"iterations":20000,"errorThresh":0.003,"log":true,"logPeriod":10,"learningRate":0.05,"momentum":0.1,"callbackPeriod":10,"beta1":0.9,"beta2":0.999,"epsilon":1e-8}}