{"sizes":[145,8,8,1],"layers":[{"0":{},"1":{},"2":{},"3":{},"4":{},"5":{},"6":{},"7":{},"8":{},"9":{},"10":{},"11":{},"12":{},"13":{},"14":{},"15":{},"16":{},"17":{},"18":{},"19":{},"20":{},"21":{},"22":{},"23":{},"24":{},"25":{},"26":{},"27":{},"28":{},"29":{},"30":{},"31":{},"32":{},"33":{},"34":{},"35":{},"36":{},"37":{},"38":{},"39":{},"40":{},"41":{},"42":{},"43":{},"44":{},"45":{},"46":{},"47":{},"48":{},"49":{},"50":{},"51":{},"52":{},"53":{},"54":{},"55":{},"56":{},"57":{},"58":{},"59":{},"60":{},"61":{},"62":{},"63":{},"64":{},"65":{},"66":{},"67":{},"68":{},"69":{},"70":{},"71":{},"72":{},"73":{},"74":{},"75":{},"76":{},"77":{},"78":{},"79":{},"80":{},"81":{},"82":{},"83":{},"84":{},"85":{},"86":{},"87":{},"88":{},"89":{},"90":{},"91":{},"92":{},"93":{},"94":{},"95":{},"96":{},"97":{},"98":{},"99":{},"100":{},"101":{},"102":{},"103":{},"104":{},"105":{},"106":{},"107":{},"108":{},"109":{},"110":{},"111":{},"112":{},"113":{},"114":{},"115":{},"116":{},"117":{},"118":{},"119":{},"120":{},"121":{},"122":{},"123":{},"124":{},"125":{},"126":{},"127":{},"128":{},"129":{},"130":{},"131":{},"132":{},"133":{},"134":{},"135":{},"136":{},"137":{},"138":{},"139":{},"140":{},"141":{},"142":{},"143":{},"144":{}},{"0":{"bias":-0.19729456305503845,"weights":{"0":0.04223785921931267,"1":-0.5238541960716248,"2":0.23287124931812286,"3":1.73939049243927,"4":0.7304624319076538,"5":-0.13400548696517944,"6":-0.5849242210388184,"7":-0.004544427152723074,"8":0.17803078889846802,"9":-0.18830224871635437,"10":-0.8549098968505859,"11":-0.5634738206863403,"12":0.1034018024802208,"13":-0.010132568888366222,"14":0.0225778017193079,"15":0.7073545455932617,"16":0.11701551079750061,"17":0.00476339366286993,"18":0.09456892311573029,"19":-0.7757923007011414,"20":0.4521140158176422,"21":-0.42539089918136597,"22":-0.16539403796195984,"23":-0.1499244123697281,"24":0.1571812927722931,"25":0.6616421937942505,"26":-0.05700302496552467,"27":-0.8387794494628906,"28":0.2862406373023987,"29":-0.0300395879894495,"30":0.4113834798336029,"31":-0.5002809762954712,"32":-0.2470497339963913,"33":-0.18606071174144745,"34":-0.2382376343011856,"35":0.007600671146064997,"36":-0.499289333820343,"37":-0.638201117515564,"38":-0.2287651002407074,"39":0.24176941812038422,"40":0.15821070969104767,"41":0.41977524757385254,"42":0.5641635060310364,"43":0.2118626981973648,"44":0.37315818667411804,"45":-0.34606295824050903,"46":-0.04922439157962799,"47":0.1878730058670044,"48":-0.234837606549263,"49":1.1606191396713257,"50":0.4233868420124054,"51":-0.8202117085456848,"52":0.5631337761878967,"53":0.8230544328689575,"54":-0.3220175504684448,"55":0.109151192009449,"56":0.1450435221195221,"57":0.7529807090759277,"58":-0.29622557759284973,"59":-0.7517029047012329,"60":-0.1487688273191452,"61":-0.2769566476345062,"62":-0.3722553849220276,"63":-0.2823304235935211,"64":0.02152244932949543,"65":-0.2198520451784134,"66":0.1986214816570282,"67":-0.043864842504262924,"68":0.15659748017787933,"69":0.13615821301937103,"70":-0.4585261344909668,"71":-0.0718771293759346,"72":0.31054171919822693,"73":-0.12042871117591858,"74":0.049808744341135025,"75":0.1528816670179367,"76":0.2958206236362457,"77":-0.5725695490837097,"78":-0.4100542962551117,"79":-0.438594251871109,"80":0.3167000114917755,"81":-0.005139107350260019,"82":-0.3206137418746948,"83":-0.77744460105896,"84":0.10898531973361969,"85":-0.5766444206237793,"86":0.3616276979446411,"87":-0.11543954163789749,"88":0.6592179536819458,"89":-0.41292595863342285,"90":0.7796590328216553,"91":-0.7889454364776611,"92":-0.4515823721885681,"93":-0.022217392921447754,"94":0.5928758978843689,"95":0.276640921831131,"96":-0.6647496223449707,"97":-0.4647221267223358,"98":-0.5478535890579224,"99":-0.16370494663715363,"100":0.019125040620565414,"101":0.28572070598602295,"102":0.08534825593233109,"103":0.051818158477544785,"104":-0.11878640949726105,"105":-0.36120787262916565,"106":-0.8528904318809509,"107":0.29916173219680786,"108":-0.7343013286590576,"109":0.11222699284553528,"110":-0.4741847515106201,"111":-0.4546372592449188,"112":0.5871024131774902,"113":0.04986274614930153,"114":0.752770721912384,"115":-1.096176266670227,"116":0.7095335125923157,"117":1.0515382289886475,"118":-0.7899182438850403,"119":-0.25407645106315613,"120":-0.3538542687892914,"121":-0.12272706627845764,"122":0.65803062915802,"123":-0.45473337173461914,"124":0.6654128432273865,"125":-0.7190021872520447,"126":-0.4741671085357666,"127":0.37144899368286133,"128":0.1450059413909912,"129":-0.22788524627685547,"130":-0.8362146019935608,"131":-0.22211472690105438,"132":0.2668479084968567,"133":-0.31551697850227356,"134":-0.3551284372806549,"135":-0.5783883929252625,"136":-0.1675369292497635,"137":-0.6400051712989807,"138":-0.6832979917526245,"139":0.10458781570196152,"140":0.12607023119926453,"141":-0.45481765270233154,"142":0.17394107580184937,"143":0.8724455237388611,"144":-0.41453683376312256}},"1":{"bias":0.19453953206539154,"weights":{"0":0.8253649473190308,"1":-0.10709662735462189,"2":-0.026262326166033745,"3":-0.5964063405990601,"4":-0.8039311766624451,"5":0.3609737157821655,"6":-0.1524297297000885,"7":-0.3235563337802887,"8":0.5779967904090881,"9":-0.3928709328174591,"10":-0.14354969561100006,"11":-0.20255349576473236,"12":-0.07957503199577332,"13":0.30351823568344116,"14":0.1547299325466156,"15":0.09296880662441254,"16":0.15550434589385986,"17":-0.1293048858642578,"18":-0.47474631667137146,"19":-0.08685162663459778,"20":-0.4889475703239441,"21":0.4182538092136383,"22":-0.07520673424005508,"23":0.07951173186302185,"24":0.39641109108924866,"25":0.4564867317676544,"26":-1.0978082418441772,"27":0.6984590291976929,"28":0.31103160977363586,"29":-0.6060044765472412,"30":0.22727832198143005,"31":0.07719526439905167,"32":1.6562583446502686,"33":0.09192465245723724,"34":0.3442422151565552,"35":0.07688559591770172,"36":1.03740394115448,"37":-0.2548696994781494,"38":0.17503052949905396,"39":0.8503615260124207,"40":-0.10838273167610168,"41":0.3886053264141083,"42":0.2433769702911377,"43":0.07424341142177582,"44":0.18900145590305328,"45":-0.3490307927131653,"46":-0.226389542222023,"47":0.3233155906200409,"48":0.4201500415802002,"49":-0.03440624475479126,"50":0.8893174529075623,"51":-0.06912725418806076,"52":0.49062609672546387,"53":0.7370160818099976,"54":0.173481285572052,"55":-0.6920143365859985,"56":0.8261290788650513,"57":-0.8482992649078369,"58":0.298576295375824,"59":-0.6313034296035767,"60":-0.020965533331036568,"61":0.0980897843837738,"62":0.2718946933746338,"63":0.34773674607276917,"64":0.036697812378406525,"65":-0.5085794925689697,"66":-0.3225696384906769,"67":-0.03811249881982803,"68":-0.3219642639160156,"69":0.04822739213705063,"70":0.5829066038131714,"71":0.1053568571805954,"72":0.3576338589191437,"73":0.11454078555107117,"74":-0.44555196166038513,"75":-0.3042479157447815,"76":-0.2690804898738861,"77":0.3044731020927429,"78":-0.5715020895004272,"79":0.36698928475379944,"80":-0.10689995437860489,"81":0.1112900897860527,"82":-0.5493207573890686,"83":-0.5181720852851868,"84":-0.7178542613983154,"85":-0.33180761337280273,"86":0.14552566409111023,"87":1.0158991813659668,"88":0.08329585194587708,"89":-0.4051460325717926,"90":0.21891173720359802,"91":0.5707474946975708,"92":0.31459033489227295,"93":-0.2765432596206665,"94":-0.33161333203315735,"95":-0.049119699746370316,"96":-0.5217445492744446,"97":-0.5073522329330444,"98":-1.4037309885025024,"99":-0.0976308137178421,"100":0.29354310035705566,"101":-0.012993677519261837,"102":0.09430334717035294,"103":0.31946301460266113,"104":-0.254720538854599,"105":-0.4456455111503601,"106":-0.09716504067182541,"107":-0.941254198551178,"108":-0.5304898023605347,"109":-0.7349215745925903,"110":-0.11464843899011612,"111":-0.09885469079017639,"112":0.7411108016967773,"113":-0.6172268390655518,"114":0.22115810215473175,"115":0.4936288297176361,"116":-0.6490545868873596,"117":0.23328940570354462,"118":-0.4238217771053314,"119":-0.25200432538986206,"120":0.046591728925704956,"121":0.44000303745269775,"122":0.03179442882537842,"123":-0.6751298308372498,"124":0.5909550786018372,"125":-0.8649689555168152,"126":-0.5537862181663513,"127":-0.5439798831939697,"128":-0.8930761218070984,"129":0.4561106860637665,"130":-0.25811952352523804,"131":0.16220949590206146,"132":0.5115090608596802,"133":-0.2588968276977539,"134":-0.29084786772727966,"135":-0.19809752702713013,"136":-1.127830147743225,"137":-1.248346209526062,"138":-1.2810407876968384,"139":-0.013035068288445473,"140":-0.04499239847064018,"141":0.2779887318611145,"142":-0.5667764544487,"143":-0.02464972995221615,"144":0.861758291721344}},"2":{"bias":0.06392879784107208,"weights":{"0":0.14732177555561066,"1":0.45545753836631775,"2":-0.09171809256076813,"3":0.13857817649841309,"4":-0.10392255336046219,"5":0.3840751647949219,"6":-0.03988150879740715,"7":-0.3704027235507965,"8":0.18475916981697083,"9":-0.043104350566864014,"10":-0.12888696789741516,"11":-0.1626836359500885,"12":0.01111847534775734,"13":-0.003092530183494091,"14":0.22892966866493225,"15":0.07524852454662323,"16":-0.07191623002290726,"17":0.15579822659492493,"18":0.14783845841884613,"19":-0.2348664551973343,"20":0.06265604496002197,"21":0.7775890231132507,"22":-0.24110299348831177,"23":0.146385058760643,"24":0.2519194185733795,"25":0.2749236524105072,"26":-0.12207120656967163,"27":-0.06655721366405487,"28":-0.4172516465187073,"29":-0.4453752636909485,"30":-0.9577729105949402,"31":-0.13244543969631195,"32":0.6494565010070801,"33":0.07875917851924896,"34":0.42086321115493774,"35":0.28366705775260925,"36":0.4363337755203247,"37":-0.14180690050125122,"38":0.18689517676830292,"39":-0.08251538872718811,"40":-0.5197151899337769,"41":0.6917191743850708,"42":0.01963116228580475,"43":0.06523188948631287,"44":0.10676492005586624,"45":-0.26762017607688904,"46":0.06971747428178787,"47":0.029146874323487282,"48":-0.0399719774723053,"49":-0.9030002951622009,"50":0.32840120792388916,"51":0.4799441397190094,"52":0.45508113503456116,"53":0.23559407889842987,"54":-0.2878836691379547,"55":-0.042700428515672684,"56":0.4278588593006134,"57":-0.2787295877933502,"58":0.22261294722557068,"59":-0.5579460859298706,"60":-0.006046657916158438,"61":-0.08686742186546326,"62":0.19703009724617004,"63":0.22638964653015137,"64":0.3470075726509094,"65":0.24289348721504211,"66":-0.18323256075382233,"67":0.1038329228758812,"68":-0.11877095699310303,"69":-0.11689667403697968,"70":0.006906716153025627,"71":-0.03054654598236084,"72":-0.10115011781454086,"73":0.14015774428844452,"74":-0.025455929338932037,"75":-0.017710823565721512,"76":0.1457492560148239,"77":-0.30088698863983154,"78":0.19417716562747955,"79":0.3393889367580414,"80":0.08203811943531036,"81":-0.00009607346873963252,"82":0.04221698269248009,"83":-0.344720721244812,"84":0.03845282271504402,"85":0.45182546973228455,"86":0.019237548112869263,"87":-0.16786804795265198,"88":0.1351298838853836,"89":0.34869515895843506,"90":-1.1208205223083496,"91":0.025419337674975395,"92":0.11874807626008987,"93":-0.1815134435892105,"94":0.06596153229475021,"95":0.5305025577545166,"96":0.47647765278816223,"97":0.48169955611228943,"98":-0.4950566291809082,"99":-0.6655835509300232,"100":-0.012441297993063927,"101":-0.10011857002973557,"102":0.1683652400970459,"103":0.22863996028900146,"104":-0.04721550643444061,"105":0.509728193283081,"106":-0.09939681738615036,"107":0.10420624911785126,"108":0.07141683995723724,"109":0.5037386417388916,"110":-0.1962641477584839,"111":-0.12101785838603973,"112":-0.02439427375793457,"113":0.14734730124473572,"114":-0.18670596182346344,"115":-0.16363216936588287,"116":0.0005568877095356584,"117":-0.2063288390636444,"118":-0.0785769447684288,"119":-1.078779697418213,"120":-0.05948597192764282,"121":0.12609367072582245,"122":0.06450435519218445,"123":0.6254245042800903,"124":0.15181763470172882,"125":-0.04014486446976662,"126":-0.22233639657497406,"127":-0.2389039248228073,"128":0.186322882771492,"129":-0.12085255235433578,"130":0.2511255145072937,"131":0.12904106080532074,"132":0.25811436772346497,"133":0.14372675120830536,"134":0.3689024746417999,"135":-0.21484041213989258,"136":0.10739340633153915,"137":0.039062947034835815,"138":0.14876915514469147,"139":-0.041005879640579224,"140":-0.10916709899902344,"141":0.3415263891220093,"142":0.12332644313573837,"143":-0.17279532551765442,"144":0.6364054083824158}},"3":{"bias":-1.1015697717666626,"weights":{"0":0.5358599424362183,"1":-0.5188589692115784,"2":-0.30208900570869446,"3":-0.16615436971187592,"4":-0.25965455174446106,"5":-0.17221534252166748,"6":0.18552502989768982,"7":-0.9992855191230774,"8":-1.7488696575164795,"9":0.21756385266780853,"10":-0.37839025259017944,"11":0.7123515605926514,"12":0.7562310695648193,"13":-0.4931119382381439,"14":-1.1716665029525757,"15":0.06317535042762756,"16":-0.4284743070602417,"17":-0.03553129732608795,"18":0.09547688066959381,"19":-0.4641990661621094,"20":1.4004815816879272,"21":0.0034773387014865875,"22":0.8324188590049744,"23":-0.40149250626564026,"24":0.6122960448265076,"25":0.559453010559082,"26":-0.03463422879576683,"27":-0.5033466219902039,"28":0.6159940361976624,"29":-0.7445439696311951,"30":-1.5993669033050537,"31":-0.2708412706851959,"32":1.2147518396377563,"33":-0.3046542704105377,"34":0.02702595293521881,"35":0.23327909409999847,"36":0.09652571380138397,"37":0.9065197110176086,"38":0.7760497331619263,"39":0.0882633775472641,"40":-1.3760284185409546,"41":1.895009160041809,"42":-0.6810492277145386,"43":-0.007344541139900684,"44":-0.11137406527996063,"45":-0.07804199308156967,"46":-0.2624116837978363,"47":0.5393896102905273,"48":0.07421407103538513,"49":0.6875728368759155,"50":0.6639426350593567,"51":1.5248937606811523,"52":0.16892631351947784,"53":0.8759282827377319,"54":-0.198392853140831,"55":0.10798972845077515,"56":-0.47593018412590027,"57":0.23110279440879822,"58":0.5910386443138123,"59":-0.31218504905700684,"60":0.5800418853759766,"61":-0.8488591313362122,"62":0.7029196619987488,"63":-0.13161712884902954,"64":-0.23120862245559692,"65":-0.2720925509929657,"66":-0.5311965346336365,"67":-0.22477036714553833,"68":-0.09779725223779678,"69":1.1661770343780518,"70":0.27535727620124817,"71":-0.3396601378917694,"72":0.27648958563804626,"73":-0.34689903259277344,"74":-0.25285279750823975,"75":-0.25691866874694824,"76":-0.7385973334312439,"77":0.08905313163995743,"78":-0.27818548679351807,"79":-0.10399755090475082,"80":-0.8630858063697815,"81":-0.1601111739873886,"82":0.25447940826416016,"83":-0.2597304582595825,"84":0.2854050397872925,"85":-0.6108149886131287,"86":-0.20215897262096405,"87":-0.09873387962579727,"88":0.20345404744148254,"89":-0.17523469030857086,"90":-0.4870908558368683,"91":-0.8346189260482788,"92":-0.06220976635813713,"93":-0.35449454188346863,"94":0.9647581577301025,"95":-0.6251332759857178,"96":-0.5219296216964722,"97":-0.03026488609611988,"98":-0.6599815487861633,"99":0.2683938145637512,"100":-0.16405591368675232,"101":0.7462764382362366,"102":-0.2047976404428482,"103":-0.19418743252754211,"104":-0.38676682114601135,"105":0.6435279846191406,"106":0.2562936246395111,"107":-0.251975953578949,"108":-1.4445523023605347,"109":0.08265019953250885,"110":-0.4231390655040741,"111":-0.022053953260183334,"112":0.6139177083969116,"113":0.016638977453112602,"114":-0.47776395082473755,"115":-0.5878254771232605,"116":-0.44757530093193054,"117":-0.3372057378292084,"118":1.1974449157714844,"119":0.17770004272460938,"120":0.31975650787353516,"121":-0.19277943670749664,"122":-0.4654565751552582,"123":1.3590130805969238,"124":-1.2153642177581787,"125":-0.12194572389125824,"126":0.07455577701330185,"127":1.0138847827911377,"128":-0.7819871306419373,"129":0.6768626570701599,"130":0.19921720027923584,"131":0.6243743300437927,"132":-0.9940034747123718,"133":-0.4057612419128418,"134":-0.03425738215446472,"135":-0.23119617998600006,"136":-1.0152313709259033,"137":0.15762075781822205,"138":-0.8817930817604065,"139":-0.6515650153160095,"140":0.32330235838890076,"141":1.3687337636947632,"142":-0.13650187849998474,"143":0.10612854361534119,"144":-0.10974746942520142}},"4":{"bias":-1.035510778427124,"weights":{"0":0.5018982291221619,"1":0.570075273513794,"2":0.5420408248901367,"3":-0.690316379070282,"4":0.426769882440567,"5":-0.045517489314079285,"6":0.0617997869849205,"7":-0.5350699424743652,"8":0.7156620025634766,"9":0.4239850640296936,"10":0.3727617859840393,"11":-0.0002189299266319722,"12":0.7683295607566833,"13":0.2540663182735443,"14":-0.6526963114738464,"15":0.17607824504375458,"16":0.14411377906799316,"17":0.2622894048690796,"18":0.050055354833602905,"19":-0.12721964716911316,"20":-0.08703487366437912,"21":0.012119827792048454,"22":0.39389339089393616,"23":-0.3775208294391632,"24":0.23343749344348907,"25":0.5435104370117188,"26":0.7000025510787964,"27":-0.14678512513637543,"28":0.541823148727417,"29":-0.12215548753738403,"30":1.0155225992202759,"31":-0.18990331888198853,"32":0.5071554183959961,"33":-0.09080205857753754,"34":-0.06470417976379395,"35":0.02443881146609783,"36":0.6594123244285583,"37":0.11921960115432739,"38":0.8217061161994934,"39":0.6079410314559937,"40":-0.42283204197883606,"41":0.05205000191926956,"42":0.011696549132466316,"43":0.10835666209459305,"44":0.32289600372314453,"45":-0.006804048083722591,"46":0.20942378044128418,"47":-0.35689133405685425,"48":-0.10845082998275757,"49":-0.21068741381168365,"50":0.7257485389709473,"51":1.0034072399139404,"52":-0.40477973222732544,"53":0.36337044835090637,"54":0.1649158000946045,"55":0.37794217467308044,"56":-0.24949945509433746,"57":0.28345540165901184,"58":0.3747961223125458,"59":0.43747130036354065,"60":-0.43447569012641907,"61":-0.11705393344163895,"62":0.7283722162246704,"63":0.006651653442531824,"64":-0.18715567886829376,"65":-0.20227719843387604,"66":-0.20392993092536926,"67":0.1589154750108719,"68":-0.2833995819091797,"69":-0.3302971124649048,"70":-0.6780856847763062,"71":-0.42544159293174744,"72":0.09073765575885773,"73":-0.17671795189380646,"74":0.32667532563209534,"75":0.19424079358577728,"76":-0.09513381868600845,"77":-0.15342038869857788,"78":0.516856849193573,"79":-0.49383294582366943,"80":0.1368667483329773,"81":-0.2937680780887604,"82":-0.1273433268070221,"83":-0.29288700222969055,"84":0.48053327202796936,"85":-0.7515156865119934,"86":-0.8015905618667603,"87":-0.07026377320289612,"88":0.0802825465798378,"89":-0.3123740553855896,"90":0.17997559905052185,"91":0.49684423208236694,"92":0.11247427761554718,"93":-0.03221920132637024,"94":0.21989767253398895,"95":-0.1678052693605423,"96":0.06413446366786957,"97":-0.7926389575004578,"98":0.8138777613639832,"99":0.6509140729904175,"100":0.15567494928836823,"101":-0.21510642766952515,"102":0.08852139860391617,"103":0.20583848655223846,"104":-0.10028796643018723,"105":-0.1571909636259079,"106":-0.15037111937999725,"107":-0.670056939125061,"108":-0.9342381358146667,"109":0.4967736005783081,"110":-0.3973531126976013,"111":0.08155688643455505,"112":0.17314553260803223,"113":0.727815568447113,"114":0.49460336565971375,"115":-0.2509514093399048,"116":0.14844398200511932,"117":-0.748238742351532,"118":-0.2850954830646515,"119":0.28910961747169495,"120":-0.10693906992673874,"121":-0.17323169112205505,"122":-0.037549033761024475,"123":-0.3351483941078186,"124":0.4390479326248169,"125":0.12874159216880798,"126":0.18554410338401794,"127":-0.1610337197780609,"128":-0.9129891395568848,"129":-0.1479569673538208,"130":0.4463574290275574,"131":0.0715123787522316,"132":0.4042896628379822,"133":-0.24541477859020233,"134":-0.17640067636966705,"135":-0.2553373873233795,"136":-0.41150447726249695,"137":0.611151397228241,"138":0.14378197491168976,"139":-0.7042293548583984,"140":-0.3444364666938782,"141":0.087783083319664,"142":0.8761218786239624,"143":0.18438060581684113,"144":-0.4830699861049652}},"5":{"bias":-0.512434184551239,"weights":{"0":0.266873300075531,"1":-0.12349653989076614,"2":0.28406476974487305,"3":0.3297671377658844,"4":-0.3506486713886261,"5":0.13085538148880005,"6":0.43559640645980835,"7":-0.1589190810918808,"8":0.330780953168869,"9":-0.02402888424694538,"10":0.8764537572860718,"11":-0.1853768527507782,"12":0.32603511214256287,"13":-0.3841228783130646,"14":-0.1847803145647049,"15":0.5579185485839844,"16":0.39072951674461365,"17":0.5877232551574707,"18":-0.49397823214530945,"19":-0.8249648809432983,"20":-0.2984372079372406,"21":-0.012278370559215546,"22":-0.20699340105056763,"23":0.2293395698070526,"24":0.33710959553718567,"25":-0.4723331332206726,"26":-0.043835677206516266,"27":0.9226791262626648,"28":-0.27899742126464844,"29":0.773129940032959,"30":0.14823585748672485,"31":-0.34077921509742737,"32":0.7949437499046326,"33":0.08709881454706192,"34":0.2072942554950714,"35":0.2832880914211273,"36":0.9616679549217224,"37":-0.22986358404159546,"38":-0.17401543259620667,"39":-0.128946453332901,"40":-0.25181201100349426,"41":-1.3888115882873535,"42":-0.2091330587863922,"43":-0.16454008221626282,"44":0.02764105796813965,"45":-0.28627049922943115,"46":0.6235744953155518,"47":0.732768177986145,"48":-0.8538721799850464,"49":0.8156511187553406,"50":0.5683218240737915,"51":-0.07673027366399765,"52":-0.23307937383651733,"53":-0.0025046339724212885,"54":-0.11369428038597107,"55":0.12464719265699387,"56":-0.36746084690093994,"57":0.5740509629249573,"58":-0.402881920337677,"59":0.7773060202598572,"60":0.4371320307254791,"61":0.578495442867279,"62":0.5029087662696838,"63":0.022352689877152443,"64":0.343025267124176,"65":-0.02008037641644478,"66":0.3531433045864105,"67":0.19109630584716797,"68":-0.24299991130828857,"69":-0.5969038009643555,"70":-0.1544238030910492,"71":0.44584763050079346,"72":0.2684417963027954,"73":0.19510604441165924,"74":0.3154337406158447,"75":0.6522536873817444,"76":-0.1758723109960556,"77":0.09591439366340637,"78":0.045900288969278336,"79":0.398452490568161,"80":-0.24956859648227692,"81":0.7073248624801636,"82":1.043980360031128,"83":-0.8792833089828491,"84":0.15851005911827087,"85":0.27827972173690796,"86":-0.22459529340267181,"87":-0.72593092918396,"88":0.6595474481582642,"89":-0.05934295058250427,"90":1.2178488969802856,"91":0.10765013843774796,"92":-0.032724928110837936,"93":0.25938332080841064,"94":0.44064903259277344,"95":0.0021885267924517393,"96":0.5517038106918335,"97":-0.38073331117630005,"98":-0.4802314043045044,"99":-0.1618645340204239,"100":0.008240425027906895,"101":0.5593622922897339,"102":-0.23914280533790588,"103":0.17377698421478271,"104":0.7350199818611145,"105":0.49026355147361755,"106":0.023878656327724457,"107":0.3274565637111664,"108":-0.8777002692222595,"109":0.9530551433563232,"110":-0.3043253421783447,"111":-0.23057778179645538,"112":0.12550336122512817,"113":0.2809138298034668,"114":0.9136621356010437,"115":0.7882011532783508,"116":-0.35184168815612793,"117":0.2652447819709778,"118":0.18958799540996552,"119":-0.6240336298942566,"120":-0.3553027808666229,"121":0.2838544249534607,"122":-0.052200574427843094,"123":0.039477694779634476,"124":0.24217964708805084,"125":0.07705466449260712,"126":0.034805815666913986,"127":-1.0060995817184448,"128":0.21216408908367157,"129":-0.5424181818962097,"130":0.3090983033180237,"131":0.1601240336894989,"132":-0.43676552176475525,"133":0.41091299057006836,"134":-0.30737999081611633,"135":0.08722034096717834,"136":0.5191468596458435,"137":0.0062690782360732555,"138":0.3464207053184509,"139":-0.12192574143409729,"140":0.25155800580978394,"141":-0.18559172749519348,"142":0.03575967997312546,"143":0.4361729323863983,"144":-0.34601038694381714}},"6":{"bias":-0.6405731439590454,"weights":{"0":-0.09318234771490097,"1":-0.43153563141822815,"2":-0.21732723712921143,"3":-0.8987452983856201,"4":-0.3631855845451355,"5":-0.13362398743629456,"6":0.08596447110176086,"7":-0.4090626835823059,"8":0.10960985720157623,"9":-0.6082292199134827,"10":-0.4710407853126526,"11":1.3981289863586426,"12":-0.09579139947891235,"13":0.21606509387493134,"14":-0.04356352239847183,"15":0.3939484655857086,"16":0.41080915927886963,"17":0.2524624168872833,"18":-0.43535315990448,"19":0.07790262997150421,"20":0.4689863324165344,"21":-0.8574402928352356,"22":-0.4264988303184509,"23":0.11507336050271988,"24":0.9351432919502258,"25":0.6905479431152344,"26":-0.9234479069709778,"27":0.9714120030403137,"28":-0.1841711848974228,"29":0.8589945435523987,"30":-0.9182027578353882,"31":-0.27978605031967163,"32":-0.19740396738052368,"33":-0.7116979956626892,"34":-0.029739946126937866,"35":0.1673959195613861,"36":-0.49637100100517273,"37":-0.34182724356651306,"38":0.2634046673774719,"39":0.6135029792785645,"40":-0.4864235818386078,"41":-0.861685037612915,"42":0.32253172993659973,"43":0.10950484126806259,"44":0.5325606465339661,"45":0.07689063251018524,"46":0.3730981945991516,"47":0.29667192697525024,"48":0.09211870282888412,"49":0.12666349112987518,"50":-1.4181681871414185,"51":0.1310770958662033,"52":-0.34227636456489563,"53":0.1696544885635376,"54":0.7029075622558594,"55":-0.6144545078277588,"56":-1.1359339952468872,"57":0.02936665341258049,"58":-0.6359705924987793,"59":1.0348775386810303,"60":0.22936858236789703,"61":0.21636344492435455,"62":-0.03951660916209221,"63":0.0005697024171240628,"64":0.11183711141347885,"65":0.4957013726234436,"66":0.4086771011352539,"67":0.038313306868076324,"68":0.33879247307777405,"69":0.5645350217819214,"70":0.41575637459754944,"71":0.5081372261047363,"72":0.10911516100168228,"73":-0.23493245244026184,"74":0.04344254359602928,"75":0.19547319412231445,"76":-0.15308399498462677,"77":-0.14459702372550964,"78":0.15610848367214203,"79":0.4032045304775238,"80":0.08836879581212997,"81":-0.15052126348018646,"82":-0.4388789236545563,"83":-0.7763630151748657,"84":-0.8835273385047913,"85":0.7494369745254517,"86":-0.05230070650577545,"87":-0.3212825357913971,"88":0.04003866761922836,"89":-0.20533670485019684,"90":0.42108044028282166,"91":1.0147395133972168,"92":-0.07972076535224915,"93":-0.10128986090421677,"94":0.32531726360321045,"95":-0.2070196568965912,"96":-0.41878801584243774,"97":-0.575401782989502,"98":0.2506367564201355,"99":0.9348558187484741,"100":0.2281743884086609,"101":-0.3723810613155365,"102":-0.06129540875554085,"103":0.3331538736820221,"104":0.16411496698856354,"105":-0.1699654757976532,"106":0.20901073515415192,"107":1.400431752204895,"108":-0.1627276986837387,"109":-1.007881760597229,"110":-0.0018672094447538257,"111":0.12412197142839432,"112":-0.2312709242105484,"113":-0.46654558181762695,"114":-0.26941582560539246,"115":0.43783947825431824,"116":0.2849188446998596,"117":0.5378302931785583,"118":0.0488484688103199,"119":0.44744738936424255,"120":0.5193008184432983,"121":0.10111044347286224,"122":0.29864656925201416,"123":0.5281317830085754,"124":0.5178583860397339,"125":-0.20429956912994385,"126":0.4398404359817505,"127":-0.7501514554023743,"128":0.5614263415336609,"129":-0.5596513748168945,"130":-0.14296728372573853,"131":0.054855212569236755,"132":0.25948384404182434,"133":0.07698816061019897,"134":0.21680499613285065,"135":-0.22707347571849823,"136":0.5076857805252075,"137":0.9853174090385437,"138":-0.8077531456947327,"139":-0.441853404045105,"140":-0.3214787244796753,"141":-0.16401183605194092,"142":-0.5275667905807495,"143":-0.009287196211516857,"144":-0.962497353553772}},"7":{"bias":0.23575459420681,"weights":{"0":0.12268491834402084,"1":0.10253054648637772,"2":0.09893076866865158,"3":-0.15432311594486237,"4":0.001057704328559339,"5":-0.21026475727558136,"6":-0.0315215103328228,"7":-0.4381228983402252,"8":-0.09883537143468857,"9":-0.17339499294757843,"10":-0.06104167550802231,"11":0.09748095273971558,"12":0.23296640813350677,"13":0.037259045988321304,"14":0.33009102940559387,"15":0.08960435539484024,"16":-0.06703633069992065,"17":0.07783973962068558,"18":0.047635357826948166,"19":0.18556354939937592,"20":0.26154157519340515,"21":0.5547256469726562,"22":-0.015443487092852592,"23":-0.07850342988967896,"24":-0.03400253877043724,"25":0.19181445240974426,"26":0.4491347372531891,"27":-0.2451934963464737,"28":0.6978366374969482,"29":-0.2659553289413452,"30":-0.8955299258232117,"31":-0.2678724229335785,"32":-0.24926415085792542,"33":-0.5952816009521484,"34":-0.44495195150375366,"35":0.25062814354896545,"36":0.5032394528388977,"37":-0.11174071580171585,"38":-0.11201188713312149,"39":-0.01781749539077282,"40":-1.0347034931182861,"41":-0.2805931866168976,"42":0.12945786118507385,"43":-0.0018760883249342442,"44":0.225877583026886,"45":-0.2622258961200714,"46":0.1498284488916397,"47":-0.10668818652629852,"48":0.21797561645507812,"49":0.2915765047073364,"50":0.12629088759422302,"51":0.277712881565094,"52":0.422395259141922,"53":0.4990595281124115,"54":0.20261552929878235,"55":0.36651772260665894,"56":0.20725995302200317,"57":0.9071245193481445,"58":0.5446600317955017,"59":0.35695400834083557,"60":-0.2005797177553177,"61":-0.3802364766597748,"62":0.16982020437717438,"63":-0.2929612696170807,"64":0.3644004166126251,"65":0.3491935431957245,"66":-0.5209654569625854,"67":-0.26387786865234375,"68":-0.39036402106285095,"69":0.22180429100990295,"70":0.25780177116394043,"71":0.2338455617427826,"72":0.08551343530416489,"73":-0.11799069494009018,"74":0.15413998067378998,"75":-0.03293340653181076,"76":-0.09829188883304596,"77":0.08849702775478363,"78":0.09119658172130585,"79":0.0008573349332436919,"80":0.1147937998175621,"81":0.40565943717956543,"82":-0.0014521091943606734,"83":-0.6432836055755615,"84":0.09054407477378845,"85":0.26805350184440613,"86":-0.44084012508392334,"87":0.060138825327157974,"88":0.4970080256462097,"89":0.5811318755149841,"90":0.1417999565601349,"91":-0.018218934535980225,"92":-0.25509923696517944,"93":0.20782290399074554,"94":-0.4491746127605438,"95":0.5211170315742493,"96":0.16957348585128784,"97":0.5808627605438232,"98":0.39751529693603516,"99":-0.6621739268302917,"100":-0.0582311637699604,"101":0.046083658933639526,"102":0.10498515516519547,"103":-0.058982353657484055,"104":0.04009304195642471,"105":-0.0532122403383255,"106":0.11759180575609207,"107":-0.4329357445240021,"108":-0.16016298532485962,"109":0.12057409435510635,"110":0.16364292800426483,"111":0.04919617250561714,"112":0.256269246339798,"113":0.32345542311668396,"114":-0.39604422450065613,"115":1.1114482879638672,"116":0.20519201457500458,"117":-0.7396690845489502,"118":-0.3248048424720764,"119":0.4154355823993683,"120":0.12878833711147308,"121":-0.3113885819911957,"122":0.315224826335907,"123":0.5668116211891174,"124":0.13209903240203857,"125":0.005557312164455652,"126":-0.1023898497223854,"127":0.6213354468345642,"128":0.16841158270835876,"129":0.38327085971832275,"130":0.06872038543224335,"131":0.13919876515865326,"132":-0.05137520655989647,"133":0.015377873554825783,"134":-0.19941861927509308,"135":0.2736334204673767,"136":0.61613929271698,"137":0.08417907357215881,"138":0.16391117870807648,"139":0.3466145694255829,"140":0.03475600853562355,"141":0.06735546141862869,"142":0.26575759053230286,"143":-0.23592062294483185,"144":0.2499805986881256}}},{"0":{"bias":-0.2866142690181732,"weights":{"0":0.06868300586938858,"1":0.1667173057794571,"2":-0.10235566645860672,"3":-0.5630075335502625,"4":-0.10045254975557327,"5":-0.4213075041770935,"6":0.014131356030702591,"7":-0.09456028789281845}},"1":{"bias":0.32693666219711304,"weights":{"0":0.8398615121841431,"1":0.8618324995040894,"2":0.5212599635124207,"3":-0.9513577818870544,"4":0.6428837180137634,"5":-0.825049638748169,"6":0.7097678184509277,"7":0.49616891145706177}},"2":{"bias":-0.6126760840415955,"weights":{"0":3.6510331630706787,"1":3.993314266204834,"2":1.5650486946105957,"3":-3.9413747787475586,"4":2.5426177978515625,"5":-3.502114772796631,"6":3.3275551795959473,"7":1.9368711709976196}},"3":{"bias":-0.44255608320236206,"weights":{"0":-0.6629517078399658,"1":-0.8892713189125061,"2":-0.9834931492805481,"3":0.5636988282203674,"4":-0.9804086685180664,"5":0.5482180714607239,"6":-0.799171507358551,"7":-1.0793616771697998}},"4":{"bias":0.22651736438274384,"weights":{"0":0.911811351776123,"1":0.9225600361824036,"2":0.8922085762023926,"3":-1.3170920610427856,"4":0.9290430545806885,"5":-0.8156662583351135,"6":1.0948467254638672,"7":0.9262974858283997}},"5":{"bias":0.46608471870422363,"weights":{"0":0.26262131333351135,"1":0.4969092905521393,"2":-0.25545716285705566,"3":0.21600590646266937,"4":-0.4640328288078308,"5":0.7855867147445679,"6":-0.05807353928685188,"7":0.04685042053461075}},"6":{"bias":-0.2656305432319641,"weights":{"0":0.39340725541114807,"1":0.36246323585510254,"2":-0.27782005071640015,"3":-0.48274144530296326,"4":0.11623372882604599,"5":-0.3585588037967682,"6":0.22038422524929047,"7":0.23724576830863953}},"7":{"bias":-0.2579869329929352,"weights":{"0":0.16999392211437225,"1":0.10781493782997131,"2":0.20657970011234283,"3":-0.7752511501312256,"4":0.2276957631111145,"5":-0.9908639192581177,"6":0.4311882257461548,"7":0.13791824877262115}}},{"0":{"bias":2.38612961769104,"weights":{"0":0.5182019472122192,"1":-0.18855367600917816,"2":-5.571044445037842,"3":2.1010875701904297,"4":-0.7724888324737549,"5":1.890510082244873,"6":0.7429603934288025,"7":0.1462150514125824}}}],"outputLookup":false,"inputLookup":false,"activation":"sigmoid","trainOpts":{"iterations":20000,"errorThresh":0.003,"log":true,"logPeriod":10,"learningRate":0.05,"momentum":0.1,"callbackPeriod":10,"beta1":0.9,"beta2":0.999,"epsilon":1e-8}}