{"sizes":[145,8,8,1],"layers":[{"0":{},"1":{},"2":{},"3":{},"4":{},"5":{},"6":{},"7":{},"8":{},"9":{},"10":{},"11":{},"12":{},"13":{},"14":{},"15":{},"16":{},"17":{},"18":{},"19":{},"20":{},"21":{},"22":{},"23":{},"24":{},"25":{},"26":{},"27":{},"28":{},"29":{},"30":{},"31":{},"32":{},"33":{},"34":{},"35":{},"36":{},"37":{},"38":{},"39":{},"40":{},"41":{},"42":{},"43":{},"44":{},"45":{},"46":{},"47":{},"48":{},"49":{},"50":{},"51":{},"52":{},"53":{},"54":{},"55":{},"56":{},"57":{},"58":{},"59":{},"60":{},"61":{},"62":{},"63":{},"64":{},"65":{},"66":{},"67":{},"68":{},"69":{},"70":{},"71":{},"72":{},"73":{},"74":{},"75":{},"76":{},"77":{},"78":{},"79":{},"80":{},"81":{},"82":{},"83":{},"84":{},"85":{},"86":{},"87":{},"88":{},"89":{},"90":{},"91":{},"92":{},"93":{},"94":{},"95":{},"96":{},"97":{},"98":{},"99":{},"100":{},"101":{},"102":{},"103":{},"104":{},"105":{},"106":{},"107":{},"108":{},"109":{},"110":{},"111":{},"112":{},"113":{},"114":{},"115":{},"116":{},"117":{},"118":{},"119":{},"120":{},"121":{},"122":{},"123":{},"124":{},"125":{},"126":{},"127":{},"128":{},"129":{},"130":{},"131":{},"132":{},"133":{},"134":{},"135":{},"136":{},"137":{},"138":{},"139":{},"140":{},"141":{},"142":{},"143":{},"144":{}},{"0":{"bias":-1.165256142616272,"weights":{"0":0.4176388084888458,"1":0.8165180087089539,"2":-0.1953830122947693,"3":-0.7238214015960693,"4":0.20584575831890106,"5":-0.3999628722667694,"6":0.18317341804504395,"7":-0.24415242671966553,"8":-0.17655888199806213,"9":0.25381672382354736,"10":0.47578248381614685,"11":0.41441312432289124,"12":0.935084342956543,"13":-0.12254106998443604,"14":0.14636220037937164,"15":-0.27288979291915894,"16":-0.20882515609264374,"17":-0.0017544705187901855,"18":-0.15897251665592194,"19":-0.24287843704223633,"20":0.8177688717842102,"21":-0.38313204050064087,"22":0.46876060962677,"23":-0.6445810198783875,"24":0.03973546624183655,"25":0.6007795333862305,"26":0.39293372631073,"27":-0.133565753698349,"28":0.3566799461841583,"29":0.4088243246078491,"30":0.015239400789141655,"31":-0.08131173253059387,"32":0.6642665266990662,"33":0.1119474247097969,"34":-0.27732548117637634,"35":0.1901351362466812,"36":0.5643376111984253,"37":0.16128383576869965,"38":-0.16886644065380096,"39":0.16087284684181213,"40":-0.3042454123497009,"41":0.6266467571258545,"42":-0.3346991539001465,"43":-0.2967936396598816,"44":-0.05003101006150246,"45":0.09708728641271591,"46":-0.09856624156236649,"47":1.0136131048202515,"48":-0.17156033217906952,"49":0.7854003310203552,"50":-0.38283196091651917,"51":-0.39818841218948364,"52":-0.313997358083725,"53":-0.02424643561244011,"54":-0.35808032751083374,"55":0.6099841594696045,"56":-0.7126896977424622,"57":0.040969714522361755,"58":-0.26886382699012756,"59":0.2872770130634308,"60":0.0030132397077977657,"61":-0.23879073560237885,"62":0.725405216217041,"63":-0.10543733090162277,"64":-0.05178988352417946,"65":-0.09619958698749542,"66":-0.12940683960914612,"67":0.36283546686172485,"68":-0.12255832552909851,"69":0.17871153354644775,"70":-0.33453816175460815,"71":0.38269391655921936,"72":0.7628957033157349,"73":-0.3131863474845886,"74":0.03986801207065582,"75":-0.29876604676246643,"76":-0.16356778144836426,"77":0.20328831672668457,"78":-0.5460211634635925,"79":0.6275690793991089,"80":-0.10289125144481659,"81":-0.37265196442604065,"82":0.5609503388404846,"83":0.17247819900512695,"84":0.6714558005332947,"85":-0.05089925602078438,"86":0.2142554372549057,"87":0.48687252402305603,"88":-0.5466680526733398,"89":-0.22610901296138763,"90":-0.10417230427265167,"91":0.3358723223209381,"92":-0.21567116677761078,"93":-0.12449896335601807,"94":0.36452600359916687,"95":-0.6477617621421814,"96":0.24874944984912872,"97":-0.4174218773841858,"98":-0.6058501601219177,"99":0.43408289551734924,"100":0.21653114259243011,"101":0.6690707206726074,"102":0.04050065204501152,"103":0.08402834087610245,"104":-0.15814127027988434,"105":-0.1784311681985855,"106":-0.13352540135383606,"107":0.10760518163442612,"108":0.44234660267829895,"109":0.3360810875892639,"110":-0.815453827381134,"111":-0.27178335189819336,"112":0.42655059695243835,"113":0.38002482056617737,"114":-0.4383944869041443,"115":-0.3043162226676941,"116":-0.8225066661834717,"117":1.1058560609817505,"118":-0.0995192900300026,"119":0.28259506821632385,"120":-0.5939745903015137,"121":-0.32017752528190613,"122":-0.588306725025177,"123":-0.13259080052375793,"124":-0.4633452594280243,"125":-0.6384013891220093,"126":0.2684699594974518,"127":0.32974183559417725,"128":-0.7093864679336548,"129":-0.08117356896400452,"130":0.23586055636405945,"131":0.13962028920650482,"132":-0.387027770280838,"133":-0.4361303150653839,"134":-0.034301336854696274,"135":0.0011585388565436006,"136":-0.344230592250824,"137":-0.4994877278804779,"138":-1.2437896728515625,"139":-0.7873446345329285,"140":0.37924012541770935,"141":1.0018837451934814,"142":0.2986234426498413,"143":0.27030420303344727,"144":-0.4836626946926117}},"1":{"bias":0.3072965145111084,"weights":{"0":0.32132798433303833,"1":-0.047275323420763016,"2":0.33358311653137207,"3":-0.2205575853586197,"4":0.5413809418678284,"5":-0.18293945491313934,"6":-0.046600572764873505,"7":0.2733910083770752,"8":-0.20519785583019257,"9":0.35099807381629944,"10":0.19849403202533722,"11":-0.30798080563545227,"12":0.29956939816474915,"13":0.06161978468298912,"14":-0.2053949534893036,"15":-0.026287632063031197,"16":0.12760001420974731,"17":-0.2813875675201416,"18":0.014909863471984863,"19":0.2572565972805023,"20":1.0437887907028198,"21":-0.08594916760921478,"22":-0.1803172081708908,"23":0.5171603560447693,"24":0.3363584876060486,"25":-0.4681167006492615,"26":0.7176588177680969,"27":-0.2365034967660904,"28":0.39196285605430603,"29":0.17834702134132385,"30":0.4825805723667145,"31":0.19333617389202118,"32":-0.9161979556083679,"33":-0.13529901206493378,"34":-0.35296544432640076,"35":-0.21423867344856262,"36":-0.6591049432754517,"37":-0.4307924509048462,"38":0.015095354989171028,"39":-0.8580741882324219,"40":0.955027163028717,"41":0.0015448580961674452,"42":-0.1308235377073288,"43":-0.26583558320999146,"44":0.06841915845870972,"45":0.39009958505630493,"46":-0.11778129637241364,"47":0.046439673751592636,"48":0.10362495481967926,"49":-0.4034852981567383,"50":-1.2008092403411865,"51":0.2045164704322815,"52":-0.14724178612232208,"53":-0.18876208364963531,"54":-0.06130939722061157,"55":0.6177666187286377,"56":-0.4187764525413513,"57":0.515708863735199,"58":-0.2885725498199463,"59":-0.22190624475479126,"60":-0.2489991933107376,"61":-0.3779861629009247,"62":-0.24311961233615875,"63":-0.40264153480529785,"64":0.07010708749294281,"65":-0.10403857380151749,"66":0.017320098355412483,"67":-0.11156676709651947,"68":-0.17398767173290253,"69":0.21085189282894135,"70":-0.17801667749881744,"71":-0.4561923146247864,"72":0.16421565413475037,"73":-0.2787732779979706,"74":0.03216277062892914,"75":-0.22071604430675507,"76":0.10183126479387283,"77":-0.018621355295181274,"78":0.30591240525245667,"79":0.31497153639793396,"80":0.494289368391037,"81":-0.07581746578216553,"82":-0.26168420910835266,"83":0.2958427667617798,"84":0.47041475772857666,"85":0.04598110914230347,"86":0.653214693069458,"87":-0.3606155514717102,"88":-1.0052415132522583,"89":-0.23982641100883484,"90":0.06191639229655266,"91":-0.17948174476623535,"92":-0.12137016654014587,"93":-0.18218782544136047,"94":0.5463177561759949,"95":-0.4344925880432129,"96":0.2741295397281647,"97":0.010140031576156616,"98":0.6251298785209656,"99":0.2027011513710022,"100":-0.3384277820587158,"101":0.19291876256465912,"102":-0.004426461644470692,"103":-0.05903875082731247,"104":-0.36673739552497864,"105":-0.20197676122188568,"106":-0.18984048068523407,"107":0.5254496932029724,"108":0.2712511420249939,"109":0.749513566493988,"110":0.14746421575546265,"111":-0.2307620495557785,"112":-0.2403019219636917,"113":0.5410715937614441,"114":0.19886872172355652,"115":-0.20264989137649536,"116":0.1831846833229065,"117":-0.3551466464996338,"118":0.6515212059020996,"119":0.09862598031759262,"120":-0.801007866859436,"121":-0.13138100504875183,"122":-0.49317947030067444,"123":0.21698927879333496,"124":-0.0898745059967041,"125":1.079965591430664,"126":0.45899254083633423,"127":0.7241107225418091,"128":0.14694873988628387,"129":0.5300711989402771,"130":0.33104196190834045,"131":0.2495693862438202,"132":0.008216424845159054,"133":-0.40712711215019226,"134":0.2227175384759903,"135":0.12041482329368591,"136":0.2976303696632385,"137":0.17624224722385406,"138":1.6972203254699707,"139":0.07933326065540314,"140":-0.2939099371433258,"141":-0.35941043496131897,"142":0.46872809529304504,"143":-0.3146117031574249,"144":-0.5840362906455994}},"2":{"bias":-0.35672181844711304,"weights":{"0":0.020696936175227165,"1":-0.0780324935913086,"2":-0.32979094982147217,"3":-0.18633811175823212,"4":0.09964243322610855,"5":-0.19420118629932404,"6":-0.2730622887611389,"7":0.6103368401527405,"8":0.09112942963838577,"9":0.007578972261399031,"10":-0.10773948580026627,"11":-0.0003112189006060362,"12":-0.31768661737442017,"13":0.08369498699903488,"14":-0.08038531243801117,"15":0.009350444190204144,"16":-0.21083301305770874,"17":-0.2046814262866974,"18":0.06507463753223419,"19":-0.19320037961006165,"20":-0.6480080485343933,"21":0.6541949510574341,"22":0.31044840812683105,"23":-0.057334378361701965,"24":-0.1510688215494156,"25":0.33591145277023315,"26":0.1054069772362709,"27":0.27352163195610046,"28":-0.02043616585433483,"29":0.5295441150665283,"30":0.41381314396858215,"31":0.32994207739830017,"32":-0.13102573156356812,"33":0.09620411694049835,"34":-0.061944808810949326,"35":-0.17437897622585297,"36":0.1915374994277954,"37":0.13438038527965546,"38":0.2685965597629547,"39":0.5101014971733093,"40":-0.27812713384628296,"41":-0.17825593054294586,"42":-0.08035236597061157,"43":0.1134282648563385,"44":0.060598455369472504,"45":-0.10620050132274628,"46":0.10083788633346558,"47":0.014995202422142029,"48":0.18481634557247162,"49":0.13568100333213806,"50":-0.0630139410495758,"51":-0.15486624836921692,"52":0.05586661398410797,"53":0.5721652507781982,"54":0.14942459762096405,"55":0.14596667885780334,"56":0.32118743658065796,"57":0.6429901719093323,"58":-0.07577233016490936,"59":0.05325337126851082,"60":-0.02602332830429077,"61":-0.19869932532310486,"62":0.29233402013778687,"63":-0.360660195350647,"64":-0.15097177028656006,"65":0.2975911796092987,"66":-0.05654756724834442,"67":0.34195053577423096,"68":0.11028457432985306,"69":0.6102609038352966,"70":-0.10374539345502853,"71":0.08418869972229004,"72":0.05196036398410797,"73":0.07180117815732956,"74":0.09221704304218292,"75":-0.11306395381689072,"76":-0.26106569170951843,"77":0.11274679750204086,"78":-0.31587979197502136,"79":-0.3208816349506378,"80":0.38925349712371826,"81":0.07975837588310242,"82":0.2865237891674042,"83":-0.23809300363063812,"84":0.15927308797836304,"85":0.1620272397994995,"86":0.25315147638320923,"87":0.24202433228492737,"88":-0.4360146224498749,"89":0.0006158055039122701,"90":-0.023978643119335175,"91":0.13514362275600433,"92":-0.08234035968780518,"93":-0.4292786717414856,"94":-0.04494892805814743,"95":-0.07301861047744751,"96":0.1631348878145218,"97":-0.3500988483428955,"98":0.6670892834663391,"99":-0.027520960196852684,"100":-0.02353508397936821,"101":-0.11849098652601242,"102":-0.11159607768058777,"103":-0.00677093118429184,"104":-0.0048443954437971115,"105":0.10296105593442917,"106":0.17678461968898773,"107":0.33100277185440063,"108":-0.6964346766471863,"109":0.3412363529205322,"110":-0.3258114457130432,"111":-0.06421290338039398,"112":0.2595987021923065,"113":-0.11656122654676437,"114":-0.07214386016130447,"115":0.32540231943130493,"116":-0.3690111041069031,"117":0.6833885312080383,"118":0.2126421481370926,"119":-0.5063433051109314,"120":0.02429840713739395,"121":-0.3565201759338379,"122":0.013727127574384212,"123":0.1929032951593399,"124":0.8448948860168457,"125":0.01171991415321827,"126":0.2473490983247757,"127":1.1977943181991577,"128":-0.25414079427719116,"129":-0.07852811366319656,"130":-0.3511408567428589,"131":-0.08596491813659668,"132":0.1444355845451355,"133":-0.055547136813402176,"134":-0.10310377925634384,"135":0.13666276633739471,"136":0.11321118474006653,"137":-0.15498115122318268,"138":-0.16837267577648163,"139":-0.2734576165676117,"140":-0.10430634021759033,"141":0.22338908910751343,"142":0.2704165279865265,"143":0.2589041292667389,"144":0.4623790681362152}},"3":{"bias":0.04321601241827011,"weights":{"0":-0.3168920576572418,"1":-0.29469922184944153,"2":0.1621464341878891,"3":0.6046940088272095,"4":0.22278259694576263,"5":-0.446039617061615,"6":0.010884043760597706,"7":-0.35190334916114807,"8":-0.056032028049230576,"9":-0.25068041682243347,"10":-0.5333709716796875,"11":0.1499539166688919,"12":0.30669716000556946,"13":-0.012145204469561577,"14":0.2776435911655426,"15":0.03958188742399216,"16":0.08236410468816757,"17":-0.003483366221189499,"18":-0.2879955470561981,"19":-0.16754329204559326,"20":0.38373446464538574,"21":-0.8005073070526123,"22":-0.09395340085029602,"23":-0.570790708065033,"24":-0.309495210647583,"25":0.6943541765213013,"26":-0.14941132068634033,"27":-1.2318681478500366,"28":-0.3546188175678253,"29":0.1201486885547638,"30":-0.3761237859725952,"31":-0.48048630356788635,"32":-1.4399219751358032,"33":-0.06045955419540405,"34":-0.46918386220932007,"35":-0.2488635629415512,"36":-0.42107027769088745,"37":0.07476451247930527,"38":-0.21206794679164886,"39":0.6315509676933289,"40":0.5246991515159607,"41":0.6857668161392212,"42":-0.24777914583683014,"43":0.18913263082504272,"44":0.17835058271884918,"45":0.044148534536361694,"46":0.23334205150604248,"47":-0.2909475564956665,"48":-0.11651760339736938,"49":-0.5001047253608704,"50":-0.30916884541511536,"51":-0.520202100276947,"52":0.0004315650730859488,"53":0.3158290386199951,"54":0.45261043310165405,"55":0.02824862115085125,"56":0.16595140099525452,"57":-0.44228774309158325,"58":-0.5064841508865356,"59":-0.6086152791976929,"60":-0.23705734312534332,"61":0.05195436626672745,"62":-0.8094651699066162,"63":-0.27656102180480957,"64":-0.2263709306716919,"65":0.4504949748516083,"66":0.27142763137817383,"67":-0.2185705006122589,"68":0.019730141386389732,"69":0.005265449173748493,"70":0.1923065483570099,"71":-0.22337999939918518,"72":0.11065160483121872,"73":-0.03787855803966522,"74":-0.14732609689235687,"75":0.12265968322753906,"76":-0.14404810965061188,"77":-0.12203548848628998,"78":-0.18719834089279175,"79":-0.7049466967582703,"80":0.4770895540714264,"81":-0.18530581891536713,"82":-0.21384818851947784,"83":0.0021134272683411837,"84":-0.16932187974452972,"85":0.3917883038520813,"86":0.5735208988189697,"87":-0.33273622393608093,"88":0.31957152485847473,"89":-0.2835388481616974,"90":-0.45930227637290955,"91":-0.2210400402545929,"92":-0.23123787343502045,"93":-0.11493305116891861,"94":-0.18605855107307434,"95":0.11932847648859024,"96":-0.48781561851501465,"97":0.04299033805727959,"98":-0.2265581339597702,"99":-0.039340414106845856,"100":0.005862471181899309,"101":-0.054700352251529694,"102":-0.016852250322699547,"103":-0.11432920396327972,"104":0.25653761625289917,"105":-0.0014453227631747723,"106":-0.7050744295120239,"107":-0.22385841608047485,"108":0.5479272603988647,"109":-0.2626368999481201,"110":-0.2910381257534027,"111":-0.41285890340805054,"112":0.47735661268234253,"113":0.037183377891778946,"114":0.5307009816169739,"115":-0.5102434754371643,"116":0.3723928928375244,"117":0.21175691485404968,"118":0.015083258971571922,"119":0.3314666450023651,"120":0.34465959668159485,"121":-0.37752941250801086,"122":0.3275868892669678,"123":0.14177529513835907,"124":-0.06827213615179062,"125":-0.4533168077468872,"126":-0.3716581463813782,"127":0.47720959782600403,"128":0.010638023726642132,"129":-0.24402561783790588,"130":-0.9221347570419312,"131":-0.14310625195503235,"132":0.33630308508872986,"133":-0.027873774990439415,"134":0.31463703513145447,"135":-0.5067541599273682,"136":0.006367814261466265,"137":0.08509739488363266,"138":-0.3665909469127655,"139":-0.12246648222208023,"140":-0.27164968848228455,"141":-0.12333118170499802,"142":-0.25239160656929016,"143":0.9251294732093811,"144":0.19200049340724945}},"4":{"bias":-0.49742501974105835,"weights":{"0":-0.1910460740327835,"1":1.2655612230300903,"2":0.2869139611721039,"3":-0.481033593416214,"4":0.40953102707862854,"5":-0.23440982401371002,"6":-0.262577086687088,"7":0.03639211878180504,"8":0.5620126724243164,"9":0.31661152839660645,"10":0.12086378782987595,"11":0.2825238108634949,"12":1.008439540863037,"13":-0.019550563767552376,"14":-0.07204689085483551,"15":0.5134576559066772,"16":0.3314565122127533,"17":0.12147679179906845,"18":-0.4278847277164459,"19":-0.315206915140152,"20":0.5107881426811218,"21":-0.4578261375427246,"22":0.03929474577307701,"23":0.052725691348314285,"24":-0.020834913477301598,"25":-0.002950656460598111,"26":0.6914788484573364,"27":-0.2549257278442383,"28":0.22927933931350708,"29":0.15863807499408722,"30":0.6427619457244873,"31":0.04053265601396561,"32":0.6255065202713013,"33":-0.04350252076983452,"34":-0.06633403897285461,"35":-0.49280592799186707,"36":-0.19999036192893982,"37":0.020527826622128487,"38":0.5613684058189392,"39":-0.03156345710158348,"40":-0.6335183382034302,"41":0.405712366104126,"42":0.2631831169128418,"43":0.021151147782802582,"44":0.10677915811538696,"45":0.2890147864818573,"46":-0.02728128246963024,"47":-0.45292937755584717,"48":0.017414098605513573,"49":0.022968195378780365,"50":-0.05686956271529198,"51":0.8009647727012634,"52":-0.04499281942844391,"53":0.41301974654197693,"54":0.017331542447209358,"55":0.6162402629852295,"56":-0.8477920293807983,"57":0.4126533567905426,"58":0.054562557488679886,"59":0.6079478859901428,"60":-0.49112704396247864,"61":0.05968461185693741,"62":-0.18011657893657684,"63":-0.28139615058898926,"64":-0.28264519572257996,"65":-0.3379894196987152,"66":-0.028163081035017967,"67":0.30264782905578613,"68":0.05723564699292183,"69":-0.16214729845523834,"70":-0.24456101655960083,"71":-0.42602354288101196,"72":-0.39086833596229553,"73":0.15440095961093903,"74":0.26369330286979675,"75":-0.2275032252073288,"76":0.11945175379514694,"77":-0.1457585096359253,"78":0.5625380873680115,"79":0.09392701089382172,"80":0.05276385322213173,"81":-0.3016820251941681,"82":-0.3234707713127136,"83":0.04918655380606651,"84":0.3168211877346039,"85":-0.6749833226203918,"86":-0.8168339133262634,"87":-0.40292707085609436,"88":0.022790761664509773,"89":-0.41454797983169556,"90":-0.009257631376385689,"91":0.03482635319232941,"92":-0.14546163380146027,"93":-0.00489750225096941,"94":0.2801682651042938,"95":-0.03430921211838722,"96":-0.13431672751903534,"97":-0.6203561425209045,"98":0.42975425720214844,"99":0.12786865234375,"100":0.2565615177154541,"101":-0.5904377698898315,"102":0.2909044027328491,"103":-0.12722058594226837,"104":-0.09116365760564804,"105":-0.07670120149850845,"106":0.2159288078546524,"107":0.0015428838087245822,"108":-0.5612360835075378,"109":-0.02780701406300068,"110":-0.11483173817396164,"111":0.16590948402881622,"112":-0.10675198584794998,"113":0.6909757852554321,"114":-0.05841006338596344,"115":-0.06741522252559662,"116":0.6401206851005554,"117":-0.7774398326873779,"118":-0.1666182577610016,"119":-0.05728602409362793,"120":0.2434386909008026,"121":-0.24353061616420746,"122":0.026065155863761902,"123":-0.15120649337768555,"124":0.47918394207954407,"125":0.12656864523887634,"126":-0.2560989260673523,"127":-0.7127426266670227,"128":-0.6263137459754944,"129":0.46816980838775635,"130":0.35159504413604736,"131":0.15162816643714905,"132":0.22464360296726227,"133":-0.3496115505695343,"134":-0.0274796299636364,"135":-0.025120656937360764,"136":0.061151981353759766,"137":0.31025323271751404,"138":0.6540409922599792,"139":-0.33910101652145386,"140":-0.26662272214889526,"141":-0.3260664939880371,"142":0.6673623919487,"143":0.5649115443229675,"144":-0.498566597700119}},"5":{"bias":-0.4451358914375305,"weights":{"0":-1.01796293258667,"1":0.12565456330776215,"2":0.3085440397262573,"3":-1.0426262617111206,"4":0.056065794080495834,"5":0.09943269193172455,"6":0.5017898678779602,"7":-0.7024022936820984,"8":0.21004265546798706,"9":0.4176284372806549,"10":-0.06432248651981354,"11":0.4152509272098541,"12":0.13851875066757202,"13":0.05900926515460014,"14":-0.9275888800621033,"15":-0.21110960841178894,"16":0.013132293708622456,"17":0.5193304419517517,"18":-0.14105269312858582,"19":-0.11672132462263107,"20":-1.2882887125015259,"21":-0.4748513102531433,"22":0.6997172236442566,"23":0.18262502551078796,"24":0.1628057360649109,"25":-0.14176808297634125,"26":-0.016689429059624672,"27":-0.1668512225151062,"28":-0.024264957755804062,"29":0.17489615082740784,"30":0.1741451770067215,"31":-0.04431067779660225,"32":-0.4264921247959137,"33":-0.14289399981498718,"34":-0.020512305200099945,"35":0.3869114816188812,"36":-0.07828352600336075,"37":0.656655490398407,"38":0.1573479175567627,"39":0.43638506531715393,"40":-0.17154181003570557,"41":-0.20439055562019348,"42":-0.26173532009124756,"43":0.14847855269908905,"44":0.18209227919578552,"45":0.031436458230018616,"46":0.29952049255371094,"47":-0.016681183129549026,"48":-0.3845652639865875,"49":-0.751098096370697,"50":0.8598191738128662,"51":0.4565940201282501,"52":-0.7409586310386658,"53":-0.8246983289718628,"54":0.22999265789985657,"55":0.06257154047489166,"56":0.44521957635879517,"57":0.2554492950439453,"58":-0.05933168902993202,"59":-0.003089707810431719,"60":0.9133828282356262,"61":-0.19568179547786713,"62":-0.07952386885881424,"63":0.20036427676677704,"64":0.021279331296682358,"65":0.3263259530067444,"66":0.08483966439962387,"67":-0.09884648770093918,"68":-0.1407725214958191,"69":-0.0716465413570404,"70":-0.012858602218329906,"71":-0.30568745732307434,"72":-0.046735361218452454,"73":-0.07812925428152084,"74":0.01107532624155283,"75":0.3877951502799988,"76":-0.17896072566509247,"77":-0.09173276275396347,"78":0.5938031673431396,"79":-0.9531475305557251,"80":-0.13154087960720062,"81":0.1572026163339615,"82":0.900844395160675,"83":0.13271911442279816,"84":0.2583530843257904,"85":0.044558923691511154,"86":-0.9258753657341003,"87":-0.04646793380379677,"88":0.6556601524353027,"89":0.18364843726158142,"90":0.5612516403198242,"91":0.16972842812538147,"92":0.06243116408586502,"93":0.024601485580205917,"94":0.2968057692050934,"95":-0.2696324288845062,"96":-0.11633899062871933,"97":-0.1102004200220108,"98":0.4899856448173523,"99":-0.11719359457492828,"100":0.2611616551876068,"101":0.2285914272069931,"102":-0.01752910576760769,"103":-0.10732170939445496,"104":0.39452362060546875,"105":0.20166133344173431,"106":0.11828941851854324,"107":0.09636003524065018,"108":0.3561420440673828,"109":0.052455175668001175,"110":0.26609188318252563,"111":0.16017083823680878,"112":-0.3596615493297577,"113":0.00532494205981493,"114":-0.09392359852790833,"115":0.273579865694046,"116":-0.23383261263370514,"117":0.47665369510650635,"118":0.0617699921131134,"119":0.18470701575279236,"120":0.5316935777664185,"121":-0.0772741287946701,"122":0.16358582675457,"123":0.21366296708583832,"124":-0.02706810086965561,"125":0.4122975468635559,"126":0.5182643532752991,"127":-0.2691929340362549,"128":0.6276198029518127,"129":-0.277983158826828,"130":0.19550468027591705,"131":-0.2279350310564041,"132":-0.19478818774223328,"133":0.08302462846040726,"134":0.1348736733198166,"135":0.4111437499523163,"136":-0.5426681637763977,"137":0.7625929713249207,"138":-0.1787555068731308,"139":0.0012362647103145719,"140":0.26399555802345276,"141":-0.34281325340270996,"142":0.19898831844329834,"143":0.771371603012085,"144":-0.12988309562206268}},"6":{"bias":-0.2398747056722641,"weights":{"0":0.22477298974990845,"1":0.10338342189788818,"2":-0.25037893652915955,"3":0.8838657140731812,"4":0.09644337743520737,"5":-0.5031454563140869,"6":0.10929181426763535,"7":0.23170879483222961,"8":-0.7176603078842163,"9":0.3002437353134155,"10":-0.04610052704811096,"11":0.16165460646152496,"12":0.2449244111776352,"13":-0.12482118606567383,"14":-0.017898596823215485,"15":0.09750594198703766,"16":0.12961061298847198,"17":-0.13459928333759308,"18":0.1460609883069992,"19":-0.05296049639582634,"20":0.13786901533603668,"21":-0.2769562005996704,"22":0.5062072277069092,"23":0.09875331073999405,"24":-0.006238651927560568,"25":-0.16163931787014008,"26":0.11768529564142227,"27":-1.0559709072113037,"28":-1.0807645320892334,"29":0.09208506345748901,"30":-0.2889484465122223,"31":0.3828071057796478,"32":-1.1053400039672852,"33":0.22044964134693146,"34":-0.5773977041244507,"35":0.2251981794834137,"36":-0.618803858757019,"37":0.17834466695785522,"38":0.3073282539844513,"39":0.016671758145093918,"40":-0.1725614070892334,"41":0.9552258849143982,"42":-0.047767579555511475,"43":-0.11170151084661484,"44":-0.35631752014160156,"45":0.023861324414610863,"46":-0.03251825273036957,"47":0.3973388075828552,"48":-0.09742975234985352,"49":0.5396855473518372,"50":-0.09031522274017334,"51":0.427820086479187,"52":-0.0766351968050003,"53":-0.1894443929195404,"54":-0.36171483993530273,"55":-0.06470673531293869,"56":0.5964363813400269,"57":-0.2423781156539917,"58":-0.6169379949569702,"59":-0.2528197467327118,"60":0.30536603927612305,"61":0.5567700862884521,"62":-0.16492724418640137,"63":-0.214011088013649,"64":-0.028388703241944313,"65":-0.5719062089920044,"66":-0.25822970271110535,"67":-0.3946152329444885,"68":-0.2907481789588928,"69":0.39015400409698486,"70":0.4130047857761383,"71":-0.23285210132598877,"72":0.4455525279045105,"73":-0.1532241404056549,"74":0.04389943182468414,"75":-0.11784043908119202,"76":0.20795056223869324,"77":0.07748902589082718,"78":-0.42606857419013977,"79":-0.6089520454406738,"80":-0.5422916412353516,"81":-0.26358163356781006,"82":-0.0646979808807373,"83":0.2404135763645172,"84":0.04659329354763031,"85":0.37910619378089905,"86":0.42216068506240845,"87":-0.552254855632782,"88":0.44508764147758484,"89":0.5332078337669373,"90":-0.2425290048122406,"91":-0.7425950169563293,"92":-0.4584678113460541,"93":-0.16343575716018677,"94":-0.14233340322971344,"95":0.017423970624804497,"96":-0.31082430481910706,"97":0.5115785002708435,"98":-0.3818424940109253,"99":-0.41401684284210205,"100":0.04868672043085098,"101":0.06200956553220749,"102":-0.23474708199501038,"103":0.11145716905593872,"104":0.016606517136096954,"105":0.1921992152929306,"106":-0.023488422855734825,"107":-0.47547057271003723,"108":0.1559387892484665,"109":-0.8734566569328308,"110":-0.14257554709911346,"111":0.012386300601065159,"112":-0.14390209317207336,"113":-0.0542052760720253,"114":0.5092325806617737,"115":0.11618625372648239,"116":0.6645296216011047,"117":-0.41898733377456665,"118":0.16448372602462769,"119":-0.24559149146080017,"120":-0.003108804579824209,"121":-0.47986045479774475,"122":-0.21123480796813965,"123":-0.0317654088139534,"124":-0.45275571942329407,"125":0.4203847050666809,"126":-0.008948354981839657,"127":0.7360416650772095,"128":-1.1057740449905396,"129":-0.05802585184574127,"130":0.19479559361934662,"131":0.2380649298429489,"132":-0.11454981565475464,"133":-0.1978033185005188,"134":-0.35998818278312683,"135":0.1379770189523697,"136":0.5980902910232544,"137":-0.08205282688140869,"138":0.4828477203845978,"139":0.3358399271965027,"140":0.2792169749736786,"141":-0.34488824009895325,"142":-0.07057049870491028,"143":1.5080082416534424,"144":1.263156533241272}},"7":{"bias":1.1894110441207886,"weights":{"0":0.2806084454059601,"1":0.45843544602394104,"2":-0.2818079888820648,"3":-0.9170876741409302,"4":0.67740797996521,"5":0.2074006050825119,"6":-0.025858420878648758,"7":0.06819213181734085,"8":0.47009697556495667,"9":0.1596127301454544,"10":0.7111383676528931,"11":-0.04304898902773857,"12":-0.0201629176735878,"13":0.10917337983846664,"14":0.8928746581077576,"15":0.6980774998664856,"16":0.13806842267513275,"17":-0.0487193688750267,"18":0.3910265862941742,"19":0.36039048433303833,"20":-0.7247645258903503,"21":-0.6280041337013245,"22":-0.6632823944091797,"23":0.3991276025772095,"24":-0.6123006939888,"25":-0.4374891221523285,"26":0.27823635935783386,"27":0.3811148703098297,"28":-0.0037746934685856104,"29":-0.43353331089019775,"30":0.06499535590410233,"31":-0.12052366882562637,"32":-1.0841975212097168,"33":-0.276168555021286,"34":0.015100880526006222,"35":-0.22570990025997162,"36":-0.42936795949935913,"37":-0.8822703957557678,"38":-0.14508332312107086,"39":0.012891133315861225,"40":0.5375769734382629,"41":-0.33264654874801636,"42":0.34723958373069763,"43":-0.4731561839580536,"44":0.36297231912612915,"45":0.2052602469921112,"46":-0.016941074281930923,"47":0.5388732552528381,"48":0.33529892563819885,"49":-0.19604045152664185,"50":-1.1115162372589111,"51":-0.08170748502016068,"52":0.26040545105934143,"53":-0.3271161615848541,"54":-0.1665283441543579,"55":0.08149174600839615,"56":1.187889575958252,"57":0.016671638935804367,"58":-0.07899053394794464,"59":-0.25167688727378845,"60":-0.7156544327735901,"61":-0.07237517088651657,"62":0.05049457773566246,"63":0.028560422360897064,"64":0.31674039363861084,"65":-0.8121811747550964,"66":-0.6204753518104553,"67":-0.2732824385166168,"68":-0.305268257856369,"69":0.22735372185707092,"70":0.17150835692882538,"71":0.34561413526535034,"72":-0.3722003698348999,"73":0.14959852397441864,"74":-0.04307662695646286,"75":0.06845930963754654,"76":0.3886432945728302,"77":-0.11520470678806305,"78":0.3901193141937256,"79":0.013549530878663063,"80":0.00389721617102623,"81":0.04635850340127945,"82":-0.6755073666572571,"83":0.622036337852478,"84":-0.1079321950674057,"85":0.3229307532310486,"86":-0.475574791431427,"87":0.628105103969574,"88":0.06222064420580864,"89":1.5825669765472412,"90":1.0353835821151733,"91":0.8912000060081482,"92":0.05622641369700432,"93":0.019817007705569267,"94":0.3952443301677704,"95":0.6459499597549438,"96":0.07468719780445099,"97":0.08185263723134995,"98":-0.2614815831184387,"99":-0.36758607625961304,"100":0.05591448396444321,"101":-0.7105352282524109,"102":0.00823337770998478,"103":0.07118061184883118,"104":0.2070242464542389,"105":-0.6632306575775146,"106":-0.3356491029262543,"107":0.06101911514997482,"108":2.0333266258239746,"109":-1.1898876428604126,"110":0.46583467721939087,"111":-0.2151506096124649,"112":0.237653449177742,"113":0.009511417709290981,"114":-0.43428999185562134,"115":0.4692680537700653,"116":0.4065483808517456,"117":0.9204198122024536,"118":-0.25554588437080383,"119":0.7047697305679321,"120":-0.7753196954727173,"121":-0.11977209895849228,"122":0.22182875871658325,"123":-0.05417662486433983,"124":0.40804630517959595,"125":-0.10772170126438141,"126":-0.0813843235373497,"127":-0.8295040130615234,"128":-0.003173958044499159,"129":0.2770465612411499,"130":0.6322627067565918,"131":0.045488324016332626,"132":0.7176588177680969,"133":0.3631269633769989,"134":-0.4763520359992981,"135":-0.25156834721565247,"136":0.011284532956779003,"137":1.1329362392425537,"138":0.4195084869861603,"139":0.5579496026039124,"140":0.040444858372211456,"141":-0.3233755826950073,"142":0.1001325324177742,"143":0.423062264919281,"144":-0.09764981269836426}}},{"0":{"bias":0.14613530039787292,"weights":{"0":1.0809353590011597,"1":0.33340713381767273,"2":-0.9867886304855347,"3":-0.61127769947052,"4":-0.8745498061180115,"5":0.44255346059799194,"6":0.7330159544944763,"7":-0.6534401178359985}},"1":{"bias":0.00015417013491969556,"weights":{"0":-0.8677029013633728,"1":-0.4981943964958191,"2":0.5432620644569397,"3":0.36085107922554016,"4":0.6359534859657288,"5":-0.9223958849906921,"6":-0.374787300825119,"7":0.6339837312698364}},"2":{"bias":0.16264133155345917,"weights":{"0":-0.03932206705212593,"1":0.005164489150047302,"2":-0.2195502072572708,"3":-0.03414143621921539,"4":-0.06195952743291855,"5":0.15034599602222443,"6":-0.0717751532793045,"7":0.11888724565505981}},"3":{"bias":0.20121964812278748,"weights":{"0":-0.9431521892547607,"1":-0.6710697412490845,"2":0.695123016834259,"3":0.6246395111083984,"4":0.9586049318313599,"5":-0.9165816903114319,"6":-0.7398528456687927,"7":1.270889401435852}},"4":{"bias":0.06121227145195007,"weights":{"0":-0.7357756495475769,"1":-0.6049966216087341,"2":0.6362901926040649,"3":0.8263506293296814,"4":0.6084988713264465,"5":-0.8707401156425476,"6":-0.5313369035720825,"7":0.874724268913269}},"5":{"bias":0.537419319152832,"weights":{"0":-1.9025565385818481,"1":-1.407936453819275,"2":0.7993227243423462,"3":1.52677583694458,"4":1.4845482110977173,"5":-1.2608275413513184,"6":-1.1816054582595825,"7":2.3300905227661133}},"6":{"bias":0.597465455532074,"weights":{"0":-2.267364025115967,"1":-1.683437466621399,"2":0.8311343193054199,"3":2.247009754180908,"4":1.5145788192749023,"5":-1.5775203704833984,"6":-1.5379269123077393,"7":2.798534393310547}},"7":{"bias":-0.18567223846912384,"weights":{"0":-0.6315938234329224,"1":-0.40793395042419434,"2":0.15817008912563324,"3":0.47338759899139404,"4":0.46592411398887634,"5":-0.6715810298919678,"6":-0.5051681399345398,"7":0.5004343390464783}}},{"0":{"bias":3.1908562183380127,"weights":{"0":2.7780375480651855,"1":-0.7407525777816772,"2":0.9798352122306824,"3":-1.1675543785095215,"4":-0.9139599800109863,"5":-2.524491786956787,"6":-3.2430808544158936,"7":-0.42695480585098267}}}],"outputLookup":false,"inputLookup":false,"activation":"sigmoid","trainOpts":{"iterations":20000,"errorThresh":0.003,"log":true,"logPeriod":10,"learningRate":0.05,"momentum":0.1,"callbackPeriod":10,"beta1":0.9,"beta2":0.999,"epsilon":1e-8}}