{"sizes":[145,8,8,1],"layers":[{"0":{},"1":{},"2":{},"3":{},"4":{},"5":{},"6":{},"7":{},"8":{},"9":{},"10":{},"11":{},"12":{},"13":{},"14":{},"15":{},"16":{},"17":{},"18":{},"19":{},"20":{},"21":{},"22":{},"23":{},"24":{},"25":{},"26":{},"27":{},"28":{},"29":{},"30":{},"31":{},"32":{},"33":{},"34":{},"35":{},"36":{},"37":{},"38":{},"39":{},"40":{},"41":{},"42":{},"43":{},"44":{},"45":{},"46":{},"47":{},"48":{},"49":{},"50":{},"51":{},"52":{},"53":{},"54":{},"55":{},"56":{},"57":{},"58":{},"59":{},"60":{},"61":{},"62":{},"63":{},"64":{},"65":{},"66":{},"67":{},"68":{},"69":{},"70":{},"71":{},"72":{},"73":{},"74":{},"75":{},"76":{},"77":{},"78":{},"79":{},"80":{},"81":{},"82":{},"83":{},"84":{},"85":{},"86":{},"87":{},"88":{},"89":{},"90":{},"91":{},"92":{},"93":{},"94":{},"95":{},"96":{},"97":{},"98":{},"99":{},"100":{},"101":{},"102":{},"103":{},"104":{},"105":{},"106":{},"107":{},"108":{},"109":{},"110":{},"111":{},"112":{},"113":{},"114":{},"115":{},"116":{},"117":{},"118":{},"119":{},"120":{},"121":{},"122":{},"123":{},"124":{},"125":{},"126":{},"127":{},"128":{},"129":{},"130":{},"131":{},"132":{},"133":{},"134":{},"135":{},"136":{},"137":{},"138":{},"139":{},"140":{},"141":{},"142":{},"143":{},"144":{}},{"0":{"bias":-1.3902639150619507,"weights":{"0":-1.203243613243103,"1":-0.139837384223938,"2":-0.33353620767593384,"3":0.5672255754470825,"4":-0.4627397060394287,"5":0.6790527105331421,"6":-0.3014015853404999,"7":-1.882843017578125,"8":-1.005964756011963,"9":0.1574758142232895,"10":-0.1440100073814392,"11":0.6204639077186584,"12":-0.6561405658721924,"13":-0.9173750877380371,"14":-1.2034307718276978,"15":0.10642734915018082,"16":0.20647241175174713,"17":-0.8798388838768005,"18":1.7357323169708252,"19":1.8678158521652222,"20":-0.33277979493141174,"21":1.6015149354934692,"22":0.3079095780849457,"23":-0.9430111646652222,"24":-0.286024808883667,"25":0.8886331915855408,"26":-0.10503245890140533,"27":-1.6890279054641724,"28":0.3346402645111084,"29":0.6247961521148682,"30":-0.24171024560928345,"31":-0.34912118315696716,"32":0.35544925928115845,"33":-0.9986231923103333,"34":0.220123291015625,"35":-0.46915653347969055,"36":1.2928119897842407,"37":-0.6314436197280884,"38":-1.2223235368728638,"39":-1.780250906944275,"40":-0.3169834315776825,"41":0.9282785654067993,"42":0.7105358242988586,"43":0.5881496071815491,"44":-0.8714893460273743,"45":-0.9125348925590515,"46":-0.010444458574056625,"47":-1.0439878702163696,"48":0.634901762008667,"49":-1.471222996711731,"50":0.5720263123512268,"51":-0.06855541467666626,"52":0.20423509180545807,"53":1.4443085193634033,"54":0.2508433163166046,"55":-0.33525294065475464,"56":-0.8032101988792419,"57":-0.8796511292457581,"58":0.6202796101570129,"59":0.22180181741714478,"60":-0.1276540607213974,"61":-0.4435378909111023,"62":-0.015745045617222786,"63":0.40281108021736145,"64":1.6802356243133545,"65":-0.37743034958839417,"66":-1.0418418645858765,"67":-0.19906148314476013,"68":0.941521942615509,"69":0.43049362301826477,"70":0.4287979304790497,"71":0.1901853233575821,"72":0.17460878193378448,"73":0.08668655902147293,"74":-0.33248698711395264,"75":0.11275245994329453,"76":-1.7216835021972656,"77":0.8250836133956909,"78":0.287297785282135,"79":2.4152114391326904,"80":-0.9514597654342651,"81":0.5611637234687805,"82":0.5158103704452515,"83":-2.4450581073760986,"84":0.011475509963929653,"85":-1.2244986295700073,"86":-1.4416944980621338,"87":-1.8608944416046143,"88":-0.7269955277442932,"89":-1.9410616159439087,"90":-1.1103662252426147,"91":-0.7694498896598816,"92":-0.18489482998847961,"93":-1.583910346031189,"94":-0.5673618316650391,"95":-1.2206181287765503,"96":0.48445653915405273,"97":1.0186353921890259,"98":-0.3002939522266388,"99":0.46623679995536804,"100":-0.7206252813339233,"101":-0.07527337223291397,"102":0.44872191548347473,"103":-0.25296205282211304,"104":0.12409503757953644,"105":-0.2299407720565796,"106":-0.3144676089286804,"107":-0.988527238368988,"108":-1.2971066236495972,"109":0.8642578721046448,"110":-0.2166382521390915,"111":1.5309009552001953,"112":0.8751825094223022,"113":0.01408256497234106,"114":-0.23355944454669952,"115":-0.029823636636137962,"116":0.48485711216926575,"117":0.6337502002716064,"118":1.2600386142730713,"119":0.5811820030212402,"120":0.9995179176330566,"121":0.6130348443984985,"122":-0.24568676948547363,"123":3.813106060028076,"124":-1.4100887775421143,"125":0.7676450610160828,"126":0.26000040769577026,"127":1.016485333442688,"128":1.3559061288833618,"129":3.222428560256958,"130":1.1882332563400269,"131":0.8844212293624878,"132":-0.8138248324394226,"133":-1.3824306726455688,"134":0.34107327461242676,"135":1.0886472463607788,"136":-0.022561578080058098,"137":-2.0604653358459473,"138":-0.3419943153858185,"139":-0.9228284955024719,"140":-0.2797747254371643,"141":0.4089101254940033,"142":-0.14114555716514587,"143":-0.06569592654705048,"144":-0.6583540439605713}},"1":{"bias":-0.8952622413635254,"weights":{"0":1.2980386018753052,"1":-0.8046931624412537,"2":1.2448691129684448,"3":-0.7922152876853943,"4":-0.8587910532951355,"5":0.17396359145641327,"6":-0.01809692196547985,"7":0.3210228681564331,"8":-1.82382071018219,"9":0.6856412291526794,"10":1.2073626518249512,"11":-0.26729774475097656,"12":0.9120669364929199,"13":0.9260976910591125,"14":0.1592993438243866,"15":-0.39932897686958313,"16":0.4921458065509796,"17":0.6102555394172668,"18":-0.8878886699676514,"19":0.24778974056243896,"20":0.10364507138729095,"21":-0.4307763874530792,"22":1.0074135065078735,"23":-0.7138940095901489,"24":-0.5404173731803894,"25":0.1866878867149353,"26":-0.5982187986373901,"27":0.0346783883869648,"28":0.04227777570486069,"29":-0.30164092779159546,"30":-0.042549703270196915,"31":-0.5152530074119568,"32":0.8736238479614258,"33":-0.6723862290382385,"34":0.30719345808029175,"35":-3.7041525840759277,"36":1.6931233406066895,"37":1.2500181198120117,"38":0.9862630367279053,"39":-0.4331471920013428,"40":-0.7077942490577698,"41":0.30722805857658386,"42":0.18561184406280518,"43":-1.1504970788955688,"44":-0.44131696224212646,"45":-0.20529501140117645,"46":-0.26474007964134216,"47":0.08214624226093292,"48":0.8478332757949829,"49":0.5476769804954529,"50":0.04688183590769768,"51":2.656017541885376,"52":-1.4093246459960938,"53":-1.822984218597412,"54":-0.7306638956069946,"55":-0.24483145773410797,"56":-0.06733009964227676,"57":0.7538116574287415,"58":1.3229618072509766,"59":0.7064123749732971,"60":-0.6911129951477051,"61":0.44767558574676514,"62":-0.9517479538917542,"63":-0.108485147356987,"64":0.42273446917533875,"65":1.6109931468963623,"66":0.6903788447380066,"67":-1.130247712135315,"68":1.1001489162445068,"69":-0.1891586035490036,"70":-0.622057318687439,"71":1.1690559387207031,"72":-1.4611297845840454,"73":0.4869849383831024,"74":1.4116963148117065,"75":1.4687769412994385,"76":-1.4894005060195923,"77":1.9398736953735352,"78":-0.4635087847709656,"79":0.18789322674274445,"80":-2.7292544841766357,"81":0.9440047740936279,"82":1.9986822605133057,"83":-0.6078972220420837,"84":-0.0707245022058487,"85":0.21495266258716583,"86":0.5855104923248291,"87":-0.9215778708457947,"88":0.08211701363325119,"89":-0.6617802977561951,"90":0.4349599778652191,"91":0.347031831741333,"92":-0.2633776366710663,"93":0.2786521017551422,"94":0.08065613359212875,"95":-0.32051676511764526,"96":0.20619431138038635,"97":-1.440778374671936,"98":-0.46233871579170227,"99":-0.12457972764968872,"100":1.9523648023605347,"101":0.3980661928653717,"102":-1.3349007368087769,"103":0.6887996792793274,"104":0.31209927797317505,"105":0.5444416403770447,"106":1.5496039390563965,"107":0.5789285898208618,"108":0.4188802242279053,"109":0.589054524898529,"110":-0.8876031041145325,"111":-1.2783429622650146,"112":-0.5937209725379944,"113":-0.4357464909553528,"114":0.27685314416885376,"115":0.1407485008239746,"116":-0.101382315158844,"117":-0.7235815525054932,"118":-0.1309429109096527,"119":0.2142675220966339,"120":1.6512539386749268,"121":0.14391577243804932,"122":0.4227015972137451,"123":1.0665309429168701,"124":-0.05695046856999397,"125":1.5909770727157593,"126":0.9074625968933105,"127":-1.6803622245788574,"128":-0.6803054213523865,"129":-1.4869084358215332,"130":0.3031576871871948,"131":-0.4057099521160126,"132":0.9550992846488953,"133":1.4679571390151978,"134":0.8902161121368408,"135":0.1053207740187645,"136":-0.3093867897987366,"137":-0.5619790554046631,"138":1.5764586925506592,"139":-0.29520106315612793,"140":0.20425061881542206,"141":-0.3891933262348175,"142":0.13025788962841034,"143":-0.11976730823516846,"144":0.5621041655540466}},"2":{"bias":-1.1542645692825317,"weights":{"0":1.318742275238037,"1":0.6263539791107178,"2":-0.5464872121810913,"3":-0.5997681021690369,"4":-0.6115725636482239,"5":0.32431039214134216,"6":-1.3367433547973633,"7":1.4086130857467651,"8":-0.5509927868843079,"9":0.7378088235855103,"10":-0.3288591802120209,"11":0.21161381900310516,"12":-0.3746441602706909,"13":1.5071784257888794,"14":-0.8389116525650024,"15":0.2145899087190628,"16":-0.2966137230396271,"17":-0.21897628903388977,"18":-0.18951724469661713,"19":1.0630043745040894,"20":-0.6920861005783081,"21":-1.046496868133545,"22":2.3703436851501465,"23":-1.3666411638259888,"24":-1.164595365524292,"25":-0.35299915075302124,"26":0.021917536854743958,"27":0.04390675202012062,"28":0.281606525182724,"29":-2.218979597091675,"30":-0.22487691044807434,"31":-0.3143227994441986,"32":0.11602412164211273,"33":-0.03992987796664238,"34":0.21962666511535645,"35":1.02012300491333,"36":1.290807843208313,"37":2.2990708351135254,"38":0.2281344085931778,"39":0.511233389377594,"40":-1.2217875719070435,"41":1.1117724180221558,"42":-1.0890675783157349,"43":-0.29439830780029297,"44":0.14256063103675842,"45":-0.4406777620315552,"46":0.5252249240875244,"47":0.9852977395057678,"48":0.8016194105148315,"49":0.8015583753585815,"50":-2.0184550285339355,"51":0.5064150094985962,"52":-0.7763864398002625,"53":0.07561521977186203,"54":-0.18026091158390045,"55":-0.3625420331954956,"56":0.9211850166320801,"57":-0.632727861404419,"58":0.054306432604789734,"59":0.03326510637998581,"60":1.2948640584945679,"61":1.073531985282898,"62":-1.3730859756469727,"63":0.19167065620422363,"64":0.04428833723068237,"65":0.8231218457221985,"66":3.154827356338501,"67":0.36991074681282043,"68":1.9133903980255127,"69":-0.3661787807941437,"70":-1.0382457971572876,"71":1.2570041418075562,"72":-0.3466385304927826,"73":-0.21190190315246582,"74":0.36709463596343994,"75":-0.4210447072982788,"76":0.9044615626335144,"77":1.4728436470031738,"78":1.1869868040084839,"79":-1.2987101078033447,"80":0.1420654058456421,"81":-0.6227654218673706,"82":-0.006204355042427778,"83":-0.08551255613565445,"84":-0.5110624432563782,"85":0.8224459290504456,"86":0.42931243777275085,"87":1.3128478527069092,"88":-0.3349831700325012,"89":-0.4669859707355499,"90":0.9490939378738403,"91":0.2780984938144684,"92":-0.12289337813854218,"93":-2.1287736892700195,"94":1.6674280166625977,"95":0.14008565247058868,"96":-0.013042936101555824,"97":-0.4121047854423523,"98":-1.949354887008667,"99":-0.1822306215763092,"100":-0.8381654620170593,"101":-0.4523696005344391,"102":0.13535766303539276,"103":-0.3172793984413147,"104":-0.849670946598053,"105":0.5407975912094116,"106":0.7824934720993042,"107":0.5591998100280762,"108":-0.09315096586942673,"109":-0.09670653194189072,"110":-1.0584007501602173,"111":-0.25645899772644043,"112":0.5489951968193054,"113":-0.47262680530548096,"114":0.6342986822128296,"115":-0.2756556570529938,"116":-0.6629963517189026,"117":0.3844774663448334,"118":1.154819130897522,"119":0.36196640133857727,"120":0.359883576631546,"121":0.12860369682312012,"122":1.8588969707489014,"123":1.4189997911453247,"124":1.357421636581421,"125":-0.41860130429267883,"126":-0.8192663192749023,"127":0.97810959815979,"128":-0.2352294772863388,"129":0.44868120551109314,"130":1.055869460105896,"131":0.16825756430625916,"132":-0.11330635845661163,"133":-0.6008331775665283,"134":-1.285990834236145,"135":0.663986086845398,"136":-0.4068930745124817,"137":0.3370322287082672,"138":-0.8079261779785156,"139":-1.8139822483062744,"140":-1.2009227275848389,"141":1.0691334009170532,"142":-0.7585419416427612,"143":1.4136724472045898,"144":-0.6021425127983093}},"3":{"bias":-2.756899118423462,"weights":{"0":-4.22901725769043,"1":0.3602779507637024,"2":0.6451126933097839,"3":0.38838693499565125,"4":0.7031993269920349,"5":0.07029706239700317,"6":-2.4306259155273438,"7":0.582282543182373,"8":1.4657586812973022,"9":-0.13018514215946198,"10":-0.7707749009132385,"11":0.06362754106521606,"12":-1.363104224205017,"13":0.6155868768692017,"14":-1.9236361980438232,"15":-0.6183887720108032,"16":-0.555298924446106,"17":0.44547152519226074,"18":-0.011091962456703186,"19":-0.9614850282669067,"20":-0.12466810643672943,"21":-0.30427753925323486,"22":-0.2693043649196625,"23":-1.2005022764205933,"24":0.5294453501701355,"25":0.5893531441688538,"26":0.4515891671180725,"27":-1.4019547700881958,"28":-0.12607723474502563,"29":-1.1457979679107666,"30":0.22409918904304504,"31":-1.2136489152908325,"32":-0.41877609491348267,"33":-1.40506911277771,"34":-0.041229575872421265,"35":0.44071534276008606,"36":0.21935896575450897,"37":-0.5982341766357422,"38":-0.7819147109985352,"39":0.33000048995018005,"40":-0.19680088758468628,"41":1.411231279373169,"42":0.1423644870519638,"43":0.01907639019191265,"44":-0.1836070716381073,"45":1.6152262687683105,"46":-0.1466214507818222,"47":1.2275358438491821,"48":0.38449278473854065,"49":-1.278247594833374,"50":-2.6483919620513916,"51":-0.7909111380577087,"52":-1.3668110370635986,"53":-0.7695055603981018,"54":-0.9904171824455261,"55":0.41223686933517456,"56":0.29296740889549255,"57":-0.2609948217868805,"58":0.18326061964035034,"59":-0.9652597904205322,"60":2.317622661590576,"61":-0.9542078375816345,"62":-0.6739225387573242,"63":-0.18627814948558807,"64":0.2844519317150116,"65":-0.6587277054786682,"66":-0.9843689203262329,"67":0.5590400099754333,"68":1.2415803670883179,"69":0.3410319983959198,"70":-0.8159488439559937,"71":-0.4400152266025543,"72":-0.3808727562427521,"73":-0.5219642519950867,"74":-0.14868326485157013,"75":-0.1882762610912323,"76":1.3606476783752441,"77":1.1340904235839844,"78":2.3635900020599365,"79":-1.5821280479431152,"80":0.7510820031166077,"81":-0.542605996131897,"82":-0.051025282591581345,"83":-1.7095847129821777,"84":0.13071082532405853,"85":-0.27214422821998596,"86":-1.8188529014587402,"87":-0.007870154455304146,"88":-0.3991554379463196,"89":-1.1392070055007935,"90":-0.7876886129379272,"91":1.1407841444015503,"92":0.29673051834106445,"93":0.9997757077217102,"94":-1.178731083869934,"95":-1.998072624206543,"96":-0.5189248919487,"97":-1.6171566247940063,"98":0.7080495357513428,"99":0.6926560401916504,"100":1.4569905996322632,"101":-0.7481421828269958,"102":-0.4244672656059265,"103":0.04290773347020149,"104":-0.8652724027633667,"105":-0.7327662706375122,"106":1.762884497642517,"107":-1.3317923545837402,"108":-0.9186792373657227,"109":-0.8057370185852051,"110":-1.3327823877334595,"111":0.3834974467754364,"112":0.27568745613098145,"113":0.09876352548599243,"114":0.22740690410137177,"115":0.17029321193695068,"116":-0.9010981917381287,"117":1.0024880170822144,"118":1.3517491817474365,"119":0.44107571244239807,"120":0.7427535653114319,"121":-0.05299726501107216,"122":-0.02491750195622444,"123":-0.3409423232078552,"124":1.5403187274932861,"125":0.11263930052518845,"126":1.1037882566452026,"127":1.5925958156585693,"128":2.018681526184082,"129":-0.10986212641000748,"130":0.27402108907699585,"131":-1.280288815498352,"132":0.059003882110118866,"133":-1.2108781337738037,"134":-1.8412103652954102,"135":0.9261575937271118,"136":1.1397640705108643,"137":-0.7259259819984436,"138":-0.8467930555343628,"139":-0.6544862389564514,"140":0.5599920153617859,"141":-0.758148729801178,"142":0.46225622296333313,"143":1.701745867729187,"144":-0.08245443552732468}},"4":{"bias":0.5411645174026489,"weights":{"0":1.3056710958480835,"1":-1.0114006996154785,"2":0.3911202549934387,"3":-1.551417589187622,"4":2.3954293727874756,"5":-0.20732560753822327,"6":1.9823927879333496,"7":0.3557099997997284,"8":0.4289866089820862,"9":1.1104223728179932,"10":1.1194051504135132,"11":-1.2032055854797363,"12":1.5058294534683228,"13":-0.10194673389196396,"14":-0.1348450630903244,"15":-0.03235660120844841,"16":-0.737538754940033,"17":-0.6069217920303345,"18":-1.4400365352630615,"19":-0.7758380770683289,"20":0.3588534891605377,"21":-0.08294151723384857,"22":-1.1407992839813232,"23":1.9483146667480469,"24":1.3867064714431763,"25":-2.2306926250457764,"26":0.48190468549728394,"27":-0.01675395295023918,"28":1.1603549718856812,"29":0.5446653962135315,"30":0.5258938074111938,"31":0.497056245803833,"32":0.17008429765701294,"33":-1.1704758405685425,"34":-0.279923677444458,"35":0.04000312089920044,"36":1.3299697637557983,"37":-1.1326297521591187,"38":-0.6183095574378967,"39":0.26347506046295166,"40":-0.6354975700378418,"41":-0.5871007442474365,"42":0.04318908601999283,"43":-0.4669479727745056,"44":0.09368515014648438,"45":0.006048185285180807,"46":-0.13633431494235992,"47":-0.3688071668148041,"48":-1.202118158340454,"49":1.3703757524490356,"50":-2.2776808738708496,"51":-0.7901010513305664,"52":0.45499706268310547,"53":0.4001401960849762,"54":-0.3098753094673157,"55":0.49272531270980835,"56":0.6740879416465759,"57":-0.6545000672340393,"58":1.5323705673217773,"59":0.32977065443992615,"60":0.10845879465341568,"61":-0.9504237771034241,"62":1.1346981525421143,"63":-0.10252545028924942,"64":0.32919731736183167,"65":1.324737310409546,"66":-1.072507381439209,"67":-0.8115676045417786,"68":-0.9636763334274292,"69":-0.8171329498291016,"70":1.334834337234497,"71":-1.529091477394104,"72":1.1357700824737549,"73":0.46975353360176086,"74":-0.06378835439682007,"75":-0.9958532452583313,"76":-1.4876492023468018,"77":-0.04761107265949249,"78":0.7245133519172668,"79":0.39598357677459717,"80":-1.4605188369750977,"81":1.6578307151794434,"82":1.9679443836212158,"83":-0.7363934516906738,"84":0.6928020715713501,"85":0.3193190097808838,"86":-1.9896737337112427,"87":-1.0845041275024414,"88":-2.1660423278808594,"89":1.2772233486175537,"90":0.025445744395256042,"91":-0.14281511306762695,"92":-0.6146356463432312,"93":1.2530126571655273,"94":-0.04780101776123047,"95":-2.5807883739471436,"96":-1.3034459352493286,"97":-0.11724445223808289,"98":0.08956166356801987,"99":-0.4062368869781494,"100":1.7622692584991455,"101":-1.4351413249969482,"102":0.7611294984817505,"103":0.2742559015750885,"104":0.15931767225265503,"105":0.4604092538356781,"106":-0.1596134454011917,"107":1.3172447681427002,"108":-1.8093481063842773,"109":-2.580557107925415,"110":0.4507964849472046,"111":-0.03439325466752052,"112":-1.0427799224853516,"113":0.944471538066864,"114":-0.6640013456344604,"115":0.6057363152503967,"116":-2.8756797313690186,"117":0.9880175590515137,"118":-0.689886212348938,"119":-0.7647488117218018,"120":3.0225417613983154,"121":-0.13632388412952423,"122":-1.296122670173645,"123":-3.351673126220703,"124":0.23787261545658112,"125":0.47660934925079346,"126":-0.593235433101654,"127":-2.958980083465576,"128":0.13064782321453094,"129":0.2822245657444,"130":-0.24956132471561432,"131":-0.3451906442642212,"132":1.048231840133667,"133":-0.4878622591495514,"134":0.7505945563316345,"135":1.5612118244171143,"136":0.22100889682769775,"137":0.25131529569625854,"138":-1.3793872594833374,"139":0.9922202825546265,"140":0.7495766878128052,"141":-0.7533425688743591,"142":0.6482822299003601,"143":0.1813025027513504,"144":0.7425152063369751}},"5":{"bias":-1.732373595237732,"weights":{"0":2.709709882736206,"1":0.2934243381023407,"2":0.8283372521400452,"3":-0.03500037640333176,"4":-0.21458883583545685,"5":0.012091931886970997,"6":0.21151243150234222,"7":-0.9138989448547363,"8":0.16527904570102692,"9":-0.19585609436035156,"10":0.09263206273317337,"11":0.2544587552547455,"12":1.0832467079162598,"13":1.5510820150375366,"14":-0.31665727496147156,"15":0.6494355797767639,"16":0.16202862560749054,"17":0.5172288417816162,"18":1.5870604515075684,"19":0.5589774250984192,"20":-0.4336329996585846,"21":-0.7284201383590698,"22":-0.430794358253479,"23":0.4253244996070862,"24":2.0719847679138184,"25":-0.5354085564613342,"26":0.6029514670372009,"27":0.4979264736175537,"28":0.007486287970095873,"29":1.1252467632293701,"30":-0.9389253854751587,"31":0.6036325693130493,"32":-0.12236909568309784,"33":1.0618371963500977,"34":0.04753785952925682,"35":-1.791319727897644,"36":-0.46568769216537476,"37":0.11247869580984116,"38":1.029490351676941,"39":1.2507389783859253,"40":0.09470685571432114,"41":-0.3438069820404053,"42":-0.8838019371032715,"43":-0.48046213388442993,"44":-0.17198391258716583,"45":1.3547112941741943,"46":1.1082706451416016,"47":0.9895157217979431,"48":-0.24164386093616486,"49":-0.5126331448554993,"50":-1.2724629640579224,"51":0.5817331075668335,"52":-1.0610458850860596,"53":0.37087520956993103,"54":0.845116913318634,"55":0.34380242228507996,"56":1.1669671535491943,"57":0.6770877242088318,"58":-0.006767943501472473,"59":0.1885852962732315,"60":1.5739247798919678,"61":0.48812204599380493,"62":-1.29795503616333,"63":0.3368735909461975,"64":0.8062789440155029,"65":-1.2443716526031494,"66":-0.19929704070091248,"67":0.22258247435092926,"68":0.8359540104866028,"69":-0.10283683985471725,"70":-1.5006024837493896,"71":1.2490054368972778,"72":-1.2883483171463013,"73":-1.047844409942627,"74":0.5582190155982971,"75":0.5117080807685852,"76":0.5394977331161499,"77":-0.15912219882011414,"78":-0.04958227649331093,"79":3.0416741371154785,"80":0.5193478465080261,"81":0.22499580681324005,"82":1.7310473918914795,"83":0.5076601505279541,"84":0.7509316802024841,"85":0.6383635401725769,"86":-0.314757764339447,"87":0.589070200920105,"88":0.44065791368484497,"89":0.8495656251907349,"90":-0.5471480488777161,"91":-1.4451520442962646,"92":-0.06889446824789047,"93":-1.8484309911727905,"94":-1.0002282857894897,"95":-1.2924600839614868,"96":-0.33090391755104065,"97":0.26973092555999756,"98":-0.0610126368701458,"99":-0.042063310742378235,"100":1.4124468564987183,"101":0.4397371709346771,"102":-0.13825105130672455,"103":0.1619473248720169,"104":0.5434253811836243,"105":-1.6136749982833862,"106":0.6204034686088562,"107":-0.04493154212832451,"108":-2.203801155090332,"109":0.2340378612279892,"110":-0.2650400400161743,"111":0.004125410690903664,"112":-1.1147253513336182,"113":0.5431248545646667,"114":0.9795058965682983,"115":-0.20623140037059784,"116":-0.7395873665809631,"117":-0.7956662774085999,"118":1.999053716659546,"119":0.3341400623321533,"120":1.3216997385025024,"121":0.3377481698989868,"122":-0.6012590527534485,"123":-1.5502394437789917,"124":-0.1415228545665741,"125":0.7818434238433838,"126":-0.8018861413002014,"127":1.099493145942688,"128":-0.12509939074516296,"129":-1.877266764640808,"130":0.4892985224723816,"131":1.0752804279327393,"132":-0.6828974485397339,"133":-0.7086480259895325,"134":0.4459114074707031,"135":1.03301203250885,"136":0.14131569862365723,"137":-0.8309561014175415,"138":0.7241615056991577,"139":-0.33919814229011536,"140":0.6584557890892029,"141":-0.3525482714176178,"142":0.16877053678035736,"143":-0.39542263746261597,"144":-0.23881025612354279}},"6":{"bias":-0.47401368618011475,"weights":{"0":1.1122606992721558,"1":0.2875114381313324,"2":0.5339253544807434,"3":0.17355161905288696,"4":0.7158397436141968,"5":0.07896468043327332,"6":0.8995046615600586,"7":-0.6968215703964233,"8":0.273958683013916,"9":0.08722542971372604,"10":-2.031012535095215,"11":-0.5818670988082886,"12":1.6528054475784302,"13":0.17933931946754456,"14":-1.3693245649337769,"15":0.14709578454494476,"16":-1.0451881885528564,"17":0.35498636960983276,"18":1.6526198387145996,"19":-0.5442497730255127,"20":0.23785176873207092,"21":-1.1329375505447388,"22":1.2701585292816162,"23":0.4406048655509949,"24":1.812838077545166,"25":0.7628015875816345,"26":0.04740895330905914,"27":0.5781941413879395,"28":1.1402376890182495,"29":1.4016811847686768,"30":0.4967345893383026,"31":0.7194238901138306,"32":-0.9205726385116577,"33":1.6164672374725342,"34":-0.12856119871139526,"35":-0.6543638706207275,"36":-1.2392098903656006,"37":0.510653555393219,"38":0.1663624346256256,"39":0.7662721872329712,"40":0.4287453591823578,"41":-0.8927922248840332,"42":0.20741483569145203,"43":-0.22269609570503235,"44":0.39597195386886597,"45":-1.2706334590911865,"46":-0.21915113925933838,"47":-1.5548902750015259,"48":-0.29284486174583435,"49":0.07609155029058456,"50":-2.129859685897827,"51":-2.069499969482422,"52":0.0068535334430634975,"53":1.401591420173645,"54":1.0212681293487549,"55":0.5188091397285461,"56":1.1433590650558472,"57":0.14685727655887604,"58":-0.9718007445335388,"59":0.3849863111972809,"60":-1.5220435857772827,"61":-0.2584476172924042,"62":-0.45493122935295105,"63":-0.342438668012619,"64":0.49422603845596313,"65":0.5698449611663818,"66":0.20627456903457642,"67":0.4604966640472412,"68":0.2829475700855255,"69":-0.3339509963989258,"70":0.5171872973442078,"71":-0.9757509231567383,"72":0.0204263087362051,"73":-0.6825820207595825,"74":-0.9504479169845581,"75":0.2785623073577881,"76":0.3504363000392914,"77":-1.2345274686813354,"78":0.636670708656311,"79":1.9330111742019653,"80":1.3235503435134888,"81":-0.47185683250427246,"82":-0.2975763976573944,"83":0.06397826969623566,"84":0.46437451243400574,"85":0.23630353808403015,"86":-1.061553716659546,"87":2.1038458347320557,"88":-1.071585774421692,"89":-0.5858796238899231,"90":-0.0926913246512413,"91":0.722804605960846,"92":0.09492529928684235,"93":-2.600914716720581,"94":0.7149702310562134,"95":2.1879701614379883,"96":-0.21893444657325745,"97":-0.054800987243652344,"98":-0.2764594554901123,"99":0.4117640256881714,"100":-0.9594196081161499,"101":-0.301555871963501,"102":0.8214269280433655,"103":-0.1534108817577362,"104":-0.06210460141301155,"105":-0.8550939559936523,"106":-0.9276967644691467,"107":0.39922329783439636,"108":-3.591326951980591,"109":-1.023708462715149,"110":0.49553966522216797,"111":0.01289429236203432,"112":-1.5861295461654663,"113":0.378413587808609,"114":0.2655004560947418,"115":0.04505717009305954,"116":-0.02872263826429844,"117":1.0307537317276,"118":-0.08535873889923096,"119":-0.23416921496391296,"120":-0.486066609621048,"121":0.15347571671009064,"122":-1.351706862449646,"123":-0.19978177547454834,"124":0.6594332456588745,"125":-2.4277374744415283,"126":-2.706629514694214,"127":0.31884631514549255,"128":1.2000575065612793,"129":0.23678357899188995,"130":-0.36727508902549744,"131":1.0540355443954468,"132":0.9849657416343689,"133":0.1386738270521164,"134":-1.6726090908050537,"135":-2.078660726547241,"136":-0.24029318988323212,"137":-1.05013108253479,"138":-2.194896936416626,"139":-0.4404119551181793,"140":-1.0311939716339111,"141":-1.0167173147201538,"142":0.8735914826393127,"143":-0.3794610798358917,"144":-0.6038793325424194}},"7":{"bias":0.39391157031059265,"weights":{"0":2.0389368534088135,"1":0.19143541157245636,"2":-0.5787983536720276,"3":-0.10831812024116516,"4":0.8151336908340454,"5":0.2456739991903305,"6":-0.18975669145584106,"7":-0.5476090908050537,"8":0.9310051202774048,"9":-0.7366057634353638,"10":0.22337566316127777,"11":0.8233731389045715,"12":-0.7299584746360779,"13":0.058833763003349304,"14":0.09081593155860901,"15":0.6514493227005005,"16":0.3643457293510437,"17":-0.03549797087907791,"18":0.19353196024894714,"19":-1.1080358028411865,"20":-1.8422949314117432,"21":1.0541671514511108,"22":-1.82648766040802,"23":1.2377640008926392,"24":0.4668464660644531,"25":-0.952851414680481,"26":-0.7507838010787964,"27":-0.2737275958061218,"28":-0.014154178090393543,"29":-0.808067798614502,"30":-1.500661849975586,"31":0.9403442144393921,"32":0.4783531427383423,"33":-0.6764441132545471,"34":0.4055551290512085,"35":1.2809929847717285,"36":1.900665521621704,"37":-1.8233531713485718,"38":-0.919334888458252,"39":0.20542560517787933,"40":-0.7588285207748413,"41":0.19241440296173096,"42":-0.024105209857225418,"43":1.1042184829711914,"44":0.33976826071739197,"45":0.49069660902023315,"46":-0.6481674909591675,"47":0.8006492853164673,"48":0.4959586262702942,"49":-0.9629086852073669,"50":-0.24648721516132355,"51":-2.098996877670288,"52":1.148667335510254,"53":1.8040107488632202,"54":1.1526799201965332,"55":-0.22619450092315674,"56":0.2695421278476715,"57":-2.0720791816711426,"58":0.8213227987289429,"59":0.13812991976737976,"60":-0.6065870523452759,"61":0.43234676122665405,"62":0.1032492071390152,"63":-0.01883673667907715,"64":-1.1818077564239502,"65":-0.966715395450592,"66":0.18706822395324707,"67":0.6758267879486084,"68":0.786069393157959,"69":-0.27450311183929443,"70":-0.46091368794441223,"71":-0.16759838163852692,"72":-0.5372429490089417,"73":-0.10699823498725891,"74":0.46614861488342285,"75":-0.35289138555526733,"76":-0.7809292674064636,"77":-0.18124091625213623,"78":-0.05682417377829552,"79":1.2645066976547241,"80":0.5408145785331726,"81":-0.19001224637031555,"82":0.5322257876396179,"83":1.758981704711914,"84":-0.6614663004875183,"85":0.2671906054019928,"86":-0.67695152759552,"87":0.05441559851169586,"88":-0.016190344467759132,"89":0.9204564094543457,"90":-0.8021966218948364,"91":-1.8571147918701172,"92":0.6888818144798279,"93":-0.8271334171295166,"94":-1.3635092973709106,"95":0.0008314477745443583,"96":-0.8677430748939514,"97":0.8213390707969666,"98":-0.5261017680168152,"99":-0.7884942293167114,"100":-1.4893957376480103,"101":0.26038455963134766,"102":-0.7383571267127991,"103":0.31794363260269165,"104":-0.18781664967536926,"105":-0.5433444380760193,"106":1.5292370319366455,"107":0.3339863121509552,"108":-0.7664445042610168,"109":-1.1879976987838745,"110":-0.0019536821637302637,"111":1.6880959272384644,"112":3.003202199935913,"113":-0.21172279119491577,"114":0.22867631912231445,"115":-0.43947669863700867,"116":-0.3718433082103729,"117":0.07512006163597107,"118":0.11798287183046341,"119":0.06673917919397354,"120":2.87381649017334,"121":-0.08157375454902649,"122":-1.4378246068954468,"123":-1.794662594795227,"124":0.5784379839897156,"125":0.11542133241891861,"126":-1.0490539073944092,"127":-0.029136454686522484,"128":-0.5592119693756104,"129":1.1681268215179443,"130":1.3259799480438232,"131":0.0791466236114502,"132":0.7959891557693481,"133":0.6648739576339722,"134":1.9528313875198364,"135":-0.48344922065734863,"136":0.12117184698581696,"137":0.7842881083488464,"138":-0.48487144708633423,"139":-1.2197483777999878,"140":0.6323421597480774,"141":3.6990413665771484,"142":-0.250762403011322,"143":0.07245557010173798,"144":-0.0926695242524147}}},{"0":{"bias":-0.8127489686012268,"weights":{"0":0.3869469165802002,"1":0.2981274425983429,"2":-0.028532344847917557,"3":-0.9654399156570435,"4":-0.5255938768386841,"5":-1.7548375129699707,"6":-0.13904249668121338,"7":0.30345308780670166}},"1":{"bias":-0.5794351100921631,"weights":{"0":-0.13433140516281128,"1":-1.0095053911209106,"2":-0.05385332927107811,"3":0.4791383147239685,"4":-0.24476365745067596,"5":-0.8927258253097534,"6":-0.43860507011413574,"7":0.9399616718292236}},"2":{"bias":-0.5783111453056335,"weights":{"0":0.17770391702651978,"1":-0.004553492181003094,"2":0.23931892216205597,"3":0.077146977186203,"4":-1.0177932977676392,"5":-1.2171064615249634,"6":-0.41490259766578674,"7":0.7087815999984741}},"3":{"bias":-0.9193892478942871,"weights":{"0":-0.30022233724594116,"1":-0.04679599404335022,"2":-0.24474181234836578,"3":-0.06152517721056938,"4":-0.40571048855781555,"5":-0.757446825504303,"6":-0.5617770552635193,"7":0.18240275979042053}},"4":{"bias":-7.182337760925293,"weights":{"0":6.669064998626709,"1":-7.315332412719727,"2":6.0041093826293945,"3":-7.983142852783203,"4":5.619134902954102,"5":5.8704071044921875,"6":-6.627572536468506,"7":-7.471514701843262}},"5":{"bias":-0.9896979928016663,"weights":{"0":-0.23937161266803741,"1":-0.5188759565353394,"2":-0.20507986843585968,"3":-0.1822734922170639,"4":-0.4908437728881836,"5":-0.38495540618896484,"6":-0.15841403603553772,"7":-0.16508299112319946}},"6":{"bias":1.8113073110580444,"weights":{"0":-0.3008759319782257,"1":1.05080246925354,"2":0.01521039567887783,"3":0.9799463152885437,"4":-0.01899714767932892,"5":-0.2880374491214752,"6":-0.5196024775505066,"7":2.306833267211914}},"7":{"bias":-0.4311092793941498,"weights":{"0":-0.5353665947914124,"1":1.0379287004470825,"2":-0.7371371388435364,"3":0.643124520778656,"4":-1.3968623876571655,"5":-0.0683765560388565,"6":-0.01517519075423479,"7":0.41303277015686035}}},{"0":{"bias":-0.20402716100215912,"weights":{"0":-0.9894585609436035,"1":0.9325610995292664,"2":-0.32256296277046204,"3":0.2636392414569855,"4":9.438094139099121,"5":0.3421056270599365,"6":-1.364800214767456,"7":0.9013736248016357}}}],"outputLookup":false,"inputLookup":false,"activation":"sigmoid","trainOpts":{"iterations":20000,"errorThresh":0.003,"log":true,"logPeriod":10,"learningRate":0.05,"momentum":0.1,"callbackPeriod":10,"beta1":0.9,"beta2":0.999,"epsilon":1e-8}}