{"sizes":[145,8,8,1],"layers":[{"0":{},"1":{},"2":{},"3":{},"4":{},"5":{},"6":{},"7":{},"8":{},"9":{},"10":{},"11":{},"12":{},"13":{},"14":{},"15":{},"16":{},"17":{},"18":{},"19":{},"20":{},"21":{},"22":{},"23":{},"24":{},"25":{},"26":{},"27":{},"28":{},"29":{},"30":{},"31":{},"32":{},"33":{},"34":{},"35":{},"36":{},"37":{},"38":{},"39":{},"40":{},"41":{},"42":{},"43":{},"44":{},"45":{},"46":{},"47":{},"48":{},"49":{},"50":{},"51":{},"52":{},"53":{},"54":{},"55":{},"56":{},"57":{},"58":{},"59":{},"60":{},"61":{},"62":{},"63":{},"64":{},"65":{},"66":{},"67":{},"68":{},"69":{},"70":{},"71":{},"72":{},"73":{},"74":{},"75":{},"76":{},"77":{},"78":{},"79":{},"80":{},"81":{},"82":{},"83":{},"84":{},"85":{},"86":{},"87":{},"88":{},"89":{},"90":{},"91":{},"92":{},"93":{},"94":{},"95":{},"96":{},"97":{},"98":{},"99":{},"100":{},"101":{},"102":{},"103":{},"104":{},"105":{},"106":{},"107":{},"108":{},"109":{},"110":{},"111":{},"112":{},"113":{},"114":{},"115":{},"116":{},"117":{},"118":{},"119":{},"120":{},"121":{},"122":{},"123":{},"124":{},"125":{},"126":{},"127":{},"128":{},"129":{},"130":{},"131":{},"132":{},"133":{},"134":{},"135":{},"136":{},"137":{},"138":{},"139":{},"140":{},"141":{},"142":{},"143":{},"144":{}},{"0":{"bias":-0.18792051076889038,"weights":{"0":-0.27499106526374817,"1":-0.3147753179073334,"2":0.029446037486195564,"3":0.24481350183486938,"4":-0.664064884185791,"5":0.3181927800178528,"6":0.1785828173160553,"7":0.4250171482563019,"8":0.6348953247070312,"9":-0.9812906980514526,"10":-0.5506477952003479,"11":-0.9028107523918152,"12":0.7633715271949768,"13":0.42085519433021545,"14":0.5457049012184143,"15":-0.15909089148044586,"16":0.4021826386451721,"17":0.2968389093875885,"18":-0.23479123413562775,"19":-0.284671813249588,"20":-0.7168076634407043,"21":0.5110054016113281,"22":-1.1677182912826538,"23":-0.36186590790748596,"24":-0.38982269167900085,"25":0.5577911138534546,"26":-0.10250848531723022,"27":1.2826671600341797,"28":-0.10679423809051514,"29":1.0556930303573608,"30":-1.0518525838851929,"31":-0.8639329075813293,"32":-0.18468666076660156,"33":-0.36239176988601685,"34":-0.04259566217660904,"35":0.32321596145629883,"36":0.5996838212013245,"37":-0.8053998351097107,"38":-0.5808843374252319,"39":-0.26694443821907043,"40":0.3087542653083801,"41":-0.43930375576019287,"42":0.14476296305656433,"43":0.0774686336517334,"44":0.440448135137558,"45":-0.3227379620075226,"46":0.4020547568798065,"47":-0.08253522217273712,"48":-0.20099091529846191,"49":-0.33671054244041443,"50":0.1679050177335739,"51":-0.5863440632820129,"52":0.10272868722677231,"53":0.3553183078765869,"54":-0.06536169350147247,"55":-0.11607541888952255,"56":0.243382066488266,"57":0.419637531042099,"58":0.05658169463276863,"59":0.174480140209198,"60":-0.47612687945365906,"61":0.2793990671634674,"62":0.1579013615846634,"63":0.252103716135025,"64":0.39221107959747314,"65":0.34239065647125244,"66":-0.0110166035592556,"67":0.7368040680885315,"68":0.05583693087100983,"69":0.008065766654908657,"70":0.15908841788768768,"71":0.3535427153110504,"72":0.37234631180763245,"73":0.23888109624385834,"74":0.5863083600997925,"75":0.33439576625823975,"76":-0.4935157597064972,"77":-0.062057722359895706,"78":-0.8029757738113403,"79":-0.4657428562641144,"80":0.9087085127830505,"81":0.13322287797927856,"82":-0.2140827625989914,"83":-0.31269770860671997,"84":-0.23885339498519897,"85":-0.10530141741037369,"86":1.4239501953125,"87":0.06322753429412842,"88":-0.233223557472229,"89":0.08660261332988739,"90":-0.06746941804885864,"91":0.7415511608123779,"92":0.0442192517220974,"93":-0.11233077198266983,"94":-1.0522056818008423,"95":0.5848474502563477,"96":0.45290058851242065,"97":0.09478526562452316,"98":0.6350818276405334,"99":-0.7343647480010986,"100":0.20547792315483093,"101":-0.8860446810722351,"102":-0.11749984323978424,"103":0.29104962944984436,"104":0.19402971863746643,"105":-0.3016964793205261,"106":-0.4880945086479187,"107":-0.3199099600315094,"108":-0.2344418168067932,"109":0.13292008638381958,"110":-0.46487584710121155,"111":-0.7296863198280334,"112":0.19145184755325317,"113":-0.15948958694934845,"114":1.6103159189224243,"115":-0.3047514259815216,"116":-0.18966452777385712,"117":1.3371306657791138,"118":-0.8141531348228455,"119":-0.473131388425827,"120":0.35643890500068665,"121":0.15382865071296692,"122":0.28773927688598633,"123":0.10447753220796585,"124":0.3223230242729187,"125":-0.7300454378128052,"126":-0.3904482126235962,"127":-1.3860962390899658,"128":-0.49549242854118347,"129":0.5450360774993896,"130":0.1189614087343216,"131":0.2481652796268463,"132":0.5498403906822205,"133":0.31987667083740234,"134":-0.19915591180324554,"135":-0.5562299489974976,"136":-0.5365867018699646,"137":-0.4762802720069885,"138":-0.9885643124580383,"139":-0.3795590102672577,"140":-0.20328210294246674,"141":0.37272757291793823,"142":-0.02773830108344555,"143":0.4268963634967804,"144":-0.3048619031906128}},"1":{"bias":0.16059984266757965,"weights":{"0":0.6443451046943665,"1":-0.02187013253569603,"2":0.6731225848197937,"3":0.013747737742960453,"4":0.18342368304729462,"5":0.3572082817554474,"6":0.40589073300361633,"7":-0.11236552894115448,"8":0.3261503279209137,"9":0.11368723213672638,"10":1.089139461517334,"11":-0.5171862840652466,"12":0.496310830116272,"13":0.011038337834179401,"14":0.20144841074943542,"15":0.2136353701353073,"16":0.4937182366847992,"17":0.1372831016778946,"18":-0.2827237546443939,"19":0.3089102804660797,"20":-0.9204679727554321,"21":1.326724886894226,"22":-0.5045936107635498,"23":0.7172380685806274,"24":0.36295512318611145,"25":-1.1480618715286255,"26":-0.32547491788864136,"27":1.148633599281311,"28":0.3277175724506378,"29":0.07863267511129379,"30":0.29378724098205566,"31":-0.3218657970428467,"32":1.7380279302597046,"33":-0.1464417576789856,"34":0.6215749382972717,"35":0.43829986453056335,"36":0.5908708572387695,"37":0.03446870297193527,"38":-0.36964520812034607,"39":-0.5860849618911743,"40":-0.42930054664611816,"41":-0.6700124740600586,"42":-0.13801971077919006,"43":-0.4588352143764496,"44":-0.3363859951496124,"45":-0.056176360696554184,"46":0.23247338831424713,"47":-0.41728028655052185,"48":0.26631590723991394,"49":0.7717171907424927,"50":0.44549885392189026,"51":0.01579013280570507,"52":-0.06688543409109116,"53":-0.524634599685669,"54":-0.23250064253807068,"55":-0.4201347231864929,"56":-0.7969668507575989,"57":0.5125895738601685,"58":0.19372768700122833,"59":0.671546995639801,"60":0.36884400248527527,"61":0.7412959933280945,"62":0.7111260890960693,"63":0.5259854793548584,"64":0.016870295628905296,"65":-0.17879989743232727,"66":-0.2775134742259979,"67":0.42370352149009705,"68":0.0714743509888649,"69":-0.7286327481269836,"70":0.3768582344055176,"71":0.6978449821472168,"72":0.1855045109987259,"73":0.3475509285926819,"74":0.47252050042152405,"75":0.0938548818230629,"76":-0.8598318099975586,"77":0.664940595626831,"78":0.43843576312065125,"79":1.2476390600204468,"80":0.0054025608114898205,"81":0.4244929850101471,"82":0.763361930847168,"83":0.18909010291099548,"84":-0.23360511660575867,"85":0.5707916021347046,"86":-0.022612616419792175,"87":0.7145768404006958,"88":0.22522401809692383,"89":0.4957164525985718,"90":0.2339838445186615,"91":-0.020812928676605225,"92":0.6820826530456543,"93":0.6152763962745667,"94":-0.031495947390794754,"95":-0.1994277536869049,"96":-0.030062193050980568,"97":0.3133951425552368,"98":-0.2999301552772522,"99":-0.48627790808677673,"100":-0.5037471055984497,"101":0.3344213664531708,"102":-0.34670960903167725,"103":0.12586763501167297,"104":0.29081329703330994,"105":0.5372944474220276,"106":0.5584093332290649,"107":0.8992080688476562,"108":-0.388051301240921,"109":-0.42865705490112305,"110":0.19899801909923553,"111":0.02111397683620453,"112":0.004898072220385075,"113":-0.43701043725013733,"114":-0.42246320843696594,"115":0.4152100682258606,"116":-0.4079355001449585,"117":-1.0350395441055298,"118":0.5528466105461121,"119":-0.30384746193885803,"120":0.44064199924468994,"121":0.6062036156654358,"122":-0.23622260987758636,"123":0.05346732214093208,"124":-0.1078503280878067,"125":0.35524579882621765,"126":0.22528892755508423,"127":-1.0420656204223633,"128":0.21524471044540405,"129":1.2022793292999268,"130":0.3716435432434082,"131":0.3195372223854065,"132":-0.404000461101532,"133":0.2470427006483078,"134":-0.4780089557170868,"135":0.5560481548309326,"136":0.7057836055755615,"137":0.17707747220993042,"138":0.15042342245578766,"139":-0.016860462725162506,"140":0.01674194075167179,"141":0.37333935499191284,"142":-0.4245932996273041,"143":-1.2833257913589478,"144":-0.8337768912315369}},"2":{"bias":0.20550259947776794,"weights":{"0":-1.1426606178283691,"1":-1.0643030405044556,"2":-0.8372719883918762,"3":0.48269835114479065,"4":0.17141875624656677,"5":0.24233846366405487,"6":-0.3678377568721771,"7":0.677383303642273,"8":-0.077471062541008,"9":0.07080116122961044,"10":-0.5730243921279907,"11":-0.2158181518316269,"12":0.8562012910842896,"13":-0.1698700487613678,"14":-0.023934930562973022,"15":-0.2603408694267273,"16":-0.2819347381591797,"17":-0.4338778555393219,"18":-0.10769820958375931,"19":-0.239019513130188,"20":0.21842391788959503,"21":-0.4563008248806,"22":0.24751456081867218,"23":0.11266080290079117,"24":0.1529235988855362,"25":0.035674888640642166,"26":0.33719402551651,"27":0.19479764997959137,"28":-0.5431312918663025,"29":-0.5542532801628113,"30":0.22550994157791138,"31":-0.13401591777801514,"32":0.4877387583255768,"33":0.37308886647224426,"34":0.28782784938812256,"35":-0.11204330623149872,"36":-0.043159741908311844,"37":-0.019436221569776535,"38":-0.1471492201089859,"39":-1.057325005531311,"40":0.6144132018089294,"41":0.2023097425699234,"42":-0.35662832856178284,"43":0.01487946417182684,"44":-0.3679001033306122,"45":0.04600394144654274,"46":-0.2942422330379486,"47":-0.00006677630153717473,"48":-0.24333451688289642,"49":0.6622678637504578,"50":-0.7523480653762817,"51":0.5386762022972107,"52":0.1899821013212204,"53":-0.32748091220855713,"54":-0.6308584213256836,"55":0.1414802372455597,"56":1.5116400718688965,"57":-0.4182038903236389,"58":0.0016775985714048147,"59":-0.6842203140258789,"60":0.3720729947090149,"61":0.29084447026252747,"62":0.9091784358024597,"63":0.22181397676467896,"64":-0.21267229318618774,"65":-0.2633801996707916,"66":0.030049726366996765,"67":0.2531284987926483,"68":-0.15077392756938934,"69":-0.5691540241241455,"70":0.38362744450569153,"71":-0.07405567169189453,"72":0.2525033950805664,"73":-0.2281709909439087,"74":-0.06501124054193497,"75":-0.47129082679748535,"76":-0.4851189851760864,"77":-0.12444430589675903,"78":0.9512432813644409,"79":0.022996995598077774,"80":-0.3464164137840271,"81":0.025103799998760223,"82":-0.02845359407365322,"83":-0.20488567650318146,"84":0.5409736037254333,"85":-1.5574455261230469,"86":0.6516258120536804,"87":-0.6523746848106384,"88":-0.2217821180820465,"89":0.30317315459251404,"90":-0.5779354572296143,"91":-0.5936988592147827,"92":0.10838960856199265,"93":-0.03155283257365227,"94":-0.10191739350557327,"95":0.20409667491912842,"96":0.16762351989746094,"97":0.13593357801437378,"98":-0.1380780190229416,"99":-1.3699132204055786,"100":-0.24357888102531433,"101":0.26662468910217285,"102":-0.24196556210517883,"103":-0.15825830399990082,"104":-0.3996502459049225,"105":0.3053490221500397,"106":-0.153743177652359,"107":-0.8993034958839417,"108":0.5122517347335815,"109":0.8436395525932312,"110":0.062328167259693146,"111":-0.10213301330804825,"112":0.1909734606742859,"113":0.10081741213798523,"114":0.4704252779483795,"115":-0.8104982376098633,"116":0.044074662029743195,"117":-0.2561662197113037,"118":-0.2830721437931061,"119":0.25825750827789307,"120":0.41441550850868225,"121":0.03793293610215187,"122":-0.39388027787208557,"123":-0.451445996761322,"124":-0.830826461315155,"125":0.45104655623435974,"126":-0.8118494749069214,"127":-0.3160364031791687,"128":-0.9018749594688416,"129":0.1990126073360443,"130":-0.17209534347057343,"131":0.1678788959980011,"132":-0.4368739724159241,"133":-0.17203617095947266,"134":-0.03891542926430702,"135":0.048517074435949326,"136":0.16962969303131104,"137":-0.7086042761802673,"138":0.6330367922782898,"139":0.560431957244873,"140":0.17414219677448273,"141":-0.31283459067344666,"142":0.13573282957077026,"143":0.23003001511096954,"144":0.5519142150878906}},"3":{"bias":1.3646504878997803,"weights":{"0":0.4152141213417053,"1":-0.8071182370185852,"2":-0.06164195388555527,"3":0.5597440004348755,"4":0.9609748125076294,"5":-0.035268332809209824,"6":-0.49501270055770874,"7":0.2443370670080185,"8":0.13624024391174316,"9":0.33305221796035767,"10":-0.23676317930221558,"11":-0.46425023674964905,"12":0.5989404320716858,"13":0.24032363295555115,"14":-0.09679944068193436,"15":-0.22833053767681122,"16":0.11311060935258865,"17":-0.4950368404388428,"18":-0.20058304071426392,"19":0.2426256686449051,"20":0.6284504532814026,"21":-0.07821178436279297,"22":0.16810183227062225,"23":0.7713258862495422,"24":0.07686791568994522,"25":0.06315775215625763,"26":-0.4786655604839325,"27":-0.3630460798740387,"28":0.16087807714939117,"29":-0.3346531093120575,"30":0.08903583139181137,"31":0.025866100564599037,"32":1.3519169092178345,"33":-0.059880487620830536,"34":0.31831300258636475,"35":-0.0754009559750557,"36":0.22452381253242493,"37":0.2144223302602768,"38":0.2505953311920166,"39":0.5637314319610596,"40":-0.18382567167282104,"41":-0.09992367774248123,"42":0.055350907146930695,"43":0.08605669438838959,"44":-0.07515496760606766,"45":-0.3820652365684509,"46":-0.5113615989685059,"47":-0.00843353196978569,"48":0.2561284303665161,"49":0.7802248597145081,"50":0.17561858892440796,"51":-0.10735481232404709,"52":0.7183988094329834,"53":0.41800475120544434,"54":0.31887611746788025,"55":-0.4017045497894287,"56":0.43464019894599915,"57":0.10092339664697647,"58":-0.10881102830171585,"59":-0.31383317708969116,"60":-0.48688533902168274,"61":-0.014308769255876541,"62":0.6075054407119751,"63":0.2635202705860138,"64":-0.19591659307479858,"65":0.04859500750899315,"66":0.007393755484372377,"67":0.09164728224277496,"68":-0.5867311358451843,"69":-0.24416163563728333,"70":-0.05617980286478996,"71":-0.024176526814699173,"72":-0.10900207608938217,"73":0.20267213881015778,"74":0.08219186216592789,"75":-0.28403446078300476,"76":-0.14543405175209045,"77":0.37728258967399597,"78":-0.6566892266273499,"79":-0.058172982186079025,"80":-0.24154698848724365,"81":0.4622974693775177,"82":-0.6161704659461975,"83":-0.2614624798297882,"84":-0.6015592217445374,"85":-1.0500764846801758,"86":0.38417118787765503,"87":1.0323771238327026,"88":0.5905527472496033,"89":-0.3507893681526184,"90":0.37504860758781433,"91":-0.40591832995414734,"92":0.11069564521312714,"93":-0.11884510517120361,"94":-0.27848565578460693,"95":-0.11143206059932709,"96":-0.3557804524898529,"97":-0.5802483558654785,"98":-2.0020251274108887,"99":-0.4878663718700409,"100":0.17646488547325134,"101":0.013280774466693401,"102":0.017568262293934822,"103":0.013248900882899761,"104":-0.0561227984726429,"105":-0.8570041060447693,"106":-0.18514394760131836,"107":-0.016791926696896553,"108":-0.401556134223938,"109":-0.32136085629463196,"110":0.29468733072280884,"111":-0.22086001932621002,"112":0.5223510265350342,"113":-0.5313685536384583,"114":0.218531996011734,"115":-0.6548847556114197,"116":-0.2168249934911728,"117":0.005571301560848951,"118":-0.5173465013504028,"119":0.12463100254535675,"120":0.016015097498893738,"121":-0.041858479380607605,"122":0.13637888431549072,"123":-1.0413812398910522,"124":0.1414673626422882,"125":-0.7313540577888489,"126":-0.685375988483429,"127":-0.4532676339149475,"128":-1.288751244544983,"129":0.35230401158332825,"130":-0.6485414505004883,"131":0.3944501578807831,"132":0.14254678785800934,"133":-0.1655234843492508,"134":-0.6659355759620667,"135":-0.05023953691124916,"136":-0.01934867724776268,"137":-0.8944692611694336,"138":-0.6448597311973572,"139":0.5782790780067444,"140":0.02687579020857811,"141":0.3548235297203064,"142":-0.7336512207984924,"143":0.08078212291002274,"144":0.47182825207710266}},"4":{"bias":0.4987257421016693,"weights":{"0":-0.42817753553390503,"1":-0.907184362411499,"2":0.1899780035018921,"3":0.5821061730384827,"4":-0.22141659259796143,"5":-0.10649614781141281,"6":0.3794424533843994,"7":0.003198796883225441,"8":-0.10254479199647903,"9":0.14665429294109344,"10":0.26197317242622375,"11":-0.4496454894542694,"12":-0.27640843391418457,"13":-0.3142361342906952,"14":0.08758380264043808,"15":-0.2993662357330322,"16":-0.3311823606491089,"17":0.18818022310733795,"18":0.07234521955251694,"19":-0.2271767407655716,"20":-0.811673641204834,"21":-0.21301454305648804,"22":-0.23452207446098328,"23":0.42305243015289307,"24":0.04183641076087952,"25":-0.5114893317222595,"26":-0.12108062952756882,"27":-0.42930540442466736,"28":-0.42456382513046265,"29":-0.6816220879554749,"30":-0.3247280418872833,"31":-0.16208985447883606,"32":-0.38691726326942444,"33":0.340736985206604,"34":-0.15843571722507477,"35":0.7334485054016113,"36":0.40650883316993713,"37":0.2328549027442932,"38":-0.14480195939540863,"39":-0.013998474925756454,"40":0.6717805862426758,"41":0.4697873294353485,"42":-0.37683025002479553,"43":0.16105876863002777,"44":0.00015689540305174887,"45":-0.2898487448692322,"46":0.27388420701026917,"47":0.9113971590995789,"48":-0.017398566007614136,"49":0.25838685035705566,"50":0.5527453422546387,"51":-0.5842984914779663,"52":0.04691869020462036,"53":-0.10857507586479187,"54":-0.17347201704978943,"55":-0.32339590787887573,"56":-0.16813665628433228,"57":-0.27760255336761475,"58":0.14443285763263702,"59":0.2625811696052551,"60":0.41784071922302246,"61":0.9023420214653015,"62":-0.35340744256973267,"63":-0.29796311259269714,"64":0.1548793464899063,"65":0.35169994831085205,"66":0.03598320856690407,"67":-0.5372314453125,"68":-0.12638340890407562,"69":-0.8172672390937805,"70":0.5371894240379333,"71":0.12713570892810822,"72":0.4928196370601654,"73":-0.10244863480329514,"74":-0.18397994339466095,"75":0.3943924009799957,"76":0.3552245497703552,"77":-0.12836748361587524,"78":-0.2702612280845642,"79":-0.2523738741874695,"80":-1.0949074029922485,"81":0.2183375358581543,"82":-0.019829807803034782,"83":-0.07998683303594589,"84":-0.22798188030719757,"85":0.6081477403640747,"86":1.0629279613494873,"87":-0.4105079174041748,"88":0.6404775977134705,"89":0.3145062029361725,"90":0.8896046280860901,"91":-0.21537986397743225,"92":-0.36478492617607117,"93":0.7572398781776428,"94":-0.48387014865875244,"95":0.009604519233107567,"96":-0.06054556369781494,"97":-0.014823267236351967,"98":-1.2044808864593506,"99":0.42259714007377625,"100":-0.24892908334732056,"101":0.2274245321750641,"102":-0.24828694760799408,"103":0.06832097470760345,"104":0.23109713196754456,"105":0.8190814852714539,"106":-0.30699780583381653,"107":-0.5540022850036621,"108":-0.3045521378517151,"109":-0.015149534679949284,"110":-0.07127569615840912,"111":-0.1755848079919815,"112":0.1584942787885666,"113":-0.48771876096725464,"114":0.34087690711021423,"115":0.48276716470718384,"116":-0.6156198978424072,"117":0.8649941086769104,"118":0.46515288949012756,"119":0.14698940515518188,"120":-0.2025015503168106,"121":-0.16122080385684967,"122":0.3792031705379486,"123":0.340869665145874,"124":-0.5790588855743408,"125":-0.07296501100063324,"126":-0.15974371135234833,"127":-0.3052888810634613,"128":-0.30029866099357605,"129":-0.14038735628128052,"130":-0.4773230254650116,"131":-0.39442071318626404,"132":-0.2607739567756653,"133":0.3912352919578552,"134":-0.12468956410884857,"135":0.1918550580739975,"136":-0.24611864984035492,"137":0.513543426990509,"138":-0.05469594523310661,"139":0.23467828333377838,"140":0.18385903537273407,"141":0.2116139829158783,"142":-0.4036198854446411,"143":0.6252386569976807,"144":0.6835694313049316}},"5":{"bias":-0.2742704749107361,"weights":{"0":-1.1864644289016724,"1":0.2549068331718445,"2":0.22666126489639282,"3":-0.08176080882549286,"4":-0.3890141248703003,"5":-0.1958615928888321,"6":-0.02244265004992485,"7":-0.15147696435451508,"8":0.5609380006790161,"9":0.007839718833565712,"10":0.12685668468475342,"11":-0.2040082961320877,"12":-0.5043357014656067,"13":-0.07165608555078506,"14":0.48602795600891113,"15":0.19839096069335938,"16":0.08591216802597046,"17":-0.19897973537445068,"18":-0.18086664378643036,"19":-0.3159310817718506,"20":-0.5675727128982544,"21":-0.558103621006012,"22":0.3997909426689148,"23":-0.14845117926597595,"24":0.1860188990831375,"25":0.12871696054935455,"26":-0.25854727625846863,"27":-0.5490509271621704,"28":-0.31576529145240784,"29":-0.8266188502311707,"30":0.3135620951652527,"31":-0.001494570286013186,"32":1.4821078777313232,"33":0.37382790446281433,"34":-0.04853266477584839,"35":0.016462597995996475,"36":0.05133746564388275,"37":0.014411593787372112,"38":0.11872173845767975,"39":0.3204949200153351,"40":-0.9842820763587952,"41":0.166732057929039,"42":0.20086750388145447,"43":-0.07798952609300613,"44":0.3430138826370239,"45":-0.04779185727238655,"46":-0.057492755353450775,"47":-0.2864397168159485,"48":-0.28632333874702454,"49":0.21528764069080353,"50":-0.3839210271835327,"51":-0.5313215851783752,"52":-0.24317821860313416,"53":0.22134648263454437,"54":0.005123496055603027,"55":-0.3441145420074463,"56":-0.0190618634223938,"57":-0.8753520846366882,"58":-0.2977420389652252,"59":-0.06376807391643524,"60":0.6965979933738708,"61":0.017674895003437996,"62":-0.46064114570617676,"63":-0.1266358643770218,"64":-0.2461664378643036,"65":0.5232701897621155,"66":0.58299320936203,"67":-0.4209335148334503,"68":0.4125308692455292,"69":1.1330612897872925,"70":1.2317405939102173,"71":0.5843417048454285,"72":-0.40340468287467957,"73":0.009612775407731533,"74":0.018030650913715363,"75":-0.014317191205918789,"76":-0.08521012216806412,"77":0.06356823444366455,"78":0.9571025371551514,"79":-0.13866552710533142,"80":-0.7256093621253967,"81":0.06340792775154114,"82":0.3036234378814697,"83":-0.26617056131362915,"84":-0.3757535219192505,"85":0.6671874523162842,"86":-0.4196934700012207,"87":-0.17823173105716705,"88":0.27631881833076477,"89":-0.02206583507359028,"90":-0.14158424735069275,"91":-0.4525841176509857,"92":-0.1638880968093872,"93":-0.3326771557331085,"94":-0.28844505548477173,"95":-0.001578082563355565,"96":0.01260360423475504,"97":0.49784621596336365,"98":-0.17423412203788757,"99":0.30983904004096985,"100":-0.16796565055847168,"101":-0.22872203588485718,"102":-0.04364927485585213,"103":0.09775201976299286,"104":-0.20768128335475922,"105":0.612089991569519,"106":0.07604820281267166,"107":0.15507452189922333,"108":-0.9731519818305969,"109":-0.1470586508512497,"110":0.0928744524717331,"111":0.2998312711715698,"112":-0.645188570022583,"113":-0.23856189846992493,"114":-1.310916781425476,"115":0.5878673195838928,"116":0.08693426102399826,"117":-0.8254212737083435,"118":0.035874273627996445,"119":0.0522201769053936,"120":0.3822091519832611,"121":-0.0009725245181471109,"122":0.0022017154842615128,"123":0.6432251930236816,"124":0.3494971990585327,"125":-0.31638461351394653,"126":-0.346809446811676,"127":-0.36316338181495667,"128":-0.29830658435821533,"129":0.23782946169376373,"130":-0.45665475726127625,"131":-0.22783495485782623,"132":0.3628212809562683,"133":-0.2946794927120209,"134":0.06488706171512604,"135":0.2360178381204605,"136":-0.001519110519438982,"137":-0.2693451941013336,"138":-1.3036314249038696,"139":-0.2232930064201355,"140":-0.5476849675178528,"141":-0.29488086700439453,"142":-0.07348497956991196,"143":0.5354640483856201,"144":1.2022366523742676}},"6":{"bias":0.9318708181381226,"weights":{"0":0.04065651074051857,"1":0.04683844372630119,"2":-0.2212391197681427,"3":-0.3429001569747925,"4":1.2629679441452026,"5":0.1512971967458725,"6":0.19857951998710632,"7":0.618963897228241,"8":0.7407634854316711,"9":-0.1843019723892212,"10":0.5444686412811279,"11":-0.534970760345459,"12":-0.5757488012313843,"13":0.09894721955060959,"14":0.8260958194732666,"15":0.4293566346168518,"16":0.43360790610313416,"17":0.23568491637706757,"18":0.304742693901062,"19":0.2329026162624359,"20":-0.2976948916912079,"21":0.22571642696857452,"22":-1.3401238918304443,"23":0.8090043067932129,"24":0.16257499158382416,"25":-1.112619161605835,"26":0.16298435628414154,"27":0.6004685163497925,"28":-0.1338459700345993,"29":-0.4043174982070923,"30":-0.13188539445400238,"31":0.4618891179561615,"32":-0.6167178153991699,"33":-0.21411319077014923,"34":0.16706426441669464,"35":-0.04012496396899223,"36":0.3003796339035034,"37":-0.9056152701377869,"38":-0.22968345880508423,"39":0.06802594661712646,"40":0.6682604551315308,"41":-0.4265071451663971,"42":0.4828870892524719,"43":-0.3021136224269867,"44":0.3684764504432678,"45":0.1701156497001648,"46":0.4051268994808197,"47":0.23388619720935822,"48":-0.13398952782154083,"49":-0.925104558467865,"50":-1.2218451499938965,"51":-0.08374727517366409,"52":-0.011897320859134197,"53":-0.460438072681427,"54":-0.016904935240745544,"55":0.17388933897018433,"56":1.659294843673706,"57":0.23263736069202423,"58":-0.19238898158073425,"59":0.021933970972895622,"60":-0.8588866591453552,"61":0.41354119777679443,"62":0.9972569942474365,"63":-0.1514294147491455,"64":0.332163542509079,"65":0.04322297126054764,"66":-0.3035769760608673,"67":-0.14729246497154236,"68":-0.49791839718818665,"69":-1.0214415788650513,"70":-0.19194117188453674,"71":-0.29592710733413696,"72":-0.36083459854125977,"73":0.044743895530700684,"74":-0.2604408264160156,"75":0.4678307771682739,"76":0.2930746078491211,"77":-0.3260232210159302,"78":1.508044719696045,"79":-0.1540634036064148,"80":-0.31691762804985046,"81":-0.3141302466392517,"82":-0.30799540877342224,"83":0.575516939163208,"84":-0.2418164610862732,"85":0.717987060546875,"86":-0.2832348346710205,"87":-0.002381064696237445,"88":-0.2672252655029297,"89":0.9157972931861877,"90":0.8244706392288208,"91":0.7107614278793335,"92":-0.01880858652293682,"93":0.0217362642288208,"94":-0.6483094096183777,"95":0.7697174549102783,"96":-0.1040978729724884,"97":0.6306868195533752,"98":-0.16813944280147552,"99":-0.8758779764175415,"100":-0.08121683448553085,"101":-0.5707077980041504,"102":0.2185232937335968,"103":0.020924774929881096,"104":0.6636344790458679,"105":-0.37878623604774475,"106":-0.10429036617279053,"107":-0.5288430452346802,"108":2.6597039699554443,"109":-0.7407149076461792,"110":0.6451523303985596,"111":0.04108172655105591,"112":-0.09887450188398361,"113":-0.09821205586194992,"114":0.17730674147605896,"115":0.15579958260059357,"116":0.514545738697052,"117":-0.321438729763031,"118":-0.16802488267421722,"119":1.0718456506729126,"120":-0.4286508560180664,"121":0.07230044156312943,"122":0.19959202408790588,"123":0.3814273476600647,"124":1.0336406230926514,"125":0.165242537856102,"126":0.16454629600048065,"127":-0.8458529114723206,"128":-0.6793860793113708,"129":0.6996726393699646,"130":0.6257030963897705,"131":-0.33384835720062256,"132":0.5487498641014099,"133":0.576388418674469,"134":-0.2964000999927521,"135":-0.31094619631767273,"136":0.5133330225944519,"137":0.7765820622444153,"138":0.7717329263687134,"139":0.4694802463054657,"140":-0.236219123005867,"141":-0.8897417783737183,"142":0.11019448935985565,"143":-0.0011202626628801227,"144":-0.12149539589881897}},"7":{"bias":0.9203103184700012,"weights":{"0":-0.31341081857681274,"1":-0.6098949313163757,"2":0.260439932346344,"3":0.6753993034362793,"4":-0.5919830203056335,"5":0.09573658555746078,"6":-0.248112753033638,"7":-0.05016759783029556,"8":0.7250539660453796,"9":-0.5041190385818481,"10":-0.5053328275680542,"11":0.5329926609992981,"12":-0.18013951182365417,"13":0.09837140142917633,"14":-0.17370210587978363,"15":0.08844234049320221,"16":-0.20011085271835327,"17":-0.18155215680599213,"18":0.026792990043759346,"19":0.19292794167995453,"20":-1.4631785154342651,"21":-0.009852670133113861,"22":0.29856517910957336,"23":0.07569058984518051,"24":-0.31637686491012573,"25":0.554421067237854,"26":-0.10713090747594833,"27":0.34496569633483887,"28":0.05239935591816902,"29":0.004835627041757107,"30":0.8407940864562988,"31":-0.5786060094833374,"32":-0.2776631712913513,"33":0.3343821167945862,"34":0.20924973487854004,"35":0.06287354230880737,"36":0.5964027047157288,"37":-0.06869375705718994,"38":0.1526796817779541,"39":-0.3960031270980835,"40":0.5344406962394714,"41":0.06366735696792603,"42":0.17607194185256958,"43":0.14615894854068756,"44":0.05978818237781525,"45":0.10403874516487122,"46":0.05412521958351135,"47":-0.6061581969261169,"48":0.44083160161972046,"49":0.0903572216629982,"50":0.19451381266117096,"51":-0.04303944483399391,"52":0.7378953099250793,"53":0.5330585837364197,"54":-0.1474798023700714,"55":-0.28592002391815186,"56":-0.33000606298446655,"57":-0.14689619839191437,"58":0.05137455090880394,"59":0.10908045619726181,"60":0.4654688537120819,"61":0.6925805807113647,"62":-0.564439594745636,"63":0.3868004083633423,"64":-0.14001213014125824,"65":-0.4581516981124878,"66":0.6670802235603333,"67":0.05925479531288147,"68":0.3007098436355591,"69":-1.9142824411392212,"70":-0.3568195700645447,"71":0.10394546389579773,"72":-0.6473690867424011,"73":-0.12134920805692673,"74":0.144068643450737,"75":-0.1771024614572525,"76":0.19787923991680145,"77":0.15721958875656128,"78":0.5199668407440186,"79":0.27450722455978394,"80":0.6382428407669067,"81":-0.08360376954078674,"82":-0.2576177418231964,"83":0.18488319218158722,"84":-0.40953150391578674,"85":-0.2816012501716614,"86":0.503492534160614,"87":-0.37925681471824646,"88":0.7057353258132935,"89":-1.4230451583862305,"90":-0.3048429787158966,"91":0.27075693011283875,"92":0.3967604339122772,"93":0.03866048902273178,"94":0.29878923296928406,"95":0.15099892020225525,"96":0.15356990694999695,"97":-0.33219069242477417,"98":0.6280567049980164,"99":0.24750365316867828,"100":0.21098777651786804,"101":-0.1605135053396225,"102":0.22893579304218292,"103":0.18270674347877502,"104":-0.04684295505285263,"105":0.10962241888046265,"106":0.5137448310852051,"107":0.3294295370578766,"108":-0.3500196039676666,"109":0.40613844990730286,"110":0.7946800589561462,"111":0.36394989490509033,"112":-0.32805779576301575,"113":-0.03914640098810196,"114":0.0850258618593216,"115":-0.14689452946186066,"116":0.21874253451824188,"117":-0.24939528107643127,"118":-0.6142286062240601,"119":-0.11756527423858643,"120":0.883586585521698,"121":0.19173285365104675,"122":0.46978190541267395,"123":0.21945904195308685,"124":0.6688814163208008,"125":0.36582547426223755,"126":-0.22466178238391876,"127":-0.16133089363574982,"128":1.4376178979873657,"129":-0.5508328080177307,"130":-0.8171610236167908,"131":-0.2752842605113983,"132":0.5150305032730103,"133":0.12804014980793,"134":0.2204747200012207,"135":0.11131219565868378,"136":0.3142751455307007,"137":0.3420983552932739,"138":0.8029641509056091,"139":0.1449752002954483,"140":-0.7703014612197876,"141":-0.3889866769313812,"142":0.018379254266619682,"143":-0.9684464931488037,"144":-0.7213218212127686}}},{"0":{"bias":-0.1495787501335144,"weights":{"0":0.4410107135772705,"1":-0.29875093698501587,"2":-0.45274537801742554,"3":0.14444085955619812,"4":-0.14024733006954193,"5":0.15854515135288239,"6":-0.09199657291173935,"7":0.1779826134443283}},"1":{"bias":-0.2523476481437683,"weights":{"0":-0.0297494288533926,"1":-0.4794008433818817,"2":-0.4304860234260559,"3":0.34303703904151917,"4":-0.3939993679523468,"5":0.32840362191200256,"6":0.23059019446372986,"7":-0.041834741830825806}},"2":{"bias":0.10500685125589371,"weights":{"0":0.9189806580543518,"1":-0.9880278706550598,"2":-0.4224284291267395,"3":1.5483442544937134,"4":-0.698595404624939,"5":1.0094448328018188,"6":1.6064866781234741,"7":1.0906144380569458}},"3":{"bias":-0.2067466527223587,"weights":{"0":-0.057506658136844635,"1":-1.0780519247055054,"2":-0.37349361181259155,"3":0.467237263917923,"4":-0.6556968092918396,"5":0.3295653760433197,"6":0.6257950067520142,"7":0.5989119410514832}},"4":{"bias":-0.0932159423828125,"weights":{"0":0.07574218511581421,"1":-0.6209916472434998,"2":-0.23899446427822113,"3":0.3278120160102844,"4":-0.47079595923423767,"5":0.26399946212768555,"6":0.10338526219129562,"7":0.11199347674846649}},"5":{"bias":0.6385274529457092,"weights":{"0":1.3304569721221924,"1":0.6898171305656433,"2":0.5594944953918457,"3":-0.009292163886129856,"4":0.8949214220046997,"5":-0.1494058072566986,"6":-0.49107110500335693,"7":-0.1136588454246521}},"6":{"bias":-0.3582548201084137,"weights":{"0":2.767747640609741,"1":-3.0282254219055176,"2":-2.701378107070923,"3":3.0970089435577393,"4":-2.1715774536132812,"5":2.672757625579834,"6":3.2604100704193115,"7":2.9988319873809814}},"7":{"bias":0.03052319958806038,"weights":{"0":1.603615164756775,"1":-2.015432357788086,"2":-1.336077332496643,"3":2.052856922149658,"4":-1.2330243587493896,"5":1.6817039251327515,"6":2.3811967372894287,"7":2.093946933746338}}},{"0":{"bias":3.0828232765197754,"weights":{"0":0.9633482694625854,"1":0.516798198223114,"2":-0.9886660575866699,"3":0.16305293142795563,"4":0.5891415476799011,"5":2.463522434234619,"6":-4.683652877807617,"7":-2.5428659915924072}}}],"outputLookup":false,"inputLookup":false,"activation":"sigmoid","trainOpts":{"iterations":20000,"errorThresh":0.003,"log":true,"logPeriod":10,"learningRate":0.05,"momentum":0.1,"callbackPeriod":10,"beta1":0.9,"beta2":0.999,"epsilon":1e-8}}