{"sizes":[145,8,8,1],"layers":[{"0":{},"1":{},"2":{},"3":{},"4":{},"5":{},"6":{},"7":{},"8":{},"9":{},"10":{},"11":{},"12":{},"13":{},"14":{},"15":{},"16":{},"17":{},"18":{},"19":{},"20":{},"21":{},"22":{},"23":{},"24":{},"25":{},"26":{},"27":{},"28":{},"29":{},"30":{},"31":{},"32":{},"33":{},"34":{},"35":{},"36":{},"37":{},"38":{},"39":{},"40":{},"41":{},"42":{},"43":{},"44":{},"45":{},"46":{},"47":{},"48":{},"49":{},"50":{},"51":{},"52":{},"53":{},"54":{},"55":{},"56":{},"57":{},"58":{},"59":{},"60":{},"61":{},"62":{},"63":{},"64":{},"65":{},"66":{},"67":{},"68":{},"69":{},"70":{},"71":{},"72":{},"73":{},"74":{},"75":{},"76":{},"77":{},"78":{},"79":{},"80":{},"81":{},"82":{},"83":{},"84":{},"85":{},"86":{},"87":{},"88":{},"89":{},"90":{},"91":{},"92":{},"93":{},"94":{},"95":{},"96":{},"97":{},"98":{},"99":{},"100":{},"101":{},"102":{},"103":{},"104":{},"105":{},"106":{},"107":{},"108":{},"109":{},"110":{},"111":{},"112":{},"113":{},"114":{},"115":{},"116":{},"117":{},"118":{},"119":{},"120":{},"121":{},"122":{},"123":{},"124":{},"125":{},"126":{},"127":{},"128":{},"129":{},"130":{},"131":{},"132":{},"133":{},"134":{},"135":{},"136":{},"137":{},"138":{},"139":{},"140":{},"141":{},"142":{},"143":{},"144":{}},{"0":{"bias":-0.1706981211900711,"weights":{"0":-0.1215372160077095,"1":0.47152063250541687,"2":0.4296570122241974,"3":-0.19568650424480438,"4":0.1766463667154312,"5":-0.18461787700653076,"6":-0.16885164380073547,"7":-0.001669307821430266,"8":0.20673280954360962,"9":0.3653644323348999,"10":0.4392057955265045,"11":0.21949106454849243,"12":-0.3980247974395752,"13":-0.1167822927236557,"14":-0.20623177289962769,"15":-0.04102006554603577,"16":-0.11761235445737839,"17":0.08332839608192444,"18":0.01385528314858675,"19":0.19846144318580627,"20":-0.3470683991909027,"21":-0.21134519577026367,"22":0.11640282720327377,"23":0.09754569828510284,"24":-0.26328763365745544,"25":-0.23748353123664856,"26":-0.1118372455239296,"27":0.2897658050060272,"28":-0.30964601039886475,"29":0.13981129229068756,"30":-0.03643852844834328,"31":0.2243727147579193,"32":0.12783659994602203,"33":0.3307023048400879,"34":-0.04810541495680809,"35":0.303646445274353,"36":-0.18299023807048798,"37":0.2761183977127075,"38":0.07532190531492233,"39":0.27413392066955566,"40":0.2517944872379303,"41":0.03380397707223892,"42":-0.06479469686746597,"43":-0.07751354575157166,"44":-0.03935599327087402,"45":-0.3205766975879669,"46":0.18506845831871033,"47":-0.0825771763920784,"48":0.33225080370903015,"49":-0.4325389564037323,"50":0.08342090249061584,"51":-0.1912454217672348,"52":-0.27553749084472656,"53":-0.06187714636325836,"54":0.13151274621486664,"55":-0.14996546506881714,"56":-0.009599837474524975,"57":-0.7103350162506104,"58":0.1412506401538849,"59":0.31774207949638367,"60":0.4205344319343567,"61":-0.0689380094408989,"62":-0.07963208109140396,"63":0.15784607827663422,"64":-0.420978307723999,"65":0.16348285973072052,"66":-0.2138785868883133,"67":-0.4896371066570282,"68":-0.07763708382844925,"69":0.7368990182876587,"70":-0.688429057598114,"71":0.16885307431221008,"72":0.31211093068122864,"73":-0.11997732520103455,"74":-0.21598315238952637,"75":0.04327406734228134,"76":-0.13690946996212006,"77":0.7269764542579651,"78":0.2982158660888672,"79":0.20134353637695312,"80":-0.7348009347915649,"81":0.17727980017662048,"82":0.48082706332206726,"83":-0.05279926583170891,"84":-0.04757829010486603,"85":0.16522130370140076,"86":-0.5993624925613403,"87":0.02384999208152294,"88":0.45578330755233765,"89":0.19097642600536346,"90":0.17183546721935272,"91":0.29061561822891235,"92":-0.05891482159495354,"93":-0.40995916724205017,"94":0.44953182339668274,"95":-0.3821016550064087,"96":0.11104755103588104,"97":0.30730488896369934,"98":0.5985504984855652,"99":-0.07938492298126221,"100":0.029519882053136826,"101":0.32478225231170654,"102":-0.040051136165857315,"103":-0.08823197335004807,"104":0.023920515552163124,"105":0.3467366397380829,"106":0.7367091774940491,"107":-0.17946423590183258,"108":0.4090624749660492,"109":-0.2955150902271271,"110":0.07439166307449341,"111":0.3461250066757202,"112":0.12391065806150436,"113":-0.11933202296495438,"114":-1.0255217552185059,"115":0.7171648740768433,"116":0.28639674186706543,"117":-0.1294543743133545,"118":0.5382389426231384,"119":0.42782166600227356,"120":0.032795313745737076,"121":-0.03683086857199669,"122":-0.216110959649086,"123":0.16663888096809387,"124":0.05922151356935501,"125":0.5107478499412537,"126":0.7309994697570801,"127":0.43045756220817566,"128":-0.00014162818843033165,"129":-0.14898334443569183,"130":-0.0588362030684948,"131":-0.21012742817401886,"132":-0.04198908060789108,"133":-0.10615460574626923,"134":0.01434958167374134,"135":0.911345362663269,"136":0.08483561128377914,"137":0.4425191879272461,"138":-0.023553000763058662,"139":0.0273238904774189,"140":0.24946865439414978,"141":0.12200915068387985,"142":0.19078761339187622,"143":-0.4186219274997711,"144":-0.35377252101898193}},"1":{"bias":-0.28658899664878845,"weights":{"0":-0.04988410323858261,"1":0.27204859256744385,"2":0.07687332481145859,"3":0.06263226270675659,"4":-0.04420718923211098,"5":-0.13736601173877716,"6":0.2026270031929016,"7":-0.04171738773584366,"8":-0.12366610020399094,"9":-0.05278070271015167,"10":0.06449524313211441,"11":0.05928077548742294,"12":-0.14873282611370087,"13":-0.001515919459052384,"14":0.19322368502616882,"15":0.1042318120598793,"16":0.14162829518318176,"17":0.18239717185497284,"18":-0.1383303552865982,"19":-0.08335686475038528,"20":-0.20153124630451202,"21":-0.29047611355781555,"22":0.01438964158296585,"23":0.05529561638832092,"24":-0.10091333836317062,"25":0.041611962020397186,"26":0.0345216728746891,"27":-0.11285563558340073,"28":-0.0015015138778835535,"29":0.01141311600804329,"30":0.2492705136537552,"31":0.2968781590461731,"32":0.04804782196879387,"33":-0.027675237506628036,"34":-0.20897184312343597,"35":0.014620300382375717,"36":-0.497914582490921,"37":-0.13380788266658783,"38":-0.017498763278126717,"39":0.04161679744720459,"40":-0.2157215178012848,"41":0.15236110985279083,"42":0.09452705085277557,"43":0.026384098455309868,"44":-0.19470848143100739,"45":0.09704606235027313,"46":-0.04445090517401695,"47":-0.13712386786937714,"48":-0.2069927155971527,"49":0.10264179110527039,"50":0.010845458135008812,"51":0.068044513463974,"52":0.13880391418933868,"53":0.014134636148810387,"54":0.17010080814361572,"55":-0.18610496819019318,"56":-0.29789504408836365,"57":-0.29180052876472473,"58":-0.29261377453804016,"59":0.28513458371162415,"60":0.023028207942843437,"61":0.46436652541160583,"62":-0.3336355984210968,"63":-0.23887300491333008,"64":0.0024189308751374483,"65":0.18388421833515167,"66":0.03099954128265381,"67":-0.1384117156267166,"68":0.13629506528377533,"69":0.1265406459569931,"70":0.04721726477146149,"71":-0.03314049914479256,"72":0.07124611735343933,"73":-0.03549813851714134,"74":-0.04339063912630081,"75":-0.06462765485048294,"76":-0.028554746881127357,"77":-0.06474677473306656,"78":0.16314485669136047,"79":0.09294122457504272,"80":0.36301636695861816,"81":-0.10011868923902512,"82":-0.1983545422554016,"83":-0.04988744482398033,"84":-0.22565634548664093,"85":-0.18036024272441864,"86":-0.3401591181755066,"87":-0.05323068052530289,"88":-0.18983621895313263,"89":-0.06654943525791168,"90":-0.1476718783378601,"91":0.0157732255756855,"92":-0.18048551678657532,"93":0.1577116996049881,"94":-0.17845489084720612,"95":0.06674609333276749,"96":-0.06485658138990402,"97":-0.128431037068367,"98":0.09003659337759018,"99":0.05903962627053261,"100":0.11925877630710602,"101":-0.25672706961631775,"102":-0.057140834629535675,"103":-0.015955213457345963,"104":-0.14101113379001617,"105":0.08589749038219452,"106":-0.0606113038957119,"107":0.1331758052110672,"108":-0.08479975908994675,"109":-0.007809119764715433,"110":0.018073735758662224,"111":-0.12530583143234253,"112":-0.30687519907951355,"113":0.05344833806157112,"114":-0.6253172755241394,"115":0.1147904321551323,"116":-0.05177070572972298,"117":-0.4498268663883209,"118":-0.052007146179676056,"119":0.07731420546770096,"120":0.13517676293849945,"121":-0.08555754274129868,"122":0.14501844346523285,"123":-0.01509798876941204,"124":-0.07966374605894089,"125":-0.1652357578277588,"126":-0.15453855693340302,"127":-0.11963797360658646,"128":0.001704832655377686,"129":0.25241178274154663,"130":0.09391716867685318,"131":0.07393008470535278,"132":0.16631914675235748,"133":-0.025375965982675552,"134":-0.0985608696937561,"135":-0.23607030510902405,"136":0.12801681458950043,"137":0.2398347556591034,"138":0.18715885281562805,"139":-0.2554680407047272,"140":-0.3034632205963135,"141":0.10067661851644516,"142":-0.18790386617183685,"143":-0.04094230756163597,"144":0.07674505561590195}},"2":{"bias":-0.14223633706569672,"weights":{"0":0.12667280435562134,"1":-0.12276860326528549,"2":0.19548366963863373,"3":0.1256866604089737,"4":-0.3584845960140228,"5":-0.11801649630069733,"6":-0.1741306185722351,"7":0.09452120959758759,"8":-0.17040246725082397,"9":-0.173471599817276,"10":0.0005945548182353377,"11":0.15535227954387665,"12":-0.30784738063812256,"13":-0.07668174803256989,"14":0.05887294188141823,"15":0.1772112101316452,"16":0.15815183520317078,"17":-0.16454721987247467,"18":0.06462699919939041,"19":-0.10278958827257156,"20":0.25298529863357544,"21":0.05422519892454147,"22":-0.2184116244316101,"23":0.06641390919685364,"24":-0.20512202382087708,"25":-0.10955042392015457,"26":-0.5189289450645447,"27":-0.13355593383312225,"28":0.2953190803527832,"29":0.26466673612594604,"30":-0.27847251296043396,"31":0.03619508072733879,"32":0.09255700558423996,"33":-0.09098722040653229,"34":0.001000728807412088,"35":-0.2633041441440582,"36":-0.645948588848114,"37":-0.37124237418174744,"38":-0.08728701621294022,"39":-0.04764958843588829,"40":0.00046229560393840075,"41":-0.5432617664337158,"42":0.01077775377780199,"43":0.22288335859775543,"44":-0.13539010286331177,"45":-0.01375571172684431,"46":-0.2631637156009674,"47":-0.4472920894622803,"48":-0.060550130903720856,"49":-0.18803094327449799,"50":-0.49232661724090576,"51":-0.2150183618068695,"52":0.14532990753650665,"53":-0.0022066214587539434,"54":-0.17798897624015808,"55":-0.2781352996826172,"56":-0.3209291994571686,"57":-0.5660321116447449,"58":-0.1767636388540268,"59":0.13147588074207306,"60":-0.12219057977199554,"61":-0.09942006319761276,"62":-0.3757466971874237,"63":0.1042642891407013,"64":-0.017412347719073296,"65":0.37213432788848877,"66":0.13432194292545319,"67":0.1404830813407898,"68":0.08478088676929474,"69":0.698642373085022,"70":0.03635292127728462,"71":0.03008865751326084,"72":0.10378370434045792,"73":0.08942482620477676,"74":-0.032604411244392395,"75":-0.2922371029853821,"76":-0.037064895033836365,"77":-0.01617933064699173,"78":-0.20498545467853546,"79":0.41838061809539795,"80":0.16281135380268097,"81":-0.3765542805194855,"82":-0.36895057559013367,"83":-0.10254812240600586,"84":-0.4835732579231262,"85":1.056206226348877,"86":-0.1658252477645874,"87":-0.08693870902061462,"88":-0.46920549869537354,"89":-0.23132438957691193,"90":0.10417502373456955,"91":-0.2606298327445984,"92":0.05507590249180794,"93":-0.2085050344467163,"94":-0.1094161868095398,"95":0.23477067053318024,"96":-0.19815315306186676,"97":0.12115167081356049,"98":0.2535804510116577,"99":0.2861176133155823,"100":-0.11194092035293579,"101":-0.13405925035476685,"102":0.08171296119689941,"103":0.046040426939725876,"104":-0.11616154760122299,"105":0.10615710914134979,"106":-0.1960563063621521,"107":-0.15332472324371338,"108":-0.07103578746318817,"109":-0.06370646506547928,"110":-0.12424137443304062,"111":-0.0072638303972780704,"112":-0.21833686530590057,"113":-0.30704110860824585,"114":-0.49547281861305237,"115":0.08427790552377701,"116":-0.051870692521333694,"117":-0.40962594747543335,"118":-0.2241673469543457,"119":0.15080399811267853,"120":-0.27911338210105896,"121":-0.0433349534869194,"122":-0.20136387646198273,"123":0.24887877702713013,"124":0.16729791462421417,"125":-0.25930893421173096,"126":-0.11829350888729095,"127":0.01101499143987894,"128":-0.08272475004196167,"129":0.02981802262365818,"130":0.08484037965536118,"131":0.2558223009109497,"132":0.26646992564201355,"133":-0.03995518386363983,"134":-0.08064525574445724,"135":-0.1157492995262146,"136":0.10699635744094849,"137":-0.2622336149215698,"138":0.06419140845537186,"139":-0.21785467863082886,"140":-0.21331559121608734,"141":0.14319895207881927,"142":-0.4802117347717285,"143":-0.8128588795661926,"144":0.05224998667836189}},"3":{"bias":0.12479396909475327,"weights":{"0":-0.18039506673812866,"1":0.11663590371608734,"2":-0.14839981496334076,"3":0.21170289814472198,"4":-0.2275603711605072,"5":-0.1454683542251587,"6":-0.2187882959842682,"7":-0.06454093009233475,"8":-0.16407178342342377,"9":-0.10360753536224365,"10":0.03693100064992905,"11":-0.06359680742025375,"12":0.027768850326538086,"13":0.14358219504356384,"14":-0.08826740086078644,"15":-0.19676165282726288,"16":-0.14501596987247467,"17":-0.22055071592330933,"18":0.17400145530700684,"19":0.11517434567213058,"20":-0.13305127620697021,"21":0.025915952399373055,"22":-0.12540960311889648,"23":-0.159244567155838,"24":-0.016466345638036728,"25":-0.0744483545422554,"26":0.1589583158493042,"27":0.0757049173116684,"28":0.1335737109184265,"29":0.16520477831363678,"30":0.010888385586440563,"31":-0.017193125560879707,"32":0.1268279105424881,"33":-0.029039911925792694,"34":-0.23129214346408844,"35":-0.16174650192260742,"36":0.061249010264873505,"37":0.13216286897659302,"38":0.018272481858730316,"39":-0.14459073543548584,"40":-0.25877222418785095,"41":0.048721909523010254,"42":0.012458228506147861,"43":0.02745835855603218,"44":0.03835161775350571,"45":-0.16753338277339935,"46":0.009509492665529251,"47":0.03537179157137871,"48":-0.029967831447720528,"49":-0.2824254035949707,"50":-0.2464396208524704,"51":0.2543664276599884,"52":-0.13829798996448517,"53":0.07484663277864456,"54":-0.19432905316352844,"55":0.19518914818763733,"56":0.19994507730007172,"57":0.21217060089111328,"58":0.05996532365679741,"59":-0.11280553787946701,"60":0.05451994761824608,"61":0.05893182009458542,"62":-0.009169846773147583,"63":-0.2592046558856964,"64":-0.19375117123126984,"65":0.06971557438373566,"66":0.07522531598806381,"67":-0.1231985092163086,"68":0.24872030317783356,"69":0.25166577100753784,"70":0.17425338923931122,"71":-0.031475409865379333,"72":0.22114665806293488,"73":-0.145380437374115,"74":-0.09910982847213745,"75":-0.012735629454255104,"76":0.17883923649787903,"77":-0.042977944016456604,"78":0.025042831897735596,"79":0.14645367860794067,"80":0.10419595241546631,"81":0.12045284360647202,"82":0.08816689252853394,"83":-0.1748489886522293,"84":0.0901232436299324,"85":0.10319628566503525,"86":-0.009648303501307964,"87":0.0756923034787178,"88":-0.2223314791917801,"89":-0.019340798258781433,"90":-0.0473986379802227,"91":-0.1624469757080078,"92":-0.191679447889328,"93":-0.03716026246547699,"94":-0.04586227983236313,"95":-0.13901667296886444,"96":0.1388566941022873,"97":0.13840262591838837,"98":-0.00560429273173213,"99":0.021148499101400375,"100":-0.04020993039011955,"101":-0.11348258703947067,"102":-0.04215334355831146,"103":0.17113877832889557,"104":-0.027343159541487694,"105":0.16032928228378296,"106":-0.0036460154224187136,"107":0.18567094206809998,"108":0.18695595860481262,"109":-0.03266247361898422,"110":0.11990653723478317,"111":0.10214213281869888,"112":-0.06884656846523285,"113":0.07564336061477661,"114":0.04623090848326683,"115":0.017343813553452492,"116":0.023032378405332565,"117":-0.09323356300592422,"118":-0.13771764934062958,"119":0.12444505095481873,"120":-0.1108068898320198,"121":0.01720721833407879,"122":-0.15796388685703278,"123":0.07932018488645554,"124":-0.09721559286117554,"125":0.03977152705192566,"126":-0.09046442806720734,"127":-0.08272088319063187,"128":-0.10558737069368362,"129":0.1379673331975937,"130":0.14670006930828094,"131":0.15176427364349365,"132":0.019985925406217575,"133":-0.016811354085803032,"134":0.15828047692775726,"135":-0.002633051248267293,"136":0.21887697279453278,"137":-0.03759123757481575,"138":0.1627744883298874,"139":0.15250873565673828,"140":-0.031767837703228,"141":-0.20113332569599152,"142":-0.04603985697031021,"143":0.20042406022548676,"144":-0.14908559620380402}},"4":{"bias":-0.09719187021255493,"weights":{"0":-0.10829290002584457,"1":0.16128458082675934,"2":-0.022778306156396866,"3":0.11574065685272217,"4":0.07802481204271317,"5":-0.08479611575603485,"6":0.14008985459804535,"7":0.12449219822883606,"8":0.11925788223743439,"9":-0.10984670370817184,"10":0.01794491894543171,"11":0.11609607934951782,"12":-0.0358353815972805,"13":0.11882196366786957,"14":-0.09628917276859283,"15":0.1931741088628769,"16":0.16534894704818726,"17":0.054745592176914215,"18":0.167642280459404,"19":-0.04140719398856163,"20":-0.09837676584720612,"21":-0.11836779117584229,"22":0.07951124012470245,"23":0.1154952347278595,"24":0.027554858475923538,"25":-0.048271093517541885,"26":-0.051819752901792526,"27":-0.2530391216278076,"28":0.08557166159152985,"29":-0.017777955159544945,"30":-0.13702964782714844,"31":0.11548450589179993,"32":-0.24382197856903076,"33":0.06445737928152084,"34":0.016427690163254738,"35":-0.07548815757036209,"36":-0.010940519161522388,"37":-0.22863717377185822,"38":0.09255959093570709,"39":0.19528552889823914,"40":-0.009202138520777225,"41":0.1749396026134491,"42":-0.1608261615037918,"43":0.030482139438390732,"44":0.09912799298763275,"45":0.22725069522857666,"46":0.15047508478164673,"47":-0.08090455085039139,"48":0.07719190418720245,"49":0.12794628739356995,"50":0.009505154564976692,"51":-0.22746717929840088,"52":0.12871785461902618,"53":0.03304704278707504,"54":-0.02545539103448391,"55":-0.23203249275684357,"56":0.1312408447265625,"57":-0.19717897474765778,"58":0.12880967557430267,"59":0.1513475477695465,"60":-0.16306951642036438,"61":-0.2810043692588806,"62":-0.04336020350456238,"63":0.18753261864185333,"64":0.14162865281105042,"65":-0.1047920510172844,"66":-0.057775791734457016,"67":0.023630404844880104,"68":-0.1928435117006302,"69":-0.15719299018383026,"70":-0.05640576779842377,"71":-0.1417316347360611,"72":-0.03536197915673256,"73":-0.15864217281341553,"74":-0.12474759668111801,"75":-0.03583875671029091,"76":0.06201618164777756,"77":-0.0786641538143158,"78":0.1796044409275055,"79":0.0681343823671341,"80":0.1171407476067543,"81":-0.2632043659687042,"82":-0.2112797349691391,"83":-0.14454643428325653,"84":0.01469304971396923,"85":-0.041834861040115356,"86":-0.0425192266702652,"87":0.10683538019657135,"88":-0.20390817523002625,"89":-0.17900614440441132,"90":-0.1396767497062683,"91":-0.14893655478954315,"92":-0.1840103715658188,"93":-0.17996402084827423,"94":0.02728285826742649,"95":0.17945607006549835,"96":0.04643118754029274,"97":0.10292165726423264,"98":-0.18115364015102386,"99":-0.08671505749225616,"100":-0.17737485468387604,"101":0.0643245279788971,"102":-0.11005114763975143,"103":0.06050131097435951,"104":-0.18025009334087372,"105":-0.11413702368736267,"106":0.061620090156793594,"107":0.03428736701607704,"108":-0.10161064565181732,"109":-0.05627982318401337,"110":0.15640206634998322,"111":0.03571462631225586,"112":0.012878927402198315,"113":-0.07298797369003296,"114":-0.0624370314180851,"115":-0.011662928387522697,"116":0.009913249872624874,"117":0.01892239972949028,"118":0.1929122358560562,"119":0.1883295625448227,"120":0.1318790763616562,"121":-0.177341029047966,"122":-0.2227531522512436,"123":0.12099996209144592,"124":0.06542977690696716,"125":0.11570362001657486,"126":-0.13032910227775574,"127":0.209064319729805,"128":0.23062865436077118,"129":0.08611049503087997,"130":-0.06964480876922607,"131":0.20239093899726868,"132":0.22110134363174438,"133":-0.22344282269477844,"134":0.13826505839824677,"135":-0.1867155283689499,"136":-0.14953315258026123,"137":0.002362850122153759,"138":-0.09309165924787521,"139":-0.0861559733748436,"140":-0.0521114282310009,"141":-0.1796838939189911,"142":0.04263948276638985,"143":-0.12493651360273361,"144":-0.08512957394123077}},"5":{"bias":1.162013292312622,"weights":{"0":0.5665336847305298,"1":0.5938178300857544,"2":0.007067584898322821,"3":-0.4225425720214844,"4":-0.12918592989444733,"5":0.10280901193618774,"6":0.03968413174152374,"7":-0.33420872688293457,"8":0.05954601615667343,"9":0.31836381554603577,"10":0.2984654903411865,"11":-0.44883838295936584,"12":-0.5985822081565857,"13":0.45163223147392273,"14":0.6518810987472534,"15":0.5127120018005371,"16":0.18879029154777527,"17":-0.07170537114143372,"18":-0.3500259518623352,"19":0.029028115794062614,"20":-0.11838441342115402,"21":-0.5177193880081177,"22":-0.020221291109919548,"23":0.86988765001297,"24":0.43699994683265686,"25":-0.12501947581768036,"26":0.08946798741817474,"27":0.16024446487426758,"28":-0.25380489230155945,"29":-0.2658398449420929,"30":-0.215115487575531,"31":0.07846518605947495,"32":-0.3002329468727112,"33":0.8471276164054871,"34":0.16062958538532257,"35":-0.2984761893749237,"36":-0.24825522303581238,"37":-1.1440763473510742,"38":0.24122731387615204,"39":-0.28988027572631836,"40":1.0139154195785522,"41":0.13151487708091736,"42":0.3570188283920288,"43":0.2846906781196594,"44":-0.054309070110321045,"45":0.22781914472579956,"46":-0.17395932972431183,"47":0.23604021966457367,"48":-0.14374171197414398,"49":-0.9936621189117432,"50":-0.648392915725708,"51":0.16904862225055695,"52":0.5211010575294495,"53":-0.004080066457390785,"54":0.5982977151870728,"55":-0.1357564926147461,"56":0.6020209789276123,"57":0.02481757663190365,"58":-0.6227755546569824,"59":-0.08365152776241302,"60":-0.36980393528938293,"61":-0.5432071685791016,"62":-0.13048464059829712,"63":0.0913827046751976,"64":0.2448073923587799,"65":0.25625255703926086,"66":-0.3074772357940674,"67":-0.03967311233282089,"68":-0.20228475332260132,"69":-0.2774896025657654,"70":-0.4517570436000824,"71":-0.367802232503891,"72":-0.9915598630905151,"73":0.09454197436571121,"74":0.2706783413887024,"75":0.08069362491369247,"76":0.14451682567596436,"77":-0.13781575858592987,"78":0.14724382758140564,"79":0.658858597278595,"80":0.008213017135858536,"81":0.1891239583492279,"82":-0.11510220915079117,"83":0.07132475823163986,"84":-0.12930621206760406,"85":0.041881296783685684,"86":-0.2743617594242096,"87":0.6129006743431091,"88":-0.00354937557131052,"89":0.7405768036842346,"90":0.397972971200943,"91":0.6032079458236694,"92":0.002036496764048934,"93":0.34489521384239197,"94":-0.23033230006694794,"95":0.9406493306159973,"96":0.3879758417606354,"97":0.4477975070476532,"98":-0.7296648025512695,"99":-0.25621363520622253,"100":-0.11010317504405975,"101":-0.26956707239151,"102":0.08632831275463104,"103":0.09291363507509232,"104":0.3361646831035614,"105":-0.2769317328929901,"106":-0.02731703408062458,"107":0.18043747544288635,"108":1.4182697534561157,"109":-0.15718811750411987,"110":0.9302968382835388,"111":0.19920822978019714,"112":-0.6054341793060303,"113":-0.055528461933135986,"114":0.05136171355843544,"115":0.1492355465888977,"116":0.423880934715271,"117":-0.7385724186897278,"118":0.012180131860077381,"119":0.3213295340538025,"120":-0.10273758322000504,"121":-0.1257498860359192,"122":0.5228220820426941,"123":0.32697704434394836,"124":-0.0402248278260231,"125":-0.1389872431755066,"126":-0.5089763402938843,"127":-0.8967258334159851,"128":0.1034504845738411,"129":0.19144921004772186,"130":0.36369550228118896,"131":0.18531817197799683,"132":0.6111429333686829,"133":0.42430511116981506,"134":-0.03574514761567116,"135":-0.1892520785331726,"136":0.3335336148738861,"137":0.12850718200206757,"138":0.23519432544708252,"139":0.6169168949127197,"140":-0.4004576504230499,"141":-0.47354260087013245,"142":0.01832694746553898,"143":-0.10058653354644775,"144":0.1486646980047226}},"6":{"bias":0.40371212363243103,"weights":{"0":-0.1235811784863472,"1":-0.1845751851797104,"2":-0.24828442931175232,"3":-0.551321804523468,"4":0.005431274883449078,"5":0.2390052229166031,"6":-0.18555639684200287,"7":0.3683544397354126,"8":-0.06622318178415298,"9":-0.13052542507648468,"10":-0.04421430453658104,"11":-0.040135011076927185,"12":0.3669304847717285,"13":-0.2509300410747528,"14":-0.20928707718849182,"15":-0.3290802836418152,"16":0.10232437402009964,"17":-0.0919412150979042,"18":0.3549466133117676,"19":-0.16613206267356873,"20":0.25869396328926086,"21":0.002091551898047328,"22":0.13901399075984955,"23":0.16072407364845276,"24":-0.08946621417999268,"25":-0.16518330574035645,"26":0.04547768831253052,"27":0.25037455558776855,"28":0.1454813927412033,"29":0.18326865136623383,"30":-0.7033189535140991,"31":-0.12632746994495392,"32":0.44428110122680664,"33":-0.26641690731048584,"34":0.15558798611164093,"35":0.2406468242406845,"36":0.6361784338951111,"37":0.26328787207603455,"38":-0.1646440625190735,"39":-0.4531386196613312,"40":0.10205717384815216,"41":-0.26082372665405273,"42":-0.2220233976840973,"43":-0.14340975880622864,"44":-0.04942282661795616,"45":-0.23075495660305023,"46":0.14553920924663544,"47":0.3260681927204132,"48":-0.18207736313343048,"49":0.27456405758857727,"50":0.01786969229578972,"51":0.06371774524450302,"52":0.008577057160437107,"53":-0.148076131939888,"54":-0.2863801419734955,"55":-0.09328334778547287,"56":0.3665246069431305,"57":0.34138917922973633,"58":0.03353426977992058,"59":0.15718592703342438,"60":0.43328940868377686,"61":-0.026815040037035942,"62":0.3868405520915985,"63":0.09498191624879837,"64":-0.18953078985214233,"65":-0.029882287606596947,"66":0.4075489044189453,"67":0.07256808131933212,"68":0.16471755504608154,"69":-0.5749932527542114,"70":0.3598417043685913,"71":0.18397748470306396,"72":0.034698404371738434,"73":-0.05464914068579674,"74":-0.04065655916929245,"75":0.23423954844474792,"76":0.07458695024251938,"77":-0.1588570773601532,"78":-0.1421860158443451,"79":0.15604038536548615,"80":-0.14322876930236816,"81":0.19253797829151154,"82":-0.046282779425382614,"83":-0.06871449202299118,"84":0.25669118762016296,"85":-0.499273419380188,"86":-0.2773590385913849,"87":-0.2108505517244339,"88":-0.05314251035451889,"89":-0.1433955430984497,"90":0.3121747672557831,"91":-0.12884210050106049,"92":-0.08488903194665909,"93":0.14029374718666077,"94":0.08556675910949707,"95":-0.096713125705719,"96":0.14574722945690155,"97":-0.22509236633777618,"98":-0.9889916181564331,"99":0.06144268438220024,"100":0.09510742127895355,"101":0.074860580265522,"102":0.07938315719366074,"103":-0.24744869768619537,"104":0.10231354832649231,"105":0.14521753787994385,"106":-0.3174077868461609,"107":0.07217572629451752,"108":-0.08865053206682205,"109":0.14745613932609558,"110":0.049529772251844406,"111":-0.06541728973388672,"112":-0.05560964345932007,"113":-0.11231524497270584,"114":0.9167354702949524,"115":-0.06876244395971298,"116":-0.41484642028808594,"117":-0.28805506229400635,"118":-0.43023058772087097,"119":-0.4006836414337158,"120":-0.07070211321115494,"121":-0.15156511962413788,"122":-0.09737559407949448,"123":0.05693491920828819,"124":-0.33438238501548767,"125":0.04587973281741142,"126":-0.1238446906208992,"127":-0.17966991662979126,"128":0.14601054787635803,"129":-0.3360985219478607,"130":-0.0380680188536644,"131":-0.05322607606649399,"132":-0.33957383036613464,"133":0.15546470880508423,"134":-0.11223303526639938,"135":-0.08046738803386688,"136":0.08483918011188507,"137":0.3021969199180603,"138":0.14198386669158936,"139":0.40963098406791687,"140":0.3033082187175751,"141":0.01798398047685623,"142":0.10545969754457474,"143":-0.49798014760017395,"144":0.309198260307312}},"7":{"bias":-0.38724127411842346,"weights":{"0":0.09331981092691422,"1":0.36756080389022827,"2":0.10826832056045532,"3":-0.4261227548122406,"4":0.39422497153282166,"5":0.07841244339942932,"6":0.2949737012386322,"7":0.04911268129944801,"8":0.05722878500819206,"9":-0.14309407770633698,"10":0.08541672676801682,"11":0.4261016547679901,"12":0.00379265402443707,"13":0.08813193440437317,"14":0.20792539417743683,"15":0.10892177373170853,"16":0.21652807295322418,"17":-0.028723258525133133,"18":-0.05629075691103935,"19":0.11269161105155945,"20":-0.4367932975292206,"21":0.5252982974052429,"22":-0.18796834349632263,"23":0.09624786674976349,"24":0.15052388608455658,"25":-0.018899638205766678,"26":0.1391446441411972,"27":-0.32777565717697144,"28":0.040920183062553406,"29":-0.2105913907289505,"30":0.23595386743545532,"31":0.0898125022649765,"32":-0.25010934472084045,"33":0.22429366409778595,"34":0.12839050590991974,"35":-0.6081591248512268,"36":-0.12818889319896698,"37":-0.38608866930007935,"38":0.2980230152606964,"39":0.35858187079429626,"40":0.154072567820549,"41":-0.16947545111179352,"42":0.3188853859901428,"43":0.16825267672538757,"44":-0.09915131330490112,"45":0.00019206995784770697,"46":-0.23511125147342682,"47":-0.0027710371650755405,"48":0.1589701622724533,"49":-0.4912349283695221,"50":0.4376468062400818,"51":-0.281355619430542,"52":-0.10462892800569534,"53":0.4150482416152954,"54":0.4703303873538971,"55":0.12342876195907593,"56":-0.427651047706604,"57":-0.23554718494415283,"58":-0.05098475143313408,"59":0.4654346704483032,"60":-0.3965904414653778,"61":0.23956334590911865,"62":0.05747438967227936,"63":-0.035621363669633865,"64":0.26542600989341736,"65":-0.0672229751944542,"66":-0.37994831800460815,"67":-0.005887917708605528,"68":-0.018675435334444046,"69":0.42729490995407104,"70":-0.4917801022529602,"71":-0.28750741481781006,"72":-0.6061325669288635,"73":-0.14277015626430511,"74":0.29479581117630005,"75":-0.2225424200296402,"76":0.3024004399776459,"77":0.08284343034029007,"78":0.10811935365200043,"79":-0.15705940127372742,"80":0.10851457715034485,"81":-0.26751041412353516,"82":0.053417108952999115,"83":0.3272174894809723,"84":-0.15481074154376984,"85":-0.7217046022415161,"86":-0.4852038323879242,"87":0.3411422073841095,"88":0.21018202602863312,"89":-0.06792819499969482,"90":0.09282004833221436,"91":0.13818275928497314,"92":-0.2114941030740738,"93":0.10092109441757202,"94":-0.4883365333080292,"95":0.13916507363319397,"96":-0.4161206781864166,"97":-0.11974874883890152,"98":0.5568249821662903,"99":-0.1555343121290207,"100":0.05805562809109688,"101":-0.3474072813987732,"102":-0.1854490488767624,"103":0.14583469927310944,"104":-0.16954050958156586,"105":-0.04080163314938545,"106":0.18019692599773407,"107":-0.05284356325864792,"108":0.1372341513633728,"109":-0.43050912022590637,"110":-0.11850511282682419,"111":0.2704474925994873,"112":-0.28792938590049744,"113":0.13308708369731903,"114":0.3362490236759186,"115":0.34626272320747375,"116":0.27651211619377136,"117":0.3968857228755951,"118":0.3046272397041321,"119":0.013229957781732082,"120":-0.16239729523658752,"121":-0.13154694437980652,"122":0.024832215160131454,"123":-0.12411649525165558,"124":0.20747128129005432,"125":0.10409631580114365,"126":0.06560683250427246,"127":-0.046893827617168427,"128":-0.32827088236808777,"129":0.0013872236013412476,"130":0.317308247089386,"131":0.16371138393878937,"132":0.6560803651809692,"133":-0.04832249879837036,"134":0.0032370127737522125,"135":-0.33348891139030457,"136":-0.3230550289154053,"137":-0.40114539861679077,"138":0.2525026798248291,"139":-0.2037692368030548,"140":-0.28082242608070374,"141":-0.06469400227069855,"142":0.04609701782464981,"143":-0.07604988664388657,"144":-0.1522655189037323}}},{"0":{"bias":0.0703452080488205,"weights":{"0":-0.29391857981681824,"1":-0.0417383573949337,"2":-0.2300136387348175,"3":-0.10000091046094894,"4":-0.14989934861660004,"5":-0.06903767585754395,"6":-0.05909673869609833,"7":-0.058031193912029266}},"1":{"bias":-0.018181541934609413,"weights":{"0":-1.8692548274993896,"1":0.6954684853553772,"2":1.1039351224899292,"3":-0.2443748116493225,"4":0.44699394702911377,"5":2.348236560821533,"6":-1.2153657674789429,"7":1.4969000816345215}},"2":{"bias":-0.1528175324201584,"weights":{"0":-0.1620202511548996,"1":-0.007848290726542473,"2":0.07565665990114212,"3":-0.25853005051612854,"4":-0.10863735526800156,"5":0.34711524844169617,"6":-0.09523577988147736,"7":0.17393359541893005}},"3":{"bias":0.0101429158821702,"weights":{"0":-1.5358352661132812,"1":0.5743407011032104,"2":1.1718462705612183,"3":-0.5430639386177063,"4":0.20497654378414154,"5":2.1189022064208984,"6":-1.0970721244812012,"7":1.4140478372573853}},"4":{"bias":-0.27069589495658875,"weights":{"0":-0.2701600193977356,"1":0.21213552355766296,"2":0.1707812398672104,"3":-0.17316527664661407,"4":0.16744807362556458,"5":0.2793840169906616,"6":-0.40699222683906555,"7":0.12189117819070816}},"5":{"bias":0.06328000873327255,"weights":{"0":-0.5699706673622131,"1":-0.028143176808953285,"2":-0.016236789524555206,"3":-0.2172013819217682,"4":0.18486174941062927,"5":0.14516890048980713,"6":-0.1933315545320511,"7":0.23770132660865784}},"6":{"bias":0.1203756108880043,"weights":{"0":0.138350710272789,"1":-0.15729966759681702,"2":-0.3536617159843445,"3":0.1891484409570694,"4":-0.17029166221618652,"5":-0.2407270222902298,"6":0.35653629899024963,"7":-0.22843852639198303}},"7":{"bias":0.12116417288780212,"weights":{"0":0.8236161470413208,"1":-0.49186691641807556,"2":-0.7992806434631348,"3":0.3521014451980591,"4":-0.13072419166564941,"5":-1.3206957578659058,"6":0.8940795063972473,"7":-1.009146809577942}}},{"0":{"bias":1.0306978225708008,"weights":{"0":0.39475494623184204,"1":-2.9636423587799072,"2":0.0008232675609178841,"3":-2.7102553844451904,"4":-0.2363675981760025,"5":-0.1084105521440506,"6":1.045070767402649,"7":2.541682243347168}}}],"outputLookup":false,"inputLookup":false,"activation":"sigmoid","trainOpts":{"iterations":20000,"errorThresh":0.003,"log":true,"logPeriod":10,"learningRate":0.05,"momentum":0.1,"callbackPeriod":10,"beta1":0.9,"beta2":0.999,"epsilon":1e-8}}