{"sizes":[145,8,8,1],"layers":[{"0":{},"1":{},"2":{},"3":{},"4":{},"5":{},"6":{},"7":{},"8":{},"9":{},"10":{},"11":{},"12":{},"13":{},"14":{},"15":{},"16":{},"17":{},"18":{},"19":{},"20":{},"21":{},"22":{},"23":{},"24":{},"25":{},"26":{},"27":{},"28":{},"29":{},"30":{},"31":{},"32":{},"33":{},"34":{},"35":{},"36":{},"37":{},"38":{},"39":{},"40":{},"41":{},"42":{},"43":{},"44":{},"45":{},"46":{},"47":{},"48":{},"49":{},"50":{},"51":{},"52":{},"53":{},"54":{},"55":{},"56":{},"57":{},"58":{},"59":{},"60":{},"61":{},"62":{},"63":{},"64":{},"65":{},"66":{},"67":{},"68":{},"69":{},"70":{},"71":{},"72":{},"73":{},"74":{},"75":{},"76":{},"77":{},"78":{},"79":{},"80":{},"81":{},"82":{},"83":{},"84":{},"85":{},"86":{},"87":{},"88":{},"89":{},"90":{},"91":{},"92":{},"93":{},"94":{},"95":{},"96":{},"97":{},"98":{},"99":{},"100":{},"101":{},"102":{},"103":{},"104":{},"105":{},"106":{},"107":{},"108":{},"109":{},"110":{},"111":{},"112":{},"113":{},"114":{},"115":{},"116":{},"117":{},"118":{},"119":{},"120":{},"121":{},"122":{},"123":{},"124":{},"125":{},"126":{},"127":{},"128":{},"129":{},"130":{},"131":{},"132":{},"133":{},"134":{},"135":{},"136":{},"137":{},"138":{},"139":{},"140":{},"141":{},"142":{},"143":{},"144":{}},{"0":{"bias":-0.16106803715229034,"weights":{"0":-0.07447749376296997,"1":0.3865297734737396,"2":0.23629991710186005,"3":-0.23227262496948242,"4":-0.17495766282081604,"5":0.010789182037115097,"6":0.015116256661713123,"7":0.043285220861434937,"8":0.2896302044391632,"9":0.1631765216588974,"10":0.3961105942726135,"11":-0.003957991022616625,"12":0.17248742282390594,"13":0.2240334302186966,"14":-0.22087793052196503,"15":-0.146426260471344,"16":0.011034980416297913,"17":-0.0055603813380002975,"18":-0.1914961040019989,"19":-0.08727320283651352,"20":-0.3365482985973358,"21":-0.05098625272512436,"22":0.030346497893333435,"23":-0.038898639380931854,"24":0.25163474678993225,"25":0.007105724886059761,"26":0.2794496715068817,"27":-0.3331927955150604,"28":-0.1455889642238617,"29":0.08381181955337524,"30":0.2942412793636322,"31":0.12218661606311798,"32":0.07305974513292313,"33":0.21756654977798462,"34":-0.07605687528848648,"35":-0.0074078114703297615,"36":-0.14566534757614136,"37":0.10994456708431244,"38":0.22080093622207642,"39":0.18062691390514374,"40":-0.17720861732959747,"41":0.04342511296272278,"42":0.10876356065273285,"43":-0.12515141069889069,"44":-0.1569279283285141,"45":-0.11672862619161606,"46":0.012000801973044872,"47":-0.23644088208675385,"48":-0.18034180998802185,"49":-0.05556536093354225,"50":0.03359317034482956,"51":-0.15892578661441803,"52":-0.20266985893249512,"53":0.13105060160160065,"54":0.08501321822404861,"55":0.15008418262004852,"56":-0.22494398057460785,"57":0.023958541452884674,"58":0.14628033339977264,"59":0.12405752390623093,"60":-0.1282353699207306,"61":0.12927597761154175,"62":0.0010549465660005808,"63":0.08102648705244064,"64":0.005575546063482761,"65":0.23818688094615936,"66":0.08682839572429657,"67":0.1925497204065323,"68":-0.08033487200737,"69":-0.17760701477527618,"70":-0.32545480132102966,"71":0.045489490032196045,"72":-0.26005879044532776,"73":0.02403140999376774,"74":0.01030077412724495,"75":-0.2927943170070648,"76":0.0021814433857798576,"77":-0.0661289393901825,"78":0.4121760129928589,"79":0.1126001626253128,"80":0.16578297317028046,"81":0.03261053189635277,"82":-0.04230494052171707,"83":0.04390466958284378,"84":0.3257480561733246,"85":-0.10290560126304626,"86":-0.7590251564979553,"87":0.043518681079149246,"88":0.24401281774044037,"89":-0.20347939431667328,"90":0.3746790289878845,"91":0.05325379595160484,"92":0.09675580263137817,"93":0.04091384634375572,"94":-0.3359702229499817,"95":-0.056786373257637024,"96":-0.24225421249866486,"97":0.005278137046843767,"98":0.11364597082138062,"99":0.5183213949203491,"100":0.1566920429468155,"101":0.06586704403162003,"102":-0.14923173189163208,"103":-0.14486655592918396,"104":-0.05379641056060791,"105":-0.004660226404666901,"106":0.20455443859100342,"107":-0.22036147117614746,"108":-0.4069691300392151,"109":0.058129873126745224,"110":-0.0782158225774765,"111":-0.04404802620410919,"112":-0.06369172036647797,"113":0.3719930946826935,"114":-0.23366679251194,"115":0.29202303290367126,"116":0.051838845014572144,"117":-0.26818567514419556,"118":-0.07713877409696579,"119":-0.3635924756526947,"120":0.11555305868387222,"121":0.09351895749568939,"122":-0.1876218020915985,"123":-0.07273449748754501,"124":0.026237593963742256,"125":-0.12446948140859604,"126":-0.15815500915050507,"127":-0.004955453798174858,"128":0.02585506998002529,"129":0.18407760560512543,"130":0.08938349783420563,"131":0.19889366626739502,"132":0.21757280826568604,"133":-0.3210614025592804,"134":-0.2730739414691925,"135":0.1006573811173439,"136":-0.13897554576396942,"137":0.1414252668619156,"138":0.016127200797200203,"139":-0.28223150968551636,"140":-0.24567799270153046,"141":-0.07854403555393219,"142":0.29809319972991943,"143":-0.3741054832935333,"144":-0.023438388481736183}},"1":{"bias":0.17458583414554596,"weights":{"0":-0.44831982254981995,"1":0.5935118794441223,"2":0.1204458624124527,"3":-0.4729318618774414,"4":0.1655624359846115,"5":-0.012645017355680466,"6":0.4432578980922699,"7":-0.6701170206069946,"8":0.22913868725299835,"9":0.3988557755947113,"10":0.3855854570865631,"11":0.32367587089538574,"12":0.758830189704895,"13":-0.04762120917439461,"14":-0.5744588375091553,"15":-0.21977010369300842,"16":-0.055003225803375244,"17":0.46959570050239563,"18":-0.1141512542963028,"19":0.10676351189613342,"20":-0.9064974188804626,"21":0.027444783598184586,"22":0.9142284989356995,"23":0.138071671128273,"24":0.010261493735015392,"25":-0.17182445526123047,"26":0.22897861897945404,"27":-0.42232847213745117,"28":0.21234947443008423,"29":0.057024650275707245,"30":-0.28654271364212036,"31":0.07735664397478104,"32":0.007827430963516235,"33":-0.06218127906322479,"34":-0.044514454901218414,"35":0.33047664165496826,"36":-0.3681499660015106,"37":0.8604705929756165,"38":0.16452249884605408,"39":0.40491312742233276,"40":-0.05436543747782707,"41":-0.34987354278564453,"42":-0.16863928735256195,"43":-0.26431921124458313,"44":-0.06470329314470291,"45":-0.01940418966114521,"46":0.36970409750938416,"47":-0.177976593375206,"48":-0.02532375417649746,"49":-0.5411948561668396,"50":0.8292090892791748,"51":0.17236469686031342,"52":-0.4284476041793823,"53":-0.33641788363456726,"54":0.27253517508506775,"55":-0.018846506252884865,"56":-0.6557422280311584,"57":1.0332504510879517,"58":0.2628820538520813,"59":0.16576173901557922,"60":0.7833042144775391,"61":0.3285808563232422,"62":0.16894622147083282,"63":0.1236305758357048,"64":-0.07310377806425095,"65":-0.11605491489171982,"66":0.12816014885902405,"67":-0.4651048481464386,"68":-0.07332619279623032,"69":-0.20282337069511414,"70":0.009817376732826233,"71":0.2366531789302826,"72":-0.07404735684394836,"73":0.07239247113466263,"74":0.2171679139137268,"75":0.2629562020301819,"76":-0.2971099019050598,"77":-0.027743589133024216,"78":0.7881229519844055,"79":-0.01736849918961525,"80":-0.7509198188781738,"81":0.050163209438323975,"82":0.3730328679084778,"83":-0.020908309146761894,"84":0.3387469947338104,"85":-0.6282505989074707,"86":-0.765169084072113,"87":-0.23538285493850708,"88":-0.000013610790119855665,"89":0.18612822890281677,"90":0.3840760886669159,"91":-0.06612928211688995,"92":0.008714103139936924,"93":0.11853211373090744,"94":0.4561788737773895,"95":-0.45772817730903625,"96":-0.18227893114089966,"97":-0.04907146096229553,"98":0.15629145503044128,"99":0.3504737317562103,"100":0.10320005565881729,"101":0.07579174637794495,"102":-0.17994490265846252,"103":0.0201222263276577,"104":0.42877691984176636,"105":-0.18811406195163727,"106":0.03367249667644501,"107":0.4012066125869751,"108":0.8754186630249023,"109":-0.12972848117351532,"110":-0.19429124891757965,"111":-0.19639579951763153,"112":0.45250385999679565,"113":0.1962622106075287,"114":-0.07180226594209671,"115":0.4957382380962372,"116":0.12536858022212982,"117":0.522436797618866,"118":0.3759934902191162,"119":-0.4319296181201935,"120":0.07525964826345444,"121":-0.012486517429351807,"122":0.2710534334182739,"123":0.015189419500529766,"124":0.17915113270282745,"125":-0.038654912263154984,"126":0.2755959630012512,"127":-0.7038289308547974,"128":0.7292433381080627,"129":-0.3064471483230591,"130":-0.04542664811015129,"131":-0.1488732099533081,"132":-0.28969621658325195,"133":0.2140691727399826,"134":-0.23738910257816315,"135":-0.060895632952451706,"136":0.01711476594209671,"137":0.31562432646751404,"138":-0.04746067896485329,"139":-0.05387235805392265,"140":0.09785830229520798,"141":0.16435959935188293,"142":0.013950098305940628,"143":0.325149804353714,"144":-0.5284093618392944}},"2":{"bias":-0.1666625440120697,"weights":{"0":-0.16687823832035065,"1":0.09026184678077698,"2":-0.06491393595933914,"3":0.4632745683193207,"4":0.20692355930805206,"5":-0.14930766820907593,"6":-0.07348931580781937,"7":0.06464597582817078,"8":0.3583269715309143,"9":0.15580587089061737,"10":0.046688467264175415,"11":0.06790638715028763,"12":0.6610128283500671,"13":0.014272307977080345,"14":0.3574444651603699,"15":-0.2855292856693268,"16":0.18176625669002533,"17":0.13225872814655304,"18":-0.19908379018306732,"19":-0.34314414858818054,"20":-0.10060016065835953,"21":-0.5675685405731201,"22":0.2672840356826782,"23":-0.19854184985160828,"24":-0.0028272003401070833,"25":0.0027697808109223843,"26":-0.38144412636756897,"27":-0.09815068542957306,"28":-0.17015400528907776,"29":-0.24850061535835266,"30":0.12363079190254211,"31":0.07798471301794052,"32":0.808921217918396,"33":0.4204038083553314,"34":-0.0359639897942543,"35":0.07045754790306091,"36":0.28904885053634644,"37":-0.20417983829975128,"38":-0.061986181885004044,"39":0.24802352488040924,"40":-0.532383382320404,"41":0.4893195629119873,"42":-0.09724070131778717,"43":0.040343668311834335,"44":0.12843666970729828,"45":-0.3510378301143646,"46":0.0544377826154232,"47":0.10871288925409317,"48":0.07967755198478699,"49":0.40507835149765015,"50":1.0091192722320557,"51":-0.4965440630912781,"52":0.08685187995433807,"53":0.13006699085235596,"54":-0.4581669867038727,"55":-0.0038906564004719257,"56":0.6483838558197021,"57":0.15379129350185394,"58":-0.14463859796524048,"59":-0.46399441361427307,"60":-0.42271605134010315,"61":-0.1500985026359558,"62":-0.969950258731842,"63":0.11029113084077835,"64":0.35782045125961304,"65":-0.18813441693782806,"66":-0.23930612206459045,"67":-0.38355302810668945,"68":-0.20490218698978424,"69":-0.2458643913269043,"70":0.992698073387146,"71":0.21363230049610138,"72":0.00631982134655118,"73":-0.10437355935573578,"74":-0.160271555185318,"75":0.18343621492385864,"76":-0.4080151319503784,"77":-0.1778767853975296,"78":-0.677982747554779,"79":-0.20054098963737488,"80":-0.5108696222305298,"81":-0.435853511095047,"82":-0.4072206914424896,"83":-0.2447509914636612,"84":-0.04695083200931549,"85":-0.4639438986778259,"86":0.4604671001434326,"87":0.1357031613588333,"88":-0.012265680357813835,"89":-0.24150896072387695,"90":-0.4134470522403717,"91":-0.18965256214141846,"92":0.062263090163469315,"93":0.26923781633377075,"94":0.0693567767739296,"95":0.10471279919147491,"96":-0.31309133768081665,"97":-0.12530949711799622,"98":-0.689144492149353,"99":-0.22091732919216156,"100":0.12542575597763062,"101":-0.5251176357269287,"102":0.0289363544434309,"103":0.12138048559427261,"104":-0.1878160685300827,"105":0.0062964255921542645,"106":-0.327778697013855,"107":-0.12458880245685577,"108":-0.4966360330581665,"109":-0.35412096977233887,"110":-0.1957767754793167,"111":-0.10708314925432205,"112":-0.11383574455976486,"113":-0.30111974477767944,"114":0.3984486758708954,"115":-0.09127512574195862,"116":-0.37610316276550293,"117":0.7124314308166504,"118":-0.3716311454772949,"119":-0.8824337720870972,"120":-0.0572647899389267,"121":0.040561504662036896,"122":-0.042812246829271317,"123":0.10602469742298126,"124":0.23684145510196686,"125":-1.0086811780929565,"126":-0.568756639957428,"127":-0.40231427550315857,"128":-0.2719272971153259,"129":-0.1101665049791336,"130":-0.7839793562889099,"131":0.016219276934862137,"132":0.10941057652235031,"133":0.1225404143333435,"134":-0.5748383402824402,"135":-0.5922558903694153,"136":-0.05285114049911499,"137":-0.6229315996170044,"138":-1.215084433555603,"139":-0.08821413666009903,"140":-0.03984550014138222,"141":0.012254294008016586,"142":-0.12056850641965866,"143":0.443427711725235,"144":0.8066394925117493}},"3":{"bias":0.6212460994720459,"weights":{"0":0.3685649335384369,"1":-0.5237843990325928,"2":-0.019167540594935417,"3":-0.5242571234703064,"4":-0.2871849536895752,"5":0.22093838453292847,"6":0.025692958384752274,"7":0.3116287887096405,"8":-0.008437502197921276,"9":0.021487900987267494,"10":-0.0772164985537529,"11":-0.4795900881290436,"12":0.03906858339905739,"13":-0.16421835124492645,"14":0.052162203937768936,"15":-0.30460813641548157,"16":0.26720815896987915,"17":-0.05961434543132782,"18":0.16090188920497894,"19":0.17607462406158447,"20":1.2214418649673462,"21":0.5786888003349304,"22":-0.17650356888771057,"23":0.13366375863552094,"24":-0.3458683490753174,"25":-0.09706059843301773,"26":-0.03206682950258255,"27":0.25855395197868347,"28":0.05523069575428963,"29":0.3358268737792969,"30":-0.48510584235191345,"31":-0.37798672914505005,"32":0.42972204089164734,"33":0.0023692778777331114,"34":0.12220080941915512,"35":0.3922053575515747,"36":0.5878828167915344,"37":-0.1832875907421112,"38":-0.2205202877521515,"39":-0.5943681001663208,"40":0.29099011421203613,"41":0.13275402784347534,"42":-0.3421177864074707,"43":-0.24574951827526093,"44":-0.032767005264759064,"45":-0.16843804717063904,"46":-0.11504220217466354,"47":0.43237069249153137,"48":0.23951733112335205,"49":0.5576745271682739,"50":-0.042990975081920624,"51":0.10966860502958298,"52":-0.04017685726284981,"53":-0.21067628264427185,"54":-0.05049929767847061,"55":0.05331088975071907,"56":-0.37865838408470154,"57":0.02227879874408245,"58":-0.13330484926700592,"59":-0.205867737531662,"60":0.04419851675629616,"61":0.39983758330345154,"62":0.0786452442407608,"63":0.15476186573505402,"64":-0.18587402999401093,"65":-0.2810315191745758,"66":0.06714396178722382,"67":0.12739479541778564,"68":0.1204828992486,"69":-0.24948106706142426,"70":-0.5064323544502258,"71":-0.008509832434356213,"72":0.4741789400577545,"73":0.21316251158714294,"74":0.11551361531019211,"75":0.24307101964950562,"76":-0.24503320455551147,"77":-0.03994585573673248,"78":-0.22365620732307434,"79":0.16725851595401764,"80":0.050618916749954224,"81":-0.1108357310295105,"82":-0.38023343682289124,"83":0.062442511320114136,"84":-0.26828882098197937,"85":-0.2819795608520508,"86":0.5567263960838318,"87":-0.1472560465335846,"88":-0.2331470251083374,"89":0.12401062995195389,"90":0.26438117027282715,"91":0.14561375975608826,"92":0.17115665972232819,"93":0.0630498081445694,"94":0.24231316149234772,"95":-0.33725982904434204,"96":0.30777400732040405,"97":-0.17238126695156097,"98":-0.5594424605369568,"99":0.43826380372047424,"100":-0.17024031281471252,"101":0.10745328664779663,"102":-0.12949052453041077,"103":-0.1768929809331894,"104":0.3253750205039978,"105":0.2410995364189148,"106":-0.2364887297153473,"107":0.3164770305156708,"108":-0.8070076107978821,"109":0.49948784708976746,"110":0.2773338556289673,"111":-0.4270707368850708,"112":-0.007826329208910465,"113":-0.13378021121025085,"114":0.947343647480011,"115":0.5724149942398071,"116":-0.0005762928631156683,"117":0.44911444187164307,"118":0.16483274102210999,"119":0.06534916907548904,"120":0.07426083087921143,"121":0.17061679065227509,"122":-0.05653933808207512,"123":-0.24160170555114746,"124":-0.19826608896255493,"125":0.06336148828268051,"126":-0.33372315764427185,"127":-0.5260732173919678,"128":-0.4703545868396759,"129":-0.2525855600833893,"130":-0.05459236726164818,"131":-0.2551134526729584,"132":-0.2477082908153534,"133":0.41684234142303467,"134":0.22267518937587738,"135":0.06633377820253372,"136":0.4461604654788971,"137":-0.08581965416669846,"138":-0.10673194378614426,"139":0.33727607131004333,"140":0.2788999676704407,"141":0.09299828112125397,"142":-0.21991483867168427,"143":0.4145875573158264,"144":0.0033414175268262625}},"4":{"bias":0.033661212772130966,"weights":{"0":0.18653604388237,"1":-0.20127134025096893,"2":0.07928255945444107,"3":0.03361283987760544,"4":-0.06408296525478363,"5":0.3079884946346283,"6":0.07144441455602646,"7":-0.24668584764003754,"8":0.4076993763446808,"9":0.13647347688674927,"10":0.21904776990413666,"11":0.13764449954032898,"12":-0.6814227104187012,"13":0.2063349038362503,"14":-0.04770265892148018,"15":0.04346119612455368,"16":-0.12722977995872498,"17":-0.13672716915607452,"18":-0.03733936697244644,"19":-0.20758165419101715,"20":0.15913395583629608,"21":0.19987261295318604,"22":0.08007869869470596,"23":-0.2164570391178131,"24":-0.027336295694112778,"25":0.20643016695976257,"26":-0.38277506828308105,"27":0.021315649151802063,"28":-0.05348849296569824,"29":-0.14233854413032532,"30":-0.2527921497821808,"31":-0.25330033898353577,"32":0.3579741418361664,"33":0.21467243134975433,"34":0.0005987680633552372,"35":0.04789559915661812,"36":-0.11431089788675308,"37":-0.12422692030668259,"38":-0.15719176828861237,"39":-0.026066485792398453,"40":-0.4191448986530304,"41":-0.42455750703811646,"42":-0.11283431947231293,"43":0.09328305721282959,"44":-0.005435634404420853,"45":0.0021339731756597757,"46":0.13565263152122498,"47":-0.16298143565654755,"48":0.20653745532035828,"49":0.23323479294776917,"50":0.05889411270618439,"51":-0.2780240476131439,"52":0.21687720715999603,"53":-0.03420915827155113,"54":-0.21342360973358154,"55":-0.23042137920856476,"56":0.07011925429105759,"57":0.21185773611068726,"58":0.27541640400886536,"59":0.12996381521224976,"60":-0.16926230490207672,"61":-0.10351864248514175,"62":-0.14900296926498413,"63":0.24968446791172028,"64":0.20855523645877838,"65":0.2618938088417053,"66":-0.22023381292819977,"67":0.10910418629646301,"68":0.05251796916127205,"69":0.3038044571876526,"70":-0.45397207140922546,"71":0.1525963842868805,"72":0.13980551064014435,"73":-0.11210021376609802,"74":0.004899399355053902,"75":-0.19276288151741028,"76":-0.09942525625228882,"77":-0.1458674818277359,"78":0.03264964371919632,"79":0.33985960483551025,"80":0.29205501079559326,"81":-0.1555687040090561,"82":-0.15716047585010529,"83":0.18806786835193634,"84":-0.22184695303440094,"85":0.12023553997278214,"86":-0.23806291818618774,"87":-0.18513669073581696,"88":0.24032247066497803,"89":-0.15486106276512146,"90":-0.1138870045542717,"91":-0.0385642945766449,"92":0.09867975860834122,"93":-0.18418729305267334,"94":-0.17006491124629974,"95":0.18158641457557678,"96":-0.020586879923939705,"97":-0.2546234726905823,"98":-0.26149752736091614,"99":0.3398064970970154,"100":-0.09063562005758286,"101":-0.15030649304389954,"102":0.11785224080085754,"103":-0.17506569623947144,"104":0.1081644594669342,"105":-0.16271770000457764,"106":-0.1920168399810791,"107":-0.08778340369462967,"108":-0.44511669874191284,"109":0.06756521761417389,"110":-0.2939041554927826,"111":-0.17869733273983002,"112":0.12589946389198303,"113":-0.35835719108581543,"114":-0.436428964138031,"115":0.27435269951820374,"116":-0.002509997459128499,"117":0.10727672278881073,"118":0.0496758334338665,"119":0.2196224480867386,"120":0.015646446496248245,"121":0.06154833734035492,"122":-0.08116766810417175,"123":-0.29342612624168396,"124":0.12718439102172852,"125":-0.3675519526004791,"126":-0.08201215416193008,"127":-0.27341368794441223,"128":0.474784791469574,"129":-0.1402670294046402,"130":0.05043948441743851,"131":0.058191414922475815,"132":-0.049364667385816574,"133":0.07421162724494934,"134":-0.15296034514904022,"135":-0.23201040923595428,"136":-0.10694664716720581,"137":-0.21647106111049652,"138":-0.5295803546905518,"139":-0.13046197593212128,"140":-0.11592429876327515,"141":-0.16515518724918365,"142":-0.33126261830329895,"143":-0.10024527460336685,"144":-0.508694052696228}},"5":{"bias":1.0099847316741943,"weights":{"0":0.07219298928976059,"1":-0.25982043147087097,"2":0.14146649837493896,"3":-0.03871377184987068,"4":-0.13695356249809265,"5":0.053567517548799515,"6":-0.060174670070409775,"7":0.046549052000045776,"8":0.27892962098121643,"9":-0.10746465623378754,"10":0.10054753720760345,"11":-0.3172375559806824,"12":-1.086242437362671,"13":0.20018458366394043,"14":0.8692291378974915,"15":0.39384710788726807,"16":0.42914879322052,"17":-0.3320716619491577,"18":-0.26942938566207886,"19":0.06782425194978714,"20":-0.44189852476119995,"21":0.4173450171947479,"22":-0.46049660444259644,"23":0.7696436047554016,"24":0.031018482521176338,"25":-0.39896735548973083,"26":-0.17624829709529877,"27":-0.13876666128635406,"28":0.11522684246301651,"29":0.3158380389213562,"30":-0.14959056675434113,"31":0.2561089098453522,"32":-0.4831342399120331,"33":0.04275029897689819,"34":0.23482827842235565,"35":-0.3672647774219513,"36":-0.1377985030412674,"37":-0.5825650095939636,"38":0.3431636393070221,"39":0.47431614995002747,"40":0.7172141671180725,"41":-0.7446051836013794,"42":0.44889259338378906,"43":-0.016457650810480118,"44":0.30114856362342834,"45":0.3501192629337311,"46":-0.26762139797210693,"47":-0.33036747574806213,"48":0.029832396656274796,"49":-1.3088886737823486,"50":-0.2083265781402588,"51":0.5339779257774353,"52":0.5617412328720093,"53":-0.21235300600528717,"54":-0.03967892378568649,"55":0.2785770297050476,"56":0.8086137175559998,"57":0.6085172891616821,"58":-0.3197399377822876,"59":0.2040969580411911,"60":-0.4662361443042755,"61":0.26559877395629883,"62":-0.5306286215782166,"63":0.07580500841140747,"64":0.7023603320121765,"65":0.19655805826187134,"66":-0.9231466054916382,"67":-0.17463915050029755,"68":0.339463472366333,"69":-0.39105984568595886,"70":-0.302127867937088,"71":-0.2376069277524948,"72":-0.9242605566978455,"73":-0.1413634717464447,"74":-0.29879531264305115,"75":0.12949147820472717,"76":0.34977689385414124,"77":-0.35054007172584534,"78":0.24640892446041107,"79":0.6194609999656677,"80":0.3429175615310669,"81":0.3455330729484558,"82":-0.3686063885688782,"83":0.08515523374080658,"84":0.17620037496089935,"85":0.1367163062095642,"86":-0.49958038330078125,"87":0.34160006046295166,"88":-0.49368804693222046,"89":0.11666426807641983,"90":0.21093802154064178,"91":0.8224266171455383,"92":-0.08305000513792038,"93":0.13342571258544922,"94":-0.0969819650053978,"95":1.0766661167144775,"96":0.6313376426696777,"97":0.6053286194801331,"98":0.26533743739128113,"99":-0.21949242055416107,"100":0.1147892102599144,"101":-0.6837809681892395,"102":0.0850510448217392,"103":-0.07307611405849457,"104":0.10857834666967392,"105":-0.8949992656707764,"106":0.05816567689180374,"107":0.3633127510547638,"108":0.6875805854797363,"109":0.38470375537872314,"110":0.5877179503440857,"111":0.013659502379596233,"112":-0.6512930393218994,"113":0.12634682655334473,"114":0.4366917014122009,"115":0.6228220462799072,"116":0.5547860264778137,"117":-0.5672487616539001,"118":-0.0989086851477623,"119":0.10647697001695633,"120":0.14361536502838135,"121":0.049693431705236435,"122":0.3157281279563904,"123":-0.306047260761261,"124":0.14898839592933655,"125":0.11438267678022385,"126":-0.01761092059314251,"127":-1.5284993648529053,"128":0.7163614630699158,"129":0.130475252866745,"130":-0.6950249075889587,"131":0.0767199769616127,"132":0.7006903290748596,"133":0.37734606862068176,"134":-0.14277435839176178,"135":0.09467565268278122,"136":0.6703861951828003,"137":0.5080001950263977,"138":0.3796996474266052,"139":0.688888430595398,"140":-0.3640715479850769,"141":-1.1386587619781494,"142":0.0808609127998352,"143":0.19024614989757538,"144":0.5056049227714539}},"6":{"bias":-0.16903668642044067,"weights":{"0":0.40711545944213867,"1":0.32315459847450256,"2":-0.2012512981891632,"3":-0.9411503076553345,"4":-0.018261270597577095,"5":0.24427075684070587,"6":0.05246803164482117,"7":-0.1681215614080429,"8":0.6921364068984985,"9":-0.39294689893722534,"10":0.023099688813090324,"11":-0.12170790135860443,"12":0.32252758741378784,"13":0.1942918598651886,"14":-0.2645895779132843,"15":0.17891953885555267,"16":0.4897778630256653,"17":0.0048994445241987705,"18":-0.1755385398864746,"19":0.4320628046989441,"20":-0.09031203389167786,"21":0.18646983802318573,"22":-0.7275081276893616,"23":-0.2679217457771301,"24":0.07716725766658783,"25":0.3856736123561859,"26":-0.3005351424217224,"27":0.7953383326530457,"28":0.48996201157569885,"29":-0.08822018653154373,"30":-0.2862183153629303,"31":-0.3140403628349304,"32":0.02727612853050232,"33":-0.4436946511268616,"34":0.10522988438606262,"35":-0.2741812765598297,"36":-0.5041868686676025,"37":-0.3860785961151123,"38":-0.3292347490787506,"39":-0.11327420175075531,"40":0.05930827558040619,"41":-0.04921954125165939,"42":0.3583153486251831,"43":-0.1820850670337677,"44":0.14005990326404572,"45":-0.030420729890465736,"46":0.19059577584266663,"47":-0.04391651973128319,"48":0.4496195614337921,"49":-0.2766036093235016,"50":-0.6829760670661926,"51":-0.36624875664711,"52":-0.013570211827754974,"53":0.48703697323799133,"54":0.5817278623580933,"55":-0.279187947511673,"56":-1.178683876991272,"57":-0.5073883533477783,"58":-0.13139812648296356,"59":-0.06857477128505707,"60":-0.33110472559928894,"61":0.8469612002372742,"62":-0.16069228947162628,"63":-0.024882860481739044,"64":0.7392843961715698,"65":0.17473462224006653,"66":-0.06481537222862244,"67":0.21583983302116394,"68":-0.0289640873670578,"69":0.6422445774078369,"70":0.21530044078826904,"71":-0.24783466756343842,"72":-0.6221380233764648,"73":-0.06945640593767166,"74":-0.4342743456363678,"75":0.20580390095710754,"76":-0.33306121826171875,"77":-0.052773021161556244,"78":0.6658374667167664,"79":0.2962954640388489,"80":0.421895295381546,"81":-0.6215590238571167,"82":-0.48065119981765747,"83":0.0966520681977272,"84":-0.34419307112693787,"85":0.0058552357368171215,"86":-0.2716759443283081,"87":0.5263881087303162,"88":0.15196876227855682,"89":-0.35216474533081055,"90":0.6231371164321899,"91":0.35794055461883545,"92":0.26416778564453125,"93":0.1433202475309372,"94":-0.3212636411190033,"95":0.4177773594856262,"96":-0.5631342530250549,"97":-0.14767788350582123,"98":0.8098808526992798,"99":0.399277925491333,"100":-0.13871456682682037,"101":-0.5766604542732239,"102":0.040667179971933365,"103":0.011652952060103416,"104":0.18424256145954132,"105":-0.5580503940582275,"106":-0.022410694509744644,"107":0.49755653738975525,"108":0.7703115344047546,"109":-0.7076436877250671,"110":-0.11937125772237778,"111":-0.1903035193681717,"112":0.17837217450141907,"113":-0.1446184664964676,"114":-0.5855635404586792,"115":0.26969608664512634,"116":0.3202495872974396,"117":0.1559538096189499,"118":-0.32500985264778137,"119":0.6471208930015564,"120":-0.1312323361635208,"121":-0.13068890571594238,"122":0.330594927072525,"123":-0.2409202754497528,"124":0.6271286606788635,"125":-0.6569103598594666,"126":0.005958401132375002,"127":-0.3689116835594177,"128":-0.5922791361808777,"129":0.22456704080104828,"130":-0.21739457547664642,"131":0.1957862675189972,"132":0.8673015236854553,"133":0.05465131998062134,"134":-0.05150594934821129,"135":-0.5590524077415466,"136":-0.34860125184059143,"137":0.08144787698984146,"138":-0.8999459147453308,"139":-0.4988914728164673,"140":-0.7634950876235962,"141":-0.34050023555755615,"142":-0.00871901586651802,"143":0.7164069414138794,"144":-1.2917954921722412}},"7":{"bias":-0.4108051359653473,"weights":{"0":-0.048914216458797455,"1":-0.19378367066383362,"2":-0.23132729530334473,"3":-0.5195947289466858,"4":0.33252906799316406,"5":-0.30345773696899414,"6":0.043234292417764664,"7":0.08433522284030914,"8":0.22401165962219238,"9":-0.1566929668188095,"10":-0.10636521130800247,"11":-0.05242620408535004,"12":0.29486650228500366,"13":0.2876214385032654,"14":-0.13660849630832672,"15":-0.31762486696243286,"16":-0.030984625220298767,"17":0.033211395144462585,"18":0.40620875358581543,"19":0.06970509141683578,"20":0.2832956314086914,"21":0.3769950866699219,"22":0.16991932690143585,"23":-0.37416520714759827,"24":-0.10467241704463959,"25":0.10279395431280136,"26":0.033733170479536057,"27":-0.5883979797363281,"28":0.22457973659038544,"29":0.26149147748947144,"30":-0.13289950788021088,"31":-0.3034960627555847,"32":-0.6744043827056885,"33":-0.19108444452285767,"34":-0.03787926957011223,"35":0.07696284353733063,"36":0.5235080718994141,"37":-0.17317892611026764,"38":-0.005148415453732014,"39":0.056579168885946274,"40":0.6665688157081604,"41":-0.3906620442867279,"42":0.2547122538089752,"43":-0.06516715884208679,"44":0.2517623007297516,"45":-0.11486633121967316,"46":-0.07211010158061981,"47":0.44009196758270264,"48":0.2516837418079376,"49":0.08438350260257721,"50":0.15802410244941711,"51":0.2866472601890564,"52":-0.2349504828453064,"53":-0.04415504261851311,"54":0.18837469816207886,"55":0.21884234249591827,"56":0.14120347797870636,"57":0.6703583002090454,"58":0.6188061833381653,"59":0.13503915071487427,"60":-0.24649326503276825,"61":-0.7422770857810974,"62":0.49143993854522705,"63":-0.20575708150863647,"64":0.3306770920753479,"65":-0.48250845074653625,"66":-0.003905315650627017,"67":-0.008210432715713978,"68":-0.14801467955112457,"69":-0.41683346033096313,"70":-0.9314174652099609,"71":-0.3777798116207123,"72":-0.019734030589461327,"73":0.14341729879379272,"74":-0.00598102854564786,"75":0.0919940173625946,"76":0.26024001836776733,"77":0.19824841618537903,"78":0.06301584839820862,"79":-0.4062036871910095,"80":0.31964921951293945,"81":-0.41895124316215515,"82":-0.12841980159282684,"83":0.23661470413208008,"84":-0.05325436592102051,"85":-0.3187125623226166,"86":0.6479771137237549,"87":0.022951284423470497,"88":0.25839847326278687,"89":-0.4258858859539032,"90":-0.15337222814559937,"91":0.12811289727687836,"92":-0.19079089164733887,"93":-0.08418348431587219,"94":0.40706637501716614,"95":0.0783347636461258,"96":-0.3049393892288208,"97":-0.3964216709136963,"98":-0.12186978757381439,"99":-0.18022005259990692,"100":-0.08745703101158142,"101":-0.10862299799919128,"102":-0.012594571337103844,"103":-0.015146614983677864,"104":-0.16766250133514404,"105":0.4322965741157532,"106":-0.2127222716808319,"107":0.30975690484046936,"108":0.26615476608276367,"109":-0.14299379289150238,"110":-0.2523972988128662,"111":0.3046819269657135,"112":0.554816484451294,"113":-0.08146632462739944,"114":1.2729041576385498,"115":-0.46616697311401367,"116":0.3489592671394348,"117":0.9771515727043152,"118":-0.16898469626903534,"119":0.15496110916137695,"120":0.21495190262794495,"121":-0.28363582491874695,"122":0.10920301824808121,"123":0.05020500347018242,"124":0.44980287551879883,"125":0.6064983010292053,"126":0.2647634446620941,"127":-0.1297643929719925,"128":0.2587500512599945,"129":0.08191481977701187,"130":0.1033332571387291,"131":-0.017512818798422813,"132":0.00009718668297864497,"133":0.03421065956354141,"134":0.20444481074810028,"135":0.10027115792036057,"136":0.17274847626686096,"137":0.5740576386451721,"138":0.644102931022644,"139":-0.20666390657424927,"140":0.11439982801675797,"141":-0.03665594011545181,"142":0.009495574980974197,"143":-0.26679912209510803,"144":-0.2321353554725647}}},{"0":{"bias":-0.08233771473169327,"weights":{"0":-0.014865952543914318,"1":-0.23854070901870728,"2":0.17516475915908813,"3":-0.3535957932472229,"4":-0.17246398329734802,"5":0.21097151935100555,"6":0.3396674394607544,"7":-0.08849337697029114}},"1":{"bias":0.17246763408184052,"weights":{"0":-0.6563493609428406,"1":0.46189171075820923,"2":0.12269985675811768,"3":1.1117806434631348,"4":-0.15219809114933014,"5":-0.2598418891429901,"6":-0.2703106105327606,"7":-0.5434062480926514}},"2":{"bias":-0.0015130232786759734,"weights":{"0":-0.4049874246120453,"1":0.32680827379226685,"2":0.02293390780687332,"3":0.4554376006126404,"4":-0.06065332144498825,"5":-0.05301664397120476,"6":0.150583416223526,"7":-0.2812909483909607}},"3":{"bias":0.08142144232988358,"weights":{"0":-0.6048547029495239,"1":0.7591255307197571,"2":-0.04932491481304169,"3":0.8085483908653259,"4":-0.4021810293197632,"5":-0.6248637437820435,"6":-0.38078150153160095,"7":-0.35429883003234863}},"4":{"bias":-0.7456319332122803,"weights":{"0":0.7687758207321167,"1":-2.199587821960449,"2":2.547236442565918,"3":-1.7812315225601196,"4":1.1691794395446777,"5":2.9173760414123535,"6":2.378058671951294,"7":1.8428045511245728}},"5":{"bias":-0.19845719635486603,"weights":{"0":0.2945556044578552,"1":-0.7247056365013123,"2":0.9802557229995728,"3":-0.8647514581680298,"4":0.4092404246330261,"5":1.5041265487670898,"6":1.1101740598678589,"7":0.841744065284729}},"6":{"bias":-0.2699049413204193,"weights":{"0":-0.142866313457489,"1":-0.484025776386261,"2":0.40369105339050293,"3":-0.3881426751613617,"4":0.21392056345939636,"5":0.40267327427864075,"6":0.08751609921455383,"7":0.1256461888551712}},"7":{"bias":-0.27084842324256897,"weights":{"0":0.559368908405304,"1":-0.8287580609321594,"2":1.1280981302261353,"3":-1.0251799821853638,"4":0.6417356133460999,"5":1.6962289810180664,"6":1.1943823099136353,"7":1.0666216611862183}}},{"0":{"bias":1.5663219690322876,"weights":{"0":0.1210782378911972,"1":1.8708387613296509,"2":1.1080032587051392,"3":1.8413231372833252,"4":-4.015109539031982,"5":-1.4191946983337402,"6":-0.15573231875896454,"7":-1.8089258670806885}}}],"outputLookup":false,"inputLookup":false,"activation":"sigmoid","trainOpts":{"iterations":20000,"errorThresh":0.003,"log":true,"logPeriod":10,"learningRate":0.05,"momentum":0.1,"callbackPeriod":10,"beta1":0.9,"beta2":0.999,"epsilon":1e-8}}