{"sizes":[145,8,8,1],"layers":[{"0":{},"1":{},"2":{},"3":{},"4":{},"5":{},"6":{},"7":{},"8":{},"9":{},"10":{},"11":{},"12":{},"13":{},"14":{},"15":{},"16":{},"17":{},"18":{},"19":{},"20":{},"21":{},"22":{},"23":{},"24":{},"25":{},"26":{},"27":{},"28":{},"29":{},"30":{},"31":{},"32":{},"33":{},"34":{},"35":{},"36":{},"37":{},"38":{},"39":{},"40":{},"41":{},"42":{},"43":{},"44":{},"45":{},"46":{},"47":{},"48":{},"49":{},"50":{},"51":{},"52":{},"53":{},"54":{},"55":{},"56":{},"57":{},"58":{},"59":{},"60":{},"61":{},"62":{},"63":{},"64":{},"65":{},"66":{},"67":{},"68":{},"69":{},"70":{},"71":{},"72":{},"73":{},"74":{},"75":{},"76":{},"77":{},"78":{},"79":{},"80":{},"81":{},"82":{},"83":{},"84":{},"85":{},"86":{},"87":{},"88":{},"89":{},"90":{},"91":{},"92":{},"93":{},"94":{},"95":{},"96":{},"97":{},"98":{},"99":{},"100":{},"101":{},"102":{},"103":{},"104":{},"105":{},"106":{},"107":{},"108":{},"109":{},"110":{},"111":{},"112":{},"113":{},"114":{},"115":{},"116":{},"117":{},"118":{},"119":{},"120":{},"121":{},"122":{},"123":{},"124":{},"125":{},"126":{},"127":{},"128":{},"129":{},"130":{},"131":{},"132":{},"133":{},"134":{},"135":{},"136":{},"137":{},"138":{},"139":{},"140":{},"141":{},"142":{},"143":{},"144":{}},{"0":{"bias":-0.9096578359603882,"weights":{"0":-1.216422438621521,"1":-0.5348700881004333,"2":0.41246387362480164,"3":0.1100892573595047,"4":-0.06561239063739777,"5":-0.06477478891611099,"6":-0.35742607712745667,"7":0.2444089651107788,"8":0.11123930662870407,"9":1.2717009782791138,"10":0.2548768222332001,"11":-0.5168673396110535,"12":0.384448766708374,"13":0.3231002688407898,"14":-0.46736612915992737,"15":0.18991930782794952,"16":0.7293804287910461,"17":-0.3409808278083801,"18":0.222763329744339,"19":0.07550175487995148,"20":-1.0568972826004028,"21":-2.326399564743042,"22":2.4085307121276855,"23":-0.0755227729678154,"24":0.6052974462509155,"25":0.36638033390045166,"26":-0.30406197905540466,"27":0.019082719460129738,"28":0.2593781054019928,"29":-1.59547758102417,"30":1.844533085823059,"31":0.40478193759918213,"32":0.26983407139778137,"33":0.14868666231632233,"34":-0.026053432375192642,"35":-0.3643111288547516,"36":-0.765692949295044,"37":1.3741761445999146,"38":-0.011197898536920547,"39":-0.21759547293186188,"40":-0.7145771980285645,"41":-0.04095906391739845,"42":0.11474499851465225,"43":0.1659087836742401,"44":-0.042007386684417725,"45":-0.1214892640709877,"46":-0.5736880898475647,"47":-1.8001290559768677,"48":0.18743042647838593,"49":-0.6282793879508972,"50":0.2127978652715683,"51":0.21018071472644806,"52":-0.012546046636998653,"53":0.004003609996289015,"54":-0.11111124604940414,"55":-0.058489538729190826,"56":1.07667076587677,"57":0.4300982654094696,"58":0.0021640053018927574,"59":0.6509447693824768,"60":-0.17820407450199127,"61":-1.6775903701782227,"62":-0.4721750020980835,"63":0.09137605875730515,"64":-0.19266295433044434,"65":1.0801788568496704,"66":0.70514315366745,"67":-0.400426983833313,"68":-0.12721267342567444,"69":0.19112786650657654,"70":0.6995105147361755,"71":-0.4236086308956146,"72":-0.1326330602169037,"73":-0.03098192997276783,"74":-0.917637050151825,"75":-0.6471847891807556,"76":-0.4273085594177246,"77":0.5826248526573181,"78":1.1463630199432373,"79":-0.6102669835090637,"80":-0.02096952497959137,"81":0.4208550453186035,"82":0.764849066734314,"83":-0.34485509991645813,"84":-0.024334929883480072,"85":0.6092049479484558,"86":-0.6597217917442322,"87":0.3849087655544281,"88":1.0770809650421143,"89":-0.34441232681274414,"90":-0.6932201385498047,"91":0.43863844871520996,"92":0.1260305494070053,"93":-0.8250647187232971,"94":-0.3663163185119629,"95":-0.3491562008857727,"96":-0.29622629284858704,"97":-0.49831774830818176,"98":0.4661552906036377,"99":2.1383514404296875,"100":0.8407801985740662,"101":-1.2073403596878052,"102":0.029168087989091873,"103":0.0143657848238945,"104":-1.0256565809249878,"105":-0.15587785840034485,"106":0.5805896520614624,"107":-0.7737070918083191,"108":-0.3162612020969391,"109":-0.35658401250839233,"110":0.041414424777030945,"111":0.31063395738601685,"112":-0.35759755969047546,"113":-0.2148011177778244,"114":-0.4444071650505066,"115":0.43854135274887085,"116":-0.5785137414932251,"117":-0.04685886949300766,"118":0.5970760583877563,"119":-0.7135331630706787,"120":0.13618630170822144,"121":-0.14445506036281586,"122":-0.863284707069397,"123":0.6235365867614746,"124":1.1764872074127197,"125":-0.34109750390052795,"126":-0.20858098566532135,"127":0.1249074637889862,"128":-0.5863925814628601,"129":-0.3038051724433899,"130":-1.3392019271850586,"131":0.22919324040412903,"132":1.2200297117233276,"133":-0.7955225706100464,"134":-0.31851711869239807,"135":0.7394089102745056,"136":0.1930968165397644,"137":-1.5722018480300903,"138":-0.1746886521577835,"139":-0.0890527293086052,"140":-0.09050483256578445,"141":-1.0734295845031738,"142":-0.2676078975200653,"143":0.6945896148681641,"144":-0.7152485847473145}},"1":{"bias":-0.6009957790374756,"weights":{"0":0.2359425127506256,"1":0.16925176978111267,"2":1.7728456258773804,"3":-0.09817159175872803,"4":-1.5258344411849976,"5":-0.14230991899967194,"6":1.2111577987670898,"7":-1.0290908813476562,"8":1.476318359375,"9":-1.306776762008667,"10":0.5216902494430542,"11":0.5714199542999268,"12":-0.5251324772834778,"13":0.317198783159256,"14":-0.19902558624744415,"15":0.47912266850471497,"16":0.33373790979385376,"17":0.955527126789093,"18":-0.6882749199867249,"19":-0.9097919464111328,"20":-1.5701707601547241,"21":0.5655974745750427,"22":-1.6800318956375122,"23":0.023303236812353134,"24":-0.5288646817207336,"25":-1.3463749885559082,"26":-0.6346144080162048,"27":1.303416132926941,"28":-0.8252477049827576,"29":-0.461134672164917,"30":0.5848038196563721,"31":0.500129759311676,"32":1.6978598833084106,"33":-0.2501283288002014,"34":-0.25760215520858765,"35":1.2610163688659668,"36":-1.267566204071045,"37":-0.39168667793273926,"38":-0.3678503930568695,"39":0.9256901741027832,"40":-0.2593410015106201,"41":-1.0910024642944336,"42":0.5952894687652588,"43":0.07788845896720886,"44":0.6120601892471313,"45":-0.7114368081092834,"46":0.8034870624542236,"47":-0.8701602220535278,"48":-0.4739755094051361,"49":0.7922430038452148,"50":0.9941486716270447,"51":-1.8362386226654053,"52":0.5865648984909058,"53":0.3387746512889862,"54":-1.7765651941299438,"55":-0.3614647090435028,"56":-0.9781770706176758,"57":-0.06371849775314331,"58":-0.00941410381346941,"59":1.022512674331665,"60":-1.2937873601913452,"61":2.3703060150146484,"62":-0.33304882049560547,"63":-0.16738498210906982,"64":1.1077502965927124,"65":0.7935576438903809,"66":-0.6267187595367432,"67":-0.6521175503730774,"68":-0.8920092582702637,"69":0.142447367310524,"70":-0.4580175280570984,"71":1.0480332374572754,"72":0.4645606577396393,"73":0.28107741475105286,"74":-0.6064836382865906,"75":0.8145526051521301,"76":0.4988706707954407,"77":0.21649518609046936,"78":0.8146302103996277,"79":-1.533397912979126,"80":-0.1121172159910202,"81":1.0712674856185913,"82":1.5715358257293701,"83":-0.8366249799728394,"84":-0.21179792284965515,"85":-1.0600954294204712,"86":-2.080974578857422,"87":-1.386597752571106,"88":0.2014784961938858,"89":-0.09825828671455383,"90":0.31301644444465637,"91":-0.9460301399230957,"92":-0.04677532985806465,"93":1.3221582174301147,"94":-0.7883657813072205,"95":1.1862367391586304,"96":0.7719055414199829,"97":1.42000150680542,"98":0.08398031443357468,"99":1.2027455568313599,"100":-0.30294615030288696,"101":0.37015965580940247,"102":0.8354918360710144,"103":0.20002658665180206,"104":0.19160783290863037,"105":-0.6611890196800232,"106":-0.17265665531158447,"107":-0.7339462637901306,"108":-0.05560710281133652,"109":0.8855239152908325,"110":-0.8845987915992737,"111":0.023473963141441345,"112":1.0865405797958374,"113":-0.08918631076812744,"114":-0.8662779331207275,"115":0.2823035717010498,"116":2.125696897506714,"117":0.12944449484348297,"118":-0.26351821422576904,"119":0.49628081917762756,"120":-0.3645215630531311,"121":-0.06890638172626495,"122":-0.23443181812763214,"123":-2.07951283454895,"124":-0.4375394880771637,"125":-1.601466417312622,"126":-1.5307574272155762,"127":-1.0242031812667847,"128":0.5852763652801514,"129":-0.4094223082065582,"130":0.18062575161457062,"131":-0.3438851535320282,"132":-0.1820240020751953,"133":0.5027609467506409,"134":-0.2876356840133667,"135":-0.26774170994758606,"136":1.0437878370285034,"137":1.0819480419158936,"138":-1.4649029970169067,"139":-0.2711559534072876,"140":-0.1374886929988861,"141":0.16341671347618103,"142":0.2152881920337677,"143":0.6014537811279297,"144":-0.9515417218208313}},"2":{"bias":1.4497343301773071,"weights":{"0":0.5827822089195251,"1":-0.6854729652404785,"2":-1.217276692390442,"3":0.516481876373291,"4":0.8717793226242065,"5":-0.16795101761817932,"6":-0.133850559592247,"7":-0.5972421765327454,"8":0.03367779776453972,"9":-0.433843731880188,"10":-0.5700181126594543,"11":0.326517254114151,"12":-1.3792579174041748,"13":0.034532301127910614,"14":0.3984682857990265,"15":0.5239638090133667,"16":-0.6805465221405029,"17":-0.7666571140289307,"18":0.4762192368507385,"19":0.8238154053688049,"20":-1.313510537147522,"21":0.9007164239883423,"22":-0.7374147176742554,"23":0.5453641414642334,"24":0.09080449491739273,"25":0.7347851395606995,"26":-0.5198658108711243,"27":-0.8034855127334595,"28":-0.05021970719099045,"29":0.37896156311035156,"30":-2.6079585552215576,"31":1.466458797454834,"32":-1.4092586040496826,"33":0.4680916965007782,"34":-0.05382649600505829,"35":-0.11569014936685562,"36":-0.03449799120426178,"37":-1.7720003128051758,"38":0.8045671582221985,"39":1.061576008796692,"40":-1.0450208187103271,"41":0.11031759530305862,"42":0.2105034738779068,"43":1.2656002044677734,"44":0.37698933482170105,"45":-0.12989504635334015,"46":-1.2128612995147705,"47":-0.012920659966766834,"48":0.9902005195617676,"49":-1.7360590696334839,"50":-2.978254556655884,"51":-0.054107699543237686,"52":0.92827308177948,"53":0.4638141989707947,"54":-0.16579774022102356,"55":-0.2884335517883301,"56":1.0711842775344849,"57":-0.3812534511089325,"58":-0.3146898150444031,"59":-0.12375187128782272,"60":-1.4995341300964355,"61":-0.6779682636260986,"62":-0.5331716537475586,"63":-0.23836380243301392,"64":-0.029635336250066757,"65":0.48003244400024414,"66":0.09287640452384949,"67":-0.3545741140842438,"68":0.01035293284803629,"69":1.5752772092819214,"70":-0.41659513115882874,"71":0.4062366187572479,"72":0.6966769695281982,"73":-0.18628999590873718,"74":0.45305678248405457,"75":-1.11963951587677,"76":0.2938663959503174,"77":-0.20457126200199127,"78":2.353203773498535,"79":0.9712574481964111,"80":-0.6995673179626465,"81":-0.3723300099372864,"82":-1.7223269939422607,"83":-0.45481419563293457,"84":-0.6968480944633484,"85":1.5606070756912231,"86":0.7941211462020874,"87":-1.0875508785247803,"88":-0.07224517315626144,"89":-1.9844516515731812,"90":-1.7852381467819214,"91":0.37586042284965515,"92":-0.1446824073791504,"93":-0.37015241384506226,"94":-0.8585900664329529,"95":-0.9430689811706543,"96":-0.0002351863804506138,"97":-0.12452742457389832,"98":1.3452379703521729,"99":-0.4277511537075043,"100":-0.9926404356956482,"101":-0.056960344314575195,"102":1.0278528928756714,"103":-0.3054502308368683,"104":-1.1763452291488647,"105":-1.0155158042907715,"106":-1.085869312286377,"107":1.0956658124923706,"108":0.0496775321662426,"109":-0.2168453484773636,"110":-0.6129890084266663,"111":-1.5417560338974,"112":0.5759879946708679,"113":-0.27030783891677856,"114":0.48214495182037354,"115":-0.9946808815002441,"116":0.7242987155914307,"117":2.0778627395629883,"118":-0.7023442983627319,"119":0.615938663482666,"120":0.7662129998207092,"121":0.11264433711767197,"122":-0.15700256824493408,"123":-0.4290189743041992,"124":0.256740927696228,"125":-0.8222318291664124,"126":-0.9697147011756897,"127":-0.347391813993454,"128":1.4970154762268066,"129":0.8561868667602539,"130":-0.5043026804924011,"131":0.675560712814331,"132":0.2665988802909851,"133":-1.0871975421905518,"134":0.45984742045402527,"135":-0.6744304299354553,"136":1.0792111158370972,"137":-1.9032645225524902,"138":-1.0678763389587402,"139":0.624867856502533,"140":-0.36583632230758667,"141":-1.0398035049438477,"142":-0.5720208883285522,"143":0.030087612569332123,"144":-0.41474661231040955}},"3":{"bias":0.3627367317676544,"weights":{"0":-0.14239601790905,"1":0.781708300113678,"2":-0.31231632828712463,"3":0.2826598584651947,"4":0.041087787598371506,"5":-0.02540561743080616,"6":-0.23405981063842773,"7":-0.4126855731010437,"8":-1.8875855207443237,"9":-0.7376328110694885,"10":-0.7863455414772034,"11":-0.12511500716209412,"12":-0.5954233407974243,"13":0.8601639270782471,"14":0.8421928882598877,"15":-0.38951268792152405,"16":-0.5086437463760376,"17":-1.003639578819275,"18":-0.5415725111961365,"19":0.43543073534965515,"20":-0.7266302704811096,"21":-0.6920225620269775,"22":-0.8764186501502991,"23":0.3976762294769287,"24":-0.32040494680404663,"25":-0.9226280450820923,"26":0.3531534969806671,"27":1.297696590423584,"28":1.4100240468978882,"29":0.09698200970888138,"30":-0.2318747490644455,"31":-0.380552738904953,"32":1.3839524984359741,"33":1.5167405605316162,"34":-0.316580206155777,"35":-0.48622655868530273,"36":0.7320659160614014,"37":-1.0671238899230957,"38":0.46841365098953247,"39":-0.6457467675209045,"40":-0.8697624206542969,"41":-1.2798080444335938,"42":0.5811408162117004,"43":-0.5039195418357849,"44":-0.40177130699157715,"45":0.23109017312526703,"46":-0.5727609992027283,"47":-0.8994936347007751,"48":0.42727741599082947,"49":-0.43211403489112854,"50":-0.4741978645324707,"51":0.40202826261520386,"52":-0.03819550946354866,"53":-0.10927437990903854,"54":0.014854317530989647,"55":0.09390344470739365,"56":-0.004992403090000153,"57":-0.7212185263633728,"58":-0.8197029829025269,"59":1.4828253984451294,"60":-1.7466344833374023,"61":0.9218202829360962,"62":-0.028270289301872253,"63":-0.16570472717285156,"64":-0.3793216347694397,"65":-0.6613242626190186,"66":-0.9681673645973206,"67":-0.787553071975708,"68":-0.8290746808052063,"69":1.9941052198410034,"70":0.9688009023666382,"71":0.16840142011642456,"72":-0.7270906567573547,"73":0.02248784527182579,"74":-0.055706318467855453,"75":-0.4993896782398224,"76":-0.5434992909431458,"77":0.4449659287929535,"78":2.2498838901519775,"79":0.4354124367237091,"80":-1.219331979751587,"81":0.08058058470487595,"82":0.03267699107527733,"83":0.3018833100795746,"84":0.01951022446155548,"85":1.5689910650253296,"86":-1.223408579826355,"87":-0.7779010534286499,"88":-1.0583559274673462,"89":0.33703866600990295,"90":-1.1244401931762695,"91":0.6567237377166748,"92":-0.12586599588394165,"93":-0.0980863869190216,"94":-0.41470712423324585,"95":-0.5097042918205261,"96":0.6495600938796997,"97":1.1232036352157593,"98":3.106091022491455,"99":0.13236573338508606,"100":0.568651556968689,"101":0.12601490318775177,"102":-0.30010807514190674,"103":0.05836344510316849,"104":-0.0844770297408104,"105":0.7893450260162354,"106":0.6431642174720764,"107":-1.0105431079864502,"108":2.877882957458496,"109":0.11195577681064606,"110":0.6860237121582031,"111":0.6352381110191345,"112":-0.7725558280944824,"113":0.05632457509636879,"114":-2.2338438034057617,"115":0.7396329641342163,"116":0.3465152978897095,"117":-1.6519989967346191,"118":1.2629200220108032,"119":0.7130831480026245,"120":1.4784280061721802,"121":-0.3436114192008972,"122":-0.29462873935699463,"123":1.2766571044921875,"124":-1.6019314527511597,"125":1.6994065046310425,"126":0.3139810860157013,"127":-0.9789612293243408,"128":0.48481127619743347,"129":0.7480284571647644,"130":-0.13789808750152588,"131":-0.28572598099708557,"132":-0.03512850031256676,"133":-0.6939009428024292,"134":0.8736419081687927,"135":0.6610901355743408,"136":0.9242883920669556,"137":-0.7090125679969788,"138":1.1856743097305298,"139":0.08352821320295334,"140":-0.17139270901679993,"141":0.48921167850494385,"142":0.1004621610045433,"143":-0.6791173815727234,"144":0.16041341423988342}},"4":{"bias":-0.5086809396743774,"weights":{"0":0.7655452489852905,"1":-0.34520652890205383,"2":-0.05215560644865036,"3":0.11211643368005753,"4":-0.02596677653491497,"5":0.071151003241539,"6":0.6596799492835999,"7":0.7119303345680237,"8":0.09487820416688919,"9":-0.494791716337204,"10":-1.2204983234405518,"11":-0.21503952145576477,"12":1.8353655338287354,"13":0.6716037392616272,"14":0.9334169030189514,"15":0.28949424624443054,"16":1.0741885900497437,"17":0.40887928009033203,"18":-0.024569321423768997,"19":-0.1778016835451126,"20":1.7190086841583252,"21":0.13837331533432007,"22":-0.3376416563987732,"23":-0.9732348322868347,"24":-0.8516998291015625,"25":-0.0641525611281395,"26":0.3360213041305542,"27":0.10734263807535172,"28":1.679736614227295,"29":0.417751669883728,"30":-0.3282153904438019,"31":-0.333663672208786,"32":-1.2874094247817993,"33":-0.45934537053108215,"34":0.10473782569169998,"35":0.24796940386295319,"36":1.575003981590271,"37":-0.2981358766555786,"38":0.1337178349494934,"39":0.2073412537574768,"40":-0.38131585717201233,"41":-0.35988035798072815,"42":0.18527109920978546,"43":0.0711568221449852,"44":0.07225748151540756,"45":0.032877255231142044,"46":0.2595669627189636,"47":-1.6407076120376587,"48":-0.3954666256904602,"49":-1.0787547826766968,"50":-0.7850894927978516,"51":0.9029362797737122,"52":-0.3535545766353607,"53":0.5224135518074036,"54":0.9736016988754272,"55":0.3860096037387848,"56":-1.2454922199249268,"57":1.0863392353057861,"58":1.1199545860290527,"59":0.3012206256389618,"60":-0.07542489469051361,"61":0.370195597410202,"62":0.7897388339042664,"63":0.2051188200712204,"64":0.7250912189483643,"65":-0.10193635523319244,"66":0.4303770065307617,"67":0.5910398364067078,"68":0.38897091150283813,"69":-1.3020232915878296,"70":-0.06785425543785095,"71":-0.01489763893187046,"72":-0.04906563088297844,"73":0.08716026693582535,"74":0.8340813517570496,"75":0.07111921161413193,"76":0.34853610396385193,"77":0.464045912027359,"78":-0.2886370122432709,"79":1.5427228212356567,"80":0.45031657814979553,"81":0.7655187249183655,"82":2.072530508041382,"83":0.6636098027229309,"84":0.7426355481147766,"85":-0.7984694242477417,"86":0.3884347081184387,"87":0.8788369297981262,"88":0.12424148619174957,"89":0.31285902857780457,"90":-0.23507270216941833,"91":-0.2751271724700928,"92":0.382715106010437,"93":-0.7103325724601746,"94":0.9263143539428711,"95":2.64721417427063,"96":0.47204136848449707,"97":-0.032141055911779404,"98":0.5389837026596069,"99":-0.532255232334137,"100":0.15295009315013885,"101":-0.6785362958908081,"102":0.2565958797931671,"103":0.33328893780708313,"104":-0.25878190994262695,"105":-1.4963887929916382,"106":0.05562486872076988,"107":0.0717954933643341,"108":0.7037569284439087,"109":0.5128310322761536,"110":-0.7075695991516113,"111":0.024953315034508705,"112":1.173818826675415,"113":0.5890700221061707,"114":-0.8154399394989014,"115":-0.045039914548397064,"116":0.3078646957874298,"117":-1.4772039651870728,"118":-0.7550264596939087,"119":0.1329459846019745,"120":0.30232611298561096,"121":0.2207266092300415,"122":-1.2496591806411743,"123":0.9486690759658813,"124":1.273013949394226,"125":0.38013961911201477,"126":0.6908647418022156,"127":-0.1349218338727951,"128":-0.4106736183166504,"129":0.8792574405670166,"130":0.34049952030181885,"131":0.14335094392299652,"132":-0.08481264114379883,"133":0.3516731560230255,"134":-0.131071075797081,"135":-0.32899847626686096,"136":-0.10731719434261322,"137":0.14306648075580597,"138":0.502269446849823,"139":-0.44361206889152527,"140":-0.110105499625206,"141":0.15720170736312866,"142":0.535840630531311,"143":-1.4177043437957764,"144":-0.14585109055042267}},"5":{"bias":-2.25459623336792,"weights":{"0":-0.42370083928108215,"1":-0.3601997196674347,"2":0.2003454715013504,"3":-0.11417018622159958,"4":-0.8959636688232422,"5":-0.12466959655284882,"6":-0.5146294236183167,"7":-1.010660171508789,"8":-1.1901752948760986,"9":0.39940881729125977,"10":1.3448480367660522,"11":-0.020616525784134865,"12":0.7315056920051575,"13":-0.8083113431930542,"14":-0.7270435690879822,"15":-0.2965385913848877,"16":-0.34544637799263,"17":-0.14280053973197937,"18":-0.767797589302063,"19":-0.8628059029579163,"20":1.0060374736785889,"21":0.3069632947444916,"22":0.010003088042140007,"23":-0.7260885834693909,"24":0.34757715463638306,"25":-0.023315628990530968,"26":0.16678674519062042,"27":0.12131530791521072,"28":-0.009577027522027493,"29":-0.8874292373657227,"30":-0.6869025826454163,"31":0.8919206857681274,"32":0.5788634419441223,"33":-0.04931843653321266,"34":-0.17943711578845978,"35":0.13631804287433624,"36":0.7566746473312378,"37":0.720924973487854,"38":0.20141172409057617,"39":1.3167909383773804,"40":-1.2962150573730469,"41":-0.773614227771759,"42":-0.4445876181125641,"43":0.2945493757724762,"44":-0.3572601079940796,"45":-0.4897128641605377,"46":-0.026637934148311615,"47":-0.7780063152313232,"48":-0.039912670850753784,"49":1.0124289989471436,"50":-0.4887614846229553,"51":-0.9943588376045227,"52":-0.33084872364997864,"53":0.6640939116477966,"54":-1.1737992763519287,"55":0.5325655341148376,"56":-0.297486275434494,"57":0.3769489824771881,"58":1.0826088190078735,"59":1.2250841856002808,"60":0.5462992787361145,"61":0.7209643125534058,"62":0.5053110122680664,"63":-0.09569194167852402,"64":-0.40471506118774414,"65":1.0798479318618774,"66":-0.7385358810424805,"67":-0.1479761302471161,"68":-0.7090821266174316,"69":-0.10270919650793076,"70":0.08654390275478363,"71":0.806438684463501,"72":0.21634390950202942,"73":-0.20989100635051727,"74":-0.20919576287269592,"75":-0.11398078501224518,"76":-1.3414528369903564,"77":0.6756988763809204,"78":1.1830044984817505,"79":1.2352170944213867,"80":-0.11545597016811371,"81":-0.602501392364502,"82":0.739502489566803,"83":-0.0401085764169693,"84":0.4471828043460846,"85":0.004757241811603308,"86":-0.49515485763549805,"87":0.22469647228717804,"88":-0.5330000519752502,"89":-0.20740148425102234,"90":-0.7417380213737488,"91":-2.0273122787475586,"92":-0.41668909788131714,"93":0.8915281891822815,"94":-0.2221495807170868,"95":0.6505771279335022,"96":0.0008957713143900037,"97":0.852575957775116,"98":-0.1838771104812622,"99":0.19519242644309998,"100":-0.6098166108131409,"101":0.7797122001647949,"102":-0.04436203092336655,"103":-0.17795825004577637,"104":0.07257366180419922,"105":1.0888829231262207,"106":-0.1479821503162384,"107":0.013336017727851868,"108":0.24551253020763397,"109":0.28321290016174316,"110":-2.041213035583496,"111":0.10853834450244904,"112":2.0634562969207764,"113":0.23581930994987488,"114":-0.2702536880970001,"115":-0.2527487277984619,"116":-0.5955347418785095,"117":0.6539050936698914,"118":0.9212510585784912,"119":0.028406066820025444,"120":-0.898431658744812,"121":-0.2282460778951645,"122":1.071096658706665,"123":-0.5602577924728394,"124":-0.37268203496932983,"125":-0.972595751285553,"126":0.8252513408660889,"127":1.9863801002502441,"128":-1.625049114227295,"129":0.25009801983833313,"130":-0.5025998950004578,"131":0.7433475255966187,"132":-0.8014040589332581,"133":-0.2706160843372345,"134":0.4787594974040985,"135":0.6564252972602844,"136":0.04576772823929787,"137":-1.2065962553024292,"138":-1.7117828130722046,"139":-0.7574985027313232,"140":1.6781542301177979,"141":2.187875509262085,"142":0.2445889115333557,"143":0.5889627933502197,"144":-0.574001669883728}},"6":{"bias":0.10661501437425613,"weights":{"0":0.5991456508636475,"1":1.1948161125183105,"2":-1.9258077144622803,"3":-0.21402503550052643,"4":-0.14115822315216064,"5":0.39414358139038086,"6":0.27306491136550903,"7":-0.4149608314037323,"8":-0.7675988674163818,"9":-0.6717044711112976,"10":-0.7798314094543457,"11":0.03445609658956528,"12":-0.45146191120147705,"13":-0.5243333578109741,"14":-0.07724303007125854,"15":-0.2487606406211853,"16":0.5234297513961792,"17":0.11695601046085358,"18":-0.14393405616283417,"19":1.3906126022338867,"20":0.6121761798858643,"21":1.013407826423645,"22":-0.758030354976654,"23":0.2834806740283966,"24":0.3350265324115753,"25":-0.4680120646953583,"26":-0.8657695651054382,"27":0.6766787171363831,"28":0.11075267195701599,"29":0.6968367099761963,"30":-1.6087721586227417,"31":-0.4623032212257385,"32":1.193259835243225,"33":-0.001352237188257277,"34":0.23641127347946167,"35":0.03141683712601662,"36":1.2292397022247314,"37":-0.5169742107391357,"38":0.5112762451171875,"39":-0.2451229840517044,"40":0.026827530935406685,"41":0.00594636844471097,"42":0.4424867331981659,"43":-1.0563199520111084,"44":0.16618971526622772,"45":0.4501456320285797,"46":-0.17004455626010895,"47":0.39846232533454895,"48":1.3331907987594604,"49":1.2412769794464111,"50":2.5826733112335205,"51":1.079011082649231,"52":0.3654003441333771,"53":0.2974769175052643,"54":-0.5409213304519653,"55":-0.9860988855361938,"56":-0.24197693169116974,"57":-1.5516057014465332,"58":0.8794360160827637,"59":0.23363158106803894,"60":-0.8212428689002991,"61":0.6500437259674072,"62":-0.07470057159662247,"63":0.20969200134277344,"64":0.7101433277130127,"65":0.7150580883026123,"66":0.2939155697822571,"67":-0.8314233422279358,"68":-0.11602897942066193,"69":-0.5249207615852356,"70":1.4019161462783813,"71":0.9984337091445923,"72":0.8014909029006958,"73":0.35584911704063416,"74":-0.5184966921806335,"75":-0.09852272272109985,"76":-0.7340117692947388,"77":1.0027493238449097,"78":-1.799684762954712,"79":0.5234887003898621,"80":-1.223054051399231,"81":0.04415914788842201,"82":0.026979537680745125,"83":0.5397540330886841,"84":-0.9899617433547974,"85":0.3469657897949219,"86":0.33466199040412903,"87":0.9692563414573669,"88":-0.9338535070419312,"89":-1.650378942489624,"90":0.22364234924316406,"91":1.5789834260940552,"92":0.3521292507648468,"93":-0.963513970375061,"94":0.4432266354560852,"95":-0.6886465549468994,"96":0.1650940328836441,"97":0.6346099972724915,"98":-1.7110000848770142,"99":-1.1088932752609253,"100":-0.02175227366387844,"101":0.11145640164613724,"102":0.3471701145172119,"103":0.06642264872789383,"104":0.13000766932964325,"105":2.788290500640869,"106":1.0567690134048462,"107":-0.7752742171287537,"108":0.5792897343635559,"109":-1.2963917255401611,"110":-0.16555945575237274,"111":0.16058166325092316,"112":0.643765926361084,"113":-1.1104999780654907,"114":0.3226938247680664,"115":0.6994045972824097,"116":-0.5236914157867432,"117":0.03245767578482628,"118":-0.01826462708413601,"119":-0.7024862766265869,"120":1.56873619556427,"121":0.40118375420570374,"122":-0.44312363862991333,"123":0.283296674489975,"124":0.37593406438827515,"125":0.657096803188324,"126":0.42480960488319397,"127":-1.178073525428772,"128":-1.9661154747009277,"129":-0.2539040744304657,"130":-0.8274222612380981,"131":0.22018375992774963,"132":-0.03243373706936836,"133":0.29625222086906433,"134":1.3030314445495605,"135":0.7991208434104919,"136":-0.5940777659416199,"137":0.15510092675685883,"138":0.17405954003334045,"139":-0.16798365116119385,"140":0.5577438473701477,"141":1.2181296348571777,"142":-0.8403394222259521,"143":0.10647834837436676,"144":1.1479166746139526}},"7":{"bias":1.305840015411377,"weights":{"0":-0.3200146555900574,"1":-0.6271789073944092,"2":0.2305513471364975,"3":0.07705157995223999,"4":-0.7700666189193726,"5":0.5955649018287659,"6":-0.4182946979999542,"7":0.11293009668588638,"8":-0.9101822972297668,"9":-0.10144747048616409,"10":-0.03592328354716301,"11":0.3710286319255829,"12":0.21284307539463043,"13":0.7515443563461304,"14":0.3251361548900604,"15":-0.3881242573261261,"16":0.8824300765991211,"17":-0.6330562829971313,"18":-0.9784902930259705,"19":0.875616192817688,"20":-0.24027800559997559,"21":0.3558731973171234,"22":0.19991065561771393,"23":0.850161075592041,"24":0.5654564499855042,"25":0.36980023980140686,"26":-0.5074424147605896,"27":-0.34990400075912476,"28":-0.2229110151529312,"29":0.32059234380722046,"30":-0.5844783186912537,"31":0.6709867119789124,"32":-0.9029799103736877,"33":-0.6674460172653198,"34":0.43614843487739563,"35":-0.07615367323160172,"36":-1.081627607345581,"37":0.6933930516242981,"38":-0.40002748370170593,"39":0.6634534597396851,"40":-0.6934232115745544,"41":0.11320532113313675,"42":0.3741200566291809,"43":1.5057283639907837,"44":-0.35184457898139954,"45":1.0529896020889282,"46":-0.4477792978286743,"47":-0.4474187195301056,"48":0.551106870174408,"49":-1.4578789472579956,"50":0.405852735042572,"51":-0.3449261486530304,"52":0.14972642064094543,"53":-0.05941120535135269,"54":0.9102870225906372,"55":-0.7383458614349365,"56":-0.45831626653671265,"57":-0.10793772339820862,"58":1.0288892984390259,"59":0.46938633918762207,"60":0.899070680141449,"61":-0.028813563287258148,"62":-0.4672033488750458,"63":0.4945119321346283,"64":-0.707377016544342,"65":0.23039504885673523,"66":0.10284728556871414,"67":-0.846807599067688,"68":0.49939098954200745,"69":-0.6775151491165161,"70":0.3188764452934265,"71":0.06247126683592796,"72":-0.21058537065982819,"73":-0.23130229115486145,"74":0.49381524324417114,"75":-0.3010612428188324,"76":0.4533137083053589,"77":1.0010453462600708,"78":-0.15108829736709595,"79":1.4477379322052002,"80":-1.80683434009552,"81":1.296208381652832,"82":-0.19263020157814026,"83":-2.0363731384277344,"84":-0.7548381090164185,"85":-1.0696696043014526,"86":0.3498864769935608,"87":-1.2246614694595337,"88":1.1794962882995605,"89":-0.323856920003891,"90":-0.46208611130714417,"91":-1.5453577041625977,"92":0.6283301711082458,"93":1.192542314529419,"94":-0.3244949281215668,"95":-0.023860685527324677,"96":0.8044039011001587,"97":0.8021988868713379,"98":-1.7968610525131226,"99":0.42827436327934265,"100":-0.2109188735485077,"101":-0.4685632884502411,"102":-0.5920491218566895,"103":0.28448665142059326,"104":0.2937811315059662,"105":-0.6443836092948914,"106":1.4006609916687012,"107":-0.036365363746881485,"108":-1.7955033779144287,"109":2.3058857917785645,"110":0.6571260094642639,"111":0.2794806957244873,"112":0.07101428508758545,"113":-0.6226697564125061,"114":0.36461371183395386,"115":-0.068179652094841,"116":0.05351691693067551,"117":0.5620763897895813,"118":0.2582148313522339,"119":-0.9073127508163452,"120":-0.2285749465227127,"121":0.4279060661792755,"122":0.6913051605224609,"123":-0.009907779283821583,"124":-1.0402679443359375,"125":-0.20507986843585968,"126":-0.9623487591743469,"127":-2.0095419883728027,"128":0.7836345434188843,"129":1.0938130617141724,"130":-0.22160448133945465,"131":-0.4837895333766937,"132":0.5999012589454651,"133":-0.1515333205461502,"134":0.12641187012195587,"135":1.3248634338378906,"136":0.2810094654560089,"137":-1.3025288581848145,"138":0.33278924226760864,"139":0.6033161282539368,"140":-0.31748801469802856,"141":-0.7552377581596375,"142":-0.42926058173179626,"143":-0.32174357771873474,"144":-0.7480788826942444}}},{"0":{"bias":-0.5502131581306458,"weights":{"0":0.5468615889549255,"1":-0.564085066318512,"2":0.37136030197143555,"3":-0.5966893434524536,"4":0.6036316156387329,"5":-0.5486509799957275,"6":-0.26412543654441833,"7":-0.9402175545692444}},"1":{"bias":3.1013498306274414,"weights":{"0":5.5853352546691895,"1":5.975376605987549,"2":6.724756240844727,"3":-6.173502445220947,"4":6.009528160095215,"5":-7.828221797943115,"6":6.760319709777832,"7":-5.865618705749512}},"2":{"bias":-0.09582784026861191,"weights":{"0":0.6779913306236267,"1":-0.19650430977344513,"2":1.2859097719192505,"3":-0.7630999684333801,"4":0.9793273210525513,"5":-0.8841147422790527,"6":0.5409042239189148,"7":-0.2662380039691925}},"3":{"bias":-0.8994705080986023,"weights":{"0":-0.8406955003738403,"1":1.0543212890625,"2":0.3047036826610565,"3":-1.2661540508270264,"4":-0.22398893535137177,"5":0.4655539393424988,"6":-0.8361161351203918,"7":-2.3767638206481934}},"4":{"bias":0.392734169960022,"weights":{"0":0.5646775960922241,"1":1.1226550340652466,"2":1.2019309997558594,"3":-0.26363223791122437,"4":0.9552537202835083,"5":0.18161357939243317,"6":1.7651039361953735,"7":0.8136340379714966}},"5":{"bias":-0.4755266308784485,"weights":{"0":0.6276347041130066,"1":-0.26566219329833984,"2":0.2160043567419052,"3":-0.10655053704977036,"4":0.31829318404197693,"5":-0.7398543357849121,"6":0.22662654519081116,"7":-0.851288914680481}},"6":{"bias":-0.3871472179889679,"weights":{"0":0.13816700875759125,"1":-0.39125776290893555,"2":-0.01514283288270235,"3":-0.24547919631004333,"4":0.2681342363357544,"5":-0.24398060142993927,"6":-0.13558486104011536,"7":-0.7127904295921326}},"7":{"bias":-0.47536906599998474,"weights":{"0":0.012036053463816643,"1":-0.039948806166648865,"2":-0.12036606669425964,"3":-0.03575870767235756,"4":0.1559711992740631,"5":-0.4160320460796356,"6":0.17396339774131775,"7":-0.9851503968238831}}},{"0":{"bias":3.570563554763794,"weights":{"0":0.8606252670288086,"1":-8.544501304626465,"2":-0.43484678864479065,"3":2.2596983909606934,"4":2.83740496635437,"5":0.6602430939674377,"6":0.8787037134170532,"7":0.9272716045379639}}}],"outputLookup":true,"inputLookup":true,"activation":"sigmoid","trainOpts":{"iterations":20000,"errorThresh":0.003,"log":true,"logPeriod":10,"learningRate":0.05,"momentum":0.1,"callbackPeriod":10,"beta1":0.9,"beta2":0.999,"epsilon":1e-8}}