{"sizes":[145,8,8,1],"layers":[{"0":{},"1":{},"2":{},"3":{},"4":{},"5":{},"6":{},"7":{},"8":{},"9":{},"10":{},"11":{},"12":{},"13":{},"14":{},"15":{},"16":{},"17":{},"18":{},"19":{},"20":{},"21":{},"22":{},"23":{},"24":{},"25":{},"26":{},"27":{},"28":{},"29":{},"30":{},"31":{},"32":{},"33":{},"34":{},"35":{},"36":{},"37":{},"38":{},"39":{},"40":{},"41":{},"42":{},"43":{},"44":{},"45":{},"46":{},"47":{},"48":{},"49":{},"50":{},"51":{},"52":{},"53":{},"54":{},"55":{},"56":{},"57":{},"58":{},"59":{},"60":{},"61":{},"62":{},"63":{},"64":{},"65":{},"66":{},"67":{},"68":{},"69":{},"70":{},"71":{},"72":{},"73":{},"74":{},"75":{},"76":{},"77":{},"78":{},"79":{},"80":{},"81":{},"82":{},"83":{},"84":{},"85":{},"86":{},"87":{},"88":{},"89":{},"90":{},"91":{},"92":{},"93":{},"94":{},"95":{},"96":{},"97":{},"98":{},"99":{},"100":{},"101":{},"102":{},"103":{},"104":{},"105":{},"106":{},"107":{},"108":{},"109":{},"110":{},"111":{},"112":{},"113":{},"114":{},"115":{},"116":{},"117":{},"118":{},"119":{},"120":{},"121":{},"122":{},"123":{},"124":{},"125":{},"126":{},"127":{},"128":{},"129":{},"130":{},"131":{},"132":{},"133":{},"134":{},"135":{},"136":{},"137":{},"138":{},"139":{},"140":{},"141":{},"142":{},"143":{},"144":{}},{"0":{"bias":-0.06650624424219131,"weights":{"0":-0.13778358697891235,"1":0.13437524437904358,"2":-0.03384999930858612,"3":-0.10841824114322662,"4":-0.24158690869808197,"5":-0.0707363709807396,"6":-0.15460674464702606,"7":0.07998945564031601,"8":0.16430212557315826,"9":-0.1658681333065033,"10":-0.05879310518503189,"11":0.20463083684444427,"12":0.09120946377515793,"13":0.020906200632452965,"14":-0.044413790106773376,"15":-0.12543369829654694,"16":0.07221602648496628,"17":0.16992466151714325,"18":0.08367833495140076,"19":-0.07664559036493301,"20":0.02704508975148201,"21":0.09602639079093933,"22":0.10183083266019821,"23":-0.06133189797401428,"24":0.042483434081077576,"25":0.08224117010831833,"26":-0.18376535177230835,"27":-0.06820770353078842,"28":0.06842829287052155,"29":-0.1432400643825531,"30":-0.16730736196041107,"31":0.029354002326726913,"32":-0.2472076565027237,"33":-0.12105964869260788,"34":0.09996676445007324,"35":0.035856690257787704,"36":0.0007375930435955524,"37":0.2705552875995636,"38":0.020012345165014267,"39":-0.0874936431646347,"40":-0.05360168218612671,"41":-0.13406291604042053,"42":0.10004781931638718,"43":-0.06329180300235748,"44":-0.10528534650802612,"45":-0.13674886524677277,"46":0.18845558166503906,"47":0.14003656804561615,"48":-0.21891839802265167,"49":0.21945667266845703,"50":-0.15743696689605713,"51":-0.1026601791381836,"52":-0.025893613696098328,"53":-0.10939335823059082,"54":-0.06778550893068314,"55":-0.09861602634191513,"56":0.2569364011287689,"57":-0.077011339366436,"58":-0.1935959905385971,"59":0.23369961977005005,"60":0.09058938175439835,"61":0.014189801178872585,"62":-0.13140074908733368,"63":0.0921599492430687,"64":0.13212993741035461,"65":0.12323088198900223,"66":0.12122578918933868,"67":-0.1789693683385849,"68":0.11130937188863754,"69":0.07709598541259766,"70":0.13110579550266266,"71":0.2518651783466339,"72":-0.12903320789337158,"73":0.02627374976873398,"74":-0.047651536762714386,"75":-0.03812909126281738,"76":0.13689157366752625,"77":-0.14853449165821075,"78":0.15106473863124847,"79":-0.050264693796634674,"80":-0.21988064050674438,"81":0.2866811752319336,"82":0.19496992230415344,"83":-0.13586390018463135,"84":0.15264348685741425,"85":0.2829160690307617,"86":0.05325119197368622,"87":-0.1213560625910759,"88":-0.049970585852861404,"89":-0.2407163381576538,"90":0.09208420664072037,"91":-0.14301824569702148,"92":0.22346213459968567,"93":-0.23685894906520844,"94":-0.09795396775007248,"95":-0.27606528997421265,"96":0.018927469849586487,"97":-0.058974795043468475,"98":-0.05458356440067291,"99":0.1399078220129013,"100":-0.15700982511043549,"101":0.04644499719142914,"102":0.15950457751750946,"103":0.15176747739315033,"104":-0.08945859968662262,"105":-0.011874285526573658,"106":-0.20589908957481384,"107":-0.1618393212556839,"108":0.19866766035556793,"109":0.2606308162212372,"110":-0.20391324162483215,"111":-0.010312598198652267,"112":0.16475909948349,"113":0.11728280782699585,"114":-0.3886498808860779,"115":0.12313428521156311,"116":0.03383506461977959,"117":0.02232956513762474,"118":-0.16889294981956482,"119":-0.08602531999349594,"120":-0.04527990147471428,"121":-0.0464581698179245,"122":0.01845376566052437,"123":0.03523635491728783,"124":-0.043887846171855927,"125":0.10138736665248871,"126":-0.2249571979045868,"127":0.0507168173789978,"128":0.08257825672626495,"129":-0.3088687062263489,"130":-0.1203504353761673,"131":0.11993872374296188,"132":-0.19999904930591583,"133":-0.08353026211261749,"134":0.17384207248687744,"135":0.09908360242843628,"136":-0.09208559989929199,"137":-0.023579411208629608,"138":-0.09597161412239075,"139":0.042182765901088715,"140":0.07684197276830673,"141":0.22582337260246277,"142":-0.08776456862688065,"143":0.13435304164886475,"144":0.060645900666713715}},"1":{"bias":0.09753070771694183,"weights":{"0":-0.15749886631965637,"1":-0.040654465556144714,"2":-0.05269702896475792,"3":0.02178272046148777,"4":-0.0028861279133707285,"5":-0.040066834539175034,"6":-0.14679937064647675,"7":-0.00993375200778246,"8":-0.03297174721956253,"9":0.019740821793675423,"10":0.11263857036828995,"11":-0.26194000244140625,"12":0.024098962545394897,"13":0.055643998086452484,"14":0.16886453330516815,"15":0.027981752529740334,"16":0.05333651974797249,"17":-0.17525885999202728,"18":0.10696903616189957,"19":0.07511782646179199,"20":-0.002413660753518343,"21":0.12754052877426147,"22":0.007127857767045498,"23":0.013850856572389603,"24":0.12588661909103394,"25":0.08621911704540253,"26":0.07583979517221451,"27":0.1220715194940567,"28":-0.0725753977894783,"29":0.036921411752700806,"30":-0.14258190989494324,"31":-0.0302777960896492,"32":0.20896558463573456,"33":0.060219697654247284,"34":-0.1983395218849182,"35":0.03437456861138344,"36":0.0013113078894093633,"37":-0.052903685718774796,"38":-0.07969184219837189,"39":0.11968867480754852,"40":-0.14423996210098267,"41":0.0033159402664750814,"42":-0.19036103785037994,"43":0.2192656546831131,"44":-0.19692550599575043,"45":0.07819578051567078,"46":0.05198615789413452,"47":-0.14173558354377747,"48":0.058173954486846924,"49":0.11023005098104477,"50":-0.08946806192398071,"51":-0.025428270921111107,"52":0.00748243136331439,"53":0.014652288518846035,"54":-0.011713339015841484,"55":0.1314077377319336,"56":-0.003032685024663806,"57":0.2011379897594452,"58":0.19569841027259827,"59":0.06891895085573196,"60":-0.11481383442878723,"61":-0.2122727632522583,"62":0.13774219155311584,"63":-0.0017830951837822795,"64":-0.18885336816310883,"65":-0.13535870611667633,"66":-0.1490207463502884,"67":0.08857688307762146,"68":0.15858052670955658,"69":-0.007939670234918594,"70":-0.09424999356269836,"71":-0.16887205839157104,"72":-0.17098039388656616,"73":0.12150659412145615,"74":0.13964232802391052,"75":-0.19736577570438385,"76":-0.16855309903621674,"77":-0.06181381270289421,"78":0.0922623723745346,"79":0.10979782789945602,"80":-0.03993374481797218,"81":-0.08219455182552338,"82":0.06342154741287231,"83":-0.06254582107067108,"84":-0.22539576888084412,"85":-0.05264154076576233,"86":-0.04222007095813751,"87":-0.06208324432373047,"88":-0.02579963207244873,"89":0.1943514049053192,"90":-0.10515321791172028,"91":-0.0838685855269432,"92":0.044163625687360764,"93":0.07707542181015015,"94":-0.16574084758758545,"95":0.0416552759706974,"96":-0.0792134702205658,"97":0.1057315245270729,"98":-0.09883058071136475,"99":0.05458315834403038,"100":-0.11676211655139923,"101":-0.06570316851139069,"102":-0.12041391432285309,"103":0.15240709483623505,"104":-0.12329759448766708,"105":0.16296370327472687,"106":0.11809071898460388,"107":-0.21422824263572693,"108":-0.10388834029436111,"109":-0.19906556606292725,"110":-0.03635281324386597,"111":-0.022893471643328667,"112":-0.0007630074978806078,"113":0.13714657723903656,"114":-0.13877448439598083,"115":0.08440222591161728,"116":-0.15051528811454773,"117":-0.01794259622693062,"118":-0.21127153933048248,"119":-0.12103956937789917,"120":-0.09905915707349777,"121":0.06094140186905861,"122":0.04345046728849411,"123":0.09985275566577911,"124":0.021382665261626244,"125":0.18379907310009003,"126":-0.19840073585510254,"127":-0.0464920811355114,"128":-0.13813334703445435,"129":-0.12351397424936295,"130":-0.08780544251203537,"131":-0.04798917844891548,"132":-0.14384214580059052,"133":0.16333740949630737,"134":-0.18399758636951447,"135":-0.005167768802493811,"136":-0.09302521497011185,"137":-0.10554547607898712,"138":0.10546916723251343,"139":-0.19183480739593506,"140":0.08948946744203568,"141":-0.15841448307037354,"142":0.07811540365219116,"143":-0.12095232307910919,"144":0.01879199594259262}},"2":{"bias":0.09855382889509201,"weights":{"0":-0.08857059478759766,"1":-0.09474720805883408,"2":0.08146443217992783,"3":-0.08597508072853088,"4":-0.07330181449651718,"5":-0.020237155258655548,"6":-0.16943477094173431,"7":-0.2499808371067047,"8":0.23667582869529724,"9":0.12037312239408493,"10":0.049664173275232315,"11":-0.06739414483308792,"12":0.01242098305374384,"13":0.0033258991315960884,"14":0.1659317910671234,"15":0.11085832864046097,"16":-0.08632586151361465,"17":0.047600653022527695,"18":0.07732416689395905,"19":-0.057492610067129135,"20":-0.14527417719364166,"21":-0.10148294270038605,"22":0.22263731062412262,"23":0.1440434455871582,"24":0.13646888732910156,"25":0.031606800854206085,"26":0.006383012514561415,"27":-0.19063888490200043,"28":-0.030475953593850136,"29":-0.0774012953042984,"30":0.09522078186273575,"31":0.0668082907795906,"32":-0.2130180448293686,"33":-0.012813285924494267,"34":0.1457086056470871,"35":0.037656575441360474,"36":0.11954662948846817,"37":-0.06508605182170868,"38":-0.1059664860367775,"39":0.0055189477279782295,"40":-0.08617178350687027,"41":0.129317045211792,"42":-0.024892235174775124,"43":-0.11815321445465088,"44":0.12961643934249878,"45":-0.02433883585035801,"46":-0.12374033033847809,"47":0.04581522196531296,"48":-0.0937977209687233,"49":0.16299328207969666,"50":-0.1552441120147705,"51":0.011816415004432201,"52":0.11930868774652481,"53":0.23246131837368011,"54":0.06672026216983795,"55":0.2815292179584503,"56":0.04672350734472275,"57":-0.08671747148036957,"58":-0.06318427622318268,"59":-0.04009423777461052,"60":-0.05577082931995392,"61":-0.0593290850520134,"62":0.14320802688598633,"63":0.039407506585121155,"64":-0.04267986863851547,"65":0.13054899871349335,"66":-0.14194336533546448,"67":0.03301263973116875,"68":-0.12905840575695038,"69":0.0275725144892931,"70":-0.10915462672710419,"71":-0.07316411286592484,"72":-0.04770057275891304,"73":-0.1369035542011261,"74":-0.16160143911838531,"75":-0.08856123685836792,"76":-0.1587090790271759,"77":0.11728927493095398,"78":-0.07665058225393295,"79":0.06769003719091415,"80":-0.022317035123705864,"81":0.09120568633079529,"82":0.2373652458190918,"83":-0.03216307610273361,"84":0.19237233698368073,"85":0.02250671200454235,"86":0.07237537205219269,"87":0.2159176617860794,"88":0.24703925848007202,"89":-0.02122562937438488,"90":0.07249245792627335,"91":-0.06204419955611229,"92":0.0698394700884819,"93":-0.10416924953460693,"94":0.0022646889556199312,"95":-0.009567523375153542,"96":0.19223986566066742,"97":-0.22981618344783783,"98":0.22712059319019318,"99":0.17286348342895508,"100":0.032728616148233414,"101":-0.14559054374694824,"102":-0.05587334930896759,"103":-0.0092124929651618,"104":0.0804324671626091,"105":0.016356049105525017,"106":0.003044051816686988,"107":0.10099581629037857,"108":0.113890141248703,"109":0.25367918610572815,"110":0.13299576938152313,"111":0.025739839300513268,"112":0.1807994842529297,"113":0.3057720959186554,"114":-0.010724259540438652,"115":0.17627567052841187,"116":-0.0004602776898536831,"117":-0.07813132554292679,"118":0.06797928363084793,"119":-0.10231803357601166,"120":-0.04740612581372261,"121":-0.016027402132749557,"122":-0.15088258683681488,"123":0.06844279170036316,"124":-0.08867494761943817,"125":-0.0645977035164833,"126":0.023598749190568924,"127":0.3013083040714264,"128":0.16571860015392303,"129":-0.2868945896625519,"130":0.048747461289167404,"131":-0.01861036941409111,"132":-0.3237972557544708,"133":-0.10294350981712341,"134":0.05704407021403313,"135":0.21459324657917023,"136":-0.11236382275819778,"137":-0.030587434768676758,"138":-0.09676188230514526,"139":-0.014738376252353191,"140":0.1922217309474945,"141":0.10477502644062042,"142":0.173164963722229,"143":-0.05499624088406563,"144":-0.07395170629024506}},"3":{"bias":0.1316169947385788,"weights":{"0":0.4053666293621063,"1":0.08875735104084015,"2":0.040459223091602325,"3":-0.06730615347623825,"4":0.24063853919506073,"5":-0.04041609540581703,"6":0.04485553503036499,"7":0.2652831971645355,"8":-0.3479159474372864,"9":0.08704520016908646,"10":-0.07508241385221481,"11":-0.13703353703022003,"12":-0.0240908395498991,"13":-0.14569967985153198,"14":0.01466416846960783,"15":0.1589149683713913,"16":-0.16064941883087158,"17":0.07933513075113297,"18":-0.011213344521820545,"19":0.24884600937366486,"20":0.139189213514328,"21":-0.1970701664686203,"22":0.16840799152851105,"23":-0.04532786086201668,"24":0.11156731098890305,"25":-0.03139592707157135,"26":-0.10606539994478226,"27":0.5743420124053955,"28":-0.0954037681221962,"29":-0.11795204877853394,"30":-0.09783691167831421,"31":0.3157345652580261,"32":-0.051782216876745224,"33":0.15060634911060333,"34":0.021175941452383995,"35":-0.2703697383403778,"36":-0.020381959155201912,"37":-0.3847470283508301,"38":0.1321529746055603,"39":-0.18540821969509125,"40":-0.024405235424637794,"41":0.27738240361213684,"42":-0.11287606507539749,"43":0.05348243564367294,"44":-0.0910998284816742,"45":0.1891823709011078,"46":0.06819149106740952,"47":-0.18181224167346954,"48":0.2996301054954529,"49":-0.2486194372177124,"50":0.2725088894367218,"51":-0.02903939224779606,"52":-0.12763427197933197,"53":-0.09067858755588531,"54":-0.06653311103582382,"55":0.08160018175840378,"56":-0.0864960253238678,"57":0.10933807492256165,"58":0.4190879464149475,"59":-0.22083351016044617,"60":-0.1789620816707611,"61":-0.28466087579727173,"62":0.1723601073026657,"63":0.01383172906935215,"64":0.23588818311691284,"65":0.3367196023464203,"66":-0.15153008699417114,"67":0.2856854200363159,"68":0.01514673326164484,"69":0.11791609972715378,"70":0.1583063155412674,"71":-0.4493415653705597,"72":0.10647226870059967,"73":-0.0902976244688034,"74":-0.04554324597120285,"75":0.20455360412597656,"76":0.17454953491687775,"77":-0.046229857951402664,"78":-0.09150028228759766,"79":0.16112923622131348,"80":0.22478486597537994,"81":-0.13245117664337158,"82":-0.5189940929412842,"83":-0.14078983664512634,"84":-0.21971577405929565,"85":-0.34877291321754456,"86":0.019488023594021797,"87":0.05600176006555557,"88":-0.064018115401268,"89":0.22473713755607605,"90":-0.17226353287696838,"91":-0.16203179955482483,"92":-0.051176443696022034,"93":0.29325228929519653,"94":-0.17087991535663605,"95":0.2392442375421524,"96":0.005687407683581114,"97":0.279847115278244,"98":-0.12673485279083252,"99":-0.14120623469352722,"100":0.042491983622312546,"101":0.05033967271447182,"102":-0.16420529782772064,"103":-0.09008269757032394,"104":0.082637719810009,"105":-0.29559481143951416,"106":0.16320979595184326,"107":-0.11456222832202911,"108":0.06705182790756226,"109":-0.48169761896133423,"110":0.15585234761238098,"111":0.1575380265712738,"112":-0.3335501551628113,"113":-0.1406938135623932,"114":0.2928203344345093,"115":-0.2577055096626282,"116":0.1273312121629715,"117":-0.17055875062942505,"118":0.2841055989265442,"119":0.011037841439247131,"120":-0.06857344508171082,"121":-0.24555310606956482,"122":0.15315087139606476,"123":0.17755958437919617,"124":-0.0037520104087889194,"125":-0.04231690987944603,"126":-0.00486003840342164,"127":-0.33378657698631287,"128":0.08336015045642853,"129":0.3162800073623657,"130":0.13287648558616638,"131":0.09598439931869507,"132":0.3742353618144989,"133":0.33044588565826416,"134":-0.1857355237007141,"135":0.15448424220085144,"136":0.44006991386413574,"137":0.19020937383174896,"138":0.2752879858016968,"139":0.06640336662530899,"140":-0.13062027096748352,"141":-0.1552814543247223,"142":-0.16553384065628052,"143":-0.30050262808799744,"144":0.18008600175380707}},"4":{"bias":-0.07929489761590958,"weights":{"0":0.08864089846611023,"1":0.2854163944721222,"2":-0.011721284128725529,"3":0.3508470356464386,"4":-0.018986813724040985,"5":0.11727381497621536,"6":0.05627661570906639,"7":0.13213685154914856,"8":-0.4332718849182129,"9":-0.042853981256484985,"10":-0.29786908626556396,"11":-0.21299411356449127,"12":0.23425063490867615,"13":0.05471248924732208,"14":-0.19036953151226044,"15":-0.11731383204460144,"16":0.0747765377163887,"17":-0.0683695375919342,"18":0.0442412905395031,"19":0.10412976890802383,"20":-0.16916774213314056,"21":-0.07826361805200577,"22":-0.3320784866809845,"23":-0.003106658346951008,"24":-0.13171018660068512,"25":0.12113616615533829,"26":-0.13252638280391693,"27":0.6067444682121277,"28":-0.33391329646110535,"29":0.10308856517076492,"30":0.03222399204969406,"31":0.02521619200706482,"32":0.042846012860536575,"33":0.2799994647502899,"34":0.03711004555225372,"35":-0.10268547385931015,"36":0.29986217617988586,"37":-0.07840330898761749,"38":-0.21183621883392334,"39":-0.23910439014434814,"40":0.009783370420336723,"41":-0.08768685162067413,"42":-0.16458284854888916,"43":-0.018137222155928612,"44":-0.21872089803218842,"45":0.018422899767756462,"46":0.21647389233112335,"47":-0.38233134150505066,"48":0.16171365976333618,"49":-0.20224659144878387,"50":0.336554616689682,"51":-0.18014617264270782,"52":0.17547674477100372,"53":-0.007254729513078928,"54":-0.01004534400999546,"55":-0.12829548120498657,"56":-0.55911785364151,"57":0.12037071585655212,"58":0.14665943384170532,"59":0.0133616141974926,"60":-0.1017499789595604,"61":0.1784084439277649,"62":-0.08663646131753922,"63":-0.032086484134197235,"64":0.10991901904344559,"65":-0.20723047852516174,"66":0.0770018994808197,"67":0.15999093651771545,"68":-0.02156880311667919,"69":-0.17195460200309753,"70":-0.2180914729833603,"71":0.04997147619724274,"72":-0.05051041394472122,"73":-0.15466663241386414,"74":-0.05101112648844719,"75":-0.13031983375549316,"76":-0.23457786440849304,"77":-0.18425728380680084,"78":-0.1332768052816391,"79":-0.03955061733722687,"80":-0.04717928171157837,"81":-0.0444665290415287,"82":-0.48653078079223633,"83":-0.22992095351219177,"84":-0.1213778406381607,"85":-0.018731562420725822,"86":0.0018671259749680758,"87":0.077732153236866,"88":-0.052794359624385834,"89":0.38551709055900574,"90":-0.489151269197464,"91":-0.14555451273918152,"92":-0.07264327257871628,"93":-0.00642340537160635,"94":-0.11046247184276581,"95":0.1405024379491806,"96":-0.0658644512295723,"97":0.16589583456516266,"98":0.08124084025621414,"99":-0.13379083573818207,"100":0.17323467135429382,"101":0.037713922560214996,"102":-0.03090939112007618,"103":0.02385570853948593,"104":0.11479183286428452,"105":-0.18970388174057007,"106":-0.12063892185688019,"107":-0.015047545544803143,"108":-0.026463892310857773,"109":-0.24771833419799805,"110":0.14169079065322876,"111":0.12251207232475281,"112":-0.31256088614463806,"113":-0.4115750789642334,"114":0.09914559125900269,"115":0.047515422105789185,"116":0.2815524637699127,"117":-0.35480496287345886,"118":0.09996004402637482,"119":0.1455291360616684,"120":-0.1269635409116745,"121":-0.08023945987224579,"122":0.26668792963027954,"123":-0.01827586628496647,"124":0.04675093665719032,"125":-0.1602005958557129,"126":-0.050753191113471985,"127":-0.3933340907096863,"128":-0.2399054318666458,"129":0.18324992060661316,"130":-0.03410309553146362,"131":-0.054523829370737076,"132":0.05784563720226288,"133":-0.006403992418199778,"134":-0.10961027443408966,"135":-0.031541939824819565,"136":0.03387981653213501,"137":0.20536763966083527,"138":0.15690122544765472,"139":0.11295999586582184,"140":0.09213141351938248,"141":-0.15012814104557037,"142":-0.32606154680252075,"143":-0.1768513321876526,"144":0.25588083267211914}},"5":{"bias":-0.0033340889494866133,"weights":{"0":-0.4652235805988312,"1":-0.2715274691581726,"2":-0.09989729523658752,"3":-0.28271031379699707,"4":-0.3332032561302185,"5":-0.007978484034538269,"6":-0.08730686455965042,"7":-0.2006550282239914,"8":0.3877403140068054,"9":-0.16412708163261414,"10":0.22864778339862823,"11":-0.17584054172039032,"12":0.16686339676380157,"13":0.08245482295751572,"14":0.028852075338363647,"15":0.19990819692611694,"16":-0.14323090016841888,"17":0.08115856349468231,"18":0.04632902145385742,"19":-0.0673682689666748,"20":0.05346620827913284,"21":0.28841379284858704,"22":0.15062959492206573,"23":-0.25898292660713196,"24":-0.12673169374465942,"25":-0.07204997539520264,"26":0.12610585987567902,"27":-0.29733726382255554,"28":0.18120068311691284,"29":0.03661127761006355,"30":0.20250464975833893,"31":-0.2480270266532898,"32":-0.14934740960597992,"33":0.0041516912169754505,"34":-0.05658769607543945,"35":0.19578060507774353,"36":0.0075462209060788155,"37":0.3575781285762787,"38":0.173502579331398,"39":0.24849747121334076,"40":0.0011607746127992868,"41":-0.1302117109298706,"42":0.08944369852542877,"43":-0.12399547547101974,"44":-0.03857865929603577,"45":-0.18034115433692932,"46":0.09660933911800385,"47":0.37444552779197693,"48":-0.31388023495674133,"49":0.23922741413116455,"50":-0.17918086051940918,"51":0.12832695245742798,"52":-0.0029928574804216623,"53":0.024655107408761978,"54":-0.11261853575706482,"55":0.17485134303569794,"56":0.07003948837518692,"57":-0.13612793385982513,"58":-0.2516189515590668,"59":-0.12984280288219452,"60":0.15121932327747345,"61":-0.0014897106448188424,"62":-0.07335329800844193,"63":0.12630799412727356,"64":-0.25240984559059143,"65":-0.2864799201488495,"66":-0.04784591123461723,"67":0.012545790523290634,"68":-0.2292918562889099,"69":-0.027298370376229286,"70":-0.23149093985557556,"71":0.26620641350746155,"72":0.18185874819755554,"73":-0.1911173164844513,"74":0.13996516168117523,"75":-0.03234949707984924,"76":0.052362021058797836,"77":-0.17947781085968018,"78":-0.01928706280887127,"79":-0.024252356961369514,"80":-0.12267111241817474,"81":0.03235631808638573,"82":0.20033946633338928,"83":-0.23645175993442535,"84":0.17176274955272675,"85":0.3917454183101654,"86":-0.1134604886174202,"87":0.12697598338127136,"88":0.12739664316177368,"89":-0.39897698163986206,"90":0.2847091555595398,"91":-0.14454032480716705,"92":-0.0919707715511322,"93":0.038530003279447556,"94":0.2617079019546509,"95":-0.39931800961494446,"96":0.14294686913490295,"97":-0.5041970014572144,"98":0.10343091934919357,"99":0.21554824709892273,"100":-0.09978587925434113,"101":0.01780109852552414,"102":-0.05074774846434593,"103":0.1431972086429596,"104":-0.1906033158302307,"105":-0.030596641823649406,"106":-0.2870149314403534,"107":0.0985296368598938,"108":0.091750368475914,"109":0.39089640974998474,"110":-0.193391352891922,"111":-0.026679309085011482,"112":0.09712843596935272,"113":0.03971715644001961,"114":-0.321647584438324,"115":0.2571515738964081,"116":-0.11126014590263367,"117":0.2749868631362915,"118":-0.01615370251238346,"119":-0.300558477640152,"120":0.03979043290019035,"121":0.03733108192682266,"122":-0.38404232263565063,"123":-0.18844275176525116,"124":-0.21586215496063232,"125":0.05242212489247322,"126":-0.12281173467636108,"127":0.3145573139190674,"128":0.1577627956867218,"129":-0.3500131666660309,"130":-0.28930240869522095,"131":-0.2731040418148041,"132":-0.13782188296318054,"133":-0.2583989202976227,"134":0.12345525622367859,"135":-0.004505843855440617,"136":-0.42496469616889954,"137":-0.1450253278017044,"138":-0.04020513966679573,"139":0.03774046525359154,"140":0.07248887419700623,"141":0.05237790197134018,"142":-0.027478810399770737,"143":0.0591055266559124,"144":0.1797245591878891}},"6":{"bias":0.2297176718711853,"weights":{"0":0.24226698279380798,"1":-0.3070928156375885,"2":-0.35328376293182373,"3":0.3880409896373749,"4":0.012363597750663757,"5":-0.2165370136499405,"6":-0.08323195576667786,"7":-0.07286519557237625,"8":-0.5844707489013672,"9":-0.0600765161216259,"10":-0.4099332094192505,"11":-0.17296737432479858,"12":0.08820252865552902,"13":-0.14064735174179077,"14":0.1485716700553894,"15":0.07216402888298035,"16":0.029896093532443047,"17":0.10937023162841797,"18":-0.21660418808460236,"19":0.19647428393363953,"20":0.21694064140319824,"21":-0.09856697916984558,"22":-0.22268149256706238,"23":0.23165106773376465,"24":-0.04614448547363281,"25":0.122306227684021,"26":-0.2179568111896515,"27":0.3563370108604431,"28":-0.33166640996932983,"29":0.007459854707121849,"30":0.09045391529798508,"31":0.29991260170936584,"32":-0.07497932016849518,"33":0.030433982610702515,"34":0.10547123104333878,"35":-0.08861541002988815,"36":0.0721152201294899,"37":-0.37622252106666565,"38":-0.10417746752500534,"39":-0.07514778524637222,"40":-0.19405102729797363,"41":0.033057209104299545,"42":-0.07790852338075638,"43":0.34181442856788635,"44":-0.20530226826667786,"45":0.25020262598991394,"46":-0.05008924752473831,"47":-0.3622749149799347,"48":0.27995795011520386,"49":-0.24922478199005127,"50":0.3413085341453552,"51":-0.09319841861724854,"52":0.07346290349960327,"53":0.02011312171816826,"54":-0.05377814173698425,"55":0.06311900168657303,"56":-0.1357477605342865,"57":-0.13226933777332306,"58":0.19875554740428925,"59":-0.23807169497013092,"60":-0.32476234436035156,"61":-0.08150187879800797,"62":0.10278547555208206,"63":-0.013439199887216091,"64":0.124129518866539,"65":0.09558212012052536,"66":-0.1646796017885208,"67":-0.099410779774189,"68":0.0013745214091613889,"69":-0.10136811435222626,"70":0.030300110578536987,"71":-0.0743044763803482,"72":0.1341705024242401,"73":-0.11689576506614685,"74":0.12586456537246704,"75":0.16308362782001495,"76":-0.23782865703105927,"77":-0.3031180799007416,"78":-0.34430065751075745,"79":-0.024152206256985664,"80":0.2884026765823364,"81":-0.23119507730007172,"82":-0.5317295789718628,"83":0.1965872049331665,"84":-0.10631823539733887,"85":-0.42086008191108704,"86":0.08417375385761261,"87":-0.1934596300125122,"88":-0.3375091850757599,"89":0.2980682849884033,"90":-0.20468683540821075,"91":-0.12826409935951233,"92":-0.09300200641155243,"93":0.09684037417173386,"94":-0.26732802391052246,"95":-0.01605287753045559,"96":0.09091982245445251,"97":0.055062875151634216,"98":0.00924855936318636,"99":-0.09863252192735672,"100":0.007245367858558893,"101":0.17849145829677582,"102":0.10230974107980728,"103":-0.19965170323848724,"104":0.011071301996707916,"105":-0.24737797677516937,"106":-0.04799496382474899,"107":-0.10881158709526062,"108":0.057042818516492844,"109":-0.5075039863586426,"110":0.037765271961688995,"111":0.0380178727209568,"112":-0.2086770087480545,"113":-0.0521991029381752,"114":0.43525803089141846,"115":0.04756057262420654,"116":0.10887929797172546,"117":0.1287657469511032,"118":-0.13380061089992523,"119":0.10567446053028107,"120":-0.10020261257886887,"121":-0.1772724688053131,"122":0.0704105868935585,"123":-0.055157192051410675,"124":-0.005998545326292515,"125":-0.19203166663646698,"126":-0.23115628957748413,"127":-0.2594117820262909,"128":0.09383153915405273,"129":0.18875788152217865,"130":0.2622621953487396,"131":0.27616095542907715,"132":0.44447100162506104,"133":0.3155719041824341,"134":-0.20854699611663818,"135":-0.2710859179496765,"136":0.22553084790706635,"137":-0.0058472719974815845,"138":-0.15433314442634583,"139":0.13812623918056488,"140":-0.10347653925418854,"141":-0.24098335206508636,"142":0.0037466296926140785,"143":-0.04972532019019127,"144":-0.048698071390390396}},"7":{"bias":0.06589724868535995,"weights":{"0":0.3053464889526367,"1":-0.1224188357591629,"2":-0.048044513911008835,"3":0.11408405005931854,"4":-0.014881284907460213,"5":-0.15286476910114288,"6":-0.029337333515286446,"7":0.09386491775512695,"8":-0.3797975182533264,"9":-0.13316710293293,"10":-0.3121095895767212,"11":-0.14646722376346588,"12":0.1974077969789505,"13":0.0006900205044075847,"14":-0.11057784408330917,"15":-0.023843679577112198,"16":0.0727841779589653,"17":-0.00842630211263895,"18":-0.009845815598964691,"19":-0.037362102419137955,"20":0.1300729513168335,"21":-0.15163500607013702,"22":0.13578204810619354,"23":-0.08755404502153397,"24":-0.10617141425609589,"25":0.0742938295006752,"26":0.16311505436897278,"27":0.06975500285625458,"28":-0.1493225246667862,"29":-0.008022988215088844,"30":-0.09783623367547989,"31":0.20570766925811768,"32":0.08596480637788773,"33":-0.06492792069911957,"34":0.12676768004894257,"35":-0.022761691361665726,"36":0.12194738537073135,"37":-0.20863492786884308,"38":0.01360339019447565,"39":0.05313148722052574,"40":-0.011014888063073158,"41":0.22294047474861145,"42":-0.17761266231536865,"43":0.009080909192562103,"44":-0.1805945336818695,"45":0.14865942299365997,"46":-0.06259109079837799,"47":-0.006013914477080107,"48":0.24878516793251038,"49":-0.3233986496925354,"50":0.24057823419570923,"51":-0.1383829116821289,"52":-0.09254301339387894,"53":-0.07735779881477356,"54":0.014374639838933945,"55":-0.1074376180768013,"56":-0.07263868302106857,"57":-0.17546232044696808,"58":0.20543056726455688,"59":-0.16002219915390015,"60":0.013518456369638443,"61":-0.3479408323764801,"62":-0.07144822925329208,"63":0.15600471198558807,"64":0.09265650808811188,"65":-0.00996578298509121,"66":0.07520894706249237,"67":0.12950262427330017,"68":0.07051437348127365,"69":0.07096085697412491,"70":-0.11247827112674713,"71":-0.07025664299726486,"72":-0.043111298233270645,"73":-0.06715290248394012,"74":-0.10821852833032608,"75":0.01048311311751604,"76":0.019621016457676888,"77":-0.07926101982593536,"78":-0.028971495106816292,"79":-0.1404283344745636,"80":0.21447071433067322,"81":-0.14164550602436066,"82":-0.1739138662815094,"83":0.10204297304153442,"84":-0.0658704861998558,"85":0.07106169313192368,"86":-0.11228295415639877,"87":0.05874834954738617,"88":-0.3242899775505066,"89":0.3517133593559265,"90":-0.26826000213623047,"91":0.15287889540195465,"92":-0.04693455249071121,"93":-0.016626209020614624,"94":0.125459223985672,"95":0.2775770425796509,"96":-0.14264442026615143,"97":0.10653022676706314,"98":0.10076315701007843,"99":-0.29697680473327637,"100":0.05840612202882767,"101":0.034927044063806534,"102":0.13628554344177246,"103":-0.09185270965099335,"104":-0.05171320214867592,"105":-0.10036244243383408,"106":-0.12018337100744247,"107":0.04595864564180374,"108":0.2068079113960266,"109":-0.1050591990351677,"110":0.17735444009304047,"111":0.023626526817679405,"112":-0.11655453592538834,"113":0.09228838980197906,"114":0.20198526978492737,"115":0.046299614012241364,"116":0.12214408814907074,"117":0.0647611916065216,"118":0.14367279410362244,"119":-0.05113654583692551,"120":0.09983061254024506,"121":0.01510629802942276,"122":0.20042362809181213,"123":0.14234206080436707,"124":-0.023642275482416153,"125":0.19089457392692566,"126":0.03530552238225937,"127":-0.21420158445835114,"128":-0.03163199871778488,"129":-0.01324458234012127,"130":0.1067013069987297,"131":-0.07292231917381287,"132":0.02008073590695858,"133":0.15940679609775543,"134":-0.1558719426393509,"135":0.15141308307647705,"136":0.1647634506225586,"137":0.13265705108642578,"138":0.2606060206890106,"139":-0.06996509432792664,"140":-0.22397170960903168,"141":-0.1043400764465332,"142":-0.05562559887766838,"143":-0.28019052743911743,"144":0.06999576836824417}}},{"0":{"bias":-0.08505760878324509,"weights":{"0":0.11145619302988052,"1":0.2098269760608673,"2":0.14044296741485596,"3":-0.07493015378713608,"4":0.044341910630464554,"5":-0.0517461821436882,"6":-0.07181812077760696,"7":-0.09986422210931778}},"1":{"bias":-0.14135636389255524,"weights":{"0":-0.8539997339248657,"1":0.08489442616701126,"2":-0.7497836351394653,"3":1.4595829248428345,"4":1.230665683746338,"5":-1.4542917013168335,"6":1.3358025550842285,"7":0.8138459920883179}},"2":{"bias":-0.15406887233257294,"weights":{"0":-0.31413203477859497,"1":0.055361177772283554,"2":0.0035229227505624294,"3":0.16775867342948914,"4":0.004074660129845142,"5":-0.2731548249721527,"6":0.18092869222164154,"7":0.25659307837486267}},"3":{"bias":-0.33580124378204346,"weights":{"0":-0.6694015264511108,"1":0.3038962185382843,"2":-0.4799676239490509,"3":1.107955813407898,"4":0.8972684144973755,"5":-1.0810970067977905,"6":1.1825411319732666,"7":0.7320736050605774}},"4":{"bias":0.21628601849079132,"weights":{"0":0.29864421486854553,"1":-0.013871772214770317,"2":0.14885254204273224,"3":-0.41903671622276306,"4":-0.3671201765537262,"5":0.26367834210395813,"6":-0.3689122200012207,"7":-0.1638796329498291}},"5":{"bias":-0.14163321256637573,"weights":{"0":-0.006684445776045322,"1":-0.03591126203536987,"2":0.07158982008695602,"3":-0.13096292316913605,"4":-0.10494840890169144,"5":0.1005205363035202,"6":0.02439633198082447,"7":0.18303903937339783}},"6":{"bias":-0.017021438106894493,"weights":{"0":-0.12300094217061996,"1":0.03697188198566437,"2":-0.13959166407585144,"3":-0.10613591223955154,"4":0.049055468291044235,"5":-0.18330758810043335,"6":0.07741384208202362,"7":0.14773154258728027}},"7":{"bias":-0.048127565532922745,"weights":{"0":-0.3739771246910095,"1":-0.10765822231769562,"2":-0.33472442626953125,"3":0.2989610433578491,"4":0.19588443636894226,"5":-0.2910444140434265,"6":0.45411965250968933,"7":0.007468691095709801}}},{"0":{"bias":0.9956538677215576,"weights":{"0":0.47220227122306824,"1":-2.4936485290527344,"2":-0.05009547248482704,"3":-1.8959918022155762,"4":1.18240225315094,"5":0.49018311500549316,"6":0.20658615231513977,"7":-0.31310978531837463}}}],"outputLookup":false,"inputLookup":false,"activation":"sigmoid","trainOpts":{"iterations":20000,"errorThresh":0.003,"log":true,"logPeriod":10,"learningRate":0.1,"momentum":0.1,"callbackPeriod":10,"beta1":0.9,"beta2":0.999,"epsilon":1e-8}}