{"sizes":[145,8,8,1],"layers":[{"0":{},"1":{},"2":{},"3":{},"4":{},"5":{},"6":{},"7":{},"8":{},"9":{},"10":{},"11":{},"12":{},"13":{},"14":{},"15":{},"16":{},"17":{},"18":{},"19":{},"20":{},"21":{},"22":{},"23":{},"24":{},"25":{},"26":{},"27":{},"28":{},"29":{},"30":{},"31":{},"32":{},"33":{},"34":{},"35":{},"36":{},"37":{},"38":{},"39":{},"40":{},"41":{},"42":{},"43":{},"44":{},"45":{},"46":{},"47":{},"48":{},"49":{},"50":{},"51":{},"52":{},"53":{},"54":{},"55":{},"56":{},"57":{},"58":{},"59":{},"60":{},"61":{},"62":{},"63":{},"64":{},"65":{},"66":{},"67":{},"68":{},"69":{},"70":{},"71":{},"72":{},"73":{},"74":{},"75":{},"76":{},"77":{},"78":{},"79":{},"80":{},"81":{},"82":{},"83":{},"84":{},"85":{},"86":{},"87":{},"88":{},"89":{},"90":{},"91":{},"92":{},"93":{},"94":{},"95":{},"96":{},"97":{},"98":{},"99":{},"100":{},"101":{},"102":{},"103":{},"104":{},"105":{},"106":{},"107":{},"108":{},"109":{},"110":{},"111":{},"112":{},"113":{},"114":{},"115":{},"116":{},"117":{},"118":{},"119":{},"120":{},"121":{},"122":{},"123":{},"124":{},"125":{},"126":{},"127":{},"128":{},"129":{},"130":{},"131":{},"132":{},"133":{},"134":{},"135":{},"136":{},"137":{},"138":{},"139":{},"140":{},"141":{},"142":{},"143":{},"144":{}},{"0":{"bias":1.749083399772644,"weights":{"0":-0.488747775554657,"1":0.013502880930900574,"2":-0.7588983178138733,"3":0.6190059185028076,"4":-0.5811183452606201,"5":-0.024832364171743393,"6":-0.17060238122940063,"7":-0.5144355893135071,"8":-0.1815357208251953,"9":0.10561887174844742,"10":0.6096435785293579,"11":-0.65788334608078,"12":0.6867251992225647,"13":0.4307364821434021,"14":-1.4918102025985718,"15":-0.4269658029079437,"16":-0.5437824726104736,"17":-0.31902968883514404,"18":1.0007190704345703,"19":0.596075177192688,"20":0.6108636260032654,"21":0.7884832620620728,"22":1.025823712348938,"23":0.9749661684036255,"24":-0.4767245948314667,"25":-0.8945140838623047,"26":-0.6912782788276672,"27":-0.3542180061340332,"28":0.6294883489608765,"29":0.19373859465122223,"30":0.22727720439434052,"31":0.8736041784286499,"32":-0.10133060067892075,"33":-1.3557510375976562,"34":0.14840972423553467,"35":-0.4082382619380951,"36":-0.4679104685783386,"37":0.800925612449646,"38":-0.4142715036869049,"39":0.055296700447797775,"40":-1.4481884241104126,"41":0.7263435125350952,"42":-0.6639556884765625,"43":0.5900775790214539,"44":0.11446359008550644,"45":-1.1501083374023438,"46":-0.29193997383117676,"47":-0.1784185767173767,"48":0.16882801055908203,"49":1.7134933471679688,"50":-0.32868337631225586,"51":0.37115275859832764,"52":0.4523615539073944,"53":-0.8644976019859314,"54":-0.6390529870986938,"55":-0.4474315643310547,"56":-0.0030389144085347652,"57":0.7931829690933228,"58":-0.6834143400192261,"59":-0.2481694370508194,"60":-1.1320509910583496,"61":-0.46267077326774597,"62":-1.8980082273483276,"63":-0.18739734590053558,"64":-0.2207208126783371,"65":0.8250197768211365,"66":0.8188824653625488,"67":-1.0548200607299805,"68":-0.04088873416185379,"69":1.5568821430206299,"70":1.2231172323226929,"71":0.37955400347709656,"72":0.3716220259666443,"73":-0.5971903800964355,"74":-0.19863900542259216,"75":-0.7032147645950317,"76":1.856938362121582,"77":0.5148971080780029,"78":-0.7768160700798035,"79":0.19738855957984924,"80":-0.12731130421161652,"81":0.5679047107696533,"82":-0.5270144939422607,"83":0.0029790729749947786,"84":-0.845653772354126,"85":-0.8851720094680786,"86":0.06772856414318085,"87":0.5647949576377869,"88":-1.8534659147262573,"89":-0.3947218656539917,"90":1.2073816061019897,"91":-1.089927077293396,"92":0.18987758457660675,"93":-0.3954070806503296,"94":-0.3220973610877991,"95":1.1975799798965454,"96":0.6786772012710571,"97":1.7725732326507568,"98":0.17969708144664764,"99":-0.1406305581331253,"100":0.2631016969680786,"101":-1.0182404518127441,"102":0.29062792658805847,"103":0.01576228439807892,"104":0.06334354728460312,"105":0.9168909788131714,"106":0.3793431520462036,"107":0.6835039258003235,"108":-0.40042975544929504,"109":0.08374898880720139,"110":0.32288751006126404,"111":-0.34992411732673645,"112":0.5808922052383423,"113":-0.5153542160987854,"114":-0.9070496559143066,"115":-1.0491896867752075,"116":2.3827834129333496,"117":1.4275331497192383,"118":-0.7038290500640869,"119":-2.6432507038116455,"120":0.6120107769966125,"121":0.05587872117757797,"122":-0.04886787384748459,"123":-1.969809889793396,"124":-0.7620254755020142,"125":-0.3099902868270874,"126":-0.8529224991798401,"127":-1.325211763381958,"128":-0.4739050269126892,"129":1.3910918235778809,"130":-0.42015835642814636,"131":-0.4874895513057709,"132":0.8040534853935242,"133":0.4149206280708313,"134":0.325776070356369,"135":0.12216433882713318,"136":0.8083694577217102,"137":0.17486786842346191,"138":-0.06257253885269165,"139":0.3752788305282593,"140":-0.4792476296424866,"141":0.0002655214339029044,"142":-0.7249490022659302,"143":-1.4271728992462158,"144":-0.7174786329269409}},"1":{"bias":1.429334044456482,"weights":{"0":0.6830300688743591,"1":0.22921715676784515,"2":1.265270471572876,"3":-0.7045301198959351,"4":0.5961962342262268,"5":-0.3712189793586731,"6":0.434081107378006,"7":0.02654455415904522,"8":0.45867881178855896,"9":0.4327620267868042,"10":0.38042551279067993,"11":-0.2667561173439026,"12":-0.4122171700000763,"13":0.25657519698143005,"14":1.5907303094863892,"15":1.2962596416473389,"16":0.19534634053707123,"17":1.2401657104492188,"18":0.06782668828964233,"19":-0.5678805708885193,"20":0.08296740800142288,"21":-0.41042792797088623,"22":0.5658915638923645,"23":1.2682448625564575,"24":-0.12901300191879272,"25":-1.5981978178024292,"26":-0.4514578878879547,"27":1.9128103256225586,"28":-0.5001919865608215,"29":-0.7145588397979736,"30":1.405967116355896,"31":0.5252138376235962,"32":-0.9348234534263611,"33":1.1025761365890503,"34":-0.14331553876399994,"35":1.3441481590270996,"36":-0.5601294040679932,"37":-1.6460133790969849,"38":0.4556581676006317,"39":-0.8379456400871277,"40":1.7318235635757446,"41":-0.8449498414993286,"42":-0.48538413643836975,"43":-1.5121277570724487,"44":0.7926853895187378,"45":0.3059875965118408,"46":0.691612958908081,"47":-0.678239643573761,"48":-1.3083547353744507,"49":-1.1968302726745605,"50":-0.8945673704147339,"51":0.27990472316741943,"52":0.5249760150909424,"53":-0.03614729642868042,"54":0.47278717160224915,"55":-0.29562047123908997,"56":1.3647512197494507,"57":-0.6861613988876343,"58":-0.9421467185020447,"59":-0.7994081377983093,"60":0.9067527651786804,"61":-0.07840733975172043,"62":2.3469150066375732,"63":-0.324873685836792,"64":-0.72294020652771,"65":-0.4823618531227112,"66":1.114626169204712,"67":1.48013436794281,"68":0.5600894689559937,"69":-0.8896332383155823,"70":-0.24760617315769196,"71":0.22325623035430908,"72":-0.2545071244239807,"73":0.14680704474449158,"74":0.5065381526947021,"75":-0.015543791465461254,"76":-0.4062143862247467,"77":-0.14198879897594452,"78":-0.0246503334492445,"79":1.2434865236282349,"80":1.403176188468933,"81":0.38369128108024597,"82":0.8377302885055542,"83":2.109189748764038,"84":-0.17802868783473969,"85":0.9582878947257996,"86":-0.07442432641983032,"87":0.5130365490913391,"88":-0.05724214017391205,"89":1.6285912990570068,"90":-0.23157760500907898,"91":1.7789983749389648,"92":-0.11724313348531723,"93":1.3504068851470947,"94":-0.7985195517539978,"95":0.06442397832870483,"96":0.08885835111141205,"97":-0.5324764251708984,"98":-2.0429368019104004,"99":0.2801494002342224,"100":1.2045018672943115,"101":-0.5197480320930481,"102":-1.1103663444519043,"103":0.14138588309288025,"104":-0.13443692028522491,"105":-0.4905036985874176,"106":0.32389798760414124,"107":-0.06660199910402298,"108":2.2929325103759766,"109":-0.682991623878479,"110":0.5708945989608765,"111":-0.502238392829895,"112":-1.1777400970458984,"113":-0.3322460949420929,"114":0.39424028992652893,"115":1.1137632131576538,"116":0.06842276453971863,"117":1.309349536895752,"118":-0.42327386140823364,"119":-0.36960357427597046,"120":-1.2101935148239136,"121":-0.3410743474960327,"122":-1.0222867727279663,"123":-0.7708958983421326,"124":1.4354517459869385,"125":-0.4243842661380768,"126":0.49232152104377747,"127":-1.8094812631607056,"128":-0.41937705874443054,"129":-1.0123168230056763,"130":0.2916605472564697,"131":-0.3394526243209839,"132":0.8625054359436035,"133":1.1848196983337402,"134":-0.6382491588592529,"135":-1.328729510307312,"136":-1.3222662210464478,"137":-0.5450463891029358,"138":-0.3296579420566559,"139":-0.24416980147361755,"140":-0.6335150599479675,"141":0.8625005483627319,"142":-0.11488190293312073,"143":1.3201435804367065,"144":0.4631519913673401}},"2":{"bias":0.6007067561149597,"weights":{"0":-0.4543687701225281,"1":0.7442277669906616,"2":-1.6738492250442505,"3":-0.5531073212623596,"4":0.7045746445655823,"5":0.08325956761837006,"6":-0.6528982520103455,"7":0.13319538533687592,"8":0.1667027771472931,"9":0.4515242874622345,"10":1.0814847946166992,"11":-0.38280266523361206,"12":-2.348541736602783,"13":0.1078006848692894,"14":-1.0860222578048706,"15":-1.1123528480529785,"16":-0.9948896765708923,"17":-0.7422825694084167,"18":-0.056860242038965225,"19":-0.3678976595401764,"20":-2.1656038761138916,"21":-0.49283847212791443,"22":-0.8317448496818542,"23":0.3987683057785034,"24":0.8785695433616638,"25":1.0056356191635132,"26":-0.14313092827796936,"27":0.5790380835533142,"28":-0.5709701776504517,"29":-0.289354145526886,"30":-1.5488933324813843,"31":0.4133652150630951,"32":-0.019714750349521637,"33":-1.1803427934646606,"34":0.2880815863609314,"35":-2.0214123725891113,"36":0.9852416515350342,"37":-1.3367501497268677,"38":-0.8673372864723206,"39":0.29842284321784973,"40":-0.36320239305496216,"41":1.6588376760482788,"42":0.37299755215644836,"43":-0.14985454082489014,"44":0.2849700152873993,"45":0.8620292544364929,"46":-0.449748158454895,"47":0.5511758327484131,"48":-0.7322038412094116,"49":1.4039489030838013,"50":0.207534521818161,"51":-1.2156736850738525,"52":-0.025145772844552994,"53":-0.9178974628448486,"54":-0.2976084053516388,"55":-0.3187149167060852,"56":0.29257580637931824,"57":0.4517551362514496,"58":-1.741882085800171,"59":-0.0017221771413460374,"60":-0.30320748686790466,"61":-1.4443902969360352,"62":-1.681768536567688,"63":0.2566496431827545,"64":0.519504189491272,"65":-0.10209031403064728,"66":0.5575143694877625,"67":-0.8677530884742737,"68":-1.7148640155792236,"69":2.057000160217285,"70":-0.1461593359708786,"71":-1.8784011602401733,"72":1.387976884841919,"73":0.7367830276489258,"74":-0.0833490639925003,"75":0.2399991750717163,"76":-0.46593695878982544,"77":-1.1696977615356445,"78":-0.07599284499883652,"79":-0.9211207032203674,"80":0.90748131275177,"81":0.3542550802230835,"82":-0.08742010593414307,"83":-0.23376476764678955,"84":-0.25601986050605774,"85":0.4034043848514557,"86":-0.6068863868713379,"87":0.17150241136550903,"88":-0.574652910232544,"89":0.942055344581604,"90":-1.1679507493972778,"91":-0.44999122619628906,"92":0.025476139038801193,"93":2.2980706691741943,"94":0.49742281436920166,"95":-0.830846905708313,"96":-0.15570856630802155,"97":0.7719309329986572,"98":0.43593302369117737,"99":-0.06706895679235458,"100":-0.11123976856470108,"101":-0.8118903040885925,"102":-0.5373820662498474,"103":-0.16341832280158997,"104":0.9188610315322876,"105":0.8485139012336731,"106":-0.6180242300033569,"107":1.5780521631240845,"108":1.064381718635559,"109":-1.211037278175354,"110":-0.06825857609510422,"111":-0.35227635502815247,"112":-0.08038268238306046,"113":-0.4439258277416229,"114":0.021984988823533058,"115":0.6523107290267944,"116":1.6960561275482178,"117":1.3958975076675415,"118":-0.28333649039268494,"119":-0.4916050434112549,"120":0.08088432252407074,"121":0.06806174665689468,"122":0.9121332168579102,"123":-0.8017695546150208,"124":-1.7661051750183105,"125":0.9867076873779297,"126":0.9734069108963013,"127":-1.5902142524719238,"128":-0.0342988595366478,"129":-0.976487934589386,"130":-0.41345369815826416,"131":-1.3186209201812744,"132":-0.620066225528717,"133":-0.038045961409807205,"134":0.8245454430580139,"135":0.19764196872711182,"136":-0.017473040148615837,"137":0.629933774471283,"138":1.2444556951522827,"139":0.04629652574658394,"140":-0.3996032178401947,"141":-0.2659813463687897,"142":-0.44641372561454773,"143":2.890594482421875,"144":0.2579427659511566}},"3":{"bias":-0.36604225635528564,"weights":{"0":-1.3410998582839966,"1":1.3109050989151,"2":-1.6016579866409302,"3":0.9772030711174011,"4":-0.3331970274448395,"5":-0.0024684309028089046,"6":0.04906321316957474,"7":0.008597763255238533,"8":-1.0521726608276367,"9":0.2303752303123474,"10":-0.8797299265861511,"11":1.0561854839324951,"12":-1.0053727626800537,"13":0.16127048432826996,"14":-1.1110223531723022,"15":-0.5850193500518799,"16":0.10226180404424667,"17":-0.3577112853527069,"18":-0.35300007462501526,"19":0.1343121975660324,"20":-0.8529825806617737,"21":1.4488877058029175,"22":1.5121870040893555,"23":-0.1757083237171173,"24":-1.1148167848587036,"25":-1.19810950756073,"26":0.5482292175292969,"27":-1.2024928331375122,"28":-1.287982702255249,"29":-0.817440390586853,"30":0.21889175474643707,"31":0.7009667754173279,"32":-0.5270547866821289,"33":1.0752182006835938,"34":0.005784669425338507,"35":-0.9702959060668945,"36":-0.5098978877067566,"37":0.2808558940887451,"38":-0.08510740846395493,"39":0.7666524648666382,"40":-0.25348660349845886,"41":0.224543958902359,"42":0.10813432186841965,"43":0.6785621643066406,"44":0.1735984981060028,"45":0.661500871181488,"46":-0.7100284695625305,"47":-0.5039065480232239,"48":-0.31185951828956604,"49":0.39318525791168213,"50":0.15862354636192322,"51":-1.4643175601959229,"52":-0.24572782218456268,"53":-1.271770715713501,"54":-1.1284031867980957,"55":0.15638047456741333,"56":-1.9219251871109009,"57":-0.46036893129348755,"58":-0.6554895639419556,"59":0.05750347301363945,"60":0.09533580392599106,"61":1.0001300573349,"62":0.14315563440322876,"63":-0.24474017322063446,"64":-0.8370167016983032,"65":-0.013977020047605038,"66":1.2821218967437744,"67":0.9121319055557251,"68":1.3659712076187134,"69":-0.6829470992088318,"70":-0.11682900041341782,"71":0.5273320078849792,"72":-0.7015373110771179,"73":-0.1419212967157364,"74":-0.4587489664554596,"75":-0.621899425983429,"76":0.9533454179763794,"77":-0.18388904631137848,"78":-1.4210178852081299,"79":0.31590595841407776,"80":0.28387534618377686,"81":-0.21714332699775696,"82":0.5506033897399902,"83":0.5689964294433594,"84":0.43246936798095703,"85":-0.4829556941986084,"86":0.8264121413230896,"87":-1.8643804788589478,"88":-0.8106435537338257,"89":-1.8185673952102661,"90":-0.2506314218044281,"91":0.04975351318717003,"92":-0.25361505150794983,"93":-0.7143003344535828,"94":0.2752949893474579,"95":-0.35434451699256897,"96":0.11062347888946533,"97":-0.3279061019420624,"98":-0.03682185336947441,"99":0.18275867402553558,"100":0.9725555181503296,"101":-0.5120840668678284,"102":0.1359078288078308,"103":0.25820744037628174,"104":-0.08663994818925858,"105":0.10511275380849838,"106":0.25902697443962097,"107":-0.6804643273353577,"108":-1.5999598503112793,"109":-0.24629373848438263,"110":0.3479660749435425,"111":1.7100950479507446,"112":1.3478758335113525,"113":0.10909857600927353,"114":0.8115134835243225,"115":0.4397736191749573,"116":-1.6364810466766357,"117":1.1368168592453003,"118":-1.6340359449386597,"119":0.8388413786888123,"120":-0.2848745882511139,"121":-0.057256970554590225,"122":1.7617136240005493,"123":-1.919026494026184,"124":0.4663100838661194,"125":-0.4027688801288605,"126":0.10666830092668533,"127":-0.05343151092529297,"128":0.5497533082962036,"129":-0.056363049894571304,"130":-0.3142459988594055,"131":0.6826462149620056,"132":0.23084808886051178,"133":0.05680757388472557,"134":-0.09078413993120193,"135":-0.16434191167354584,"136":-1.1264443397521973,"137":2.0499942302703857,"138":-0.6793026328086853,"139":-0.23035861551761627,"140":1.2766470909118652,"141":1.7478671073913574,"142":0.2729625701904297,"143":-0.3601831793785095,"144":0.87684166431427}},"4":{"bias":1.394385814666748,"weights":{"0":0.5486743450164795,"1":-0.5624258518218994,"2":-0.49803125858306885,"3":-0.7755231261253357,"4":1.1202654838562012,"5":0.554017961025238,"6":-0.029292980208992958,"7":-0.7102128267288208,"8":0.7397080063819885,"9":-1.2971731424331665,"10":-0.7712441682815552,"11":0.9253737926483154,"12":-0.50950688123703,"13":-0.279783695936203,"14":0.18690353631973267,"15":-0.11192010343074799,"16":-0.07680203020572662,"17":-0.3281342089176178,"18":-0.16384756565093994,"19":-0.07000433653593063,"20":-3.042726993560791,"21":1.055801272392273,"22":-2.015406847000122,"23":-0.27462905645370483,"24":-1.2787787914276123,"25":0.11883991211652756,"26":0.20503181219100952,"27":-1.1519920825958252,"28":-0.09054232388734818,"29":-0.48282426595687866,"30":-1.683650016784668,"31":0.12527784705162048,"32":-0.23437073826789856,"33":1.3110426664352417,"34":0.3691631257534027,"35":0.05836593732237816,"36":1.157314658164978,"37":0.2805216908454895,"38":-0.3811478912830353,"39":0.4973542094230652,"40":-0.3746693730354309,"41":0.5168769955635071,"42":-0.5816500186920166,"43":-1.0992224216461182,"44":0.4057619273662567,"45":1.1559516191482544,"46":-0.449853777885437,"47":0.6899081468582153,"48":-0.047389913350343704,"49":-0.00796462967991829,"50":0.354238361120224,"51":-2.4775407314300537,"52":1.0417476892471313,"53":0.16917301714420319,"54":-0.8102706074714661,"55":0.5610439777374268,"56":-1.2157737016677856,"57":0.9450700879096985,"58":-1.190981149673462,"59":0.687256932258606,"60":-1.4150773286819458,"61":1.8403024673461914,"62":-1.7545387744903564,"63":0.561712920665741,"64":-0.053594108670949936,"65":-0.34332728385925293,"66":0.3974674344062805,"67":-0.5695940256118774,"68":-0.5812913179397583,"69":0.06893600523471832,"70":-0.7483088374137878,"71":0.2759690582752228,"72":-0.6129007935523987,"73":-0.6670953035354614,"74":0.7453407049179077,"75":-0.48541784286499023,"76":0.2650367021560669,"77":0.21483772993087769,"78":-1.3889572620391846,"79":0.11621233075857162,"80":0.9715908169746399,"81":-0.47522595524787903,"82":-0.22974713146686554,"83":2.0924346446990967,"84":0.18965686857700348,"85":0.000824864546302706,"86":0.7638744115829468,"87":-1.2326620817184448,"88":-0.1418117731809616,"89":0.7745940089225769,"90":-1.5070552825927734,"91":1.176340937614441,"92":0.399554044008255,"93":-1.8427973985671997,"94":-1.1835057735443115,"95":1.3838649988174438,"96":1.1938114166259766,"97":0.8914414048194885,"98":0.778896152973175,"99":-1.9458439350128174,"100":0.03799668326973915,"101":-0.23673883080482483,"102":-0.031854741275310516,"103":0.30113497376441956,"104":-0.34165745973587036,"105":-0.3230859935283661,"106":0.8476635217666626,"107":3.1009817123413086,"108":-0.8283926844596863,"109":0.8302344679832458,"110":0.3057583272457123,"111":0.022245682775974274,"112":0.712024450302124,"113":0.1707363724708557,"114":-0.05573728680610657,"115":-0.6580562591552734,"116":-1.9831212759017944,"117":-0.4655687212944031,"118":-0.6205540895462036,"119":1.4315308332443237,"120":0.2555514872074127,"121":0.3263509273529053,"122":-1.4662775993347168,"123":-1.243208408355713,"124":-0.47411099076271057,"125":-0.02811560593545437,"126":0.5989379286766052,"127":0.9862973093986511,"128":-1.0696561336517334,"129":-0.06733980029821396,"130":0.45859023928642273,"131":0.6625766158103943,"132":-0.2917361557483673,"133":0.026790844276547432,"134":1.5985026359558105,"135":-0.7349417805671692,"136":1.8751940727233887,"137":0.7935618162155151,"138":-0.7723223567008972,"139":-0.6237479448318481,"140":-0.21745505928993225,"141":1.9739216566085815,"142":0.4888074994087219,"143":-1.8320136070251465,"144":0.7164751887321472}},"5":{"bias":0.7604468464851379,"weights":{"0":3.7436883449554443,"1":-0.6754469275474548,"2":-0.49310269951820374,"3":-0.7836106419563293,"4":-0.8588852882385254,"5":0.026970459148287773,"6":0.43566232919692993,"7":-0.021912822499871254,"8":-0.47306233644485474,"9":-0.08998874574899673,"10":1.0327173471450806,"11":0.4458944499492645,"12":1.8987674713134766,"13":0.7638055086135864,"14":0.39989593625068665,"15":-0.011480385437607765,"16":0.5869739651679993,"17":0.44561272859573364,"18":0.4783468544483185,"19":0.31585437059402466,"20":0.5961684584617615,"21":1.3094680309295654,"22":-1.0728546380996704,"23":1.087797999382019,"24":0.35916265845298767,"25":-1.0366816520690918,"26":-0.36492717266082764,"27":1.2580337524414062,"28":-0.3516015410423279,"29":-0.3078368008136749,"30":-0.00696778018027544,"31":0.36424553394317627,"32":0.6513516306877136,"33":1.394364356994629,"34":0.2090884894132614,"35":-0.9051093459129333,"36":3.4486544132232666,"37":-0.8474600315093994,"38":1.5131481885910034,"39":-0.4676721692085266,"40":-0.72932368516922,"41":-0.6587411165237427,"42":-0.19388334453105927,"43":-1.6576517820358276,"44":0.6130934953689575,"45":-0.1635228544473648,"46":0.18480725586414337,"47":-0.9563146829605103,"48":0.15816481411457062,"49":-0.3862611651420593,"50":0.6308245062828064,"51":2.8058249950408936,"52":0.10313834995031357,"53":0.02467190846800804,"54":0.7833347916603088,"55":-0.5660905241966248,"56":0.005142720881849527,"57":0.29040855169296265,"58":0.9436162710189819,"59":-0.4321722388267517,"60":-0.3264903724193573,"61":0.8474075794219971,"62":1.1392450332641602,"63":0.23992496728897095,"64":1.487048625946045,"65":0.6158888339996338,"66":-0.3235720098018646,"67":1.2423598766326904,"68":1.3808749914169312,"69":-1.885199785232544,"70":0.1801668107509613,"71":0.35419467091560364,"72":-0.3908497095108032,"73":0.10255120694637299,"74":-0.5074986219406128,"75":0.9849039316177368,"76":-1.7230230569839478,"77":0.48383259773254395,"78":-2.668614625930786,"79":1.6488533020019531,"80":0.36903631687164307,"81":0.8753604888916016,"82":0.5931801199913025,"83":-0.04293951392173767,"84":-0.12443988025188446,"85":-0.23280785977840424,"86":-0.03257947415113449,"87":-0.07154874503612518,"88":-0.2845677435398102,"89":1.7769972085952759,"90":0.049548953771591187,"91":-1.379041314125061,"92":0.4002697765827179,"93":-3.094303846359253,"94":-0.47279295325279236,"95":1.9561693668365479,"96":0.6885799765586853,"97":0.7634152770042419,"98":-1.2768386602401733,"99":-1.7925349473953247,"100":-0.15609876811504364,"101":0.937906801700592,"102":0.27206942439079285,"103":0.3144454061985016,"104":1.400025725364685,"105":1.8340272903442383,"106":-0.28515541553497314,"107":-0.1414555311203003,"108":1.020880103111267,"109":2.0044944286346436,"110":0.17939236760139465,"111":0.11318106204271317,"112":1.1118024587631226,"113":-0.5041216015815735,"114":0.5961437821388245,"115":0.41450613737106323,"116":-2.7037525177001953,"117":-0.7392597198486328,"118":-1.1466106176376343,"119":-0.7835028171539307,"120":-0.092445969581604,"121":0.22138412296772003,"122":0.5058111548423767,"123":-2.2820608615875244,"124":-0.26275187730789185,"125":0.6523626446723938,"126":0.3764234483242035,"127":-0.24302241206169128,"128":-1.6847046613693237,"129":1.4246177673339844,"130":1.420032262802124,"131":0.488617479801178,"132":-0.5312154293060303,"133":1.0045456886291504,"134":2.7316384315490723,"135":0.8289617300033569,"136":-0.03200137987732887,"137":0.4839605987071991,"138":0.7497115135192871,"139":0.5751271843910217,"140":1.3734480142593384,"141":1.0609652996063232,"142":-0.5103144645690918,"143":-1.464084267616272,"144":-0.040308304131031036}},"6":{"bias":-1.5170081853866577,"weights":{"0":1.4971983432769775,"1":0.49154508113861084,"2":-1.1312536001205444,"3":0.645838737487793,"4":0.3739207088947296,"5":-0.2430056780576706,"6":0.2937225103378296,"7":2.0895283222198486,"8":0.21109077334403992,"9":-0.9888508915901184,"10":-0.8219234347343445,"11":-0.11669009178876877,"12":0.00801097135990858,"13":0.8209038376808167,"14":-0.5665018558502197,"15":-0.09799814224243164,"16":-2.005211114883423,"17":0.5948843359947205,"18":0.8105988502502441,"19":-0.39544039964675903,"20":1.3855631351470947,"21":0.3077352046966553,"22":-0.870061993598938,"23":-0.5429946780204773,"24":0.24751511216163635,"25":0.2583646774291992,"26":0.2623259127140045,"27":0.30356365442276,"28":-0.7338570356369019,"29":-0.8530906438827515,"30":-0.5932434797286987,"31":-0.2873455882072449,"32":-1.1165523529052734,"33":-0.5730870962142944,"34":-0.34771645069122314,"35":1.5592076778411865,"36":1.1664921045303345,"37":0.5437509417533875,"38":0.9556772708892822,"39":1.062040090560913,"40":0.1915622502565384,"41":-0.20474448800086975,"42":0.7872106432914734,"43":-0.15761901438236237,"44":0.0963335633277893,"45":-1.4860082864761353,"46":0.49808529019355774,"47":-1.5221978425979614,"48":-1.4355422258377075,"49":0.5068994760513306,"50":-0.9147471785545349,"51":1.790094256401062,"52":-0.500568687915802,"53":-0.31770044565200806,"54":-0.9050257205963135,"55":0.5416662096977234,"56":-0.7855163216590881,"57":-1.2301760911941528,"58":1.1656726598739624,"59":-1.463912844657898,"60":1.4214688539505005,"61":-0.3995187282562256,"62":0.7639451026916504,"63":-0.1946079283952713,"64":-0.8826890587806702,"65":-0.6234824061393738,"66":0.5310831665992737,"67":-0.00638433825224638,"68":0.1749109923839569,"69":-0.32181376218795776,"70":0.3999868333339691,"71":-1.2891912460327148,"72":-1.2887320518493652,"73":0.2012859582901001,"74":-0.344786673784256,"75":-0.36766865849494934,"76":-0.5361897349357605,"77":-0.25441646575927734,"78":-1.9494980573654175,"79":1.2614984512329102,"80":-0.37055185437202454,"81":-0.2838881015777588,"82":-0.7398583292961121,"83":-1.9816354513168335,"84":0.301049143075943,"85":-0.7219477295875549,"86":-0.24157415330410004,"87":-1.1921205520629883,"88":0.08637022972106934,"89":-1.8682273626327515,"90":0.3422781527042389,"91":0.0577913373708725,"92":-0.41574040055274963,"93":-0.4431985318660736,"94":1.3606911897659302,"95":0.9301377534866333,"96":-0.05752452462911606,"97":-1.0187045335769653,"98":-0.27987489104270935,"99":-0.6336796283721924,"100":-0.6453873515129089,"101":0.8445048332214355,"102":-2.302229881286621,"103":0.12963755428791046,"104":0.2195124626159668,"105":-0.5513632893562317,"106":-0.7812902927398682,"107":-1.5667893886566162,"108":-0.10646428912878036,"109":0.08938109874725342,"110":-0.6299759149551392,"111":-1.0741502046585083,"112":-1.0225611925125122,"113":0.642289936542511,"114":1.4994871616363525,"115":1.3624340295791626,"116":-1.5338380336761475,"117":-0.10764922946691513,"118":-2.645782470703125,"119":0.27666473388671875,"120":-1.8472217321395874,"121":-0.3961728811264038,"122":0.3251449763774872,"123":0.6246851682662964,"124":1.6297314167022705,"125":-0.7363125085830688,"126":-0.6903973817825317,"127":0.0304251778870821,"128":0.6033883094787598,"129":-1.4028387069702148,"130":0.06501073390245438,"131":0.16170790791511536,"132":0.1570730358362198,"133":0.8125818371772766,"134":0.8635933995246887,"135":-0.06414154917001724,"136":-1.853100299835205,"137":1.5423364639282227,"138":0.5136998891830444,"139":-0.12093555927276611,"140":0.49006223678588867,"141":-0.727949321269989,"142":0.8080190420150757,"143":1.9078606367111206,"144":-0.09000174701213837}},"7":{"bias":-0.5479572415351868,"weights":{"0":0.2846880853176117,"1":0.322957843542099,"2":0.02085091359913349,"3":-0.439391165971756,"4":-0.9911847114562988,"5":0.4382260739803314,"6":0.21054859459400177,"7":1.0517991781234741,"8":1.8959321975708008,"9":-0.4168150722980499,"10":-0.7086194157600403,"11":0.4378100335597992,"12":-0.5249281525611877,"13":-0.29635563492774963,"14":-0.22193381190299988,"15":-0.9907869696617126,"16":1.1275920867919922,"17":-0.20066693425178528,"18":-1.6077147722244263,"19":0.42749902606010437,"20":-2.302009105682373,"21":-0.3535885810852051,"22":0.7808225750923157,"23":0.2147737443447113,"24":0.6643487811088562,"25":-0.3528919219970703,"26":-1.0605231523513794,"27":1.3575260639190674,"28":-0.39732134342193604,"29":1.5242764949798584,"30":-0.3044256269931793,"31":-1.9811925888061523,"32":1.7125064134597778,"33":0.9218315482139587,"34":0.37587013840675354,"35":-1.1762455701828003,"36":2.211608648300171,"37":0.5352742075920105,"38":-0.13120360672473907,"39":-0.14956599473953247,"40":-0.15934282541275024,"41":-0.08894293755292892,"42":1.32417893409729,"43":-0.019383514299988747,"44":0.332894504070282,"45":0.42229434847831726,"46":0.16319526731967926,"47":0.32478928565979004,"48":-0.7519792914390564,"49":-1.2065579891204834,"50":1.5363833904266357,"51":-0.4781542122364044,"52":-0.9303044080734253,"53":-0.11402788758277893,"54":1.2605750560760498,"55":-0.9109303951263428,"56":0.7625569105148315,"57":-0.20560888946056366,"58":-0.40199851989746094,"59":0.7720119953155518,"60":-0.5968723297119141,"61":-0.856429398059845,"62":0.6704281568527222,"63":0.34002140164375305,"64":-0.4210839569568634,"65":0.960497260093689,"66":-0.24284207820892334,"67":0.3797990679740906,"68":0.5747528076171875,"69":-1.210488200187683,"70":-0.48287534713745117,"71":0.5644122362136841,"72":0.8930848836898804,"73":0.7924165725708008,"74":-0.3635074496269226,"75":0.22753699123859406,"76":-1.9272816181182861,"77":0.9930858016014099,"78":0.049468379467725754,"79":-1.5551621913909912,"80":-0.2557125687599182,"81":0.31643468141555786,"82":1.0731030702590942,"83":-0.033934999257326126,"84":-1.3128416538238525,"85":1.2383710145950317,"86":-0.6597678661346436,"87":1.9351115226745605,"88":1.2170671224594116,"89":0.13733725249767303,"90":-1.1097400188446045,"91":-0.828270673751831,"92":0.1529529094696045,"93":1.0598655939102173,"94":-0.2852204144001007,"95":-0.31375154852867126,"96":-0.3699222207069397,"97":-0.44114449620246887,"98":-0.851176381111145,"99":0.5289969444274902,"100":-1.2764102220535278,"101":-0.12432093173265457,"102":0.8403958082199097,"103":0.09112280607223511,"104":0.5210760831832886,"105":0.8130657076835632,"106":0.7627575397491455,"107":-0.3020310699939728,"108":0.7331644892692566,"109":-0.31255850195884705,"110":-0.18029430508613586,"111":0.6856990456581116,"112":0.823047935962677,"113":-1.3247270584106445,"114":0.46575403213500977,"115":0.7059919834136963,"116":0.35836541652679443,"117":-0.08628611266613007,"118":-0.8818995952606201,"119":-0.514037013053894,"120":1.4474636316299438,"121":0.20001061260700226,"122":0.1970992386341095,"123":0.07929274439811707,"124":-0.160130113363266,"125":1.118574857711792,"126":1.8669121265411377,"127":-1.8236998319625854,"128":-0.2494441568851471,"129":0.15315979719161987,"130":-0.35033470392227173,"131":-0.7333999872207642,"132":0.8561750054359436,"133":1.300241470336914,"134":1.3393954038619995,"135":0.32698047161102295,"136":-0.8802310228347778,"137":-0.469392329454422,"138":-0.3814164102077484,"139":-0.5553603768348694,"140":-0.019831251353025436,"141":0.9570711851119995,"142":-0.8878108859062195,"143":1.1541227102279663,"144":0.07966531813144684}}},{"0":{"bias":-0.5278595089912415,"weights":{"0":0.006551021244376898,"1":-0.0069797951728105545,"2":-0.755600094795227,"3":-0.39696037769317627,"4":0.42526891827583313,"5":-1.0691533088684082,"6":0.5267173051834106,"7":-0.5561195611953735}},"1":{"bias":0.5256540179252625,"weights":{"0":-1.1624903678894043,"1":0.4731461703777313,"2":0.45150741934776306,"3":-0.3408580422401428,"4":0.013587983325123787,"5":0.22455213963985443,"6":-0.19176602363586426,"7":-0.20542766153812408}},"2":{"bias":2.0081241130828857,"weights":{"0":4.338716983795166,"1":6.963287830352783,"2":-5.743854522705078,"3":-7.019035816192627,"4":6.908022403717041,"5":-7.295444488525391,"6":6.278724670410156,"7":7.0835394859313965}},"3":{"bias":-0.10826949775218964,"weights":{"0":0.046408094465732574,"1":0.3564458191394806,"2":-2.0201077461242676,"3":-1.3883291482925415,"4":1.0282111167907715,"5":-1.4362634420394897,"6":0.16839104890823364,"7":-0.4723169207572937}},"4":{"bias":0.34467676281929016,"weights":{"0":1.8818258047103882,"1":0.06807241588830948,"2":0.6527611017227173,"3":-0.4802437424659729,"4":-0.10185077041387558,"5":0.6715642213821411,"6":0.8005863428115845,"7":1.212400197982788}},"5":{"bias":-0.23398172855377197,"weights":{"0":-0.8518864512443542,"1":-0.4983533024787903,"2":-0.187088280916214,"3":-0.806861162185669,"4":0.8282479643821716,"5":-0.7534868121147156,"6":0.2108953297138214,"7":-0.6216299533843994}},"6":{"bias":1.4605385065078735,"weights":{"0":1.7861818075180054,"1":4.196566104888916,"2":-1.5425198078155518,"3":-3.1979920864105225,"4":3.06363844871521,"5":-2.358159065246582,"6":2.595614194869995,"7":2.589606285095215}},"7":{"bias":-0.4195592403411865,"weights":{"0":-0.14190800487995148,"1":0.021122267469763756,"2":-1.1719125509262085,"3":-0.31118878722190857,"4":0.06582485884428024,"5":-0.7448021173477173,"6":-0.0035870145075023174,"7":0.021696442738175392}}},{"0":{"bias":4.183628082275391,"weights":{"0":0.6152896881103516,"1":1.4451172351837158,"2":-8.180536270141602,"3":1.7434076070785522,"4":2.8299758434295654,"5":1.2782403230667114,"6":-1.6807482242584229,"7":0.3632288873195648}}}],"outputLookup":false,"inputLookup":false,"activation":"sigmoid","trainOpts":{"iterations":20000,"errorThresh":0.003,"log":true,"logPeriod":10,"learningRate":0.05,"momentum":0.1,"callbackPeriod":10,"beta1":0.9,"beta2":0.999,"epsilon":1e-8}}