{"sizes":[145,8,8,1],"layers":[{"0":{},"1":{},"2":{},"3":{},"4":{},"5":{},"6":{},"7":{},"8":{},"9":{},"10":{},"11":{},"12":{},"13":{},"14":{},"15":{},"16":{},"17":{},"18":{},"19":{},"20":{},"21":{},"22":{},"23":{},"24":{},"25":{},"26":{},"27":{},"28":{},"29":{},"30":{},"31":{},"32":{},"33":{},"34":{},"35":{},"36":{},"37":{},"38":{},"39":{},"40":{},"41":{},"42":{},"43":{},"44":{},"45":{},"46":{},"47":{},"48":{},"49":{},"50":{},"51":{},"52":{},"53":{},"54":{},"55":{},"56":{},"57":{},"58":{},"59":{},"60":{},"61":{},"62":{},"63":{},"64":{},"65":{},"66":{},"67":{},"68":{},"69":{},"70":{},"71":{},"72":{},"73":{},"74":{},"75":{},"76":{},"77":{},"78":{},"79":{},"80":{},"81":{},"82":{},"83":{},"84":{},"85":{},"86":{},"87":{},"88":{},"89":{},"90":{},"91":{},"92":{},"93":{},"94":{},"95":{},"96":{},"97":{},"98":{},"99":{},"100":{},"101":{},"102":{},"103":{},"104":{},"105":{},"106":{},"107":{},"108":{},"109":{},"110":{},"111":{},"112":{},"113":{},"114":{},"115":{},"116":{},"117":{},"118":{},"119":{},"120":{},"121":{},"122":{},"123":{},"124":{},"125":{},"126":{},"127":{},"128":{},"129":{},"130":{},"131":{},"132":{},"133":{},"134":{},"135":{},"136":{},"137":{},"138":{},"139":{},"140":{},"141":{},"142":{},"143":{},"144":{}},{"0":{"bias":-0.6947841048240662,"weights":{"0":-0.9687569737434387,"1":-0.6080121994018555,"2":0.5645524263381958,"3":0.2509737014770508,"4":0.3470819294452667,"5":-0.0757264494895935,"6":-0.2980184555053711,"7":0.10310409218072891,"8":-0.05528711527585983,"9":1.2468273639678955,"10":0.030132802203297615,"11":-0.5167367458343506,"12":0.5953694581985474,"13":0.0004347174253780395,"14":-0.029247909784317017,"15":0.19789350032806396,"16":0.5283834338188171,"17":-0.13697296380996704,"18":0.1506892889738083,"19":0.47151169180870056,"20":-0.47621437907218933,"21":-1.8103841543197632,"22":2.2332348823547363,"23":-0.18838660418987274,"24":0.4388461709022522,"25":0.6221458911895752,"26":-0.1674191951751709,"27":-0.2352173775434494,"28":-0.1666070967912674,"29":-0.9626023173332214,"30":1.4773283004760742,"31":0.42919832468032837,"32":0.13784374296665192,"33":0.11043465882539749,"34":-0.03699871152639389,"35":-0.2863050103187561,"36":-0.8538408875465393,"37":0.6115708351135254,"38":-0.11886407434940338,"39":-0.05594300851225853,"40":-0.1943206489086151,"41":0.14469584822654724,"42":0.15415948629379272,"43":0.3215447664260864,"44":-0.07731692492961884,"45":-0.25092580914497375,"46":-0.32327768206596375,"47":-1.1031690835952759,"48":0.5225441455841064,"49":-1.0388896465301514,"50":0.03627392649650574,"51":-0.08805827796459198,"52":-0.05059077963232994,"53":0.01663472130894661,"54":0.2267269790172577,"55":0.007936335168778896,"56":0.7905417084693909,"57":0.49564605951309204,"58":-0.2836141586303711,"59":0.3749891221523285,"60":-0.22963152825832367,"61":-1.4382847547531128,"62":-0.11019596457481384,"63":0.08039918541908264,"64":-0.03270353004336357,"65":0.6482809782028198,"66":0.43493223190307617,"67":-0.22037430107593536,"68":0.034043874591588974,"69":0.023765578866004944,"70":0.7753979563713074,"71":-0.46961554884910583,"72":-0.09814421832561493,"73":-0.005834858864545822,"74":-0.38339054584503174,"75":-0.39215514063835144,"76":-0.3579999506473541,"77":0.6125094890594482,"78":0.7536832690238953,"79":-0.6810628175735474,"80":-0.07258788496255875,"81":0.07917892187833786,"82":0.06896094232797623,"83":-0.3117389976978302,"84":0.06950158625841141,"85":0.11744455248117447,"86":-0.641902506351471,"87":0.7333878874778748,"88":0.8766053915023804,"89":-0.06987951695919037,"90":-0.5911734104156494,"91":0.46888092160224915,"92":0.11507716774940491,"93":-0.7006678581237793,"94":-0.25246143341064453,"95":-0.4986799955368042,"96":-0.46940964460372925,"97":-0.6009089946746826,"98":0.30681854486465454,"99":1.8556207418441772,"100":0.37673935294151306,"101":-0.5317874550819397,"102":0.04217083379626274,"103":-0.04078200086951256,"104":-0.6324116587638855,"105":-0.26015186309814453,"106":0.39592617750167847,"107":-0.7914515137672424,"108":-0.24032051861286163,"109":-0.6299164295196533,"110":-0.13781818747520447,"111":-0.039446838200092316,"112":-0.2083720564842224,"113":-0.19310320913791656,"114":-0.41907334327697754,"115":0.2789643108844757,"116":-0.439557284116745,"117":-0.19608640670776367,"118":0.12814000248908997,"119":-0.25727391242980957,"120":0.152693971991539,"121":-0.15537016093730927,"122":-0.09911657869815826,"123":0.3021033704280853,"124":0.5063351392745972,"125":-0.2050025761127472,"126":-0.3667634129524231,"127":-0.05684014409780502,"128":-1.0144163370132446,"129":-0.09463849663734436,"130":-0.9513893127441406,"131":0.06303656101226807,"132":0.8857553005218506,"133":-0.5112424492835999,"134":-0.14553797245025635,"135":0.5475476980209351,"136":0.2948257029056549,"137":-0.9837254285812378,"138":0.15376703441143036,"139":-0.06108740344643593,"140":-0.10836581140756607,"141":-0.9308269619941711,"142":-0.21610385179519653,"143":0.6679611206054688,"144":-0.006766688544303179}},"1":{"bias":-0.29744693636894226,"weights":{"0":0.2890850603580475,"1":-0.14509136974811554,"2":1.5054988861083984,"3":-0.22848325967788696,"4":-1.1619899272918701,"5":-0.04053878039121628,"6":1.0031940937042236,"7":-0.9822590351104736,"8":1.318766713142395,"9":-0.8930612802505493,"10":0.5224238634109497,"11":0.2770161032676697,"12":-0.35652995109558105,"13":0.14202426373958588,"14":-0.05343903228640556,"15":0.45194000005722046,"16":0.031031571328639984,"17":0.6132984757423401,"18":-0.916610598564148,"19":-0.9491543173789978,"20":-1.1289986371994019,"21":-0.4385420083999634,"22":-1.1384985446929932,"23":0.12160538136959076,"24":-0.3856797516345978,"25":-1.0455458164215088,"26":-0.8219802975654602,"27":0.9925263524055481,"28":-0.271524578332901,"29":-0.0502791702747345,"30":0.9193372130393982,"31":0.4215468764305115,"32":1.5305722951889038,"33":0.29817554354667664,"34":-0.15598663687705994,"35":1.08472740650177,"36":-0.9269030094146729,"37":-0.5651182532310486,"38":-0.0033730592112988234,"39":1.068621039390564,"40":-0.30529168248176575,"41":-1.3362932205200195,"42":0.4957389831542969,"43":-0.14901040494441986,"44":0.4781736433506012,"45":-0.13643157482147217,"46":0.5502055287361145,"47":-0.4761059284210205,"48":-0.46701496839523315,"49":0.6995713710784912,"50":0.42665302753448486,"51":-1.6246167421340942,"52":0.7344687581062317,"53":0.5810840129852295,"54":-1.4468789100646973,"55":-0.5655348300933838,"56":-1.2494162321090698,"57":0.3689882457256317,"58":-0.20615161955356598,"59":0.94757479429245,"60":-0.7361803650856018,"61":2.0019705295562744,"62":-0.010665856301784515,"63":-0.06560148298740387,"64":0.8986864686012268,"65":1.013994812965393,"66":-0.6130335330963135,"67":-0.6275501847267151,"68":-0.3746146261692047,"69":0.01013973355293274,"70":-0.09193739295005798,"71":1.1416077613830566,"72":0.6872101426124573,"73":0.26922136545181274,"74":-0.4146226644515991,"75":0.5636856555938721,"76":0.9834303259849548,"77":0.03216907009482384,"78":0.38104328513145447,"79":-1.452284812927246,"80":-0.7290283441543579,"81":0.9317255020141602,"82":1.0294182300567627,"83":-0.9637361168861389,"84":-0.36480477452278137,"85":-0.598729133605957,"86":-1.496925950050354,"87":-1.3131821155548096,"88":0.42058265209198,"89":-0.419997900724411,"90":0.39992398023605347,"91":-0.5904188752174377,"92":0.05493743717670441,"93":-0.46859803795814514,"94":-0.15777353942394257,"95":0.8904536366462708,"96":0.8460221886634827,"97":0.9702281355857849,"98":-0.05268728360533714,"99":0.9012429118156433,"100":-0.14629842340946198,"101":0.023061878979206085,"102":0.377413272857666,"103":0.15513572096824646,"104":0.0919845700263977,"105":-0.9306542277336121,"106":-0.46688446402549744,"107":-0.4101414978504181,"108":-0.5466151833534241,"109":1.0925495624542236,"110":-0.6317191123962402,"111":-0.017317116260528564,"112":0.7645070552825928,"113":-0.25264912843704224,"114":-0.14989417791366577,"115":0.3231361508369446,"116":1.6657631397247314,"117":-0.42373865842819214,"118":-0.23525170981884003,"119":0.07302886992692947,"120":-0.41971680521965027,"121":0.03282537683844566,"122":0.3670934736728668,"123":-1.900815725326538,"124":0.06359214335680008,"125":-1.2548894882202148,"126":-1.2065787315368652,"127":-0.7915316224098206,"128":0.25966954231262207,"129":-0.2750535309314728,"130":-0.04124119132757187,"131":0.10310081392526627,"132":-0.13008195161819458,"133":0.1672627329826355,"134":-0.8008515238761902,"135":-0.6394137740135193,"136":1.085480809211731,"137":0.9294410943984985,"138":-1.0702043771743774,"139":-0.35191109776496887,"140":-0.4197705388069153,"141":0.27433347702026367,"142":0.04868650808930397,"143":0.8636232614517212,"144":-1.0773297548294067}},"2":{"bias":1.0213035345077515,"weights":{"0":0.2033664733171463,"1":-0.47527968883514404,"2":-1.0313366651535034,"3":0.627050518989563,"4":0.38538989424705505,"5":-0.1871102750301361,"6":-0.1262616068124771,"7":0.07438977062702179,"8":-0.5152750611305237,"9":-0.6045187711715698,"10":-0.5516828894615173,"11":0.4967070519924164,"12":-1.2951639890670776,"13":0.09558986872434616,"14":0.1975119560956955,"15":0.42625585198402405,"16":-0.8161110877990723,"17":-0.5009663701057434,"18":0.29924407601356506,"19":0.5623173713684082,"20":-0.46596336364746094,"21":0.36709219217300415,"22":-0.7308140397071838,"23":0.2685600221157074,"24":0.1401769071817398,"25":0.9938290119171143,"26":-0.24851010739803314,"27":-0.5889723300933838,"28":-0.0786144882440567,"29":0.05513665825128555,"30":-1.9963096380233765,"31":1.214812994003296,"32":-1.4616516828536987,"33":0.3222931921482086,"34":-0.07298990339040756,"35":0.04805663600564003,"36":-0.5866747498512268,"37":-1.084640383720398,"38":0.468885213136673,"39":0.7714688181877136,"40":-0.7981853485107422,"41":0.43375396728515625,"42":0.14361925423145294,"43":0.8323096036911011,"44":0.27360233664512634,"45":0.13360494375228882,"46":-0.7950616478919983,"47":-0.23228460550308228,"48":0.8113569617271423,"49":-1.1867972612380981,"50":-2.0413742065429688,"51":-0.31117621064186096,"52":0.7670255899429321,"53":0.5551615953445435,"54":-0.11970742046833038,"55":-0.05019078031182289,"56":1.1481561660766602,"57":-0.09305448830127716,"58":-0.8035914301872253,"59":0.04529224708676338,"60":-0.9092167615890503,"61":-1.0873103141784668,"62":-0.16143274307250977,"63":-0.2574574947357178,"64":0.11750155687332153,"65":-0.04899391904473305,"66":0.17203356325626373,"67":-0.046233806759119034,"68":0.26904597878456116,"69":1.2811837196350098,"70":-0.12183315306901932,"71":0.3372828960418701,"72":0.5299416780471802,"73":-0.11065076291561127,"74":0.25541675090789795,"75":-0.7229506969451904,"76":0.348204642534256,"77":-0.38168078660964966,"78":2.1220550537109375,"79":0.8039416074752808,"80":-0.5738335251808167,"81":-0.5832392573356628,"82":-1.4783440828323364,"83":-0.07944303750991821,"84":-0.4271860122680664,"85":1.24427330493927,"86":0.783675491809845,"87":-1.2292722463607788,"88":0.08210823684930801,"89":-1.4193729162216187,"90":-1.6776986122131348,"91":-0.0014942584093660116,"92":-0.16384261846542358,"93":-1.0746784210205078,"94":-1.202315330505371,"95":-0.6610713601112366,"96":-0.254801869392395,"97":0.028940074145793915,"98":1.0470101833343506,"99":-0.2977500855922699,"100":-0.7199238538742065,"101":-0.1647290140390396,"102":0.6288868188858032,"103":-0.38081255555152893,"104":-0.9352632761001587,"105":-1.0897244215011597,"106":-0.9810916185379028,"107":0.1285131424665451,"108":0.17475908994674683,"109":-0.6070718169212341,"110":-0.32677337527275085,"111":-1.0029197931289673,"112":0.21883216500282288,"113":-0.010901995934545994,"114":-0.1537504643201828,"115":-0.9042584896087646,"116":0.4597166180610657,"117":1.4798182249069214,"118":-0.3275538384914398,"119":0.8166813254356384,"120":0.4992808699607849,"121":0.0934857428073883,"122":0.15837650001049042,"123":-0.012189997360110283,"124":0.39566725492477417,"125":-0.8829883337020874,"126":-0.8634936809539795,"127":-0.10476759821176529,"128":1.5297586917877197,"129":0.7578535676002502,"130":-0.3276558220386505,"131":0.2633402943611145,"132":0.3502819538116455,"133":-0.9311380386352539,"134":0.6129692196846008,"135":-0.5194632411003113,"136":1.1578054428100586,"137":-2.0765063762664795,"138":-1.1155414581298828,"139":0.472845196723938,"140":-0.26608702540397644,"141":-1.0003395080566406,"142":-0.2233569622039795,"143":-0.1512935608625412,"144":-0.33835962414741516}},"3":{"bias":0.2209220826625824,"weights":{"0":0.4935295283794403,"1":0.20337249338626862,"2":-0.08290112763643265,"3":0.0331660695374012,"4":-0.2632138431072235,"5":0.06292558461427689,"6":-0.01991298794746399,"7":-0.5032469034194946,"8":-1.3070876598358154,"9":-0.6914241909980774,"10":-0.7780515551567078,"11":0.12981614470481873,"12":-0.7791633605957031,"13":0.4684769809246063,"14":0.561522364616394,"15":-0.3671085834503174,"16":-0.3811003267765045,"17":-0.7414829134941101,"18":-0.6165211200714111,"19":0.22297893464565277,"20":-0.21155501902103424,"21":-1.1149375438690186,"22":-0.5352740287780762,"23":0.3171016573905945,"24":-0.4535652697086334,"25":-1.0746511220932007,"26":0.24238479137420654,"27":1.396941065788269,"28":0.7623031139373779,"29":0.2824265658855438,"30":-0.023540498688817024,"31":-0.4123349189758301,"32":1.1930724382400513,"33":0.4730239808559418,"34":-0.22776168584823608,"35":-0.3704080581665039,"36":0.4846794605255127,"37":-0.8574054837226868,"38":0.12909112870693207,"39":-0.6762491464614868,"40":-0.7464102506637573,"41":-0.9142493009567261,"42":0.18171760439872742,"43":-0.4258759617805481,"44":-0.2257288694381714,"45":0.18459808826446533,"46":-0.44405439496040344,"47":-0.07836663722991943,"48":0.28635022044181824,"49":-0.788360059261322,"50":-0.12739862501621246,"51":0.4937296211719513,"52":-0.01615958660840988,"53":-0.11072017252445221,"54":-0.19085268676280975,"55":0.05779707804322243,"56":-0.07582718133926392,"57":0.27017277479171753,"58":-0.5346099734306335,"59":1.1047534942626953,"60":-1.0107258558273315,"61":0.12473130226135254,"62":0.15525127947330475,"63":-0.07735557109117508,"64":-0.28848692774772644,"65":-1.035958170890808,"66":-0.7230956554412842,"67":-0.4949134588241577,"68":-0.683749794960022,"69":1.7640321254730225,"70":1.1215194463729858,"71":0.10232114791870117,"72":-0.416096955537796,"73":0.029233140870928764,"74":-0.2106771320104599,"75":-0.33113211393356323,"76":0.10032743215560913,"77":0.3474738597869873,"78":1.170647144317627,"79":0.4605444073677063,"80":-0.8386978507041931,"81":0.06688930094242096,"82":-0.02049827389419079,"83":0.10638060420751572,"84":-0.015068507753312588,"85":1.359818458557129,"86":-0.6115613579750061,"87":-0.491333931684494,"88":-0.4021322429180145,"89":0.07981926947832108,"90":-0.9164549112319946,"91":0.27488988637924194,"92":-0.037499766796827316,"93":0.7354807257652283,"94":-0.3374626934528351,"95":-0.4131421446800232,"96":0.21643677353858948,"97":0.47645318508148193,"98":2.0539114475250244,"99":-0.13497895002365112,"100":0.13826178014278412,"101":0.07724647223949432,"102":-0.03820643573999405,"103":0.200077623128891,"104":0.0774107277393341,"105":0.26240697503089905,"106":0.6570435166358948,"107":-1.387294888496399,"108":2.4732022285461426,"109":0.12021356076002121,"110":0.5388640761375427,"111":0.5925696492195129,"112":-0.6403527855873108,"113":0.05174896493554115,"114":-1.8519748449325562,"115":0.25675493478775024,"116":-0.0366833433508873,"117":-1.399196743965149,"118":1.3937820196151733,"119":0.853940486907959,"120":1.0312509536743164,"121":-0.25485965609550476,"122":-0.4659137427806854,"123":1.2858749628067017,"124":-1.434221625328064,"125":1.0179197788238525,"126":-0.1004297137260437,"127":-0.4577447474002838,"128":0.3156089186668396,"129":0.45639511942863464,"130":-0.14353549480438232,"131":-0.26620209217071533,"132":-0.12325301766395569,"133":-0.28573697805404663,"134":0.8973292708396912,"135":0.8312828540802002,"136":1.1937333345413208,"137":-1.048970103263855,"138":0.5678712129592896,"139":0.292880117893219,"140":0.0979699119925499,"141":0.23393993079662323,"142":0.02302941493690014,"143":-0.5828754305839539,"144":0.26617270708084106}},"4":{"bias":-0.19605210423469543,"weights":{"0":1.0867785215377808,"1":-0.8157280087471008,"2":-0.5746841430664062,"3":0.13502907752990723,"4":-0.15869350731372833,"5":0.02809995599091053,"6":0.36269882321357727,"7":0.7060205936431885,"8":-0.07616409659385681,"9":-0.44142138957977295,"10":-1.1763646602630615,"11":-0.06173645704984665,"12":1.2480641603469849,"13":0.1767786145210266,"14":0.7623387575149536,"15":0.2845134735107422,"16":0.8609763383865356,"17":-0.06743749976158142,"18":0.2093878835439682,"19":-0.415741890668869,"20":0.7340455055236816,"21":0.2162034660577774,"22":-0.20039494335651398,"23":-0.7206447720527649,"24":-0.7280282974243164,"25":-0.14390142261981964,"26":0.5811261534690857,"27":0.5863592028617859,"28":1.5239665508270264,"29":0.6823999285697937,"30":-0.32151082158088684,"31":-0.5446693301200867,"32":-0.7937343716621399,"33":-0.1495191901922226,"34":0.061676979064941406,"35":0.16452090442180634,"36":1.4186019897460938,"37":-0.7694693803787231,"38":-0.09901993721723557,"39":0.3578304946422577,"40":-0.23150159418582916,"41":-0.7803293466567993,"42":0.28091371059417725,"43":-0.030664479359984398,"44":-0.013159780763089657,"45":-0.2369614839553833,"46":-0.09632381796836853,"47":-0.8298432230949402,"48":-0.40243351459503174,"49":-1.4223567247390747,"50":0.3246420919895172,"51":0.1334182173013687,"52":0.10333791375160217,"53":0.6732192635536194,"54":0.45820996165275574,"55":0.5749399662017822,"56":-1.018778920173645,"57":0.9716572165489197,"58":1.0297197103500366,"59":0.03578529879450798,"60":-0.2741851806640625,"61":0.1125485897064209,"62":0.5659114122390747,"63":0.1620102971792221,"64":0.5997148752212524,"65":-0.008706959895789623,"66":0.29868853092193604,"67":0.4876658320426941,"68":0.38236865401268005,"69":-0.8546408414840698,"70":-0.0927705392241478,"71":0.09052415192127228,"72":-0.049784667789936066,"73":0.1803467869758606,"74":0.42352965474128723,"75":-0.18023067712783813,"76":0.13928204774856567,"77":0.2342834770679474,"78":-0.36045318841934204,"79":1.2304909229278564,"80":0.40743085741996765,"81":0.6748977303504944,"82":1.3940017223358154,"83":0.23897947371006012,"84":0.925612211227417,"85":-0.9911267757415771,"86":0.04200331121683121,"87":0.34853655099868774,"88":0.5377052426338196,"89":-0.025204000994563103,"90":-0.29794037342071533,"91":-0.24381422996520996,"92":0.33941027522087097,"93":-0.6443374156951904,"94":0.8878170847892761,"95":1.9594298601150513,"96":0.49305614829063416,"97":-0.2745897173881531,"98":0.6144244074821472,"99":-0.6142922639846802,"100":-0.33383724093437195,"101":-0.4250484108924866,"102":0.13390223681926727,"103":0.28369367122650146,"104":-0.45940765738487244,"105":-1.259169340133667,"106":0.04532136023044586,"107":-0.04652727395296097,"108":1.3464828729629517,"109":0.7810356020927429,"110":-0.14038069546222687,"111":0.2560572028160095,"112":0.5172827839851379,"113":0.778902530670166,"114":-0.6242981553077698,"115":-0.17942683398723602,"116":0.26342880725860596,"117":-1.0259557962417603,"118":-0.5003015398979187,"119":0.1872512251138687,"120":0.12681952118873596,"121":0.17759017646312714,"122":-0.10917855054140091,"123":0.7784993052482605,"124":1.076948881149292,"125":0.3778274357318878,"126":0.6810874938964844,"127":-0.410580575466156,"128":-0.42994949221611023,"129":0.8587809801101685,"130":0.5631635785102844,"131":0.0894349068403244,"132":-0.04589236527681351,"133":0.020635297521948814,"134":-0.08411180973052979,"135":-0.27774420380592346,"136":-0.08296148478984833,"137":-0.025183117017149925,"138":0.5794981122016907,"139":-0.3058788478374481,"140":-0.06174303591251373,"141":0.24005168676376343,"142":0.7498677372932434,"143":-1.1456495523452759,"144":-0.33768901228904724}},"5":{"bias":-1.951030969619751,"weights":{"0":-0.3848568797111511,"1":-0.4396294951438904,"2":-0.1124606654047966,"3":-0.1562124490737915,"4":-0.7483541369438171,"5":-0.07436145097017288,"6":-0.47846782207489014,"7":-1.3622928857803345,"8":-0.823782205581665,"9":0.4970185160636902,"10":1.440065622329712,"11":0.33180537819862366,"12":0.6143025755882263,"13":-0.40238404273986816,"14":-0.4244684875011444,"15":0.02996985614299774,"16":-0.3529641032218933,"17":0.010183227248489857,"18":-0.3862987160682678,"19":-0.4687318205833435,"20":1.856250286102295,"21":-0.07572963088750839,"22":0.023614974692463875,"23":-0.7644604444503784,"24":0.3016873896121979,"25":0.32563480734825134,"26":0.23917840421199799,"27":0.06983544677495956,"28":0.3070732057094574,"29":-0.19754360616207123,"30":-0.970337450504303,"31":0.7149034142494202,"32":0.6869727969169617,"33":0.24420304596424103,"34":-0.12913581728935242,"35":0.21900533139705658,"36":0.46257585287094116,"37":0.6541966199874878,"38":0.15954382717609406,"39":0.6173419952392578,"40":-1.238215446472168,"41":-0.5254125595092773,"42":-0.41092050075531006,"43":0.03179050236940384,"44":-0.40639442205429077,"45":-0.31135329604148865,"46":0.1185244619846344,"47":-0.3097199499607086,"48":-0.005949873477220535,"49":0.692492663860321,"50":-0.359758198261261,"51":-0.7205073833465576,"52":-0.595965564250946,"53":0.4407689571380615,"54":-0.5599768757820129,"55":0.5433971881866455,"56":-0.26603367924690247,"57":0.8152066469192505,"58":0.2412845641374588,"59":0.9571742415428162,"60":0.3045734167098999,"61":0.5087754726409912,"62":0.5835586786270142,"63":-0.04538511112332344,"64":-0.3364483714103699,"65":1.367591381072998,"66":-0.3748413622379303,"67":0.12455888092517853,"68":-0.3083195686340332,"69":0.039748553186655045,"70":0.27610671520233154,"71":0.6962835192680359,"72":0.312483012676239,"73":0.015005229040980339,"74":-0.4083074927330017,"75":0.07148635387420654,"76":-1.1460747718811035,"77":0.605974018573761,"78":0.713975727558136,"79":1.6004074811935425,"80":0.019834473729133606,"81":-0.604301929473877,"82":0.5416132807731628,"83":0.00898200273513794,"84":0.33278051018714905,"85":0.13479499518871307,"86":-0.0004320124862715602,"87":0.01886119320988655,"88":-0.3807435631752014,"89":-0.200227752327919,"90":-1.1748385429382324,"91":-1.218864917755127,"92":-0.3663015067577362,"93":0.25408118963241577,"94":-0.26752129197120667,"95":0.516954243183136,"96":-0.06036004796624184,"97":0.6219276785850525,"98":-0.22102069854736328,"99":0.4952588379383087,"100":-0.7467900514602661,"101":0.7186092138290405,"102":-0.07911059260368347,"103":-0.12760208547115326,"104":0.06761524826288223,"105":-0.08082594722509384,"106":0.12264588475227356,"107":-1.2532095909118652,"108":-0.12940596044063568,"109":-0.31995177268981934,"110":-1.4799473285675049,"111":0.42956796288490295,"112":1.535882592201233,"113":0.24492135643959045,"114":-0.12307202816009521,"115":-0.2204407900571823,"116":0.09413470327854156,"117":0.7418168783187866,"118":0.7527176737785339,"119":-0.15822739899158478,"120":-1.3737517595291138,"121":-0.17805546522140503,"122":-0.08803988248109818,"123":-1.0238474607467651,"124":-0.2240079790353775,"125":-0.913740873336792,"126":0.8924941420555115,"127":1.7127066850662231,"128":-1.867144227027893,"129":0.36193403601646423,"130":-0.045059721916913986,"131":0.29433053731918335,"132":-0.7533147931098938,"133":-0.0034919471945613623,"134":0.5597314238548279,"135":0.18443751335144043,"136":-0.5560585856437683,"137":-0.811492383480072,"138":-1.2780627012252808,"139":-1.0336830615997314,"140":0.8361597657203674,"141":1.9507664442062378,"142":0.15213945508003235,"143":0.5242749452590942,"144":-0.11481062322854996}},"6":{"bias":-0.36117640137672424,"weights":{"0":0.4242532253265381,"1":1.5705348253250122,"2":-1.5888807773590088,"3":-0.5992026329040527,"4":-0.6765122413635254,"5":0.4037940502166748,"6":0.1787102222442627,"7":-0.23312045633792877,"8":0.0038716199342161417,"9":-0.7688844203948975,"10":-0.233486607670784,"11":0.30175358057022095,"12":-0.5281490087509155,"13":-0.284647136926651,"14":-0.04566831514239311,"15":-0.4466341435909271,"16":0.21838247776031494,"17":0.05539301410317421,"18":0.24648065865039825,"19":1.0406461954116821,"20":0.3530328869819641,"21":1.081878662109375,"22":-1.038524866104126,"23":0.043092045933008194,"24":0.2103319764137268,"25":-0.5878393650054932,"26":-0.8250741958618164,"27":0.8841709494590759,"28":0.2535427212715149,"29":0.28282591700553894,"30":-0.8829134702682495,"31":-0.6080616116523743,"32":1.059248447418213,"33":-0.08857977390289307,"34":0.24608373641967773,"35":0.11537870764732361,"36":0.7075077295303345,"37":-0.48471689224243164,"38":0.668367326259613,"39":-0.05766239017248154,"40":-0.2784057855606079,"41":0.038194023072719574,"42":0.43937432765960693,"43":-0.7963605523109436,"44":0.18308673799037933,"45":0.33065852522850037,"46":-0.14180342853069305,"47":0.37219399213790894,"48":1.0962111949920654,"49":0.9358192682266235,"50":1.878029465675354,"51":1.3558926582336426,"52":0.287632554769516,"53":0.503244936466217,"54":-0.5667787194252014,"55":-0.9713909029960632,"56":0.02315029874444008,"57":-1.6464086771011353,"58":0.8930076360702515,"59":0.051723919808864594,"60":-0.6435520648956299,"61":0.8629499077796936,"62":-0.2773727476596832,"63":0.2193644642829895,"64":0.7751107215881348,"65":0.7100695371627808,"66":0.0856703370809555,"67":-0.5046743154525757,"68":0.27848878502845764,"69":-0.7323319315910339,"70":1.078112244606018,"71":0.8877503871917725,"72":0.6914847493171692,"73":0.1617773473262787,"74":-0.4371584355831146,"75":-0.13388971984386444,"76":-0.21616171300411224,"77":0.8398928046226501,"78":-1.0120701789855957,"79":0.7179917693138123,"80":-0.7500016689300537,"81":-0.05907044932246208,"82":0.10440897196531296,"83":0.3911374807357788,"84":-0.8601961731910706,"85":0.4102620482444763,"86":0.3636450171470642,"87":0.9923218488693237,"88":-0.6519461870193481,"89":-1.3710905313491821,"90":0.12552358210086823,"91":1.1108192205429077,"92":0.36177971959114075,"93":-0.4716968238353729,"94":0.2384103238582611,"95":-0.18485137820243835,"96":0.04634152725338936,"97":0.8310295343399048,"98":-1.6426935195922852,"99":-0.644278883934021,"100":-0.08554530143737793,"101":0.20742981135845184,"102":0.28436926007270813,"103":0.004049674142152071,"104":0.021515537053346634,"105":2.263291835784912,"106":0.909542441368103,"107":-0.7382121086120605,"108":0.09130293130874634,"109":-1.3120391368865967,"110":-0.300846129655838,"111":0.22265580296516418,"112":0.5468613505363464,"113":-0.969548225402832,"114":0.7317708730697632,"115":0.5624908208847046,"116":-0.8421690464019775,"117":0.04368273913860321,"118":-0.09533510357141495,"119":-0.6528550982475281,"120":1.2683207988739014,"121":0.4108342230319977,"122":-0.21465541422367096,"123":-0.057428136467933655,"124":0.8444787859916687,"125":0.5970739722251892,"126":0.4520319998264313,"127":-1.1097739934921265,"128":-1.5137031078338623,"129":-0.4336913228034973,"130":-0.7163334488868713,"131":0.5039466023445129,"132":-0.23298242688179016,"133":0.10173869878053665,"134":0.8515158891677856,"135":0.7258594036102295,"136":-0.02355235628783703,"137":-0.17739801108837128,"138":0.22372300922870636,"139":-0.37229490280151367,"140":0.5783239006996155,"141":1.2252017259597778,"142":-0.67173171043396,"143":0.2407156229019165,"144":1.5921765565872192}},"7":{"bias":0.8792434930801392,"weights":{"0":-0.93818199634552,"1":-0.6759181618690491,"2":0.25736862421035767,"3":0.17742060124874115,"4":-0.599519670009613,"5":0.5473768711090088,"6":-0.28774988651275635,"7":0.6679146885871887,"8":-0.845709502696991,"9":-0.16991519927978516,"10":-0.2534356117248535,"11":0.14916016161441803,"12":0.15723253786563873,"13":0.23211751878261566,"14":0.005060597322881222,"15":-0.29869335889816284,"16":0.9002813100814819,"17":-0.4194693863391876,"18":-0.5138125419616699,"19":0.5252009034156799,"20":-0.07169698178768158,"21":0.3432011604309082,"22":0.15092460811138153,"23":0.7078489661216736,"24":0.3188786506652832,"25":-0.10710793733596802,"26":-0.22653014957904816,"27":-0.12043508142232895,"28":0.2023693025112152,"29":0.5408840179443359,"30":0.14424355328083038,"31":0.7763057947158813,"32":-0.9302268624305725,"33":-0.19719353318214417,"34":0.3871042728424072,"35":-0.22296448051929474,"36":-0.9967588186264038,"37":0.28582763671875,"38":-0.46366873383522034,"39":-0.06715020537376404,"40":-0.025834744796156883,"41":-0.2896921634674072,"42":-0.264882892370224,"43":0.38517412543296814,"44":-0.28812506794929504,"45":0.6998015642166138,"46":-0.45186686515808105,"47":-0.789660632610321,"48":0.06451793760061264,"49":-1.2201992273330688,"50":0.9191081523895264,"51":-0.2980484962463379,"52":-0.18864765763282776,"53":-0.459609717130661,"54":0.6708893775939941,"55":-0.391458660364151,"56":-0.6264503002166748,"57":-0.6210378408432007,"58":0.5235551595687866,"59":0.3588181436061859,"60":0.8940505981445312,"61":0.16757309436798096,"62":-0.2970985770225525,"63":0.4457012116909027,"64":-0.7522960305213928,"65":-0.4246930480003357,"66":0.186078742146492,"67":-0.9338247179985046,"68":-0.0463067963719368,"69":-0.7481908798217773,"70":0.7149003148078918,"71":0.19305269420146942,"72":-0.06042731553316116,"73":-0.2745921313762665,"74":0.38795235753059387,"75":-0.29199573397636414,"76":0.9304450750350952,"77":0.49580591917037964,"78":0.2615531384944916,"79":0.8286367654800415,"80":-1.6576664447784424,"81":1.006557583808899,"82":0.026620302349328995,"83":-1.5035737752914429,"84":-0.48732656240463257,"85":-1.5059455633163452,"86":-0.05092326179146767,"87":-1.072464108467102,"88":1.1608092784881592,"89":-0.29645901918411255,"90":-0.598884105682373,"91":-0.9345468282699585,"92":0.5801421403884888,"93":1.060613989830017,"94":-0.6809917092323303,"95":0.12578433752059937,"96":0.715273380279541,"97":0.5877264142036438,"98":-1.1895092725753784,"99":0.23714575171470642,"100":-0.30571848154067993,"101":-0.23287934064865112,"102":-0.2702203094959259,"103":0.22312261164188385,"104":0.3688914477825165,"105":-0.5785056948661804,"106":0.8775671124458313,"107":-0.05876341462135315,"108":-0.8528077006340027,"109":1.8644217252731323,"110":0.304351270198822,"111":0.16472278535366058,"112":0.2731928825378418,"113":-0.39621978998184204,"114":0.3429819941520691,"115":-0.010730030946433544,"116":-0.1623436063528061,"117":0.13157019019126892,"118":0.23501259088516235,"119":-0.7378264665603638,"120":-0.16147096455097198,"121":0.3788439631462097,"122":-0.031401392072439194,"123":-0.7817705869674683,"124":-0.5290737748146057,"125":0.18409116566181183,"126":-0.8833426833152771,"127":-2.0782523155212402,"128":0.3899281322956085,"129":1.1308832168579102,"130":-0.36238014698028564,"131":-0.6187916994094849,"132":0.4590207636356354,"133":0.06591787934303284,"134":0.1849525421857834,"135":1.1423908472061157,"136":1.076010823249817,"137":-1.316510796546936,"138":1.0381779670715332,"139":0.8493324518203735,"140":0.04045388847589493,"141":-1.271402359008789,"142":-0.2571386992931366,"143":-0.019382011145353317,"144":-0.31707051396369934}}},{"0":{"bias":-0.3852290213108063,"weights":{"0":0.47472527623176575,"1":-0.05254420265555382,"2":0.6276847124099731,"3":-0.3568405210971832,"4":0.5439079403877258,"5":-0.5991436243057251,"6":0.09890158474445343,"7":-0.7608973979949951}},"1":{"bias":2.0072052478790283,"weights":{"0":4.79191780090332,"1":4.73885440826416,"2":5.327960968017578,"3":-4.683424472808838,"4":5.000658988952637,"5":-6.411986351013184,"6":5.8483428955078125,"7":-5.013507843017578}},"2":{"bias":0.13077589869499207,"weights":{"0":0.685462474822998,"1":-0.010079782456159592,"2":1.2705798149108887,"3":-0.5603695511817932,"4":0.9538693428039551,"5":-0.8819295167922974,"6":0.7356655597686768,"7":-0.057378802448511124}},"3":{"bias":-0.23375204205513,"weights":{"0":-0.13964532315731049,"1":0.2450116127729416,"2":-0.061481744050979614,"3":-0.14879749715328217,"4":0.17242634296417236,"5":0.12635083496570587,"6":-0.20772239565849304,"7":-1.3500022888183594}},"4":{"bias":0.4863325357437134,"weights":{"0":0.20496614277362823,"1":0.8515755534172058,"2":0.2220178097486496,"3":-0.022242292761802673,"4":0.404664009809494,"5":0.2939123809337616,"6":0.939181923866272,"7":0.27932482957839966}},"5":{"bias":-0.3495886027812958,"weights":{"0":0.6527471542358398,"1":0.021948881447315216,"2":0.6139634847640991,"3":-0.36590901017189026,"4":0.39143863320350647,"5":-0.7617995738983154,"6":0.36295178532600403,"7":-0.5864192247390747}},"6":{"bias":-0.26567184925079346,"weights":{"0":0.10701411217451096,"1":-0.015194643288850784,"2":0.19816875457763672,"3":-0.3589639365673065,"4":0.2715335488319397,"5":-0.29273101687431335,"6":0.09254469722509384,"7":-0.41928747296333313}},"7":{"bias":-0.29697975516319275,"weights":{"0":0.08687817305326462,"1":0.208049476146698,"2":0.15419426560401917,"3":-0.38456282019615173,"4":0.303043931722641,"5":-0.441506564617157,"6":0.2969564199447632,"7":-0.5379576086997986}}},{"0":{"bias":3.0185539722442627,"weights":{"0":0.6875307559967041,"1":-7.810807704925537,"2":-0.012070484459400177,"3":1.46746826171875,"4":1.8749699592590332,"5":0.7206264138221741,"6":0.7934250235557556,"7":0.8738463521003723}}}],"outputLookup":true,"inputLookup":true,"activation":"sigmoid","trainOpts":{"iterations":20000,"errorThresh":0.003,"log":true,"logPeriod":10,"learningRate":0.05,"momentum":0.1,"callbackPeriod":10,"beta1":0.9,"beta2":0.999,"epsilon":1e-8}}