{"sizes":[145,8,8,1],"layers":[{"0":{},"1":{},"2":{},"3":{},"4":{},"5":{},"6":{},"7":{},"8":{},"9":{},"10":{},"11":{},"12":{},"13":{},"14":{},"15":{},"16":{},"17":{},"18":{},"19":{},"20":{},"21":{},"22":{},"23":{},"24":{},"25":{},"26":{},"27":{},"28":{},"29":{},"30":{},"31":{},"32":{},"33":{},"34":{},"35":{},"36":{},"37":{},"38":{},"39":{},"40":{},"41":{},"42":{},"43":{},"44":{},"45":{},"46":{},"47":{},"48":{},"49":{},"50":{},"51":{},"52":{},"53":{},"54":{},"55":{},"56":{},"57":{},"58":{},"59":{},"60":{},"61":{},"62":{},"63":{},"64":{},"65":{},"66":{},"67":{},"68":{},"69":{},"70":{},"71":{},"72":{},"73":{},"74":{},"75":{},"76":{},"77":{},"78":{},"79":{},"80":{},"81":{},"82":{},"83":{},"84":{},"85":{},"86":{},"87":{},"88":{},"89":{},"90":{},"91":{},"92":{},"93":{},"94":{},"95":{},"96":{},"97":{},"98":{},"99":{},"100":{},"101":{},"102":{},"103":{},"104":{},"105":{},"106":{},"107":{},"108":{},"109":{},"110":{},"111":{},"112":{},"113":{},"114":{},"115":{},"116":{},"117":{},"118":{},"119":{},"120":{},"121":{},"122":{},"123":{},"124":{},"125":{},"126":{},"127":{},"128":{},"129":{},"130":{},"131":{},"132":{},"133":{},"134":{},"135":{},"136":{},"137":{},"138":{},"139":{},"140":{},"141":{},"142":{},"143":{},"144":{}},{"0":{"bias":-0.31547895073890686,"weights":{"0":-3.4263453483581543,"1":-0.6495276689529419,"2":-0.37843045592308044,"3":0.7854339480400085,"4":1.6437907218933105,"5":-0.5082327723503113,"6":-0.08641747385263443,"7":0.4490211308002472,"8":0.597592830657959,"9":0.5830140709877014,"10":0.026457592844963074,"11":0.3188258111476898,"12":-1.9165198802947998,"13":-1.0115760564804077,"14":-1.2967681884765625,"15":-0.43947795033454895,"16":-0.2735555171966553,"17":0.5790435671806335,"18":-1.2055665254592896,"19":0.3817230761051178,"20":-0.5727037191390991,"21":1.6497883796691895,"22":-0.33414819836616516,"23":0.1955775022506714,"24":0.5807310938835144,"25":-0.38994714617729187,"26":-0.3303357660770416,"27":-1.7428685426712036,"28":-0.07906904816627502,"29":0.44806283712387085,"30":-1.124882459640503,"31":-0.1042315736413002,"32":-0.8165096640586853,"33":0.995660662651062,"34":-0.17774444818496704,"35":-1.8331717252731323,"36":-1.0225499868392944,"37":-0.23698940873146057,"38":-0.5156893730163574,"39":1.403041124343872,"40":-0.016359388828277588,"41":1.118520975112915,"42":-0.5248301029205322,"43":-1.2397470474243164,"44":-0.015523766167461872,"45":1.3920047283172607,"46":0.43558573722839355,"47":1.294568419456482,"48":-0.38349249958992004,"49":0.2271825522184372,"50":-1.1227691173553467,"51":-2.840249538421631,"52":-0.5501077175140381,"53":0.5274460911750793,"54":2.0767059326171875,"55":-0.13915394246578217,"56":-1.0171655416488647,"57":-0.573750913143158,"58":-0.26908424496650696,"59":-0.4743853211402893,"60":2.5408966541290283,"61":-0.6290594339370728,"62":-0.8238599896430969,"63":-0.37078577280044556,"64":-0.806933581829071,"65":-2.431504487991333,"66":-0.36569783091545105,"67":0.11634194105863571,"68":-0.2543626129627228,"69":1.2285901308059692,"70":-0.9689759612083435,"71":0.16010305285453796,"72":-0.36882784962654114,"73":-0.06990672647953033,"74":-0.23530761897563934,"75":-0.641399621963501,"76":0.11229688674211502,"77":0.4028157591819763,"78":-0.36978498101234436,"79":-1.7506401538848877,"80":0.17796072363853455,"81":-0.832952618598938,"82":-0.5942195057868958,"83":0.9395577907562256,"84":-0.4333576261997223,"85":-0.7229444980621338,"86":-0.3612951934337616,"87":0.21894481778144836,"88":-0.11878850311040878,"89":-0.3415241241455078,"90":-0.7361094951629639,"91":0.5687932968139648,"92":0.009438727051019669,"93":2.6573166847229004,"94":0.6174851059913635,"95":0.32293933629989624,"96":-0.5853022933006287,"97":0.8842796683311462,"98":0.5699539184570312,"99":-0.3363862931728363,"100":-1.0714224576950073,"101":1.5962409973144531,"102":0.17850202322006226,"103":-0.009777659550309181,"104":-0.2266758382320404,"105":0.38407349586486816,"106":0.4129459261894226,"107":-1.4286150932312012,"108":0.30119526386260986,"109":-2.6738879680633545,"110":-0.3900238871574402,"111":-0.38965898752212524,"112":0.24516679346561432,"113":-0.2869062125682831,"114":-1.0296738147735596,"115":-0.14291487634181976,"116":0.9451707601547241,"117":0.8845597505569458,"118":2.2495052814483643,"119":1.008838176727295,"120":2.015170097351074,"121":-0.2651576101779938,"122":1.127587080001831,"123":1.4212918281555176,"124":-0.4890565276145935,"125":-0.18997910618782043,"126":1.552879810333252,"127":0.04993309825658798,"128":0.242293119430542,"129":0.15752016007900238,"130":-0.04808862507343292,"131":-0.851129949092865,"132":0.28845667839050293,"133":-1.18402898311615,"134":-1.6507911682128906,"135":-0.4685930907726288,"136":0.7765254378318787,"137":1.6379013061523438,"138":-2.126561403274536,"139":0.33594802021980286,"140":0.05700118467211723,"141":-0.6307119727134705,"142":0.39109769463539124,"143":0.8338832259178162,"144":0.2835279107093811}},"1":{"bias":1.4665920734405518,"weights":{"0":0.23320622742176056,"1":0.2968384623527527,"2":-0.2158697545528412,"3":0.031048299744725227,"4":-0.26223790645599365,"5":0.47778642177581787,"6":-0.0706849917769432,"7":-0.33088862895965576,"8":-0.9436772465705872,"9":-0.7552164793014526,"10":-1.1593109369277954,"11":-0.7434729337692261,"12":0.6519361734390259,"13":-2.3104019165039062,"14":0.6041297316551208,"15":-0.16558538377285004,"16":0.2947836220264435,"17":-0.4597254693508148,"18":0.1266583353281021,"19":0.13198232650756836,"20":-0.9387280941009521,"21":1.0425442457199097,"22":-0.2602460980415344,"23":0.1159331426024437,"24":-1.3703581094741821,"25":-1.015492558479309,"26":-0.542028546333313,"27":-0.63725346326828,"28":-0.5280654430389404,"29":2.783595561981201,"30":-0.4639597237110138,"31":-0.18806327879428864,"32":-0.018480408936738968,"33":-1.0524059534072876,"34":0.4138796925544739,"35":1.8110023736953735,"36":-2.756427764892578,"37":1.2013753652572632,"38":-0.21446169912815094,"39":1.3318334817886353,"40":0.33709412813186646,"41":0.3024775981903076,"42":-0.015306401997804642,"43":0.03980937600135803,"44":-0.38876408338546753,"45":0.13538096845149994,"46":-0.03209901601076126,"47":0.5746790766716003,"48":0.6661525964736938,"49":-0.2967826724052429,"50":1.0166566371917725,"51":-0.9501886963844299,"52":-0.4726400375366211,"53":-1.1775779724121094,"54":0.14587244391441345,"55":-0.333588570356369,"56":-0.0676005631685257,"57":0.09941721707582474,"58":0.8595728278160095,"59":-0.8074616193771362,"60":-0.38089606165885925,"61":-0.15481704473495483,"62":-0.9642177224159241,"63":0.6216292977333069,"64":-0.24479208886623383,"65":-0.37465670704841614,"66":1.0070627927780151,"67":-0.4901413917541504,"68":-1.102421522140503,"69":0.7489007711410522,"70":-0.6717780828475952,"71":-1.7965734004974365,"72":-0.5231801867485046,"73":0.016187604516744614,"74":-0.8319113254547119,"75":0.8546608090400696,"76":-0.504773736000061,"77":-0.14777527749538422,"78":-0.3516272008419037,"79":0.4376600682735443,"80":0.9248244166374207,"81":-0.1301543265581131,"82":-1.2942073345184326,"83":0.005057747941464186,"84":-0.501615047454834,"85":0.2676639258861542,"86":-1.1304352283477783,"87":1.2456135749816895,"88":-0.7167307138442993,"89":-0.2295365333557129,"90":0.15573665499687195,"91":0.7936264872550964,"92":0.344027578830719,"93":-0.08043510466814041,"94":1.6297940015792847,"95":-0.08037181943655014,"96":0.26551342010498047,"97":0.5762729048728943,"98":-1.1480785608291626,"99":0.027930498123168945,"100":-0.938551127910614,"101":-1.3116614818572998,"102":0.10432693362236023,"103":0.09938602149486542,"104":0.16942620277404785,"105":0.38336533308029175,"106":-0.6488263607025146,"107":0.8885206580162048,"108":-1.6090413331985474,"109":-0.6499181389808655,"110":0.37764376401901245,"111":-0.28317686915397644,"112":-0.29626405239105225,"113":-0.5356758832931519,"114":-0.4154933989048004,"115":-0.6435264945030212,"116":-0.1507510542869568,"117":-0.05090905725955963,"118":-1.0250742435455322,"119":0.7159121036529541,"120":2.750433921813965,"121":0.2506275177001953,"122":-1.0218366384506226,"123":0.6093814373016357,"124":-1.8507436513900757,"125":1.1963791847229004,"126":-0.5184181928634644,"127":0.1999015361070633,"128":0.2814693748950958,"129":-2.656151294708252,"130":-0.3132433295249939,"131":-0.12118615210056305,"132":-0.973082423210144,"133":-0.2588485777378082,"134":0.7413778305053711,"135":-0.7671725153923035,"136":0.2795034945011139,"137":1.506835699081421,"138":0.7758712768554688,"139":0.12503153085708618,"140":-1.6847511529922485,"141":-0.9226671457290649,"142":-0.779958188533783,"143":-0.400081604719162,"144":0.43182745575904846}},"2":{"bias":0.7907795310020447,"weights":{"0":1.2737451791763306,"1":-1.5206377506256104,"2":-0.5561490654945374,"3":0.31875577569007874,"4":-1.271020531654358,"5":-0.1703614741563797,"6":2.3040847778320312,"7":2.0313498973846436,"8":-0.41765594482421875,"9":1.3944367170333862,"10":2.9690818786621094,"11":-1.3098342418670654,"12":0.18314921855926514,"13":0.4843384027481079,"14":2.2531867027282715,"15":-0.08127634227275848,"16":-0.5224408507347107,"17":0.17766466736793518,"18":-1.2393012046813965,"19":0.9052249789237976,"20":-1.5856770277023315,"21":-0.08356735855340958,"22":1.2660059928894043,"23":0.022259198129177094,"24":-1.1096216440200806,"25":-0.7028241753578186,"26":-0.3419016897678375,"27":-0.7328978776931763,"28":-0.0848841518163681,"29":2.41642427444458,"30":0.31153032183647156,"31":0.9125613570213318,"32":0.8929682374000549,"33":0.5222827196121216,"34":0.0756397470831871,"35":0.1507973074913025,"36":-0.3521081209182739,"37":2.763885974884033,"38":-0.445028156042099,"39":-2.590376615524292,"40":0.8568467497825623,"41":0.04279027134180069,"42":0.5065357089042664,"43":-1.0990967750549316,"44":-0.18057881295681,"45":-0.4107096493244171,"46":0.6092562675476074,"47":-0.5972976088523865,"48":-0.3556573688983917,"49":2.6568758487701416,"50":0.5889737010002136,"51":0.9458123445510864,"52":-1.6320842504501343,"53":-3.1374683380126953,"54":0.15676425397396088,"55":-0.2278129607439041,"56":-1.1896960735321045,"57":0.5530911684036255,"58":0.7871195673942566,"59":0.8003016710281372,"60":-0.8708438873291016,"61":0.30964112281799316,"62":-0.09382225573062897,"63":-0.16208326816558838,"64":-0.0023924901615828276,"65":-0.22960428893566132,"66":0.645697832107544,"67":-0.7997807860374451,"68":-0.4362543225288391,"69":0.07225383818149567,"70":0.2788741886615753,"71":0.995322585105896,"72":-0.588591992855072,"73":0.18079596757888794,"74":1.0948325395584106,"75":-0.35509276390075684,"76":-2.3042447566986084,"77":0.6707676649093628,"78":-2.9615862369537354,"79":-0.23892858624458313,"80":-1.172972321510315,"81":0.25020554661750793,"82":1.052628755569458,"83":1.8153374195098877,"84":-0.8236329555511475,"85":-0.21713903546333313,"86":1.7961515188217163,"87":-0.5818127393722534,"88":0.32353153824806213,"89":0.8968835473060608,"90":0.49161216616630554,"91":-1.3903502225875854,"92":-0.0017103577265515924,"93":-1.1258183717727661,"94":4.28082275390625,"95":-1.4991849660873413,"96":-0.5364677309989929,"97":1.0032833814620972,"98":-1.7097030878067017,"99":-1.517914056777954,"100":1.3494324684143066,"101":-0.9296722412109375,"102":-0.3457562327384949,"103":0.478584885597229,"104":-0.07304172962903976,"105":1.4170658588409424,"106":1.0130071640014648,"107":0.9271939992904663,"108":-0.5813862085342407,"109":-0.5464995503425598,"110":0.60973060131073,"111":-0.33307990431785583,"112":-0.661415159702301,"113":-0.5038877725601196,"114":-0.46858689188957214,"115":0.5461450815200806,"116":2.455496311187744,"117":-1.7053020000457764,"118":-2.2667970657348633,"119":0.32342687249183655,"120":-1.123144268989563,"121":-0.014387883245944977,"122":0.575020968914032,"123":1.373686671257019,"124":-0.37674763798713684,"125":1.223122239112854,"126":1.2170006036758423,"127":0.06384215503931046,"128":-0.9644416570663452,"129":-0.712961733341217,"130":0.425436794757843,"131":-0.593368411064148,"132":-0.10397826880216599,"133":0.9463534355163574,"134":1.5892912149429321,"135":-1.63773512840271,"136":-1.9669809341430664,"137":-0.5140236020088196,"138":3.2683093547821045,"139":0.1020699292421341,"140":-1.0865325927734375,"141":-0.47139397263526917,"142":-0.36404016613960266,"143":-0.4514065086841583,"144":-0.2951624095439911}},"3":{"bias":-0.6568390130996704,"weights":{"0":-0.0173899307847023,"1":0.1662120670080185,"2":1.2810266017913818,"3":-0.16877831518650055,"4":0.5378382802009583,"5":0.5931551456451416,"6":-2.4838011264801025,"7":-0.36513593792915344,"8":1.0641711950302124,"9":-0.6561177372932434,"10":-0.730859100818634,"11":0.35991525650024414,"12":1.640464425086975,"13":-0.4175804555416107,"14":0.17829173803329468,"15":1.2995409965515137,"16":0.2106432467699051,"17":0.3116801381111145,"18":1.156750202178955,"19":0.7015949487686157,"20":1.0195664167404175,"21":0.9033385515213013,"22":-1.2056403160095215,"23":-1.348314642906189,"24":-1.1320831775665283,"25":1.3604034185409546,"26":-0.4914383292198181,"27":1.5556931495666504,"28":0.30292072892189026,"29":-1.5266222953796387,"30":0.12805640697479248,"31":-1.1962697505950928,"32":-0.3444993197917938,"33":-1.1288745403289795,"34":0.898646891117096,"35":3.5358734130859375,"36":-1.206857442855835,"37":-0.569426417350769,"38":-1.2628756761550903,"39":0.496160626411438,"40":-0.930168628692627,"41":-0.43184641003608704,"42":0.6773540377616882,"43":-1.2997605800628662,"44":0.3218545913696289,"45":-1.0338544845581055,"46":0.4734228253364563,"47":2.5884673595428467,"48":0.5102794766426086,"49":0.6505213975906372,"50":0.9622239470481873,"51":-2.0690195560455322,"52":1.1914571523666382,"53":0.35335421562194824,"54":-2.9367406368255615,"55":-0.4646422266960144,"56":0.29014673829078674,"57":-0.374003529548645,"58":0.7100532650947571,"59":-0.40275612473487854,"60":-2.9603469371795654,"61":-0.15493623912334442,"62":2.4546279907226562,"63":0.13569486141204834,"64":-1.2598835229873657,"65":-0.17146705090999603,"66":-1.0356435775756836,"67":0.44468754529953003,"68":0.9530526995658875,"69":-0.338745653629303,"70":-0.13509657979011536,"71":-0.4217202663421631,"72":1.0538506507873535,"73":0.15057334303855896,"74":-1.4925166368484497,"75":-1.2354909181594849,"76":-1.9710884094238281,"77":1.7424296140670776,"78":1.4264239072799683,"79":-0.5995250344276428,"80":-1.5229371786117554,"81":-0.9486671090126038,"82":-2.4375689029693604,"83":-1.8451440334320068,"84":-0.8909653425216675,"85":1.1058603525161743,"86":0.08584523946046829,"87":2.9889328479766846,"88":0.03555062413215637,"89":-0.5472728610038757,"90":1.4588452577590942,"91":0.1047120988368988,"92":0.5630532503128052,"93":-1.0296255350112915,"94":0.05299597606062889,"95":1.151160717010498,"96":-1.0762698650360107,"97":-2.137392520904541,"98":-0.4800148904323578,"99":1.350690484046936,"100":-0.07977215200662613,"101":-0.595888614654541,"102":0.5517310500144958,"103":0.5960665941238403,"104":0.001090219127945602,"105":-1.4987447261810303,"106":0.8270050883293152,"107":1.2968213558197021,"108":0.9705317616462708,"109":-0.2623212933540344,"110":-1.6613447666168213,"111":-0.8675974607467651,"112":1.4221137762069702,"113":-0.9690151214599609,"114":0.3058934211730957,"115":-0.23993970453739166,"116":-1.44778311252594,"117":1.549868106842041,"118":-1.2257124185562134,"119":-1.4706720113754272,"120":0.5659275650978088,"121":0.31930217146873474,"122":-0.6354448795318604,"123":-1.345133662223816,"124":-0.2601892054080963,"125":-0.6782185435295105,"126":-1.8490279912948608,"127":2.211118459701538,"128":-0.03541316092014313,"129":-0.16991649568080902,"130":0.35283347964286804,"131":0.2399623692035675,"132":1.1701183319091797,"133":-0.34719401597976685,"134":0.2849174737930298,"135":-1.146737813949585,"136":0.3368549942970276,"137":-0.6281064748764038,"138":0.7012791037559509,"139":-0.945478618144989,"140":-0.918385922908783,"141":0.707831084728241,"142":-0.2754163146018982,"143":0.5276370048522949,"144":-0.25909334421157837}},"4":{"bias":1.3397325277328491,"weights":{"0":1.7018896341323853,"1":1.0747950077056885,"2":0.602281928062439,"3":-0.37628617882728577,"4":-0.17457309365272522,"5":0.2945532500743866,"6":-2.042085886001587,"7":-0.11855483055114746,"8":-0.3998626172542572,"9":-2.317857503890991,"10":-3.0553536415100098,"11":0.04226912185549736,"12":-0.7961708903312683,"13":-0.11758677661418915,"14":-0.12473052740097046,"15":-0.3566358983516693,"16":-0.018843241035938263,"17":0.899758517742157,"18":0.3903104364871979,"19":-1.0281059741973877,"20":0.6806860566139221,"21":2.2817234992980957,"22":-2.0824272632598877,"23":1.2409783601760864,"24":-1.362036943435669,"25":-3.6262259483337402,"26":-0.24478483200073242,"27":0.1724826842546463,"28":-0.18674291670322418,"29":2.001781463623047,"30":0.22595591843128204,"31":-1.5191179513931274,"32":-0.4623105823993683,"33":0.7855964303016663,"34":0.608695924282074,"35":1.2741090059280396,"36":2.4174859523773193,"37":0.49348214268684387,"38":0.5416788458824158,"39":-0.6927912831306458,"40":-1.0983980894088745,"41":-0.884764552116394,"42":0.7028841376304626,"43":0.5796453356742859,"44":-0.17683540284633636,"45":0.005390098784118891,"46":0.6229425668716431,"47":0.2971033453941345,"48":-0.465366929769516,"49":-2.968752145767212,"50":-0.2585759460926056,"51":0.41125982999801636,"52":1.2956331968307495,"53":0.8993492722511292,"54":0.05397002026438713,"55":-0.4067714214324951,"56":1.9486236572265625,"57":0.061578936874866486,"58":0.7994593381881714,"59":-0.707373857498169,"60":0.3743542432785034,"61":-0.2765467166900635,"62":-0.8589835166931152,"63":0.17421086132526398,"64":-0.826684832572937,"65":-0.944891095161438,"66":0.9065939784049988,"67":0.253069132566452,"68":0.1586896777153015,"69":0.6435706615447998,"70":0.051504407078027725,"71":0.7560875415802002,"72":0.14521633088588715,"73":-0.2191038727760315,"74":0.35504016280174255,"75":0.04556189849972725,"76":1.6313965320587158,"77":0.43520626425743103,"78":0.5721091032028198,"79":0.4307605028152466,"80":1.469095230102539,"81":0.2535390257835388,"82":0.5112713575363159,"83":1.5265109539031982,"84":-0.8703202605247498,"85":0.7221843004226685,"86":-2.473435163497925,"87":1.6155292987823486,"88":-0.5697482824325562,"89":0.1067352294921875,"90":1.1078455448150635,"91":0.5009642243385315,"92":0.24530062079429626,"93":-0.2829890251159668,"94":-0.6617335677146912,"95":0.813474178314209,"96":1.5411200523376465,"97":0.7605966925621033,"98":0.4438181519508362,"99":0.2938775420188904,"100":1.2191476821899414,"101":0.7081067562103271,"102":-0.23276768624782562,"103":-0.01802869699895382,"104":0.16742601990699768,"105":-0.9894792437553406,"106":1.566513180732727,"107":-0.004773538094013929,"108":-0.026485465466976166,"109":2.027925968170166,"110":0.08659715950489044,"111":-0.3394227623939514,"112":0.9124285578727722,"113":0.24393229186534882,"114":0.48905906081199646,"115":-0.7319822311401367,"116":1.058561086654663,"117":0.027493495494127274,"118":-3.161696672439575,"119":-0.1491108387708664,"120":1.576416254043579,"121":0.2939586639404297,"122":0.3245258033275604,"123":1.04985773563385,"124":0.44938674569129944,"125":0.7067137956619263,"126":-0.10998065024614334,"127":-1.8320364952087402,"128":0.4388316571712494,"129":-0.10430797934532166,"130":-0.11049195379018784,"131":-0.43002188205718994,"132":0.35653209686279297,"133":0.12234374135732651,"134":0.9121277928352356,"135":-2.0825066566467285,"136":2.9286062717437744,"137":0.9823368787765503,"138":0.7504864931106567,"139":-0.3059152364730835,"140":-1.7892205715179443,"141":-0.45326730608940125,"142":0.043922338634729385,"143":0.6498215198516846,"144":0.8205581307411194}},"5":{"bias":2.2765514850616455,"weights":{"0":-0.6068426370620728,"1":2.7780940532684326,"2":-2.8311028480529785,"3":0.01938149519264698,"4":0.45780855417251587,"5":0.15379904210567474,"6":0.25825390219688416,"7":0.30363929271698,"8":-1.5921448469161987,"9":-1.3551002740859985,"10":-2.197946310043335,"11":0.7790037989616394,"12":-0.6686978936195374,"13":-1.371346116065979,"14":-0.7711042165756226,"15":-0.8706491589546204,"16":-0.036089058965444565,"17":-0.5188121199607849,"18":1.117844581604004,"19":0.3675558567047119,"20":0.7229722142219543,"21":0.206059068441391,"22":-0.9365484118461609,"23":1.493504285812378,"24":1.2308430671691895,"25":0.39636147022247314,"26":-0.9152594804763794,"27":-0.20596832036972046,"28":0.025580715388059616,"29":0.4507404863834381,"30":0.5246225595474243,"31":0.8035401701927185,"32":-0.7162366509437561,"33":-0.3205399513244629,"34":0.5075924396514893,"35":1.4230988025665283,"36":0.07291027158498764,"37":-0.835860550403595,"38":-0.2811112105846405,"39":0.22554130852222443,"40":-0.33164411783218384,"41":0.03993043676018715,"42":0.8557466268539429,"43":-0.11443628370761871,"44":-0.22803662717342377,"45":-0.7357546091079712,"46":-0.8291349411010742,"47":-0.9868477582931519,"48":-0.07739827781915665,"49":-0.3931286931037903,"50":0.6376529335975647,"51":-1.1404248476028442,"52":1.6605761051177979,"53":1.2499905824661255,"54":0.8864789009094238,"55":-0.6846814751625061,"56":-0.18529854714870453,"57":-0.4535865783691406,"58":-0.0501941479742527,"59":0.3774523437023163,"60":-3.1723618507385254,"61":-0.12265153974294662,"62":-1.0230944156646729,"63":-0.6757145524024963,"64":-1.7982113361358643,"65":1.2821197509765625,"66":0.5329850912094116,"67":-0.09653203189373016,"68":0.945219874382019,"69":0.23073601722717285,"70":0.929266095161438,"71":-2.470932722091675,"72":0.20182959735393524,"73":0.7029634714126587,"74":-1.026544451713562,"75":-0.9182555079460144,"76":-0.9663781523704529,"77":-0.6728318929672241,"78":-0.27178776264190674,"79":-1.8100818395614624,"80":-0.3100987672805786,"81":-0.08178000897169113,"82":-2.0875277519226074,"83":0.18484213948249817,"84":-1.1369719505310059,"85":-0.10170094668865204,"86":-0.783337414264679,"87":1.5395088195800781,"88":-0.18111877143383026,"89":-0.7030199766159058,"90":0.24970665574073792,"91":0.3795362114906311,"92":0.32550540566444397,"93":-0.43816810846328735,"94":-0.7426915168762207,"95":0.3646218180656433,"96":0.22069326043128967,"97":-0.052338000386953354,"98":-0.004326892551034689,"99":-0.48357293009757996,"100":-2.622899055480957,"101":-0.8370069861412048,"102":0.17416393756866455,"103":0.13349184393882751,"104":0.4741263687610626,"105":-0.30213457345962524,"106":-1.6443356275558472,"107":-0.15349866449832916,"108":0.5621790289878845,"109":-0.191121906042099,"110":0.4290945529937744,"111":-0.6876299381256104,"112":0.04087352007627487,"113":-0.41387438774108887,"114":-0.31960606575012207,"115":-0.534862756729126,"116":1.2032941579818726,"117":0.6919522881507874,"118":-1.5517239570617676,"119":-0.28497764468193054,"120":0.05057201907038689,"121":-0.4609631896018982,"122":1.0381364822387695,"123":1.435104250907898,"124":1.126327633857727,"125":-2.178727865219116,"126":-2.407017230987549,"127":-2.090346097946167,"128":-0.16376067698001862,"129":-1.6785753965377808,"130":-1.2551418542861938,"131":-1.7016206979751587,"132":0.9282640814781189,"133":1.3556084632873535,"134":-0.9195500016212463,"135":-1.7233387231826782,"136":-0.46344631910324097,"137":-0.09118769317865372,"138":-1.8603856563568115,"139":-0.26376593112945557,"140":-1.3726599216461182,"141":1.3293660879135132,"142":-0.25255149602890015,"143":0.342323899269104,"144":-0.1029721274971962}},"6":{"bias":0.9132322669029236,"weights":{"0":0.3782261610031128,"1":-0.45569708943367004,"2":-2.093860387802124,"3":0.25253382325172424,"4":1.4737789630889893,"5":-0.13852831721305847,"6":0.44493934512138367,"7":-2.359095335006714,"8":-0.7796275615692139,"9":0.9410048127174377,"10":1.2702631950378418,"11":0.8844996094703674,"12":-1.0519894361495972,"13":0.42208006978034973,"14":1.5082547664642334,"15":0.2288578450679779,"16":0.47210654616355896,"17":-1.1610888242721558,"18":-0.14726771414279938,"19":-0.03653719276189804,"20":2.7346158027648926,"21":1.205601692199707,"22":-0.3188089430332184,"23":1.0686053037643433,"24":-0.028996622189879417,"25":-1.3834388256072998,"26":-0.3168027102947235,"27":0.46013909578323364,"28":0.11229557543992996,"29":-1.1076183319091797,"30":-0.9899867177009583,"31":-0.0036212392151355743,"32":0.5416700839996338,"33":-0.8320376873016357,"34":-0.46649038791656494,"35":3.1791837215423584,"36":2.2120022773742676,"37":-1.1512352228164673,"38":-0.48383134603500366,"39":1.8717148303985596,"40":-0.7144826054573059,"41":-0.02864087000489235,"42":0.9178776144981384,"43":0.4959794282913208,"44":-0.33076080679893494,"45":1.5489803552627563,"46":-0.6586697101593018,"47":-1.2480672597885132,"48":1.0238714218139648,"49":0.13041770458221436,"50":1.985950231552124,"51":-1.9148727655410767,"52":0.5343692898750305,"53":-0.287727415561676,"54":0.11163058876991272,"55":-0.32174038887023926,"56":-1.7523713111877441,"57":0.03790663555264473,"58":1.2620972394943237,"59":-0.39346808195114136,"60":1.143848180770874,"61":-0.995540976524353,"62":0.7233536839485168,"63":0.5418310761451721,"64":-1.7295759916305542,"65":-0.11608415096998215,"66":-0.45302581787109375,"67":0.5303198099136353,"68":0.6604827642440796,"69":0.3039127290248871,"70":1.8980368375778198,"71":-0.9690400958061218,"72":1.806125283241272,"73":0.726110577583313,"74":0.022410929203033447,"75":-0.11374291777610779,"76":-0.6072759628295898,"77":-0.07809692621231079,"78":-0.7999337315559387,"79":-2.5071468353271484,"80":-0.10927079617977142,"81":-0.3198854923248291,"82":-0.5683056712150574,"83":1.3741464614868164,"84":-0.2426939308643341,"85":-0.2616024613380432,"86":0.8214471340179443,"87":-0.32676973938941956,"88":0.2527690827846527,"89":0.6346698999404907,"90":0.8929905295372009,"91":-0.7262819409370422,"92":-0.22858303785324097,"93":1.2109109163284302,"94":0.8721987009048462,"95":-1.29326331615448,"96":0.731421172618866,"97":0.8048680424690247,"98":0.04578578844666481,"99":-1.5831443071365356,"100":0.6027265191078186,"101":1.9105594158172607,"102":0.6847209930419922,"103":-0.7710175514221191,"104":-1.2237941026687622,"105":0.5494502782821655,"106":-0.17021432518959045,"107":1.0606948137283325,"108":1.513106346130371,"109":1.5261706113815308,"110":-0.12082100659608841,"111":0.5326913595199585,"112":2.006286382675171,"113":-0.14025484025478363,"114":-0.42879951000213623,"115":-0.2239578515291214,"116":-1.511641025543213,"117":0.33712267875671387,"118":-1.4706590175628662,"119":-1.3242220878601074,"120":-0.9190047979354858,"121":0.45653223991394043,"122":1.0883625745773315,"123":0.596556544303894,"124":-0.8164274096488953,"125":0.9815340638160706,"126":1.2961255311965942,"127":0.6046580672264099,"128":-1.9172602891921997,"129":2.631371259689331,"130":0.684289276599884,"131":-0.13210411369800568,"132":-1.7156792879104614,"133":0.1863592565059662,"134":1.2476792335510254,"135":1.8057787418365479,"136":-1.7636582851409912,"137":-0.7199763059616089,"138":1.135311245918274,"139":0.911604106426239,"140":0.18791984021663666,"141":-0.3037945628166199,"142":-0.7084470391273499,"143":0.2788681983947754,"144":0.11122787743806839}},"7":{"bias":1.7434922456741333,"weights":{"0":-1.1486741304397583,"1":1.1443578004837036,"2":-1.2603349685668945,"3":0.3951018154621124,"4":0.33968138694763184,"5":-0.24444276094436646,"6":1.3578892946243286,"7":4.265332221984863,"8":0.6464256644248962,"9":-0.25849881768226624,"10":0.3255523443222046,"11":0.35700348019599915,"12":-0.9500137567520142,"13":-0.5236577987670898,"14":-1.7442766427993774,"15":1.0082499980926514,"16":-0.45464348793029785,"17":-1.5889060497283936,"18":-0.8595635890960693,"19":0.25268855690956116,"20":-1.1547629833221436,"21":0.748238205909729,"22":-1.2447855472564697,"23":0.09192835539579391,"24":-0.7532166242599487,"25":0.44509294629096985,"26":-0.053577084094285965,"27":-0.8898511528968811,"28":0.23146428167819977,"29":-1.3664339780807495,"30":1.3907305002212524,"31":-0.6170034408569336,"32":-1.3828672170639038,"33":1.949147343635559,"34":-0.5087535977363586,"35":-0.4148184061050415,"36":1.4256302118301392,"37":-0.8322792649269104,"38":-1.0863831043243408,"39":-1.4683853387832642,"40":-1.1148616075515747,"41":-0.37395498156547546,"42":0.9713289141654968,"43":-2.2886791229248047,"44":0.32849231362342834,"45":-0.6383470296859741,"46":-1.1447561979293823,"47":1.7102357149124146,"48":0.4384361505508423,"49":2.037936210632324,"50":-0.9094534516334534,"51":-2.111619234085083,"52":0.15664705634117126,"53":-1.1855241060256958,"54":-0.1849009394645691,"55":-0.2454829216003418,"56":0.3933400809764862,"57":-1.0037428140640259,"58":-1.1798875331878662,"59":0.5209290981292725,"60":-0.3530130684375763,"61":0.3203434348106384,"62":2.5311930179595947,"63":-0.0921870693564415,"64":-0.20113860070705414,"65":-1.8856890201568604,"66":2.5704500675201416,"67":-1.2581003904342651,"68":-1.0662798881530762,"69":0.3676573932170868,"70":-0.6291592717170715,"71":3.673154354095459,"72":0.7542119026184082,"73":-0.05996214225888252,"74":-0.3421614468097687,"75":-0.026368286460638046,"76":-0.45992693305015564,"77":0.8091788291931152,"78":-1.8748382329940796,"79":-0.9473893046379089,"80":-3.1152639389038086,"81":0.6365532875061035,"82":0.3888574540615082,"83":0.48477545380592346,"84":0.10289805382490158,"85":0.2379859834909439,"86":-0.5655837059020996,"87":0.2561366558074951,"88":-0.1335928589105606,"89":0.3113231956958771,"90":1.1777675151824951,"91":-2.604030132293701,"92":-0.5126723051071167,"93":-1.2210029363632202,"94":2.034437656402588,"95":-0.06691984087228775,"96":-1.5543162822723389,"97":0.7633706331253052,"98":0.2003888487815857,"99":0.43428993225097656,"100":0.5172098278999329,"101":1.7664965391159058,"102":0.27253708243370056,"103":-0.27253472805023193,"104":-0.7507660984992981,"105":-1.9281615018844604,"106":0.9794241786003113,"107":-1.4896622896194458,"108":1.5462419986724854,"109":-2.403339147567749,"110":0.8341031074523926,"111":-0.5064124464988708,"112":-0.5142553448677063,"113":-0.32509779930114746,"114":-0.6014070510864258,"115":0.21048736572265625,"116":3.6295652389526367,"117":1.261405348777771,"118":1.3049123287200928,"119":-0.32625049352645874,"120":0.2794393301010132,"121":-0.13812962174415588,"122":4.176460266113281,"123":1.277796983718872,"124":0.9622519016265869,"125":-0.6223537921905518,"126":-2.644578456878662,"127":-1.5443317890167236,"128":0.3153296411037445,"129":0.3595087230205536,"130":0.015873385593295097,"131":-0.546398401260376,"132":-0.37699398398399353,"133":0.6518281698226929,"134":-1.3867121934890747,"135":-0.7043970823287964,"136":1.1913669109344482,"137":-1.0955173969268799,"138":-0.05927988514304161,"139":-1.4698315858840942,"140":-3.037630319595337,"141":0.4421584904193878,"142":-1.0817153453826904,"143":1.5747919082641602,"144":-1.3955903053283691}}},{"0":{"bias":1.712032437324524,"weights":{"0":2.0493268966674805,"1":-1.8223813772201538,"2":2.6119606494903564,"3":2.3215866088867188,"4":0.991987407207489,"5":1.6927186250686646,"6":0.7636199593544006,"7":0.5657338500022888}},"1":{"bias":-1.5154825448989868,"weights":{"0":-0.9715646505355835,"1":0.8052334785461426,"2":0.23768696188926697,"3":0.9766015410423279,"4":-0.2586521506309509,"5":2.9902780055999756,"6":-2.014962911605835,"7":0.3750494122505188}},"2":{"bias":-0.16106297075748444,"weights":{"0":-1.6674562692642212,"1":-0.9365054368972778,"2":-1.7426353693008423,"3":-2.3618876934051514,"4":-1.235306739807129,"5":-2.4655537605285645,"6":1.3543853759765625,"7":1.3857194185256958}},"3":{"bias":-0.5623334646224976,"weights":{"0":-0.19977037608623505,"1":-0.7495790719985962,"2":-0.030640210956335068,"3":-0.0687774047255516,"4":-0.6135684847831726,"5":0.36938655376434326,"6":-0.5728384256362915,"7":-0.5619004964828491}},"4":{"bias":-0.6539772748947144,"weights":{"0":-0.26862725615501404,"1":-1.3222538232803345,"2":-0.3604332506656647,"3":-0.7234290242195129,"4":-0.650119423866272,"5":-0.004892457742244005,"6":-0.8514091372489929,"7":-0.053154971450567245}},"5":{"bias":-1.969092845916748,"weights":{"0":-8.057644844055176,"1":4.760901927947998,"2":-8.889142036437988,"3":-7.675676345825195,"4":-6.805766582489014,"5":-8.744483947753906,"6":7.365095615386963,"7":7.522041320800781}},"6":{"bias":-0.9380276203155518,"weights":{"0":-0.5245310664176941,"1":0.16796620190143585,"2":-0.3865715563297272,"3":-0.5562102794647217,"4":-0.8940303325653076,"5":-0.7678975462913513,"6":-0.27026301622390747,"7":-0.34145838022232056}},"7":{"bias":0.3765262961387634,"weights":{"0":1.7372899055480957,"1":-1.5750631093978882,"2":1.53229558467865,"3":-0.25420060753822327,"4":0.8760899305343628,"5":0.9899217486381531,"6":0.3745003342628479,"7":-2.0226056575775146}}},{"0":{"bias":1.1742538213729858,"weights":{"0":-1.6906014680862427,"1":-0.7337122559547424,"2":-1.740132212638855,"3":0.5592056512832642,"4":0.36251315474510193,"5":10.368937492370605,"6":-0.18589740991592407,"7":-0.33823487162590027}}}],"outputLookup":false,"inputLookup":false,"activation":"sigmoid","trainOpts":{"iterations":20000,"errorThresh":0.003,"log":true,"logPeriod":10,"learningRate":0.05,"momentum":0.1,"callbackPeriod":10,"beta1":0.9,"beta2":0.999,"epsilon":1e-8}}