{"sizes":[145,8,8,1],"layers":[{"0":{},"1":{},"2":{},"3":{},"4":{},"5":{},"6":{},"7":{},"8":{},"9":{},"10":{},"11":{},"12":{},"13":{},"14":{},"15":{},"16":{},"17":{},"18":{},"19":{},"20":{},"21":{},"22":{},"23":{},"24":{},"25":{},"26":{},"27":{},"28":{},"29":{},"30":{},"31":{},"32":{},"33":{},"34":{},"35":{},"36":{},"37":{},"38":{},"39":{},"40":{},"41":{},"42":{},"43":{},"44":{},"45":{},"46":{},"47":{},"48":{},"49":{},"50":{},"51":{},"52":{},"53":{},"54":{},"55":{},"56":{},"57":{},"58":{},"59":{},"60":{},"61":{},"62":{},"63":{},"64":{},"65":{},"66":{},"67":{},"68":{},"69":{},"70":{},"71":{},"72":{},"73":{},"74":{},"75":{},"76":{},"77":{},"78":{},"79":{},"80":{},"81":{},"82":{},"83":{},"84":{},"85":{},"86":{},"87":{},"88":{},"89":{},"90":{},"91":{},"92":{},"93":{},"94":{},"95":{},"96":{},"97":{},"98":{},"99":{},"100":{},"101":{},"102":{},"103":{},"104":{},"105":{},"106":{},"107":{},"108":{},"109":{},"110":{},"111":{},"112":{},"113":{},"114":{},"115":{},"116":{},"117":{},"118":{},"119":{},"120":{},"121":{},"122":{},"123":{},"124":{},"125":{},"126":{},"127":{},"128":{},"129":{},"130":{},"131":{},"132":{},"133":{},"134":{},"135":{},"136":{},"137":{},"138":{},"139":{},"140":{},"141":{},"142":{},"143":{},"144":{}},{"0":{"bias":0.3975865840911865,"weights":{"0":-0.09453387558460236,"1":-0.8917089700698853,"2":0.20812100172042847,"3":-0.6307933926582336,"4":1.2002595663070679,"5":0.06496378034353256,"6":0.5583062767982483,"7":1.2389730215072632,"8":-0.373713880777359,"9":-0.5094026327133179,"10":-0.347556471824646,"11":0.2625616192817688,"12":0.299843430519104,"13":-0.567893385887146,"14":1.1743674278259277,"15":-0.10420608520507812,"16":0.6609148383140564,"17":0.2567652463912964,"18":0.5327837467193604,"19":-0.13582974672317505,"20":0.22222356498241425,"21":1.8677966594696045,"22":-1.3431779146194458,"23":0.5163248181343079,"24":0.34350255131721497,"25":-0.23446057736873627,"26":-0.1604364961385727,"27":-0.7084216475486755,"28":0.539046585559845,"29":-1.2822868824005127,"30":-1.0952500104904175,"31":-0.98504638671875,"32":-0.31498590111732483,"33":-0.5826489925384521,"34":0.34046921133995056,"35":0.5377033352851868,"36":0.24832676351070404,"37":-0.1042153537273407,"38":0.06483229249715805,"39":0.14689858257770538,"40":-0.1595194786787033,"41":0.5213341116905212,"42":0.8662595748901367,"43":0.41470882296562195,"44":0.14995382726192474,"45":0.12442284822463989,"46":-0.14584888517856598,"47":-0.3272533714771271,"48":0.5079134106636047,"49":-0.9749345183372498,"50":-0.365420401096344,"51":0.2673036754131317,"52":0.2648942470550537,"53":0.5011744499206543,"54":0.17258423566818237,"55":-0.5013619065284729,"56":-1.8636269569396973,"57":-0.35804203152656555,"58":0.6471337080001831,"59":0.6526507139205933,"60":0.03164316713809967,"61":0.6581741571426392,"62":-0.4036605954170227,"63":-0.20229248702526093,"64":-0.48270201683044434,"65":1.0821670293807983,"66":-0.5848885178565979,"67":-0.4414597749710083,"68":-0.09505065530538559,"69":-0.627132773399353,"70":-0.6648595333099365,"71":0.12486305832862854,"72":-0.0013299636775627732,"73":-0.05891578271985054,"74":0.5824521780014038,"75":-0.23844720423221588,"76":0.8291059732437134,"77":0.4613456726074219,"78":0.4263780415058136,"79":1.594709038734436,"80":-0.20474664866924286,"81":-0.27030131220817566,"82":-0.07135361433029175,"83":0.5521527528762817,"84":-0.6229899525642395,"85":-0.6067118644714355,"86":0.24913686513900757,"87":-1.7888344526290894,"88":0.8526598215103149,"89":-0.4541492760181427,"90":-0.032154835760593414,"91":-0.8438838720321655,"92":0.4984916150569916,"93":-0.6655910611152649,"94":-0.5431411266326904,"95":0.3023598790168762,"96":0.22265100479125977,"97":-0.8334572911262512,"98":0.11618339270353317,"99":-0.32623007893562317,"100":0.45714738965034485,"101":0.6423718333244324,"102":0.5856165289878845,"103":0.4752756357192993,"104":-0.1719578355550766,"105":0.2361706644296646,"106":0.18262550234794617,"107":-0.026751240715384483,"108":-1.607913851737976,"109":1.708889126777649,"110":0.11999447643756866,"111":0.3909003734588623,"112":0.3190274238586426,"113":-0.2813362777233124,"114":0.7823182940483093,"115":0.164236918091774,"116":-1.337914228439331,"117":-1.1886050701141357,"118":-0.24553218483924866,"119":2.352464437484741,"120":0.731872022151947,"121":-0.2648162245750427,"122":-1.141520619392395,"123":-0.7752735614776611,"124":1.1057049036026,"125":-0.13463179767131805,"126":1.0170961618423462,"127":-0.8499505519866943,"128":0.18016572296619415,"129":0.45252013206481934,"130":0.31415486335754395,"131":-0.42334020137786865,"132":0.28758662939071655,"133":-0.2171381711959839,"134":0.21332381665706635,"135":-0.3630656898021698,"136":1.2203409671783447,"137":1.6477136611938477,"138":-0.7527269124984741,"139":0.3948427736759186,"140":-0.05560285225510597,"141":-0.23624707758426666,"142":-0.03461352735757828,"143":0.07789291441440582,"144":0.35675233602523804}},"1":{"bias":-0.881608247756958,"weights":{"0":-0.2873227000236511,"1":-0.31747910380363464,"2":0.12852264940738678,"3":-0.03260566294193268,"4":0.5225358009338379,"5":-0.3734535574913025,"6":1.014614462852478,"7":-0.409274160861969,"8":-0.2687700390815735,"9":0.4469056725502014,"10":-0.225433811545372,"11":-0.1207774356007576,"12":-0.536007285118103,"13":-0.12909160554409027,"14":0.5415503978729248,"15":-0.2713398039340973,"16":1.0761058330535889,"17":-0.4314780533313751,"18":0.41973039507865906,"19":0.6497018933296204,"20":0.6376689672470093,"21":-0.3237479627132416,"22":0.6706724762916565,"23":-0.03600255772471428,"24":0.5936394333839417,"25":0.702608585357666,"26":0.4949897527694702,"27":-1.0053207874298096,"28":-0.22952832281589508,"29":0.07525990158319473,"30":-0.42641258239746094,"31":-0.14953820407390594,"32":-0.3620360791683197,"33":-0.3116549551486969,"34":-0.2763836681842804,"35":0.0011367382248863578,"36":0.03470786288380623,"37":-0.4239286184310913,"38":1.5798038244247437,"39":0.5939147472381592,"40":0.4039927124977112,"41":-0.1776396781206131,"42":-0.6913236975669861,"43":0.4861377477645874,"44":-0.713762104511261,"45":0.19276149570941925,"46":-0.29554906487464905,"47":0.8614693284034729,"48":-0.23181842267513275,"49":-1.2184144258499146,"50":-0.3643887937068939,"51":2.90641450881958,"52":-0.49248555302619934,"53":0.6056712865829468,"54":0.6982759833335876,"55":0.3860507011413574,"56":-0.2749583125114441,"57":0.19937372207641602,"58":-0.97011798620224,"59":0.596305251121521,"60":1.2317453622817993,"61":-0.2686901390552521,"62":-1.0439467430114746,"63":0.09887897223234177,"64":0.3736632168292999,"65":0.5797885656356812,"66":1.0566800832748413,"67":-0.24742014706134796,"68":0.1906537115573883,"69":0.23380090296268463,"70":-1.7608288526535034,"71":0.3002544045448303,"72":-1.0838454961776733,"73":-1.018291711807251,"74":0.5437055230140686,"75":-0.10333461314439774,"76":0.5702924728393555,"77":-0.22697052359580994,"78":0.9399325847625732,"79":-0.2931259870529175,"80":-0.0662650614976883,"81":0.31013521552085876,"82":0.949002742767334,"83":-0.3995693325996399,"84":0.6132906079292297,"85":0.09369007498025894,"86":-0.577181875705719,"87":-1.0896518230438232,"88":0.1814236044883728,"89":0.09966862201690674,"90":-0.9363081455230713,"91":-0.11040875315666199,"92":-0.5543045401573181,"93":1.0188665390014648,"94":-1.0953409671783447,"95":-0.9352040886878967,"96":-0.32515740394592285,"97":-0.042414598166942596,"98":0.6717623472213745,"99":0.6144729256629944,"100":-0.005172310397028923,"101":0.30734315514564514,"102":-0.5248023271560669,"103":-0.01047922670841217,"104":-0.037183910608291626,"105":-0.15616826713085175,"106":-0.18026991188526154,"107":-0.07383162528276443,"108":-0.8167597651481628,"109":-0.33142149448394775,"110":-0.5674190521240234,"111":-0.20144835114479065,"112":-0.0329291969537735,"113":0.40836775302886963,"114":0.2901017963886261,"115":0.19361886382102966,"116":0.3889545202255249,"117":-0.10800793021917343,"118":2.0567891597747803,"119":1.6357052326202393,"120":-0.24787651002407074,"121":0.10589437931776047,"122":-0.07323159277439117,"123":-1.0330924987792969,"124":-0.8346716165542603,"125":0.4415350556373596,"126":0.816236138343811,"127":0.5353954434394836,"128":1.9938244819641113,"129":-0.6368141174316406,"130":1.382055401802063,"131":0.25411340594291687,"132":-0.012631691060960293,"133":-0.6322214603424072,"134":0.21657265722751617,"135":1.231806755065918,"136":1.3158422708511353,"137":1.2465541362762451,"138":0.00182158884126693,"139":-0.0010253897635266185,"140":0.007475120946764946,"141":-0.8730350136756897,"142":0.10748780518770218,"143":0.46642595529556274,"144":0.35176756978034973}},"2":{"bias":2.1551127433776855,"weights":{"0":-0.46647000312805176,"1":0.27029314637184143,"2":1.1050546169281006,"3":0.17365463078022003,"4":-0.8842501640319824,"5":-0.27713876962661743,"6":0.9995098114013672,"7":0.8290479183197021,"8":0.8082873821258545,"9":0.21308910846710205,"10":0.10677850991487503,"11":-0.62559574842453,"12":-0.6350701451301575,"13":0.5978036522865295,"14":0.3556995093822479,"15":0.39749088883399963,"16":0.11434294283390045,"17":0.488755464553833,"18":-0.004314481280744076,"19":-0.31964510679244995,"20":-0.9744516015052795,"21":-0.08326131850481033,"22":1.0829840898513794,"23":0.9019530415534973,"24":-0.7641834020614624,"25":-1.0443445444107056,"26":-0.040888551622629166,"27":0.5771694779396057,"28":-0.2657860517501831,"29":0.39888644218444824,"30":1.4266854524612427,"31":0.2662806808948517,"32":-0.6979774832725525,"33":0.7587255239486694,"34":-0.2078370898962021,"35":0.14057014882564545,"36":0.5828136801719666,"37":-0.9055219888687134,"38":0.07110913097858429,"39":0.36002904176712036,"40":0.3777799606323242,"41":-0.2456701099872589,"42":-0.17692013084888458,"43":-0.41109317541122437,"44":0.2708530128002167,"45":0.7651220560073853,"46":-0.23546795547008514,"47":-0.40486258268356323,"48":-0.6404714584350586,"49":-1.502650260925293,"50":-0.857835590839386,"51":-0.9552043676376343,"52":0.09010035544633865,"53":-0.5918063521385193,"54":0.9306665658950806,"55":-0.08634632080793381,"56":0.9081477522850037,"57":-0.4383517801761627,"58":-1.2661409378051758,"59":-0.5220016241073608,"60":-0.04788198694586754,"61":0.6059408187866211,"62":-0.15344825387001038,"63":-0.16625387966632843,"64":-1.2851499319076538,"65":-0.9482240080833435,"66":0.2438502162694931,"67":0.4115670919418335,"68":0.4180668592453003,"69":-0.30703461170196533,"70":-0.23640401661396027,"71":0.44435954093933105,"72":-1.3792186975479126,"73":0.4240049123764038,"74":0.7848048210144043,"75":-0.2401529997587204,"76":0.0013080087956041098,"77":-0.2842893898487091,"78":-0.23432938754558563,"79":0.6551902890205383,"80":0.08072131127119064,"81":0.356780469417572,"82":-0.3379005193710327,"83":1.407008409500122,"84":-0.09119018912315369,"85":1.2026875019073486,"86":0.2405948042869568,"87":0.05683720111846924,"88":-0.33913835883140564,"89":-0.4610227644443512,"90":0.8575325012207031,"91":2.5797793865203857,"92":0.34135138988494873,"93":1.0527538061141968,"94":0.5092836618423462,"95":-1.6478718519210815,"96":0.8626881241798401,"97":0.17021292448043823,"98":-0.6998710036277771,"99":0.36654943227767944,"100":1.1682814359664917,"101":0.05859548598527908,"102":-1.1898945569992065,"103":0.009923342615365982,"104":-0.2245483100414276,"105":-0.22524961829185486,"106":0.6424009203910828,"107":0.5524604320526123,"108":1.2210357189178467,"109":0.10483793169260025,"110":1.2063159942626953,"111":0.42949196696281433,"112":0.13249430060386658,"113":-0.11372939497232437,"114":0.5403315424919128,"115":0.12642760574817657,"116":-0.17753863334655762,"117":0.8661865592002869,"118":0.056881289929151535,"119":-0.5325023531913757,"120":-0.7679885029792786,"121":-0.029342608526349068,"122":-0.11275118589401245,"123":-0.2668016850948334,"124":-0.4751163125038147,"125":0.083171047270298,"126":0.25875428318977356,"127":-1.7740744352340698,"128":0.20217210054397583,"129":0.3338504731655121,"130":-0.2078549563884735,"131":-0.34028080105781555,"132":0.863427996635437,"133":0.01862657442688942,"134":-0.39804866909980774,"135":-1.1176122426986694,"136":-0.004241828806698322,"137":-1.0740824937820435,"138":0.35545891523361206,"139":1.1919255256652832,"140":0.4412696957588196,"141":0.536632776260376,"142":0.17524364590644836,"143":0.49553340673446655,"144":0.1068548709154129}},"3":{"bias":-0.6513068675994873,"weights":{"0":-0.6079543828964233,"1":0.07933707535266876,"2":-0.7583553791046143,"3":0.451427698135376,"4":-0.6762723922729492,"5":0.36974409222602844,"6":1.9967063665390015,"7":-0.9511445760726929,"8":-0.30161425471305847,"9":0.2861883044242859,"10":-0.45574861764907837,"11":0.4999399781227112,"12":-0.17639097571372986,"13":-0.8786272406578064,"14":0.24554185569286346,"15":-1.204019546508789,"16":0.17565496265888214,"17":-0.6088772416114807,"18":0.11050187051296234,"19":0.8877962231636047,"20":0.08837617933750153,"21":0.664197564125061,"22":1.5717425346374512,"23":0.3288764953613281,"24":0.2876518666744232,"25":-1.1848984956741333,"26":0.23489129543304443,"27":-0.504751980304718,"28":-0.682563304901123,"29":0.4694710969924927,"30":-0.35735657811164856,"31":0.15703530609607697,"32":-0.09796695411205292,"33":-0.36804041266441345,"34":0.06457721441984177,"35":-0.881431519985199,"36":-0.842888355255127,"37":0.5393149256706238,"38":-0.04614470899105072,"39":0.1874852031469345,"40":0.8539243340492249,"41":0.2682880759239197,"42":-0.1220875009894371,"43":0.7681897878646851,"44":-0.4431063234806061,"45":0.5837065577507019,"46":-0.2449147254228592,"47":0.07962871342897415,"48":-0.20318825542926788,"49":-0.7094531655311584,"50":0.23845955729484558,"51":0.06046735495328903,"52":-0.25379860401153564,"53":-0.4801490306854248,"54":-0.7982950210571289,"55":0.22035084664821625,"56":-0.8437628149986267,"57":-0.18058568239212036,"58":0.781749963760376,"59":0.30358943343162537,"60":-0.0890241339802742,"61":-0.39878711104393005,"62":-0.3844612240791321,"63":0.4789562523365021,"64":-1.1845420598983765,"65":0.3206123411655426,"66":-0.6271231770515442,"67":-0.9277693033218384,"68":0.2561715841293335,"69":-0.3834546208381653,"70":0.12114562094211578,"71":-0.08067413419485092,"72":-0.35166284441947937,"73":0.21920977532863617,"74":0.3596159517765045,"75":-0.8011642098426819,"76":-0.888173520565033,"77":-0.6786572337150574,"78":-1.3531153202056885,"79":-0.536985456943512,"80":-1.1934806108474731,"81":0.11733013391494751,"82":0.21452884376049042,"83":-0.4796511232852936,"84":0.23203183710575104,"85":-0.4251697361469269,"86":-0.04374190792441368,"87":-1.2340248823165894,"88":0.33611971139907837,"89":-0.09832770377397537,"90":-0.22996310889720917,"91":-0.4505414366722107,"92":0.14166979491710663,"93":-0.8129058480262756,"94":0.8721511363983154,"95":-1.1140245199203491,"96":0.6845312714576721,"97":0.5481231212615967,"98":-0.6763442158699036,"99":0.24665488302707672,"100":0.36834293603897095,"101":-0.6856541633605957,"102":-1.2029281854629517,"103":-0.09501521289348602,"104":-0.14204779267311096,"105":-0.2064065933227539,"106":-0.4335903823375702,"107":0.5900599360466003,"108":-1.2288037538528442,"109":1.1099343299865723,"110":-0.06966554373502731,"111":0.8196805119514465,"112":-0.01901422068476677,"113":0.10388264805078506,"114":-0.5923186540603638,"115":0.07455617934465408,"116":0.4255176782608032,"117":-0.021259311586618423,"118":-1.057186245918274,"119":0.5946156978607178,"120":-0.5965496301651001,"121":0.27705344557762146,"122":0.3563355505466461,"123":0.5573892593383789,"124":-0.8762263059616089,"125":0.8530412912368774,"126":0.6759832501411438,"127":-0.32319700717926025,"128":1.7066999673843384,"129":-0.3147204518318176,"130":-0.16497759521007538,"131":0.01564428023993969,"132":-0.18734487891197205,"133":-0.1985824555158615,"134":0.37398195266723633,"135":0.41474205255508423,"136":-0.3541071116924286,"137":-1.188065528869629,"138":1.139588475227356,"139":0.16394057869911194,"140":0.32690179347991943,"141":-0.7293277978897095,"142":-0.005210911389440298,"143":-0.7834058403968811,"144":0.2957231402397156}},"4":{"bias":0.20557048916816711,"weights":{"0":1.1715718507766724,"1":-0.08262884616851807,"2":1.0677571296691895,"3":-1.3498605489730835,"4":0.1997607797384262,"5":0.09648995846509933,"6":1.351910948753357,"7":0.7135732173919678,"8":-0.7483746409416199,"9":-0.5431104898452759,"10":1.0940394401550293,"11":-0.5069583058357239,"12":0.317624568939209,"13":-0.26926958560943604,"14":1.3338260650634766,"15":0.4668234586715698,"16":-0.2530364394187927,"17":-0.5615004301071167,"18":0.6093944907188416,"19":1.3040425777435303,"20":-0.2696295380592346,"21":0.737350583076477,"22":-1.9128642082214355,"23":0.7429230213165283,"24":0.26976484060287476,"25":-1.2743358612060547,"26":-0.2155781090259552,"27":0.2593761384487152,"28":0.7287516593933105,"29":1.1669279336929321,"30":1.2058578729629517,"31":-0.8462862968444824,"32":-0.14946402609348297,"33":-0.29011544585227966,"34":-0.06726107746362686,"35":0.12209391593933105,"36":0.8856213092803955,"37":-0.39022162556648254,"38":-0.8442646265029907,"39":-0.4936616122722626,"40":0.054414622485637665,"41":-0.7520142197608948,"42":0.4364091455936432,"43":-1.051566243171692,"44":0.07800162583589554,"45":0.6065834760665894,"46":0.3665791451931,"47":-0.3696253001689911,"48":0.40492305159568787,"49":-0.19021999835968018,"50":0.6524518728256226,"51":-1.0707024335861206,"52":0.029255595058202744,"53":-0.40668290853500366,"54":-1.0752296447753906,"55":-0.016975844278931618,"56":-1.0235769748687744,"57":0.5419774055480957,"58":-0.18837882578372955,"59":1.0171102285385132,"60":0.16118627786636353,"61":0.10133089125156403,"62":0.6778913140296936,"63":0.4412050247192383,"64":-0.6507582664489746,"65":-0.13722863793373108,"66":-0.8133641481399536,"67":0.4470219314098358,"68":-0.45044177770614624,"69":0.08217538893222809,"70":0.618437647819519,"71":0.4558682143688202,"72":-0.19488473236560822,"73":0.4466495215892792,"74":0.1790189892053604,"75":-0.1323394924402237,"76":0.7228190302848816,"77":0.3638134002685547,"78":0.44524139165878296,"79":1.9013539552688599,"80":0.8037312030792236,"81":0.18055637180805206,"82":0.0687464103102684,"83":-0.054869383573532104,"84":-0.049393873661756516,"85":-0.5050284266471863,"86":0.2612680494785309,"87":-0.9639688730239868,"88":-0.49650368094444275,"89":0.8784792423248291,"90":0.9529916644096375,"91":-0.8346707820892334,"92":-0.38127297163009644,"93":-0.6493785381317139,"94":1.5306226015090942,"95":-0.027750158682465553,"96":-0.029696371406316757,"97":-0.10613931715488434,"98":-0.18582019209861755,"99":-0.683026134967804,"100":0.8379713296890259,"101":0.6356074810028076,"102":0.20374177396297455,"103":-0.39391228556632996,"104":0.16212165355682373,"105":0.15772424638271332,"106":0.5752668976783752,"107":0.34571775794029236,"108":1.0163034200668335,"109":0.7820396423339844,"110":0.6721593737602234,"111":0.887959897518158,"112":0.2877277135848999,"113":-0.2153519093990326,"114":0.8592618107795715,"115":-0.11540120095014572,"116":-0.8698892593383789,"117":-0.07930499315261841,"118":-0.5808661580085754,"119":-0.13040579855442047,"120":0.15947109460830688,"121":0.4408266544342041,"122":0.33218008279800415,"123":-0.6525196433067322,"124":0.13658995926380157,"125":0.6569073796272278,"126":0.5704748034477234,"127":0.27951663732528687,"128":-2.274461030960083,"129":0.7275007367134094,"130":0.5451816916465759,"131":-0.022653762251138687,"132":-0.7170706987380981,"133":0.31252235174179077,"134":1.1476634740829468,"135":1.3437840938568115,"136":-0.038174230605363846,"137":0.664638876914978,"138":0.6730914115905762,"139":-0.4805748462677002,"140":0.24472692608833313,"141":1.4034358263015747,"142":-0.6270837187767029,"143":-0.43358781933784485,"144":0.4466264843940735}},"5":{"bias":-0.770024836063385,"weights":{"0":0.8043578267097473,"1":-0.1570037454366684,"2":-0.5342962145805359,"3":-0.14161662757396698,"4":1.1153396368026733,"5":0.24632377922534943,"6":0.6850314140319824,"7":0.39819467067718506,"8":-0.502858579158783,"9":0.35393640398979187,"10":0.07984209805727005,"11":0.049151711165905,"12":1.3270515203475952,"13":0.2926487326622009,"14":-0.029357193037867546,"15":-0.25362950563430786,"16":0.8659940958023071,"17":0.4150910973548889,"18":-0.9456765055656433,"19":-0.303528755903244,"20":-0.8412384390830994,"21":0.32779014110565186,"22":0.008334178477525711,"23":0.2180507928133011,"24":0.2803371548652649,"25":-1.1251299381256104,"26":-0.010709743946790695,"27":0.041349202394485474,"28":0.4363921284675598,"29":0.4498125910758972,"30":1.3661116361618042,"31":-0.8684114217758179,"32":0.5950819849967957,"33":-1.7443220615386963,"34":-0.0008792304433882236,"35":-1.761548399925232,"36":0.0842229500412941,"37":1.061955213546753,"38":-0.030161766335368156,"39":-0.3629399538040161,"40":-0.04637077450752258,"41":-1.217871069908142,"42":-0.7267600297927856,"43":-0.18176445364952087,"44":0.2898249924182892,"45":-0.05253656581044197,"46":0.1505947709083557,"47":-1.1082185506820679,"48":0.3268316388130188,"49":1.1915630102157593,"50":0.032365985214710236,"51":1.2349480390548706,"52":-0.7260238528251648,"53":-0.600470244884491,"54":0.4650735557079315,"55":0.029086682945489883,"56":-0.23195457458496094,"57":0.9107632040977478,"58":-0.3848670423030853,"59":1.1851692199707031,"60":-0.7069251537322998,"61":0.572003960609436,"62":0.1466098427772522,"63":-0.278409868478775,"64":0.03865235298871994,"65":1.0102216005325317,"66":0.12073526531457901,"67":0.14712847769260406,"68":0.02098420448601246,"69":-0.3093620836734772,"70":-1.1053099632263184,"71":1.0271546840667725,"72":-0.006765174679458141,"73":-0.2932051420211792,"74":-0.01028409879654646,"75":0.23631002008914948,"76":0.17909255623817444,"77":0.7305883169174194,"78":-1.26694917678833,"79":0.36606457829475403,"80":0.2525224983692169,"81":-0.011424515396356583,"82":0.17568239569664001,"83":-0.46879976987838745,"84":0.05118058621883392,"85":-0.20886610448360443,"86":0.43236836791038513,"87":0.8334609270095825,"88":-0.02093338407576084,"89":0.3797883689403534,"90":0.32613155245780945,"91":-0.29174304008483887,"92":0.16973236203193665,"93":-0.6233246326446533,"94":0.6001914143562317,"95":0.9378512501716614,"96":-0.30197805166244507,"97":0.5006827116012573,"98":-0.10515493154525757,"99":-0.699012041091919,"100":-0.33186984062194824,"101":-0.21678581833839417,"102":-0.15303166210651398,"103":0.03576943650841713,"104":-0.2115679532289505,"105":0.2637581527233124,"106":0.6922826170921326,"107":0.9155105948448181,"108":1.0237095355987549,"109":-0.8518097400665283,"110":-0.25547993183135986,"111":-0.6438789367675781,"112":-0.7028816938400269,"113":-0.056371305137872696,"114":-0.15586088597774506,"115":-0.2743983864784241,"116":1.49959397315979,"117":-0.928325891494751,"118":-0.6653748750686646,"119":-0.16468016803264618,"120":1.2146645784378052,"121":0.08142266422510147,"122":0.9691755175590515,"123":0.017862465232610703,"124":-0.5910206437110901,"125":1.047741174697876,"126":1.0529873371124268,"127":-0.25833573937416077,"128":-0.0825057104229927,"129":0.08590533584356308,"130":0.4663402736186981,"131":0.5349812507629395,"132":0.5117231011390686,"133":0.0943891853094101,"134":0.33592018485069275,"135":-0.5294560194015503,"136":0.12954309582710266,"137":0.29964590072631836,"138":0.7427963614463806,"139":-0.7212842106819153,"140":-0.3662503659725189,"141":0.172112375497818,"142":0.34091702103614807,"143":-0.9080550074577332,"144":-0.16380703449249268}},"6":{"bias":0.8895906209945679,"weights":{"0":0.9097955226898193,"1":0.4550887644290924,"2":-0.10546375066041946,"3":-0.14543509483337402,"4":1.253703236579895,"5":0.11941798031330109,"6":1.4012089967727661,"7":0.1478147953748703,"8":0.7167116403579712,"9":0.738667905330658,"10":0.43762943148612976,"11":-0.524449348449707,"12":0.29518476128578186,"13":0.10941357910633087,"14":0.21693825721740723,"15":-0.8774758577346802,"16":-0.022641273215413094,"17":-0.05482162907719612,"18":-0.9636027812957764,"19":0.4240216910839081,"20":-0.16615083813667297,"21":-0.8833814263343811,"22":-0.6722882390022278,"23":0.9057266116142273,"24":0.12690706551074982,"25":-0.3788227140903473,"26":-0.7165446877479553,"27":0.9452238082885742,"28":0.8753741383552551,"29":-1.8492624759674072,"30":-0.7614810466766357,"31":0.37744301557540894,"32":0.5145412087440491,"33":0.21208716928958893,"34":0.0364590585231781,"35":-0.34086892008781433,"36":0.5683539509773254,"37":-0.529005229473114,"38":-0.14053410291671753,"39":-0.7509026527404785,"40":-0.5631346106529236,"41":-0.05869925394654274,"42":0.25252896547317505,"43":-0.8023280501365662,"44":0.48119452595710754,"45":-0.144139364361763,"46":0.5915089845657349,"47":-0.15544071793556213,"48":-0.519864022731781,"49":-0.1208852156996727,"50":-1.455107569694519,"51":-0.2898643910884857,"52":0.4803483784198761,"53":-0.4386274516582489,"54":-0.26057344675064087,"55":-0.5345233678817749,"56":1.2279595136642456,"57":-0.7846335768699646,"58":0.033640213310718536,"59":-0.9709749817848206,"60":-0.16070647537708282,"61":-0.892353355884552,"62":2.1906800270080566,"63":0.2657352089881897,"64":0.9282649755477905,"65":-0.45756417512893677,"66":0.33926185965538025,"67":0.29631027579307556,"68":-0.30090901255607605,"69":-1.5347273349761963,"70":0.14059625566005707,"71":0.20741769671440125,"72":-0.5321259498596191,"73":0.680469274520874,"74":-0.6843435168266296,"75":0.32180142402648926,"76":0.017109127715229988,"77":-0.8928808569908142,"78":-0.2685765326023102,"79":3.413710117340088,"80":-0.4500254988670349,"81":0.5720605254173279,"82":0.19954241812229156,"83":0.2641916573047638,"84":-0.5702338814735413,"85":0.2578441798686981,"86":-0.10062045603990555,"87":-0.43132081627845764,"88":0.4436563551425934,"89":0.617764949798584,"90":-0.016129450872540474,"91":2.825335741043091,"92":-0.38591063022613525,"93":-1.2376419305801392,"94":-1.0910968780517578,"95":-0.711961030960083,"96":1.4518649578094482,"97":-0.06610458344221115,"98":-0.301095187664032,"99":-1.3740779161453247,"100":1.0351684093475342,"101":0.48012301325798035,"102":0.029988741502165794,"103":0.027648117393255234,"104":0.665998637676239,"105":-0.2212449461221695,"106":-0.8851865530014038,"107":0.30730006098747253,"108":0.08184567093849182,"109":1.3277744054794312,"110":0.37077969312667847,"111":-0.18495123088359833,"112":-0.09994524717330933,"113":-0.43640828132629395,"114":-1.084464430809021,"115":0.08708493411540985,"116":0.25294679403305054,"117":-0.22006455063819885,"118":0.17691047489643097,"119":0.5439281463623047,"120":1.2002930641174316,"121":-0.002300388179719448,"122":0.8311802744865417,"123":-0.4269232451915741,"124":-0.33802440762519836,"125":-0.08132414519786835,"126":-0.21452614665031433,"127":-2.242027997970581,"128":0.0520162358880043,"129":0.33895784616470337,"130":-0.35692697763442993,"131":0.6209491491317749,"132":-0.23478011786937714,"133":0.3910009264945984,"134":-1.2995303869247437,"135":-0.5072709918022156,"136":0.4293951690196991,"137":1.2597286701202393,"138":-0.43293648958206177,"139":-0.28079459071159363,"140":-0.8197859525680542,"141":0.7299114465713501,"142":-0.4545827805995941,"143":0.46338099241256714,"144":-0.2591719627380371}},"7":{"bias":-0.9676764607429504,"weights":{"0":-0.2766621708869934,"1":-0.6782146096229553,"2":-1.7341103553771973,"3":0.44852039217948914,"4":0.2563074827194214,"5":-0.08185043185949326,"6":-1.3488564491271973,"7":1.5059921741485596,"8":-0.08592619001865387,"9":0.4769476652145386,"10":0.12455339729785919,"11":0.8667176961898804,"12":0.7025678753852844,"13":0.16617268323898315,"14":-0.4810677468776703,"15":0.8487505912780762,"16":0.5825522541999817,"17":-0.36256808042526245,"18":0.20256386697292328,"19":-0.05821496993303299,"20":-0.5751883387565613,"21":1.4753265380859375,"22":0.642496645450592,"23":-0.743939220905304,"24":-0.43232011795043945,"25":-0.28316837549209595,"26":0.25650978088378906,"27":0.36396920680999756,"28":-0.2678871750831604,"29":-0.7095916867256165,"30":0.48006829619407654,"31":0.3657788336277008,"32":0.0888887569308281,"33":-0.9972432255744934,"34":-0.20642124116420746,"35":-0.7046495079994202,"36":-1.1174285411834717,"37":0.9266535639762878,"38":-0.40348824858665466,"39":0.118108369410038,"40":-0.5098012089729309,"41":0.35990577936172485,"42":0.17893622815608978,"43":0.514273464679718,"44":-0.5828953981399536,"45":-0.10671032965183258,"46":0.03440380096435547,"47":-0.8115769028663635,"48":-0.721598744392395,"49":1.5153683423995972,"50":-0.09462933242321014,"51":-0.12037661671638489,"52":-1.1425325870513916,"53":-1.300185203552246,"54":-0.051407165825366974,"55":0.08947673439979553,"56":0.020453806966543198,"57":-0.0028467450756579638,"58":-0.7426271438598633,"59":0.08060886710882187,"60":-0.6620704531669617,"61":1.6422420740127563,"62":-0.9299690127372742,"63":0.020041247829794884,"64":-0.115888811647892,"65":-1.3267189264297485,"66":0.2503657341003418,"67":-0.02498267963528633,"68":0.1647539585828781,"69":0.42387306690216064,"70":-0.7591655850410461,"71":-0.02045622654259205,"72":1.1217650175094604,"73":-0.24075140058994293,"74":0.9854030609130859,"75":-0.1805819272994995,"76":-0.24981102347373962,"77":-1.161739706993103,"78":-1.2367266416549683,"79":-1.6124340295791626,"80":0.39304065704345703,"81":-0.7551173567771912,"82":0.05560873821377754,"83":0.07227496057748795,"84":0.302738755941391,"85":0.48084306716918945,"86":0.8103874921798706,"87":1.093961477279663,"88":-0.039791129529476166,"89":0.3430470824241638,"90":0.66661536693573,"91":-1.0414634943008423,"92":-0.541235625743866,"93":1.2283196449279785,"94":-0.4515966475009918,"95":-0.3611956238746643,"96":-0.5969238877296448,"97":0.7309252023696899,"98":0.1461212933063507,"99":0.1885116845369339,"100":-0.6731995940208435,"101":0.3609732687473297,"102":-0.4517023265361786,"103":-0.19631284475326538,"104":0.0674152597784996,"105":0.24193306267261505,"106":-0.36664220690727234,"107":0.00018097156134899706,"108":0.7313160300254822,"109":-1.0366218090057373,"110":-0.07953113317489624,"111":0.996429979801178,"112":0.32755452394485474,"113":0.15388217568397522,"114":0.7530521750450134,"115":-0.09378523379564285,"116":-1.2082303762435913,"117":-0.8594172596931458,"118":0.34705105423927307,"119":-0.08251668512821198,"120":1.0352352857589722,"121":0.1631370335817337,"122":-0.7007747888565063,"123":-0.2427995353937149,"124":0.7079783082008362,"125":0.5158590078353882,"126":-0.5638121962547302,"127":0.2555021643638611,"128":-0.45743468403816223,"129":0.9997811913490295,"130":0.43671396374702454,"131":-0.34465470910072327,"132":-0.6066316962242126,"133":-0.186332106590271,"134":-0.6716029047966003,"135":0.6958411335945129,"136":0.5755475163459778,"137":-0.5116519927978516,"138":-0.2446247935295105,"139":-0.37905648350715637,"140":-0.000230135177844204,"141":-0.6077698469161987,"142":0.085577592253685,"143":0.2462611347436905,"144":-0.5467920899391174}}},{"0":{"bias":-0.42468729615211487,"weights":{"0":-0.5765533447265625,"1":-0.06313976645469666,"2":0.47614967823028564,"3":-0.6364095211029053,"4":-0.9913058876991272,"5":0.2450825572013855,"6":-1.5380444526672363,"7":-0.8080902695655823}},"1":{"bias":-0.5984707474708557,"weights":{"0":0.31961116194725037,"1":0.22161032259464264,"2":-1.3820688724517822,"3":0.05525483563542366,"4":0.21542227268218994,"5":-0.303302526473999,"6":0.15616171061992645,"7":0.18480059504508972}},"2":{"bias":-0.5007687211036682,"weights":{"0":-0.13418632745742798,"1":-0.14444242417812347,"2":0.14170432090759277,"3":-0.483397513628006,"4":-0.9502831101417542,"5":0.37570762634277344,"6":-1.043617606163025,"7":-0.6614928245544434}},"3":{"bias":-0.06650103628635406,"weights":{"0":-0.19352717697620392,"1":-0.694721519947052,"2":0.3785978853702545,"3":-1.1286439895629883,"4":-0.9842588901519775,"5":0.7612183094024658,"6":-0.834646463394165,"7":-0.425904244184494}},"4":{"bias":-0.25010091066360474,"weights":{"0":0.6558551788330078,"1":-0.17022186517715454,"2":0.04333801195025444,"3":-0.8037279844284058,"4":-0.30052804946899414,"5":0.633075475692749,"6":-0.5563874840736389,"7":-0.4314795136451721}},"5":{"bias":-1.72592031955719,"weights":{"0":-0.9588170647621155,"1":0.433305025100708,"2":-2.7296836376190186,"3":1.097935676574707,"4":0.6975558400154114,"5":-1.058071255683899,"6":0.5393182635307312,"7":1.2427760362625122}},"6":{"bias":3.70255970954895,"weights":{"0":4.488748073577881,"1":-4.133410930633545,"2":6.830871105194092,"3":-5.539694309234619,"4":-4.494544982910156,"5":4.579668045043945,"6":-3.3615834712982178,"7":-4.09630823135376}},"7":{"bias":-0.6245171427726746,"weights":{"0":0.29979562759399414,"1":0.1785607635974884,"2":-1.2270578145980835,"3":0.013823010958731174,"4":0.1612168550491333,"5":-0.2698808014392853,"6":0.05455698445439339,"7":0.2300947904586792}}},{"0":{"bias":3.7157204151153564,"weights":{"0":-0.1536937654018402,"1":0.8556132316589355,"2":0.10134801268577576,"3":1.3224364519119263,"4":1.2541898488998413,"5":1.8565080165863037,"6":-5.988234996795654,"7":0.7975143194198608}}}],"outputLookup":false,"inputLookup":false,"activation":"sigmoid","trainOpts":{"iterations":20000,"errorThresh":0.003,"log":true,"logPeriod":10,"learningRate":0.05,"momentum":0.1,"callbackPeriod":10,"beta1":0.9,"beta2":0.999,"epsilon":1e-8}}